SVM-light Version V6.02
0 # kernel type
3 # kernel parameter -d 
1 # kernel parameter -g 
1 # kernel parameter -s 
1 # kernel parameter -r 
empty# kernel parameter -u 
243 # highest feature index 
9093 # number of training documents 
248 # number of support vectors plus 1 
2.5918133 # threshold b, each following line is a SV (starting with alpha*y)
0.10000000000000000555111512312578 1:0 2:0 3:0 4:1 5:0 6:0 7:0 8:0 9:0 10:0 11:0 12:0 13:0 14:1 15:1 16:0 17:0 18:0 19:1 20:0 21:0 22:0 23:0 24:0 25:1 26:0 27:0 28:0 29:0 30:0 31:0 32:0 33:0 34:0 35:1 36:0 37:0 38:0 39:0 40:0 41:0 42:0 43:0 44:0 45:0 46:0 47:0 48:0 49:0 50:0 51:0 52:0 53:0 54:0 55:1 56:0 57:0 58:0 59:0 60:0 61:0 62:0 63:0 64:0 65:1 66:0 67:1 68:0 69:0 70:0 71:0 72:0 73:0 74:0 75:0 76:0 77:0 78:0 79:0 80:0 81:0 82:1 83:0 84:0 85:0 86:0 87:0 88:0 89:0 90:1 91:0 92:0 93:0 94:0 95:0 96:0 97:0 98:1 99:0 100:0 101:0 102:0 103:0 104:0 105:0 106:0 107:0 108:0 109:0 110:0 111:0 112:1 113:0 114:0 115:0 116:0 117:0 118:0 119:0 120:1 121:0 122:0 123:0 124:0 125:0 126:0 127:0 128:1 129:0 130:1 131:0 132:0 133:0 134:0 135:0 136:0 137:0 138:0 139:0 140:1 141:0 142:0 143:0 144:0 145:0 146:1 147:0 148:0 149:0 150:0 151:0 152:0 153:0 154:1 155:0 156:0 157:0 158:1 159:0 160:0 161:0 162:0 163:0 164:0 165:0 166:1 167:1 168:1 169:-1 170:1 171:1 172:1 173:1 174:1 175:1 176:1 177:0 178:0 179:0 180:0 181:0 182:0 183:0 184:0 185:0 186:1 187:0 188:0 189:0 190:0 191:0 192:0 193:0 194:0 195:0 196:0 197:0 198:0 199:0 200:0 201:0 202:0 203:0 204:0 205:0 206:1 207:0 208:0 209:0 210:0 211:0 212:1 213:0 214:0 215:0 216:0 217:0 218:0 219:0 220:0 221:0 222:1 223:0 224:0 225:0 226:0 227:0 228:0 229:0 230:0 231:1 232:0 233:1 234:1 235:0 236:0 237:0 238:0 239:0 240:0 241:0 242:0 243:1 #42116
-0.025193726468430266418607743617031 1:0 2:1 3:0 4:0 5:0 6:0 7:0 8:0 9:0 10:0 11:0 12:0 13:1 14:0 15:0 16:1 17:0 18:0 19:0 20:1 21:0 22:0 23:0 24:1 25:0 26:0 27:0 28:0 29:1 30:0 31:0 32:0 33:0 34:0 35:0 36:1 37:0 38:0 39:0 40:0 41:1 42:0 43:0 44:0 45:0 46:1 47:0 48:0 49:0 50:0 51:1 52:0 53:0 54:1 55:0 56:0 57:0 58:0 59:1 60:0 61:0 62:0 63:0 64:0 65:0 66:1 67:0 68:0 69:0 70:0 71:0 72:0 73:0 74:0 75:0 76:0 77:0 78:0 79:0 80:0 81:0 82:0 83:0 84:0 85:1 86:0 87:0 88:0 89:0 90:0 91:0 92:0 93:1 94:0 95:0 96:0 97:0 98:0 99:0 100:0 101:1 102:0 103:0 104:0 105:0 106:0 107:0 108:0 109:0 110:0 111:0 112:1 113:0 114:0 115:0 116:0 117:0 118:0 119:0 120:1 121:0 122:0 123:0 124:0 125:0 126:0 127:0 128:1 129:0 130:0 131:0 132:0 133:1 134:0 135:0 136:0 137:0 138:0 139:0 140:0 141:1 142:0 143:0 144:0 145:0 146:0 147:0 148:0 149:1 150:0 151:0 152:0 153:0 154:1 155:0 156:0 157:0 158:1 159:0 160:0 161:0 162:0 163:0 164:0 165:0 166:1 167:1 168:1 169:1 170:1 171:1 172:1 173:1 174:1 175:1 176:0 177:0 178:0 179:0 180:0 181:0 182:0 183:0 184:0 185:0 186:0 187:0 188:0 189:0 190:0 191:0 192:0 193:0 194:0 195:0 196:0 197:0 198:0 199:0 200:0 201:0 202:0 203:0 204:0 205:0 206:0 207:0 208:0 209:0 210:0 211:1 212:0 213:0 214:0 215:0 216:0 217:0 218:0 219:0 220:0 221:1 222:0 223:0 224:0 225:0 226:0 227:0 228:0 229:0 230:0 231:0 232:0 233:1 234:1 235:0 236:0 237:0 238:0 239:0 240:0 241:0 242:0 243:0 #28798
0.10000000000000000555111512312578 1:0 2:1 3:0 4:0 5:0 6:0 7:0 8:0 9:0 10:0 11:0 12:1 13:0 14:0 15:0 16:0 17:1 18:0 19:1 20:0 21:0 22:0 23:1 24:0 25:0 26:0 27:0 28:1 29:0 30:0 31:0 32:0 33:0 34:0 35:1 36:0 37:0 38:0 39:0 40:1 41:0 42:0 43:0 44:0 45:1 46:0 47:0 48:0 49:0 50:0 51:1 52:0 53:1 54:0 55:0 56:0 57:0 58:1 59:0 60:0 61:0 62:0 63:0 64:0 65:1 66:0 67:0 68:1 69:0 70:0 71:0 72:1 73:0 74:0 75:0 76:0 77:0 78:0 79:0 80:0 81:0 82:0 83:1 84:0 85:0 86:0 87:0 88:0 89:0 90:0 91:1 92:0 93:0 94:0 95:0 96:0 97:0 98:0 99:1 100:0 101:0 102:0 103:0 104:0 105:0 106:1 107:0 108:0 109:0 110:0 111:0 112:0 113:0 114:1 115:0 116:0 117:0 118:0 119:0 120:0 121:0 122:1 123:0 124:0 125:0 126:0 127:0 128:0 129:0 130:0 131:1 132:0 133:0 134:0 135:0 136:0 137:0 138:0 139:1 140:0 141:0 142:0 143:0 144:0 145:0 146:0 147:1 148:0 149:0 150:0 151:0 152:0 153:0 154:1 155:0 156:0 157:0 158:1 159:0 160:0 161:0 162:0 163:0 164:0 165:0 166:1 167:1 168:1 169:-1 170:1 171:1 172:1 173:-1 174:1 175:1 176:1 177:0 178:0 179:0 180:0 181:0 182:0 183:0 184:0 185:0 186:1 187:0 188:0 189:0 190:0 191:0 192:0 193:0 194:0 195:0 196:0 197:0 198:0 199:0 200:0 201:0 202:0 203:0 204:0 205:0 206:1 207:0 208:0 209:0 210:0 211:0 212:1 213:0 214:0 215:0 216:0 217:0 218:0 219:0 220:0 221:0 222:1 223:0 224:0 225:0 226:0 227:0 228:0 229:1 230:0 231:1 232:0 233:1 234:1 235:0 236:0 237:0 238:0 239:0 240:0 241:0 242:0 243:0 #46634
0.10000000000000000555111512312578 1:0 2:1 3:0 4:0 5:0 6:0 7:0 8:1 9:0 10:0 11:0 12:0 13:1 14:0 15:0 16:1 17:0 18:1 19:0 20:0 21:0 22:0 23:0 24:0 25:0 26:1 27:0 28:0 29:0 30:0 31:1 32:0 33:0 34:0 35:0 36:1 37:0 38:0 39:0 40:0 41:1 42:0 43:0 44:0 45:0 46:1 47:0 48:0 49:0 50:0 51:1 52:0 53:0 54:0 55:0 56:1 57:0 58:0 59:0 60:0 61:1 62:0 63:0 64:0 65:0 66:1 67:0 68:0 69:0 70:0 71:0 72:0 73:0 74:0 75:0 76:0 77:0 78:0 79:0 80:0 81:0 82:0 83:0 84:0 85:0 86:0 87:1 88:0 89:0 90:0 91:0 92:0 93:0 94:0 95:1 96:0 97:0 98:0 99:0 100:0 101:0 102:0 103:1 104:0 105:0 106:0 107:0 108:0 109:0 110:0 111:1 112:0 113:0 114:0 115:0 116:0 117:0 118:0 119:1 120:0 121:0 122:0 123:0 124:0 125:0 126:0 127:1 128:0 129:0 130:0 131:0 132:0 133:0 134:0 135:1 136:0 137:0 138:0 139:0 140:0 141:0 142:0 143:1 144:0 145:0 146:0 147:0 148:0 149:0 150:0 151:1 152:0 153:0 154:1 155:0 156:0 157:0 158:0 159:1 160:0 161:0 162:0 163:0 164:0 165:0 166:1 167:1 168:1 169:1 170:1 171:1 172:1 173:1 174:1 175:-1 176:0 177:0 178:0 179:0 180:0 181:0 182:0 183:0 184:0 185:0 186:0 187:0 188:0 189:0 190:0 191:0 192:0 193:0 194:0 195:0 196:0 197:0 198:0 199:0 200:0 201:0 202:0 203:0 204:0 205:0 206:0 207:0 208:0 209:0 210:0 211:0 212:0 213:0 214:0 215:0 216:0 217:0 218:0 219:1 220:0 221:0 222:0 223:0 224:0 225:0 226:0 227:0 228:0 229:0 230:0 231:0 232:0 233:1 234:1 235:0 236:1 237:0 238:0 239:0 240:0 241:0 242:0 243:0 #38222
-0.10000000000000000555111512312578 1:0 2:1 3:0 4:0 5:0 6:0 7:0 8:0 9:0 10:0 11:0 12:0 13:0 14:1 15:0 16:0 17:1 18:0 19:1 20:0 21:0 22:0 23:0 24:0 25:1 26:0 27:0 28:0 29:0 30:1 31:0 32:0 33:0 34:0 35:0 36:1 37:0 38:0 39:0 40:1 41:0 42:0 43:0 44:0 45:1 46:0 47:0 48:0 49:0 50:0 51:1 52:0 53:0 54:0 55:1 56:0 57:0 58:0 59:0 60:1 61:0 62:0 63:0 64:0 65:0 66:1 67:1 68:0 69:0 70:0 71:0 72:1 73:0 74:0 75:0 76:0 77:0 78:0 79:0 80:0 81:0 82:1 83:0 84:0 85:0 86:0 87:0 88:0 89:0 90:1 91:0 92:0 93:0 94:0 95:0 96:0 97:0 98:1 99:0 100:0 101:0 102:0 103:0 104:0 105:0 106:1 107:0 108:0 109:0 110:0 111:0 112:0 113:0 114:1 115:0 116:0 117:0 118:0 119:0 120:0 121:0 122:1 123:0 124:0 125:0 126:0 127:0 128:0 129:0 130:1 131:0 132:0 133:0 134:0 135:0 136:0 137:0 138:1 139:0 140:0 141:0 142:0 143:0 144:0 145:0 146:1 147:0 148:0 149:0 150:0 151:0 152:0 153:0 154:1 155:0 156:0 157:0 158:1 159:0 160:0 161:0 162:0 163:0 164:0 165:0 166:0 167:-1 168:-1 169:-1 170:1 171:1 172:1 173:1 174:1 175:1 176:1 177:0 178:0 179:0 180:0 181:0 182:0 183:0 184:0 185:0 186:1 187:0 188:0 189:0 190:0 191:0 192:0 193:0 194:0 195:0 196:0 197:0 198:0 199:0 200:0 201:0 202:0 203:0 204:0 205:0 206:1 207:0 208:0 209:0 210:0 211:1 212:0 213:0 214:0 215:0 216:0 217:0 218:0 219:0 220:0 221:1 222:0 223:0 224:0 225:0 226:0 227:0 228:0 229:1 230:0 231:1 232:0 233:1 234:1 235:0 236:0 237:0 238:0 239:0 240:0 241:0 242:0 243:0 #50421
0.10000000000000000555111512312578 1:0 2:1 3:0 4:0 5:0 6:0 7:0 8:0 9:0 10:0 11:0 12:0 13:1 14:0 15:0 16:0 17:1 18:0 19:0 20:1 21:0 22:0 23:0 24:1 25:0 26:0 27:0 28:0 29:1 30:0 31:0 32:0 33:0 34:0 35:0 36:1 37:0 38:0 39:0 40:1 41:0 42:0 43:0 44:0 45:1 46:0 47:0 48:0 49:0 50:0 51:1 52:0 53:0 54:0 55:1 56:0 57:0 58:0 59:0 60:1 61:0 62:0 63:0 64:0 65:0 66:1 67:0 68:0 69:0 70:0 71:0 72:1 73:0 74:0 75:0 76:0 77:0 78:0 79:0 80:0 81:0 82:1 83:0 84:0 85:0 86:0 87:0 88:0 89:0 90:1 91:0 92:0 93:0 94:0 95:0 96:0 97:0 98:1 99:0 100:0 101:0 102:0 103:0 104:0 105:0 106:1 107:0 108:0 109:0 110:0 111:0 112:0 113:0 114:1 115:0 116:0 117:0 118:0 119:0 120:0 121:0 122:1 123:0 124:0 125:0 126:0 127:0 128:0 129:0 130:1 131:0 132:0 133:0 134:0 135:0 136:0 137:0 138:1 139:0 140:0 141:0 142:0 143:0 144:0 145:0 146:1 147:0 148:0 149:0 150:0 151:0 152:0 153:0 154:1 155:0 156:0 157:0 158:1 159:0 160:0 161:0 162:0 163:0 164:0 165:0 166:1 167:1 168:1 169:-1 170:1 171:1 172:1 173:1 174:1 175:1 176:0 177:0 178:1 179:0 180:0 181:0 182:0 183:0 184:0 185:0 186:0 187:0 188:1 189:0 190:0 191:0 192:0 193:0 194:0 195:0 196:0 197:0 198:0 199:0 200:0 201:0 202:0 203:0 204:0 205:0 206:0 207:0 208:1 209:0 210:0 211:0 212:0 213:0 214:0 215:1 216:0 217:0 218:0 219:0 220:0 221:0 222:0 223:0 224:0 225:1 226:0 227:0 228:0 229:1 230:0 231:1 232:0 233:1 234:1 235:0 236:0 237:0 238:0 239:0 240:0 241:0 242:0 243:0 #12901
-0.0051661700896254436621291006304091 1:0 2:0 3:0 4:1 5:0 6:0 7:0 8:0 9:0 10:0 11:0 12:0 13:0 14:1 15:1 16:0 17:0 18:0 19:1 20:0 21:0 22:0 23:0 24:0 25:1 26:0 27:0 28:0 29:0 30:1 31:0 32:0 33:0 34:0 35:0 36:1 37:0 38:0 39:0 40:0 41:0 42:0 43:0 44:0 45:0 46:0 47:0 48:0 49:0 50:0 51:0 52:0 53:0 54:0 55:0 56:0 57:0 58:0 59:0 60:0 61:0 62:0 63:0 64:0 65:0 66:0 67:1 68:0 69:0 70:0 71:0 72:0 73:0 74:1 75:0 76:0 77:0 78:0 79:0 80:0 81:0 82:1 83:0 84:0 85:0 86:0 87:0 88:0 89:0 90:1 91:0 92:0 93:0 94:0 95:0 96:0 97:0 98:1 99:0 100:0 101:0 102:0 103:0 104:0 105:0 106:0 107:0 108:0 109:0 110:0 111:1 112:0 113:0 114:0 115:0 116:0 117:0 118:0 119:1 120:0 121:0 122:0 123:0 124:0 125:0 126:0 127:1 128:0 129:0 130:0 131:0 132:0 133:0 134:0 135:1 136:0 137:0 138:0 139:0 140:0 141:0 142:0 143:1 144:0 145:0 146:0 147:0 148:0 149:0 150:0 151:1 152:0 153:0 154:1 155:0 156:0 157:0 158:1 159:0 160:0 161:0 162:0 163:0 164:0 165:0 166:1 167:-1 168:-1 169:-1 170:1 171:1 172:1 173:1 174:1 175:1 176:1 177:0 178:0 179:0 180:0 181:0 182:0 183:0 184:0 185:0 186:1 187:0 188:0 189:0 190:0 191:0 192:0 193:0 194:0 195:0 196:0 197:0 198:0 199:0 200:0 201:0 202:0 203:0 204:0 205:0 206:1 207:0 208:0 209:0 210:0 211:0 212:1 213:0 214:0 215:0 216:0 217:0 218:0 219:0 220:0 221:0 222:1 223:0 224:0 225:0 226:0 227:0 228:0 229:1 230:1 231:1 232:0 233:1 234:1 235:0 236:0 237:0 238:0 239:0 240:0 241:0 242:0 243:0 #15816
-0.10000000000000000555111512312578 1:0 2:1 3:0 4:0 5:0 6:0 7:0 8:0 9:0 10:0 11:0 12:0 13:0 14:1 15:1 16:0 17:0 18:0 19:1 20:0 21:0 22:0 23:0 24:0 25:1 26:0 27:0 28:0 29:0 30:1 31:0 32:0 33:0 34:0 35:0 36:1 37:0 38:0 39:0 40:0 41:0 42:0 43:0 44:0 45:0 46:0 47:0 48:0 49:0 50:0 51:0 52:0 53:0 54:0 55:1 56:0 57:0 58:0 59:0 60:1 61:0 62:0 63:0 64:0 65:0 66:1 67:1 68:0 69:0 70:0 71:0 72:0 73:0 74:0 75:0 76:0 77:0 78:0 79:0 80:0 81:0 82:1 83:0 84:0 85:0 86:0 87:0 88:0 89:0 90:1 91:0 92:0 93:0 94:0 95:0 96:0 97:0 98:1 99:0 100:0 101:0 102:0 103:0 104:0 105:0 106:0 107:0 108:0 109:0 110:0 111:1 112:0 113:0 114:0 115:0 116:0 117:0 118:0 119:1 120:0 121:0 122:0 123:0 124:0 125:0 126:0 127:1 128:0 129:0 130:1 131:0 132:0 133:0 134:0 135:0 136:0 137:0 138:1 139:0 140:0 141:0 142:0 143:0 144:0 145:0 146:1 147:0 148:0 149:0 150:0 151:0 152:0 153:0 154:1 155:0 156:0 157:0 158:1 159:0 160:0 161:0 162:0 163:0 164:0 165:0 166:1 167:1 168:1 169:1 170:1 171:1 172:-1 173:1 174:1 175:1 176:0 177:0 178:0 179:0 180:0 181:0 182:0 183:0 184:0 185:0 186:0 187:0 188:0 189:0 190:0 191:0 192:0 193:0 194:0 195:0 196:1 197:0 198:0 199:0 200:0 201:0 202:0 203:0 204:0 205:0 206:0 207:0 208:0 209:0 210:0 211:0 212:0 213:0 214:0 215:0 216:1 217:0 218:0 219:0 220:0 221:0 222:0 223:0 224:0 225:0 226:0 227:0 228:0 229:0 230:0 231:1 232:0 233:1 234:1 235:0 236:0 237:0 238:0 239:0 240:0 241:0 242:0 243:0 #49182
-0.10000000000000000555111512312578 1:0 2:1 3:0 4:0 5:0 6:0 7:0 8:1 9:0 10:0 11:0 12:0 13:1 14:0 15:0 16:1 17:0 18:0 19:1 20:0 21:0 22:0 23:0 24:0 25:0 26:1 27:0 28:0 29:0 30:0 31:1 32:0 33:0 34:0 35:0 36:1 37:0 38:0 39:0 40:0 41:1 42:0 43:0 44:0 45:0 46:1 47:0 48:0 49:0 50:0 51:1 52:0 53:0 54:0 55:0 56:1 57:0 58:0 59:0 60:0 61:1 62:0 63:0 64:0 65:0 66:1 67:0 68:0 69:0 70:0 71:0 72:0 73:0 74:0 75:0 76:0 77:0 78:0 79:0 80:0 81:0 82:0 83:0 84:0 85:0 86:0 87:0 88:0 89:0 90:0 91:0 92:0 93:0 94:0 95:0 96:0 97:0 98:0 99:0 100:0 101:0 102:0 103:0 104:0 105:0 106:0 107:0 108:0 109:0 110:0 111:0 112:0 113:0 114:0 115:0 116:0 117:0 118:0 119:0 120:0 121:0 122:0 123:0 124:0 125:0 126:0 127:0 128:0 129:0 130:0 131:0 132:0 133:0 134:0 135:0 136:0 137:0 138:0 139:0 140:0 141:0 142:0 143:0 144:0 145:0 146:0 147:0 148:0 149:0 150:0 151:0 152:0 153:0 154:0 155:1 156:0 157:0 158:0 159:1 160:0 161:0 162:0 163:0 164:0 165:0 166:1 167:1 168:1 169:1 170:1 171:1 172:-1 173:1 174:1 175:-1 176:0 177:0 178:0 179:0 180:0 181:0 182:0 183:0 184:0 185:0 186:0 187:0 188:0 189:0 190:0 191:0 192:0 193:0 194:0 195:0 196:1 197:0 198:0 199:0 200:0 201:0 202:0 203:0 204:0 205:0 206:0 207:0 208:0 209:0 210:0 211:0 212:0 213:0 214:0 215:0 216:0 217:1 218:0 219:0 220:0 221:0 222:0 223:0 224:0 225:0 226:0 227:0 228:0 229:0 230:0 231:0 232:0 233:1 234:1 235:0 236:1 237:0 238:0 239:0 240:0 241:0 242:0 243:0 #24965
0.10000000000000000555111512312578 1:0 2:0 3:1 4:0 5:0 6:0 7:0 8:1 9:0 10:0 11:0 12:0 13:1 14:0 15:0 16:1 17:0 18:1 19:0 20:0 21:0 22:0 23:0 24:0 25:0 26:1 27:0 28:0 29:0 30:0 31:1 32:0 33:0 34:0 35:0 36:1 37:0 38:0 39:0 40:0 41:1 42:0 43:0 44:0 45:0 46:1 47:0 48:0 49:0 50:0 51:1 52:0 53:0 54:0 55:0 56:1 57:0 58:0 59:0 60:0 61:1 62:0 63:0 64:0 65:0 66:1 67:0 68:0 69:0 70:0 71:0 72:0 73:0 74:0 75:0 76:0 77:0 78:0 79:0 80:0 81:0 82:0 83:0 84:0 85:0 86:0 87:0 88:1 89:0 90:0 91:0 92:0 93:0 94:1 95:0 96:0 97:0 98:0 99:0 100:0 101:0 102:0 103:0 104:1 105:0 106:0 107:0 108:0 109:0 110:0 111:0 112:1 113:0 114:0 115:0 116:0 117:0 118:0 119:0 120:1 121:0 122:0 123:0 124:0 125:0 126:0 127:0 128:1 129:0 130:0 131:0 132:0 133:0 134:0 135:0 136:1 137:0 138:0 139:0 140:0 141:0 142:1 143:0 144:0 145:0 146:0 147:0 148:0 149:0 150:0 151:0 152:1 153:0 154:1 155:0 156:0 157:0 158:0 159:1 160:0 161:0 162:1 163:0 164:0 165:0 166:1 167:1 168:1 169:-1 170:1 171:1 172:1 173:1 174:1 175:-1 176:1 177:0 178:0 179:0 180:0 181:0 182:0 183:0 184:0 185:0 186:1 187:0 188:0 189:0 190:0 191:0 192:0 193:0 194:0 195:0 196:0 197:0 198:0 199:0 200:0 201:0 202:0 203:0 204:0 205:0 206:1 207:0 208:0 209:0 210:0 211:1 212:0 213:0 214:0 215:0 216:0 217:0 218:1 219:0 220:0 221:0 222:0 223:0 224:0 225:0 226:0 227:0 228:0 229:0 230:0 231:0 232:0 233:1 234:1 235:0 236:1 237:0 238:0 239:0 240:0 241:0 242:0 243:0 #36929
-0.011881818947287077492536155887137 1:0 2:1 3:0 4:0 5:0 6:0 7:0 8:0 9:0 10:0 11:0 12:0 13:0 14:1 15:0 16:1 17:0 18:0 19:1 20:0 21:0 22:0 23:0 24:0 25:1 26:0 27:0 28:0 29:0 30:1 31:0 32:0 33:0 34:0 35:0 36:1 37:0 38:0 39:0 40:0 41:1 42:0 43:0 44:0 45:0 46:1 47:0 48:0 49:0 50:0 51:1 52:0 53:0 54:0 55:1 56:0 57:0 58:0 59:0 60:1 61:0 62:0 63:0 64:0 65:0 66:1 67:1 68:0 69:0 70:0 71:0 72:0 73:0 74:0 75:0 76:0 77:0 78:0 79:0 80:0 81:0 82:1 83:0 84:0 85:0 86:0 87:0 88:0 89:0 90:1 91:0 92:0 93:0 94:0 95:0 96:0 97:0 98:1 99:0 100:0 101:0 102:0 103:0 104:0 105:0 106:0 107:0 108:0 109:0 110:0 111:0 112:1 113:0 114:0 115:0 116:0 117:0 118:0 119:0 120:1 121:0 122:0 123:0 124:0 125:0 126:0 127:0 128:1 129:0 130:1 131:0 132:0 133:0 134:0 135:0 136:0 137:0 138:1 139:0 140:0 141:0 142:0 143:0 144:0 145:0 146:1 147:0 148:0 149:0 150:0 151:0 152:0 153:0 154:1 155:0 156:0 157:0 158:1 159:0 160:0 161:0 162:0 163:0 164:0 165:0 166:1 167:1 168:1 169:1 170:1 171:1 172:1 173:1 174:1 175:1 176:0 177:0 178:0 179:0 180:0 181:0 182:0 183:0 184:0 185:0 186:0 187:0 188:0 189:0 190:0 191:0 192:0 193:0 194:0 195:0 196:0 197:0 198:0 199:0 200:0 201:0 202:0 203:0 204:0 205:0 206:0 207:0 208:0 209:0 210:0 211:1 212:0 213:0 214:0 215:0 216:0 217:0 218:0 219:0 220:0 221:1 222:0 223:0 224:0 225:0 226:0 227:0 228:0 229:0 230:0 231:1 232:0 233:1 234:1 235:0 236:0 237:0 238:0 239:0 240:0 241:0 242:0 243:0 #28445
-0.10000000000000000555111512312578 1:0 2:0 3:0 4:0 5:0 6:0 7:0 8:0 9:0 10:0 11:0 12:0 13:0 14:1 15:1 16:0 17:0 18:1 19:0 20:0 21:0 22:0 23:0 24:0 25:0 26:0 27:0 28:0 29:0 30:0 31:0 32:0 33:0 34:0 35:0 36:0 37:0 38:0 39:0 40:0 41:0 42:0 43:0 44:0 45:0 46:0 47:0 48:0 49:0 50:0 51:0 52:0 53:0 54:0 55:0 56:0 57:0 58:0 59:0 60:0 61:0 62:0 63:0 64:0 65:0 66:0 67:1 68:0 69:0 70:0 71:0 72:0 73:0 74:0 75:0 76:0 77:0 78:0 79:0 80:0 81:0 82:1 83:0 84:0 85:0 86:0 87:0 88:0 89:0 90:1 91:0 92:0 93:0 94:0 95:0 96:0 97:0 98:1 99:0 100:0 101:0 102:0 103:0 104:0 105:0 106:0 107:0 108:0 109:0 110:0 111:0 112:0 113:1 114:0 115:0 116:0 117:0 118:0 119:0 120:0 121:1 122:0 123:0 124:0 125:0 126:0 127:0 128:0 129:1 130:0 131:0 132:0 133:0 134:0 135:0 136:0 137:1 138:0 139:0 140:0 141:0 142:0 143:0 144:0 145:1 146:0 147:0 148:0 149:0 150:0 151:0 152:0 153:1 154:1 155:0 156:0 157:0 158:1 159:0 160:0 161:0 162:0 163:0 164:0 165:0 166:1 167:1 168:1 169:1 170:1 171:1 172:-1 173:1 174:1 175:-1 176:0 177:0 178:0 179:0 180:0 181:0 182:0 183:0 184:0 185:0 186:0 187:0 188:0 189:0 190:0 191:0 192:0 193:0 194:0 195:0 196:0 197:1 198:0 199:0 200:0 201:0 202:0 203:0 204:0 205:0 206:0 207:0 208:0 209:0 210:0 211:0 212:0 213:0 214:0 215:0 216:0 217:0 218:0 219:0 220:1 221:0 222:0 223:0 224:0 225:0 226:0 227:0 228:0 229:0 230:0 231:1 232:0 233:1 234:1 235:0 236:0 237:0 238:1 239:0 240:0 241:0 242:0 243:1 #26024
0.10000000000000000555111512312578 1:0 2:0 3:0 4:0 5:0 6:0 7:0 8:0 9:0 10:0 11:0 12:1 13:0 14:0 15:1 16:0 17:0 18:1 19:0 20:0 21:0 22:0 23:1 24:0 25:0 26:0 27:0 28:0 29:0 30:0 31:0 32:0 33:1 34:0 35:0 36:0 37:0 38:0 39:0 40:0 41:0 42:0 43:0 44:0 45:0 46:0 47:0 48:0 49:0 50:0 51:0 52:0 53:0 54:0 55:0 56:0 57:0 58:0 59:0 60:0 61:0 62:0 63:0 64:0 65:0 66:0 67:0 68:1 69:0 70:0 71:0 72:0 73:0 74:0 75:1 76:0 77:0 78:0 79:0 80:0 81:0 82:0 83:1 84:0 85:0 86:0 87:0 88:0 89:0 90:0 91:0 92:0 93:0 94:0 95:0 96:0 97:0 98:0 99:1 100:0 101:0 102:0 103:0 104:0 105:0 106:0 107:0 108:0 109:0 110:0 111:0 112:0 113:0 114:0 115:0 116:0 117:0 118:0 119:0 120:0 121:0 122:0 123:0 124:0 125:0 126:0 127:0 128:0 129:0 130:0 131:0 132:0 133:0 134:0 135:0 136:0 137:0 138:0 139:0 140:0 141:0 142:0 143:0 144:0 145:0 146:0 147:0 148:0 149:0 150:0 151:0 152:0 153:0 154:1 155:0 156:0 157:0 158:1 159:0 160:0 161:0 162:0 163:0 164:0 165:0 166:1 167:1 168:1 169:-1 170:-1 171:1 172:1 173:-1 174:1 175:-1 176:0 177:1 178:0 179:0 180:0 181:1 182:0 183:0 184:0 185:0 186:1 187:0 188:0 189:0 190:0 191:0 192:0 193:0 194:0 195:0 196:0 197:0 198:0 199:0 200:0 201:0 202:0 203:0 204:0 205:0 206:0 207:1 208:0 209:0 210:0 211:0 212:0 213:1 214:0 215:0 216:0 217:0 218:0 219:1 220:0 221:0 222:0 223:0 224:0 225:0 226:0 227:0 228:0 229:1 230:0 231:1 232:0 233:1 234:1 235:0 236:0 237:0 238:0 239:0 240:0 241:0 242:0 243:0 #36203
0.10000000000000000555111512312578 1:0 2:0 3:1 4:0 5:0 6:0 7:0 8:0 9:0 10:0 11:0 12:1 13:0 14:0 15:0 16:1 17:0 18:0 19:0 20:1 21:0 22:0 23:0 24:0 25:0 26:0 27:0 28:0 29:0 30:0 31:0 32:0 33:0 34:0 35:0 36:0 37:0 38:0 39:1 40:0 41:0 42:0 43:0 44:1 45:0 46:0 47:0 48:0 49:0 50:0 51:1 52:0 53:0 54:0 55:0 56:0 57:0 58:0 59:0 60:0 61:0 62:0 63:0 64:0 65:0 66:0 67:0 68:1 69:0 70:0 71:0 72:0 73:0 74:0 75:0 76:0 77:0 78:0 79:0 80:0 81:0 82:0 83:0 84:0 85:0 86:0 87:1 88:0 89:0 90:0 91:0 92:0 93:0 94:0 95:1 96:0 97:0 98:0 99:0 100:0 101:0 102:0 103:1 104:0 105:0 106:0 107:1 108:0 109:0 110:0 111:0 112:0 113:0 114:0 115:1 116:0 117:0 118:0 119:0 120:0 121:0 122:0 123:1 124:0 125:0 126:0 127:0 128:0 129:0 130:0 131:0 132:0 133:0 134:0 135:1 136:0 137:0 138:0 139:0 140:0 141:0 142:0 143:1 144:0 145:0 146:0 147:0 148:0 149:0 150:0 151:1 152:0 153:0 154:1 155:0 156:0 157:0 158:1 159:0 160:0 161:0 162:0 163:0 164:0 165:0 166:1 167:-1 168:-1 169:-1 170:1 171:1 172:1 173:-1 174:-1 175:1 176:1 177:0 178:0 179:0 180:0 181:0 182:0 183:0 184:0 185:0 186:1 187:0 188:0 189:0 190:0 191:0 192:0 193:0 194:0 195:0 196:0 197:0 198:0 199:0 200:0 201:0 202:0 203:0 204:0 205:0 206:1 207:0 208:0 209:0 210:0 211:0 212:1 213:0 214:0 215:0 216:1 217:0 218:0 219:0 220:0 221:1 222:0 223:0 224:0 225:0 226:0 227:0 228:0 229:1 230:0 231:1 232:1 233:1 234:1 235:0 236:0 237:0 238:0 239:0 240:0 241:0 242:0 243:0 #29326
0.10000000000000000555111512312578 1:0 2:0 3:0 4:0 5:0 6:0 7:0 8:0 9:0 10:0 11:0 12:1 13:0 14:0 15:1 16:0 17:0 18:0 19:1 20:0 21:0 22:0 23:0 24:0 25:0 26:0 27:0 28:0 29:0 30:0 31:0 32:0 33:0 34:0 35:0 36:0 37:0 38:0 39:0 40:0 41:0 42:0 43:0 44:0 45:0 46:0 47:0 48:0 49:0 50:0 51:0 52:0 53:0 54:0 55:0 56:0 57:0 58:0 59:0 60:0 61:0 62:0 63:0 64:0 65:0 66:0 67:0 68:0 69:1 70:0 71:0 72:0 73:0 74:0 75:0 76:0 77:0 78:0 79:0 80:0 81:0 82:0 83:0 84:0 85:0 86:0 87:0 88:0 89:1 90:0 91:0 92:0 93:1 94:0 95:0 96:0 97:0 98:0 99:0 100:0 101:1 102:0 103:0 104:0 105:0 106:0 107:0 108:0 109:1 110:0 111:0 112:0 113:0 114:0 115:0 116:0 117:1 118:0 119:0 120:0 121:0 122:0 123:0 124:0 125:1 126:0 127:0 128:0 129:0 130:0 131:0 132:0 133:0 134:0 135:0 136:0 137:1 138:0 139:0 140:0 141:1 142:0 143:0 144:0 145:0 146:0 147:0 148:0 149:1 150:0 151:0 152:0 153:0 154:1 155:0 156:0 157:0 158:1 159:0 160:0 161:0 162:0 163:0 164:0 165:0 166:1 167:1 168:1 169:1 170:-1 171:1 172:1 173:1 174:1 175:1 176:0 177:0 178:0 179:0 180:0 181:1 182:0 183:0 184:0 185:0 186:0 187:0 188:0 189:0 190:0 191:0 192:0 193:0 194:0 195:0 196:0 197:0 198:0 199:0 200:0 201:0 202:0 203:0 204:0 205:0 206:0 207:0 208:0 209:0 210:0 211:0 212:0 213:0 214:0 215:0 216:0 217:0 218:0 219:0 220:0 221:0 222:0 223:0 224:0 225:0 226:0 227:0 228:0 229:0 230:1 231:1 232:1 233:1 234:1 235:0 236:0 237:0 238:0 239:0 240:0 241:0 242:0 243:1 #17376
0.10000000000000000555111512312578 1:0 2:0 3:0 4:0 5:0 6:0 7:0 8:0 9:0 10:0 11:0 12:1 13:0 14:0 15:1 16:0 17:0 18:1 19:0 20:0 21:0 22:0 23:0 24:0 25:0 26:0 27:0 28:0 29:0 30:0 31:0 32:0 33:0 34:0 35:0 36:0 37:0 38:0 39:0 40:0 41:0 42:0 43:0 44:0 45:0 46:0 47:0 48:0 49:0 50:0 51:0 52:0 53:0 54:0 55:0 56:0 57:0 58:0 59:0 60:0 61:0 62:0 63:0 64:0 65:0 66:0 67:0 68:0 69:0 70:1 71:0 72:0 73:0 74:0 75:0 76:0 77:0 78:0 79:0 80:0 81:0 82:0 83:0 84:0 85:0 86:0 87:0 88:0 89:0 90:0 91:0 92:0 93:0 94:0 95:0 96:0 97:0 98:0 99:0 100:0 101:0 102:0 103:0 104:0 105:0 106:0 107:0 108:0 109:0 110:0 111:0 112:0 113:0 114:0 115:0 116:0 117:0 118:0 119:0 120:0 121:0 122:0 123:0 124:0 125:0 126:0 127:0 128:0 129:0 130:0 131:0 132:0 133:0 134:0 135:0 136:0 137:0 138:0 139:0 140:0 141:0 142:0 143:0 144:0 145:0 146:0 147:0 148:0 149:0 150:0 151:0 152:0 153:0 154:0 155:0 156:1 157:0 158:1 159:0 160:0 161:0 162:0 163:0 164:0 165:0 166:1 167:1 168:1 169:-1 170:1 171:1 172:1 173:-1 174:1 175:1 176:1 177:0 178:0 179:0 180:0 181:0 182:0 183:0 184:0 185:0 186:1 187:0 188:0 189:0 190:0 191:0 192:0 193:0 194:0 195:0 196:0 197:0 198:0 199:0 200:0 201:0 202:0 203:0 204:0 205:0 206:1 207:0 208:0 209:0 210:0 211:0 212:1 213:0 214:0 215:0 216:0 217:0 218:0 219:0 220:0 221:0 222:1 223:0 224:0 225:0 226:0 227:0 228:0 229:0 230:0 231:1 232:0 233:1 234:1 235:0 236:0 237:0 238:0 239:1 240:0 241:0 242:0 243:0 #74032
-0.10000000000000000555111512312578 1:0 2:0 3:0 4:0 5:0 6:0 7:0 8:0 9:0 10:0 11:0 12:1 13:0 14:0 15:1 16:0 17:0 18:1 19:0 20:0 21:0 22:0 23:0 24:0 25:0 26:0 27:0 28:0 29:0 30:0 31:0 32:0 33:0 34:0 35:0 36:0 37:0 38:0 39:0 40:0 41:0 42:0 43:0 44:0 45:0 46:0 47:0 48:0 49:0 50:0 51:0 52:0 53:0 54:0 55:0 56:0 57:0 58:0 59:0 60:0 61:0 62:0 63:0 64:0 65:0 66:0 67:0 68:0 69:0 70:0 71:0 72:0 73:0 74:0 75:0 76:0 77:0 78:0 79:0 80:0 81:0 82:0 83:0 84:0 85:0 86:0 87:0 88:0 89:0 90:0 91:0 92:0 93:0 94:0 95:0 96:0 97:0 98:0 99:0 100:0 101:0 102:0 103:0 104:0 105:0 106:0 107:0 108:0 109:0 110:0 111:0 112:0 113:0 114:0 115:0 116:0 117:0 118:0 119:0 120:0 121:0 122:0 123:0 124:0 125:0 126:0 127:0 128:0 129:0 130:0 131:0 132:0 133:0 134:0 135:0 136:0 137:0 138:0 139:0 140:0 141:0 142:0 143:0 144:0 145:0 146:0 147:0 148:0 149:0 150:0 151:0 152:0 153:0 154:1 155:0 156:0 157:0 158:1 159:0 160:0 161:0 162:0 163:0 164:0 165:0 166:1 167:1 168:1 169:-1 170:1 171:1 172:1 173:-1 174:1 175:-1 176:1 177:0 178:0 179:0 180:0 181:0 182:0 183:0 184:0 185:0 186:1 187:0 188:0 189:0 190:0 191:0 192:0 193:0 194:0 195:0 196:0 197:0 198:0 199:0 200:0 201:0 202:0 203:0 204:0 205:0 206:1 207:0 208:0 209:0 210:0 211:0 212:1 213:0 214:0 215:0 216:0 217:0 218:1 219:0 220:0 221:0 222:0 223:0 224:0 225:0 226:0 227:0 228:0 229:1 230:0 231:1 232:0 233:1 234:1 235:0 236:0 237:0 238:0 239:0 240:0 241:0 242:0 243:0 #26768
-0.047749351639742185215986580715253 1:0 2:0 3:0 4:0 5:0 6:0 7:0 8:0 9:0 10:0 11:0 12:1 13:0 14:0 15:1 16:0 17:0 18:1 19:0 20:0 21:0 22:0 23:0 24:0 25:0 26:0 27:0 28:0 29:0 30:0 31:0 32:0 33:0 34:0 35:0 36:0 37:0 38:0 39:0 40:0 41:0 42:0 43:0 44:0 45:0 46:0 47:0 48:0 49:0 50:0 51:0 52:0 53:0 54:0 55:0 56:0 57:0 58:0 59:0 60:0 61:0 62:0 63:0 64:0 65:0 66:0 67:0 68:0 69:0 70:0 71:0 72:0 73:0 74:0 75:0 76:0 77:0 78:0 79:0 80:0 81:0 82:0 83:0 84:0 85:0 86:0 87:0 88:0 89:0 90:0 91:0 92:0 93:0 94:0 95:0 96:0 97:0 98:0 99:0 100:0 101:0 102:0 103:0 104:0 105:0 106:0 107:0 108:0 109:0 110:0 111:0 112:0 113:0 114:0 115:0 116:0 117:0 118:0 119:0 120:0 121:0 122:0 123:0 124:0 125:0 126:0 127:0 128:0 129:0 130:0 131:0 132:0 133:0 134:0 135:0 136:0 137:0 138:0 139:0 140:0 141:0 142:0 143:0 144:0 145:0 146:0 147:0 148:0 149:0 150:0 151:0 152:0 153:0 154:1 155:0 156:0 157:0 158:1 159:0 160:0 161:0 162:0 163:0 164:0 165:0 166:0 167:1 168:1 169:-1 170:1 171:1 172:-1 173:-1 174:1 175:-1 176:1 177:0 178:0 179:0 180:0 181:0 182:0 183:0 184:0 185:0 186:1 187:0 188:0 189:0 190:0 191:0 192:0 193:0 194:0 195:0 196:1 197:0 198:0 199:0 200:0 201:0 202:0 203:0 204:0 205:0 206:0 207:0 208:0 209:0 210:0 211:0 212:1 213:0 214:0 215:0 216:0 217:0 218:1 219:0 220:0 221:0 222:0 223:0 224:0 225:0 226:0 227:0 228:0 229:0 230:0 231:1 232:0 233:1 234:1 235:0 236:0 237:0 238:0 239:0 240:0 241:0 242:0 243:0 #61880
0.10000000000000000555111512312578 1:1 2:0 3:0 4:0 5:0 6:0 7:0 8:0 9:0 10:0 11:0 12:0 13:0 14:1 15:0 16:1 17:0 18:1 19:0 20:0 21:0 22:0 23:0 24:0 25:1 26:0 27:0 28:0 29:0 30:0 31:1 32:0 33:0 34:0 35:0 36:1 37:0 38:0 39:0 40:0 41:1 42:0 43:0 44:0 45:0 46:1 47:0 48:0 49:0 50:0 51:1 52:0 53:0 54:0 55:1 56:0 57:0 58:0 59:0 60:0 61:1 62:0 63:0 64:0 65:0 66:1 67:0 68:0 69:1 70:0 71:0 72:0 73:0 74:0 75:0 76:0 77:0 78:0 79:0 80:0 81:0 82:1 83:0 84:0 85:0 86:0 87:0 88:0 89:0 90:0 91:0 92:0 93:0 94:0 95:0 96:1 97:0 98:0 99:0 100:0 101:0 102:0 103:0 104:1 105:0 106:0 107:0 108:0 109:0 110:0 111:0 112:1 113:0 114:0 115:0 116:0 117:0 118:0 119:0 120:1 121:0 122:0 123:0 124:0 125:0 126:0 127:0 128:1 129:0 130:1 131:0 132:0 133:0 134:0 135:0 136:0 137:0 138:0 139:0 140:0 141:0 142:0 143:0 144:1 145:0 146:0 147:0 148:0 149:0 150:0 151:0 152:1 153:0 154:1 155:0 156:0 157:0 158:1 159:0 160:0 161:0 162:0 163:0 164:0 165:0 166:1 167:1 168:1 169:-1 170:1 171:1 172:1 173:1 174:1 175:1 176:1 177:0 178:0 179:0 180:0 181:0 182:0 183:0 184:0 185:0 186:1 187:0 188:0 189:0 190:0 191:0 192:0 193:0 194:0 195:0 196:0 197:0 198:0 199:0 200:0 201:0 202:0 203:0 204:0 205:0 206:1 207:0 208:0 209:0 210:0 211:1 212:0 213:0 214:0 215:0 216:0 217:0 218:0 219:0 220:0 221:1 222:0 223:0 224:0 225:0 226:0 227:0 228:0 229:0 230:0 231:1 232:0 233:1 234:1 235:0 236:0 237:0 238:0 239:0 240:0 241:0 242:0 243:0 #32777
-0.10000000000000000555111512312578 1:0 2:1 3:0 4:0 5:0 6:0 7:0 8:0 9:0 10:0 11:1 12:0 13:0 14:1 15:0 16:1 17:0 18:0 19:1 20:0 21:0 22:0 23:0 24:0 25:1 26:0 27:0 28:0 29:0 30:0 31:1 32:0 33:0 34:0 35:0 36:1 37:0 38:0 39:0 40:0 41:1 42:0 43:0 44:0 45:0 46:1 47:0 48:0 49:0 50:0 51:1 52:0 53:0 54:0 55:1 56:0 57:0 58:0 59:0 60:0 61:1 62:0 63:0 64:0 65:0 66:1 67:0 68:0 69:1 70:0 71:0 72:0 73:0 74:0 75:0 76:0 77:0 78:0 79:0 80:0 81:0 82:1 83:0 84:0 85:0 86:0 87:0 88:0 89:0 90:0 91:0 92:0 93:0 94:0 95:0 96:0 97:1 98:0 99:0 100:0 101:0 102:0 103:0 104:0 105:1 106:0 107:0 108:0 109:0 110:0 111:0 112:0 113:1 114:0 115:0 116:0 117:0 118:0 119:0 120:0 121:1 122:0 123:0 124:0 125:0 126:0 127:0 128:0 129:1 130:1 131:0 132:0 133:0 134:0 135:0 136:0 137:0 138:0 139:0 140:0 141:0 142:0 143:0 144:0 145:1 146:0 147:0 148:0 149:0 150:0 151:0 152:0 153:1 154:1 155:0 156:0 157:0 158:0 159:1 160:0 161:0 162:0 163:0 164:0 165:0 166:1 167:1 168:1 169:1 170:1 171:1 172:1 173:1 174:1 175:1 176:0 177:0 178:0 179:0 180:0 181:0 182:0 183:0 184:0 185:0 186:0 187:0 188:0 189:0 190:0 191:0 192:0 193:0 194:0 195:0 196:0 197:0 198:0 199:0 200:0 201:0 202:0 203:0 204:0 205:0 206:0 207:0 208:0 209:0 210:0 211:0 212:0 213:0 214:0 215:0 216:0 217:0 218:0 219:0 220:0 221:0 222:0 223:0 224:0 225:0 226:0 227:0 228:0 229:0 230:0 231:1 232:0 233:1 234:1 235:0 236:0 237:0 238:0 239:0 240:1 241:0 242:0 243:0 #21213
0.013478400668886905688914623624441 1:1 2:0 3:0 4:0 5:0 6:0 7:0 8:0 9:0 10:0 11:0 12:0 13:1 14:0 15:0 16:1 17:0 18:0 19:1 20:0 21:2 22:0 23:0 24:0 25:0 26:1 27:0 28:0 29:0 30:0 31:1 32:0 33:0 34:0 35:0 36:1 37:0 38:0 39:0 40:0 41:1 42:0 43:0 44:0 45:0 46:1 47:0 48:0 49:0 50:0 51:1 52:0 53:0 54:0 55:0 56:1 57:0 58:0 59:0 60:0 61:1 62:0 63:0 64:0 65:0 66:1 67:0 68:0 69:0 70:0 71:0 72:0 73:0 74:0 75:0 76:0 77:0 78:0 79:0 80:0 81:0 82:0 83:0 84:0 85:0 86:0 87:1 88:0 89:0 90:0 91:0 92:0 93:0 94:0 95:1 96:0 97:0 98:0 99:0 100:0 101:0 102:0 103:1 104:0 105:0 106:0 107:0 108:0 109:0 110:0 111:0 112:1 113:0 114:0 115:0 116:0 117:0 118:0 119:0 120:1 121:0 122:0 123:0 124:0 125:0 126:0 127:0 128:1 129:0 130:0 131:0 132:0 133:0 134:0 135:1 136:0 137:0 138:0 139:0 140:0 141:0 142:0 143:1 144:0 145:0 146:0 147:0 148:0 149:0 150:0 151:1 152:0 153:0 154:1 155:0 156:0 157:0 158:1 159:0 160:0 161:0 162:0 163:0 164:0 165:0 166:1 167:1 168:1 169:-1 170:1 171:1 172:1 173:1 174:1 175:1 176:0 177:1 178:0 179:0 180:0 181:0 182:0 183:0 184:0 185:0 186:0 187:1 188:0 189:0 190:0 191:0 192:0 193:0 194:0 195:0 196:0 197:0 198:0 199:0 200:0 201:0 202:0 203:0 204:0 205:0 206:0 207:1 208:0 209:0 210:0 211:0 212:1 213:0 214:0 215:0 216:0 217:0 218:0 219:0 220:0 221:0 222:1 223:0 224:0 225:0 226:0 227:0 228:0 229:0 230:0 231:0 232:0 233:0 234:1 235:-1 236:0 237:0 238:0 239:0 240:0 241:0 242:0 243:0 #9504
0.10000000000000000555111512312578 1:0 2:0 3:1 4:0 5:0 6:0 7:0 8:0 9:0 10:0 11:0 12:0 13:0 14:1 15:0 16:1 17:0 18:1 19:0 20:0 21:0 22:0 23:0 24:0 25:1 26:0 27:0 28:0 29:0 30:1 31:0 32:0 33:0 34:0 35:0 36:1 37:0 38:0 39:0 40:0 41:1 42:0 43:0 44:0 45:0 46:1 47:0 48:0 49:0 50:0 51:1 52:0 53:0 54:0 55:1 56:0 57:0 58:0 59:0 60:1 61:0 62:0 63:0 64:0 65:0 66:1 67:1 68:0 69:0 70:0 71:0 72:0 73:0 74:0 75:0 76:0 77:0 78:0 79:0 80:0 81:0 82:1 83:0 84:0 85:0 86:0 87:0 88:0 89:0 90:1 91:0 92:0 93:0 94:0 95:0 96:0 97:0 98:1 99:0 100:0 101:0 102:0 103:0 104:0 105:0 106:0 107:0 108:0 109:0 110:0 111:0 112:1 113:0 114:0 115:0 116:0 117:0 118:0 119:0 120:1 121:0 122:0 123:0 124:0 125:0 126:0 127:0 128:1 129:0 130:1 131:0 132:0 133:0 134:0 135:0 136:0 137:0 138:1 139:0 140:0 141:0 142:0 143:0 144:0 145:0 146:1 147:0 148:0 149:0 150:0 151:0 152:0 153:0 154:1 155:0 156:0 157:0 158:1 159:0 160:0 161:0 162:0 163:0 164:0 165:0 166:1 167:1 168:1 169:1 170:1 171:1 172:-1 173:1 174:1 175:1 176:0 177:0 178:0 179:0 180:0 181:0 182:0 183:0 184:0 185:0 186:0 187:0 188:0 189:0 190:0 191:0 192:0 193:0 194:0 195:0 196:0 197:1 198:0 199:0 200:0 201:0 202:0 203:0 204:0 205:0 206:0 207:0 208:0 209:0 210:0 211:0 212:0 213:0 214:0 215:0 216:0 217:1 218:0 219:0 220:0 221:0 222:0 223:0 224:0 225:0 226:0 227:0 228:0 229:0 230:0 231:1 232:0 233:1 234:1 235:0 236:0 237:0 238:0 239:0 240:0 241:0 242:0 243:0 #47601
0.10000000000000000555111512312578 1:0 2:0 3:0 4:0 5:1 6:0 7:0 8:0 9:0 10:0 11:0 12:0 13:0 14:1 15:0 16:0 17:1 18:1 19:0 20:0 21:0 22:0 23:0 24:0 25:1 26:0 27:0 28:0 29:0 30:1 31:0 32:0 33:0 34:0 35:0 36:1 37:0 38:0 39:0 40:1 41:0 42:0 43:0 44:0 45:1 46:0 47:0 48:0 49:0 50:0 51:1 52:0 53:0 54:0 55:1 56:0 57:0 58:0 59:0 60:1 61:0 62:0 63:0 64:0 65:0 66:1 67:1 68:0 69:0 70:0 71:0 72:1 73:0 74:0 75:0 76:0 77:0 78:0 79:0 80:0 81:0 82:1 83:0 84:0 85:0 86:0 87:0 88:0 89:0 90:1 91:0 92:0 93:0 94:0 95:0 96:0 97:0 98:1 99:0 100:0 101:0 102:0 103:0 104:0 105:0 106:1 107:0 108:0 109:0 110:0 111:0 112:0 113:0 114:1 115:0 116:0 117:0 118:0 119:0 120:0 121:0 122:1 123:0 124:0 125:0 126:0 127:0 128:0 129:0 130:1 131:0 132:0 133:0 134:0 135:0 136:0 137:0 138:1 139:0 140:0 141:0 142:0 143:0 144:0 145:0 146:1 147:0 148:0 149:0 150:0 151:0 152:0 153:0 154:1 155:0 156:0 157:0 158:1 159:0 160:0 161:0 162:0 163:0 164:0 165:0 166:1 167:1 168:1 169:1 170:1 171:1 172:-1 173:1 174:1 175:1 176:0 177:0 178:0 179:0 180:0 181:0 182:0 183:0 184:0 185:0 186:0 187:0 188:0 189:0 190:0 191:0 192:0 193:0 194:0 195:0 196:1 197:0 198:0 199:0 200:0 201:0 202:0 203:0 204:0 205:0 206:0 207:0 208:0 209:0 210:0 211:0 212:0 213:0 214:0 215:0 216:1 217:0 218:0 219:0 220:0 221:0 222:0 223:0 224:0 225:0 226:0 227:0 228:0 229:1 230:0 231:1 232:0 233:1 234:1 235:0 236:0 237:0 238:0 239:0 240:0 241:0 242:1 243:0 #28408
0.10000000000000000555111512312578 1:0 2:0 3:0 4:0 5:0 6:0 7:0 8:1 9:0 10:0 11:0 12:0 13:0 14:1 15:0 16:1 17:0 18:1 19:0 20:0 21:0 22:0 23:0 24:0 25:0 26:1 27:0 28:0 29:0 30:0 31:1 32:0 33:0 34:0 35:0 36:1 37:0 38:0 39:0 40:0 41:1 42:0 43:0 44:0 45:0 46:1 47:0 48:0 49:0 50:0 51:1 52:0 53:0 54:0 55:0 56:1 57:0 58:0 59:0 60:0 61:1 62:0 63:0 64:0 65:0 66:1 67:0 68:0 69:1 70:0 71:0 72:0 73:0 74:0 75:0 76:0 77:0 78:0 79:0 80:0 81:0 82:0 83:0 84:0 85:0 86:0 87:0 88:1 89:0 90:0 91:0 92:0 93:0 94:0 95:0 96:1 97:0 98:0 99:0 100:0 101:0 102:0 103:0 104:1 105:0 106:0 107:0 108:0 109:0 110:0 111:0 112:1 113:0 114:0 115:0 116:0 117:0 118:0 119:0 120:1 121:0 122:0 123:0 124:0 125:0 126:0 127:0 128:1 129:0 130:0 131:0 132:0 133:0 134:0 135:0 136:1 137:0 138:0 139:0 140:0 141:0 142:0 143:0 144:1 145:0 146:0 147:0 148:0 149:0 150:0 151:0 152:1 153:0 154:1 155:0 156:0 157:0 158:0 159:1 160:0 161:0 162:0 163:0 164:0 165:0 166:1 167:1 168:1 169:1 170:1 171:1 172:-1 173:1 174:1 175:1 176:0 177:0 178:0 179:0 180:0 181:0 182:0 183:0 184:0 185:0 186:0 187:0 188:0 189:0 190:0 191:0 192:0 193:0 194:0 195:0 196:1 197:0 198:0 199:0 200:0 201:0 202:0 203:0 204:0 205:0 206:0 207:0 208:0 209:0 210:0 211:1 212:0 213:0 214:0 215:0 216:1 217:0 218:0 219:0 220:0 221:0 222:0 223:0 224:0 225:0 226:0 227:0 228:0 229:0 230:0 231:1 232:0 233:1 234:1 235:0 236:1 237:0 238:0 239:0 240:1 241:0 242:0 243:0 #49182
-0.059558550244435806697573809742607 1:0 2:1 3:0 4:0 5:0 6:0 7:0 8:0 9:0 10:0 11:0 12:0 13:1 14:0 15:0 16:1 17:0 18:0 19:0 20:1 21:0 22:0 23:0 24:1 25:0 26:0 27:0 28:0 29:1 30:0 31:0 32:0 33:0 34:0 35:0 36:1 37:0 38:0 39:0 40:0 41:1 42:0 43:0 44:0 45:0 46:1 47:0 48:0 49:0 50:0 51:1 52:0 53:0 54:1 55:0 56:0 57:0 58:0 59:1 60:0 61:0 62:0 63:0 64:0 65:0 66:1 67:0 68:0 69:0 70:0 71:0 72:0 73:0 74:0 75:0 76:0 77:0 78:0 79:0 80:0 81:0 82:0 83:0 84:1 85:0 86:0 87:0 88:0 89:0 90:0 91:0 92:1 93:0 94:0 95:0 96:0 97:0 98:0 99:0 100:1 101:0 102:0 103:0 104:0 105:0 106:0 107:0 108:0 109:1 110:0 111:0 112:0 113:0 114:0 115:0 116:0 117:1 118:0 119:0 120:0 121:0 122:0 123:0 124:0 125:1 126:0 127:0 128:0 129:0 130:0 131:0 132:1 133:0 134:0 135:0 136:0 137:0 138:0 139:0 140:1 141:0 142:0 143:0 144:0 145:0 146:0 147:0 148:1 149:0 150:0 151:0 152:0 153:0 154:1 155:0 156:0 157:0 158:1 159:0 160:0 161:0 162:0 163:0 164:0 165:0 166:1 167:1 168:1 169:1 170:1 171:-1 172:1 173:-1 174:1 175:1 176:0 177:0 178:0 179:0 180:0 181:0 182:0 183:0 184:0 185:0 186:0 187:0 188:0 189:0 190:0 191:1 192:0 193:0 194:0 195:0 196:0 197:0 198:0 199:0 200:0 201:1 202:0 203:0 204:0 205:0 206:0 207:0 208:0 209:0 210:0 211:1 212:0 213:0 214:0 215:0 216:0 217:0 218:0 219:0 220:0 221:1 222:0 223:0 224:0 225:0 226:0 227:0 228:0 229:0 230:0 231:0 232:0 233:1 234:1 235:0 236:0 237:0 238:0 239:0 240:0 241:0 242:0 243:0 #47393
-0.10000000000000000555111512312578 1:0 2:0 3:0 4:0 5:0 6:0 7:0 8:0 9:0 10:0 11:0 12:0 13:0 14:1 15:0 16:0 17:1 18:0 19:1 20:0 21:0 22:0 23:0 24:0 25:1 26:0 27:0 28:0 29:0 30:1 31:0 32:0 33:0 34:0 35:0 36:1 37:0 38:0 39:0 40:1 41:0 42:0 43:0 44:0 45:1 46:0 47:0 48:0 49:0 50:0 51:1 52:0 53:0 54:0 55:1 56:0 57:0 58:0 59:0 60:1 61:0 62:0 63:0 64:0 65:0 66:1 67:1 68:0 69:0 70:0 71:0 72:1 73:0 74:0 75:0 76:0 77:0 78:0 79:0 80:0 81:0 82:1 83:0 84:0 85:0 86:0 87:0 88:0 89:0 90:1 91:0 92:0 93:0 94:0 95:0 96:0 97:0 98:1 99:0 100:0 101:0 102:0 103:0 104:0 105:0 106:1 107:0 108:0 109:0 110:0 111:0 112:0 113:0 114:1 115:0 116:0 117:0 118:0 119:0 120:0 121:0 122:1 123:0 124:0 125:0 126:0 127:0 128:0 129:0 130:1 131:0 132:0 133:0 134:0 135:0 136:0 137:0 138:1 139:0 140:0 141:0 142:0 143:0 144:0 145:0 146:1 147:0 148:0 149:0 150:0 151:0 152:0 153:0 154:1 155:0 156:0 157:0 158:1 159:0 160:0 161:0 162:0 163:0 164:0 165:0 166:1 167:-1 168:-1 169:-1 170:1 171:1 172:-1 173:1 174:1 175:1 176:1 177:0 178:0 179:0 180:0 181:0 182:0 183:0 184:0 185:0 186:1 187:0 188:0 189:0 190:0 191:0 192:0 193:0 194:0 195:0 196:0 197:0 198:0 199:1 200:0 201:0 202:0 203:0 204:0 205:0 206:0 207:0 208:0 209:0 210:0 211:1 212:0 213:0 214:0 215:0 216:0 217:0 218:0 219:1 220:0 221:0 222:0 223:0 224:0 225:0 226:0 227:0 228:0 229:1 230:0 231:1 232:0 233:1 234:1 235:0 236:0 237:0 238:0 239:0 240:0 241:0 242:1 243:0 #60272
-0.10000000000000000555111512312578 1:0 2:0 3:1 4:0 5:0 6:0 7:0 8:0 9:0 10:0 11:0 12:0 13:0 14:1 15:0 16:1 17:0 18:0 19:1 20:0 21:0 22:0 23:0 24:0 25:1 26:0 27:0 28:0 29:0 30:0 31:1 32:0 33:0 34:0 35:0 36:1 37:0 38:0 39:0 40:0 41:1 42:0 43:0 44:0 45:0 46:1 47:0 48:0 49:0 50:0 51:1 52:0 53:0 54:0 55:1 56:0 57:0 58:0 59:0 60:0 61:1 62:0 63:0 64:0 65:0 66:1 67:0 68:0 69:1 70:0 71:0 72:0 73:0 74:0 75:0 76:0 77:0 78:0 79:0 80:0 81:0 82:1 83:0 84:0 85:0 86:0 87:0 88:0 89:0 90:0 91:0 92:0 93:0 94:0 95:1 96:0 97:0 98:0 99:0 100:0 101:0 102:0 103:1 104:0 105:0 106:0 107:0 108:0 109:0 110:0 111:1 112:0 113:0 114:0 115:0 116:0 117:0 118:0 119:1 120:0 121:0 122:0 123:0 124:0 125:0 126:0 127:1 128:0 129:0 130:1 131:0 132:0 133:0 134:0 135:0 136:0 137:0 138:0 139:0 140:0 141:0 142:0 143:1 144:0 145:0 146:0 147:0 148:0 149:0 150:0 151:1 152:0 153:0 154:1 155:0 156:0 157:0 158:1 159:0 160:0 161:0 162:0 163:0 164:0 165:0 166:1 167:1 168:1 169:1 170:1 171:1 172:-1 173:1 174:1 175:1 176:0 177:0 178:0 179:0 180:0 181:0 182:0 183:0 184:0 185:0 186:0 187:0 188:0 189:0 190:0 191:0 192:0 193:0 194:0 195:0 196:1 197:0 198:0 199:0 200:0 201:0 202:0 203:0 204:0 205:0 206:0 207:0 208:0 209:0 210:0 211:0 212:1 213:0 214:0 215:0 216:1 217:0 218:0 219:0 220:0 221:1 222:0 223:0 224:0 225:0 226:0 227:0 228:0 229:0 230:0 231:1 232:0 233:1 234:1 235:0 236:0 237:0 238:0 239:0 240:0 241:0 242:1 243:0 #3560
0.076922549664526496115968257072382 1:0 2:1 3:0 4:0 5:0 6:0 7:0 8:1 9:0 10:0 11:0 12:0 13:1 14:0 15:1 16:0 17:0 18:0 19:1 20:0 21:0 22:0 23:0 24:0 25:0 26:0 27:0 28:0 29:0 30:0 31:1 32:0 33:0 34:0 35:0 36:1 37:0 38:0 39:0 40:0 41:0 42:0 43:0 44:0 45:0 46:0 47:0 48:0 49:0 50:0 51:0 52:0 53:0 54:0 55:0 56:0 57:0 58:0 59:0 60:0 61:1 62:0 63:0 64:0 65:0 66:1 67:0 68:0 69:0 70:0 71:0 72:0 73:0 74:0 75:0 76:0 77:0 78:0 79:0 80:0 81:0 82:0 83:0 84:0 85:0 86:0 87:0 88:0 89:1 90:0 91:0 92:0 93:0 94:0 95:0 96:0 97:1 98:0 99:0 100:0 101:0 102:0 103:0 104:0 105:1 106:0 107:0 108:0 109:0 110:0 111:1 112:0 113:0 114:0 115:0 116:0 117:0 118:0 119:1 120:0 121:0 122:0 123:0 124:0 125:0 126:0 127:1 128:0 129:0 130:0 131:0 132:0 133:0 134:0 135:0 136:0 137:1 138:0 139:0 140:0 141:0 142:0 143:0 144:0 145:1 146:0 147:0 148:0 149:0 150:0 151:0 152:0 153:1 154:1 155:0 156:0 157:0 158:0 159:1 160:0 161:0 162:0 163:0 164:0 165:0 166:1 167:1 168:1 169:-1 170:1 171:1 172:1 173:1 174:1 175:-1 176:0 177:1 178:0 179:0 180:0 181:0 182:0 183:0 184:0 185:0 186:0 187:1 188:0 189:0 190:0 191:0 192:0 193:0 194:0 195:0 196:0 197:0 198:0 199:0 200:0 201:0 202:0 203:0 204:0 205:0 206:0 207:1 208:0 209:0 210:0 211:0 212:1 213:0 214:0 215:0 216:0 217:1 218:0 219:0 220:0 221:0 222:0 223:0 224:0 225:0 226:0 227:0 228:0 229:0 230:0 231:0 232:0 233:1 234:1 235:0 236:1 237:0 238:0 239:0 240:0 241:0 242:0 243:0 #17369
-0.09580587899426765141619455334876 1:0 2:1 3:0 4:0 5:0 6:0 7:0 8:0 9:0 10:0 11:0 12:0 13:0 14:1 15:0 16:1 17:0 18:0 19:1 20:0 21:0 22:0 23:0 24:0 25:1 26:0 27:0 28:0 29:0 30:1 31:0 32:0 33:0 34:0 35:0 36:1 37:0 38:0 39:0 40:0 41:1 42:0 43:0 44:0 45:0 46:1 47:0 48:0 49:0 50:0 51:1 52:0 53:0 54:0 55:1 56:0 57:0 58:0 59:0 60:1 61:0 62:0 63:0 64:0 65:0 66:1 67:1 68:0 69:0 70:0 71:0 72:0 73:0 74:0 75:0 76:0 77:0 78:0 79:0 80:0 81:0 82:1 83:0 84:0 85:0 86:0 87:0 88:0 89:0 90:1 91:0 92:0 93:0 94:0 95:0 96:0 97:0 98:1 99:0 100:0 101:0 102:0 103:0 104:0 105:0 106:0 107:0 108:0 109:0 110:0 111:0 112:1 113:0 114:0 115:0 116:0 117:0 118:0 119:0 120:1 121:0 122:0 123:0 124:0 125:0 126:0 127:0 128:1 129:0 130:1 131:0 132:0 133:0 134:0 135:0 136:0 137:0 138:1 139:0 140:0 141:0 142:0 143:0 144:0 145:0 146:1 147:0 148:0 149:0 150:0 151:0 152:0 153:0 154:1 155:0 156:0 157:0 158:1 159:0 160:0 161:0 162:0 163:0 164:0 165:0 166:1 167:1 168:1 169:1 170:1 171:1 172:1 173:1 174:1 175:1 176:0 177:0 178:0 179:0 180:0 181:0 182:0 183:0 184:0 185:0 186:0 187:0 188:0 189:0 190:0 191:0 192:0 193:0 194:0 195:0 196:0 197:0 198:0 199:0 200:0 201:0 202:0 203:0 204:0 205:0 206:0 207:0 208:0 209:0 210:0 211:0 212:0 213:0 214:0 215:0 216:0 217:0 218:0 219:0 220:0 221:0 222:0 223:0 224:0 225:0 226:0 227:0 228:0 229:0 230:0 231:1 232:0 233:1 234:1 235:0 236:0 237:0 238:0 239:0 240:0 241:0 242:0 243:0 #49531
0.10000000000000000555111512312578 1:0 2:0 3:0 4:0 5:0 6:0 7:0 8:0 9:0 10:0 11:0 12:0 13:0 14:1 15:1 16:0 17:0 18:1 19:0 20:0 21:0 22:0 23:0 24:0 25:1 26:0 27:0 28:0 29:0 30:0 31:0 32:0 33:0 34:0 35:1 36:0 37:0 38:0 39:0 40:0 41:0 42:0 43:0 44:0 45:0 46:0 47:0 48:0 49:0 50:0 51:0 52:0 53:0 54:0 55:0 56:0 57:0 58:0 59:0 60:0 61:0 62:0 63:0 64:0 65:0 66:0 67:1 68:0 69:0 70:0 71:0 72:0 73:0 74:1 75:0 76:0 77:0 78:0 79:0 80:0 81:0 82:1 83:0 84:0 85:0 86:0 87:0 88:0 89:0 90:0 91:0 92:0 93:0 94:0 95:0 96:0 97:0 98:1 99:0 100:0 101:0 102:0 103:0 104:0 105:0 106:0 107:0 108:0 109:0 110:0 111:0 112:0 113:0 114:0 115:0 116:0 117:0 118:0 119:0 120:0 121:0 122:0 123:0 124:0 125:0 126:0 127:0 128:0 129:0 130:0 131:0 132:0 133:0 134:0 135:0 136:0 137:0 138:0 139:0 140:0 141:0 142:0 143:0 144:0 145:0 146:0 147:0 148:0 149:0 150:0 151:0 152:0 153:0 154:1 155:0 156:0 157:0 158:1 159:0 160:0 161:0 162:0 163:0 164:0 165:0 166:1 167:1 168:1 169:-1 170:-1 171:1 172:1 173:-1 174:1 175:-1 176:0 177:1 178:0 179:0 180:0 181:1 182:0 183:0 184:0 185:0 186:1 187:0 188:0 189:0 190:0 191:0 192:0 193:0 194:0 195:0 196:0 197:0 198:0 199:0 200:0 201:0 202:0 203:0 204:0 205:0 206:0 207:1 208:0 209:0 210:0 211:0 212:0 213:1 214:0 215:0 216:0 217:0 218:0 219:1 220:0 221:0 222:0 223:0 224:0 225:0 226:0 227:0 228:0 229:1 230:0 231:1 232:0 233:1 234:1 235:0 236:0 237:0 238:0 239:0 240:0 241:0 242:0 243:0 #36203
0.10000000000000000555111512312578 1:0 2:1 3:0 4:0 5:0 6:0 7:0 8:0 9:0 10:0 11:0 12:1 13:0 14:0 15:0 16:0 17:1 18:0 19:0 20:1 21:0 22:0 23:0 24:0 25:0 26:0 27:0 28:0 29:0 30:0 31:0 32:0 33:0 34:0 35:0 36:0 37:0 38:0 39:0 40:1 41:0 42:0 43:0 44:0 45:1 46:0 47:0 48:0 49:0 50:0 51:1 52:0 53:0 54:0 55:0 56:0 57:0 58:0 59:0 60:0 61:0 62:0 63:0 64:0 65:0 66:0 67:0 68:1 69:0 70:0 71:0 72:1 73:0 74:0 75:0 76:0 77:0 78:0 79:0 80:0 81:0 82:0 83:0 84:1 85:0 86:0 87:0 88:0 89:0 90:0 91:0 92:1 93:0 94:0 95:0 96:0 97:0 98:0 99:0 100:1 101:0 102:0 103:0 104:0 105:0 106:1 107:0 108:0 109:0 110:0 111:0 112:0 113:0 114:1 115:0 116:0 117:0 118:0 119:0 120:0 121:0 122:1 123:0 124:0 125:0 126:0 127:0 128:0 129:0 130:0 131:0 132:1 133:0 134:0 135:0 136:0 137:0 138:0 139:0 140:1 141:0 142:0 143:0 144:0 145:0 146:0 147:0 148:1 149:0 150:0 151:0 152:0 153:0 154:1 155:0 156:0 157:0 158:1 159:0 160:0 161:0 162:0 163:0 164:0 165:0 166:1 167:1 168:1 169:1 170:1 171:-1 172:1 173:-1 174:1 175:1 176:0 177:0 178:0 179:0 180:0 181:0 182:0 183:0 184:0 185:0 186:0 187:0 188:0 189:0 190:0 191:1 192:0 193:0 194:0 195:0 196:0 197:0 198:0 199:0 200:0 201:1 202:0 203:0 204:0 205:0 206:0 207:0 208:0 209:0 210:0 211:0 212:1 213:0 214:0 215:0 216:0 217:0 218:0 219:0 220:0 221:0 222:1 223:0 224:0 225:0 226:0 227:0 228:0 229:1 230:0 231:1 232:0 233:1 234:1 235:0 236:0 237:0 238:0 239:0 240:0 241:0 242:0 243:0 #37243
-0.050525625977213745043670201084751 1:0 2:0 3:0 4:1 5:0 6:0 7:0 8:0 9:0 10:0 11:0 12:0 13:0 14:1 15:0 16:1 17:0 18:0 19:0 20:1 21:0 22:0 23:0 24:0 25:0 26:1 27:0 28:0 29:0 30:0 31:1 32:0 33:0 34:0 35:0 36:1 37:0 38:0 39:0 40:0 41:1 42:0 43:0 44:0 45:0 46:1 47:0 48:0 49:0 50:0 51:1 52:0 53:0 54:0 55:0 56:1 57:0 58:0 59:0 60:0 61:1 62:0 63:0 64:0 65:0 66:1 67:0 68:1 69:0 70:0 71:0 72:0 73:0 74:0 75:0 76:0 77:0 78:0 79:0 80:0 81:0 82:0 83:0 84:0 85:0 86:1 87:0 88:0 89:0 90:0 91:0 92:0 93:0 94:1 95:0 96:0 97:0 98:0 99:0 100:0 101:0 102:1 103:0 104:0 105:0 106:0 107:0 108:0 109:0 110:1 111:0 112:0 113:0 114:0 115:0 116:0 117:0 118:1 119:0 120:0 121:0 122:0 123:0 124:0 125:0 126:1 127:0 128:0 129:0 130:0 131:0 132:0 133:0 134:1 135:0 136:0 137:0 138:0 139:0 140:0 141:0 142:1 143:0 144:0 145:0 146:0 147:0 148:0 149:0 150:1 151:0 152:0 153:0 154:1 155:0 156:0 157:0 158:1 159:0 160:0 161:0 162:0 163:0 164:0 165:0 166:1 167:-1 168:-1 169:-1 170:1 171:1 172:1 173:1 174:1 175:1 176:0 177:0 178:0 179:0 180:1 181:0 182:0 183:0 184:0 185:0 186:0 187:0 188:0 189:0 190:1 191:0 192:0 193:0 194:0 195:0 196:0 197:0 198:0 199:0 200:0 201:0 202:0 203:0 204:0 205:0 206:0 207:0 208:0 209:0 210:1 211:0 212:0 213:0 214:0 215:1 216:0 217:0 218:0 219:0 220:0 221:0 222:0 223:0 224:0 225:1 226:0 227:0 228:0 229:0 230:0 231:1 232:0 233:1 234:1 235:0 236:0 237:0 238:0 239:0 240:0 241:0 242:0 243:0 #23601
-0.10000000000000000555111512312578 1:0 2:0 3:0 4:1 5:0 6:0 7:0 8:0 9:0 10:0 11:0 12:1 13:0 14:0 15:0 16:0 17:1 18:1 19:0 20:0 21:0 22:0 23:0 24:0 25:0 26:0 27:0 28:0 29:0 30:0 31:0 32:0 33:0 34:0 35:0 36:0 37:0 38:0 39:0 40:1 41:0 42:0 43:0 44:0 45:1 46:0 47:0 48:0 49:0 50:0 51:1 52:0 53:0 54:0 55:0 56:0 57:0 58:0 59:0 60:0 61:0 62:0 63:0 64:0 65:0 66:0 67:0 68:1 69:0 70:0 71:0 72:1 73:0 74:0 75:0 76:0 77:0 78:0 79:0 80:0 81:0 82:0 83:0 84:1 85:0 86:0 87:0 88:0 89:0 90:0 91:0 92:1 93:0 94:0 95:0 96:0 97:0 98:0 99:0 100:1 101:0 102:0 103:0 104:0 105:0 106:1 107:0 108:0 109:0 110:0 111:0 112:0 113:0 114:1 115:0 116:0 117:0 118:0 119:0 120:0 121:0 122:1 123:0 124:0 125:0 126:0 127:0 128:0 129:0 130:0 131:0 132:1 133:0 134:0 135:0 136:0 137:0 138:0 139:0 140:1 141:0 142:0 143:0 144:0 145:0 146:0 147:0 148:1 149:0 150:0 151:0 152:0 153:0 154:1 155:0 156:0 157:0 158:1 159:0 160:0 161:0 162:0 163:0 164:0 165:0 166:1 167:1 168:1 169:1 170:1 171:-1 172:1 173:-1 174:1 175:1 176:0 177:0 178:0 179:0 180:0 181:0 182:0 183:0 184:0 185:0 186:0 187:0 188:0 189:0 190:0 191:1 192:0 193:0 194:0 195:0 196:0 197:0 198:0 199:0 200:0 201:1 202:0 203:0 204:0 205:0 206:0 207:0 208:0 209:0 210:0 211:1 212:0 213:0 214:0 215:0 216:0 217:0 218:0 219:0 220:0 221:1 222:0 223:0 224:0 225:0 226:0 227:0 228:0 229:1 230:0 231:1 232:0 233:1 234:1 235:0 236:0 237:0 238:0 239:0 240:0 241:0 242:0 243:0 #47366
-0.10000000000000000555111512312578 1:0 2:1 3:0 4:0 5:0 6:0 7:0 8:1 9:0 10:0 11:0 12:0 13:0 14:1 15:0 16:1 17:0 18:1 19:0 20:0 21:0 22:0 23:0 24:0 25:0 26:1 27:0 28:0 29:0 30:1 31:0 32:0 33:0 34:0 35:0 36:1 37:0 38:0 39:0 40:0 41:1 42:0 43:0 44:0 45:0 46:1 47:0 48:0 49:0 50:0 51:1 52:0 53:0 54:0 55:0 56:1 57:0 58:0 59:0 60:1 61:0 62:0 63:0 64:0 65:0 66:1 67:0 68:0 69:1 70:0 71:0 72:0 73:0 74:0 75:0 76:0 77:0 78:0 79:0 80:0 81:0 82:0 83:0 84:0 85:0 86:0 87:0 88:0 89:1 90:1 91:0 92:0 93:0 94:0 95:0 96:0 97:0 98:0 99:0 100:0 101:0 102:0 103:0 104:0 105:1 106:0 107:0 108:0 109:0 110:0 111:0 112:0 113:1 114:0 115:0 116:0 117:0 118:0 119:0 120:0 121:1 122:0 123:0 124:0 125:0 126:0 127:0 128:0 129:1 130:0 131:0 132:0 133:0 134:0 135:0 136:0 137:1 138:1 139:0 140:0 141:0 142:0 143:0 144:0 145:0 146:0 147:0 148:0 149:0 150:0 151:0 152:0 153:1 154:0 155:1 156:0 157:0 158:0 159:1 160:0 161:0 162:0 163:0 164:0 165:0 166:1 167:1 168:1 169:-1 170:1 171:1 172:1 173:1 174:1 175:1 176:1 177:0 178:0 179:0 180:0 181:0 182:0 183:0 184:0 185:0 186:1 187:0 188:0 189:0 190:0 191:0 192:0 193:0 194:0 195:0 196:0 197:0 198:0 199:0 200:0 201:0 202:0 203:0 204:0 205:0 206:1 207:0 208:0 209:0 210:0 211:0 212:1 213:0 214:0 215:0 216:0 217:0 218:0 219:0 220:0 221:0 222:1 223:0 224:0 225:0 226:0 227:0 228:0 229:0 230:0 231:1 232:0 233:1 234:1 235:0 236:0 237:0 238:0 239:0 240:0 241:0 242:0 243:0 #36483
0.10000000000000000555111512312578 1:0 2:1 3:0 4:0 5:0 6:0 7:0 8:0 9:0 10:0 11:0 12:0 13:0 14:1 15:1 16:0 17:0 18:1 19:0 20:0 21:0 22:0 23:0 24:0 25:1 26:0 27:0 28:0 29:0 30:1 31:0 32:0 33:0 34:0 35:0 36:1 37:0 38:0 39:0 40:0 41:0 42:0 43:0 44:0 45:0 46:0 47:0 48:0 49:0 50:0 51:0 52:0 53:0 54:0 55:0 56:0 57:0 58:0 59:0 60:0 61:0 62:0 63:0 64:0 65:0 66:0 67:1 68:0 69:0 70:0 71:0 72:0 73:1 74:0 75:0 76:0 77:0 78:0 79:0 80:0 81:0 82:1 83:0 84:0 85:0 86:0 87:0 88:0 89:0 90:1 91:0 92:0 93:0 94:0 95:0 96:0 97:0 98:1 99:0 100:0 101:0 102:0 103:0 104:0 105:0 106:0 107:0 108:1 109:0 110:0 111:0 112:0 113:0 114:0 115:0 116:1 117:0 118:0 119:0 120:0 121:0 122:0 123:0 124:1 125:0 126:0 127:0 128:0 129:0 130:0 131:0 132:1 133:0 134:0 135:0 136:0 137:0 138:0 139:0 140:1 141:0 142:0 143:0 144:0 145:0 146:0 147:0 148:1 149:0 150:0 151:0 152:0 153:0 154:1 155:0 156:0 157:0 158:1 159:0 160:0 161:0 162:0 163:0 164:0 165:0 166:1 167:1 168:1 169:1 170:1 171:1 172:1 173:-1 174:1 175:1 176:0 177:0 178:0 179:0 180:0 181:0 182:0 183:0 184:0 185:0 186:0 187:0 188:0 189:0 190:0 191:0 192:0 193:0 194:0 195:0 196:0 197:0 198:0 199:0 200:0 201:0 202:0 203:0 204:0 205:0 206:0 207:0 208:0 209:0 210:0 211:1 212:0 213:0 214:0 215:0 216:0 217:0 218:0 219:0 220:0 221:1 222:0 223:0 224:0 225:0 226:0 227:0 228:0 229:1 230:1 231:1 232:0 233:1 234:1 235:0 236:0 237:0 238:0 239:0 240:0 241:0 242:0 243:0 #5693
-0.026450379110774416974161127313891 1:0 2:1 3:0 4:0 5:0 6:0 7:0 8:0 9:0 10:0 11:0 12:0 13:0 14:1 15:1 16:0 17:0 18:1 19:0 20:0 21:0 22:0 23:0 24:0 25:1 26:0 27:0 28:1 29:0 30:0 31:0 32:0 33:0 34:0 35:0 36:1 37:0 38:1 39:0 40:0 41:0 42:0 43:1 44:0 45:0 46:0 47:0 48:0 49:0 50:1 51:0 52:0 53:1 54:0 55:0 56:0 57:0 58:1 59:0 60:0 61:0 62:0 63:0 64:0 65:1 66:0 67:1 68:0 69:0 70:0 71:0 72:0 73:1 74:0 75:0 76:0 77:0 78:0 79:0 80:0 81:0 82:1 83:0 84:0 85:0 86:0 87:0 88:0 89:0 90:0 91:1 92:0 93:0 94:0 95:0 96:0 97:0 98:1 99:0 100:0 101:0 102:0 103:0 104:0 105:0 106:0 107:1 108:0 109:0 110:0 111:0 112:0 113:0 114:0 115:1 116:0 117:0 118:0 119:0 120:0 121:0 122:0 123:1 124:0 125:0 126:0 127:0 128:0 129:0 130:0 131:1 132:0 133:0 134:0 135:0 136:0 137:0 138:0 139:1 140:0 141:0 142:0 143:0 144:0 145:0 146:0 147:1 148:0 149:0 150:0 151:0 152:0 153:0 154:0 155:0 156:1 157:0 158:1 159:0 160:0 161:0 162:0 163:0 164:0 165:0 166:1 167:-1 168:-1 169:-1 170:-1 171:1 172:1 173:1 174:1 175:1 176:0 177:1 178:0 179:0 180:0 181:1 182:0 183:0 184:0 185:0 186:1 187:0 188:0 189:0 190:0 191:0 192:0 193:0 194:0 195:0 196:0 197:0 198:0 199:0 200:0 201:0 202:0 203:0 204:0 205:0 206:0 207:1 208:0 209:0 210:0 211:0 212:0 213:1 214:0 215:0 216:0 217:0 218:0 219:0 220:0 221:0 222:0 223:1 224:0 225:0 226:0 227:0 228:0 229:1 230:1 231:1 232:0 233:1 234:1 235:0 236:0 237:0 238:0 239:0 240:0 241:0 242:0 243:0 #29332
0.10000000000000000555111512312578 1:0 2:1 3:0 4:0 5:0 6:0 7:0 8:0 9:0 10:0 11:0 12:0 13:0 14:1 15:0 16:1 17:0 18:0 19:1 20:0 21:0 22:0 23:0 24:0 25:1 26:0 27:0 28:0 29:0 30:1 31:0 32:0 33:0 34:0 35:0 36:1 37:0 38:0 39:0 40:0 41:1 42:0 43:0 44:0 45:0 46:1 47:0 48:0 49:0 50:0 51:1 52:0 53:0 54:0 55:1 56:0 57:0 58:0 59:0 60:1 61:0 62:0 63:0 64:0 65:0 66:1 67:1 68:0 69:0 70:0 71:0 72:0 73:0 74:0 75:0 76:0 77:0 78:0 79:0 80:0 81:0 82:1 83:0 84:0 85:0 86:0 87:0 88:0 89:0 90:1 91:0 92:0 93:0 94:0 95:0 96:0 97:0 98:1 99:0 100:0 101:0 102:0 103:0 104:0 105:0 106:0 107:0 108:0 109:1 110:0 111:0 112:0 113:0 114:0 115:0 116:0 117:1 118:0 119:0 120:0 121:0 122:0 123:0 124:0 125:1 126:0 127:0 128:0 129:0 130:1 131:0 132:0 133:0 134:0 135:0 136:0 137:0 138:1 139:0 140:0 141:0 142:0 143:0 144:0 145:0 146:1 147:0 148:0 149:0 150:0 151:0 152:0 153:0 154:1 155:0 156:0 157:0 158:1 159:0 160:0 161:0 162:0 163:0 164:0 165:0 166:1 167:-1 168:-1 169:-1 170:1 171:1 172:1 173:1 174:1 175:-1 176:0 177:1 178:0 179:0 180:0 181:0 182:0 183:0 184:0 185:0 186:0 187:1 188:0 189:0 190:0 191:0 192:0 193:0 194:0 195:0 196:0 197:0 198:0 199:0 200:0 201:0 202:0 203:0 204:0 205:0 206:0 207:1 208:0 209:0 210:0 211:0 212:0 213:0 214:0 215:1 216:1 217:0 218:0 219:0 220:0 221:0 222:0 223:0 224:1 225:0 226:0 227:0 228:0 229:0 230:0 231:1 232:0 233:1 234:1 235:0 236:0 237:0 238:0 239:0 240:0 241:0 242:0 243:0 #14730
0.10000000000000000555111512312578 1:0 2:0 3:1 4:0 5:0 6:0 7:0 8:0 9:0 10:0 11:0 12:0 13:0 14:1 15:0 16:0 17:1 18:0 19:1 20:0 21:0 22:0 23:0 24:0 25:1 26:0 27:0 28:0 29:0 30:1 31:0 32:0 33:0 34:0 35:0 36:1 37:0 38:0 39:0 40:1 41:0 42:0 43:0 44:0 45:1 46:0 47:0 48:0 49:0 50:0 51:1 52:0 53:0 54:0 55:1 56:0 57:0 58:0 59:0 60:1 61:0 62:0 63:0 64:0 65:0 66:1 67:1 68:0 69:0 70:0 71:0 72:1 73:0 74:0 75:0 76:0 77:0 78:0 79:0 80:0 81:0 82:1 83:0 84:0 85:0 86:0 87:0 88:0 89:0 90:1 91:0 92:0 93:0 94:0 95:0 96:0 97:0 98:1 99:0 100:0 101:0 102:0 103:0 104:0 105:0 106:1 107:0 108:0 109:0 110:0 111:0 112:0 113:0 114:1 115:0 116:0 117:0 118:0 119:0 120:0 121:0 122:1 123:0 124:0 125:0 126:0 127:0 128:0 129:0 130:1 131:0 132:0 133:0 134:0 135:0 136:0 137:0 138:1 139:0 140:0 141:0 142:0 143:0 144:0 145:0 146:1 147:0 148:0 149:0 150:0 151:0 152:0 153:0 154:1 155:0 156:0 157:0 158:1 159:0 160:0 161:0 162:0 163:0 164:0 165:0 166:1 167:1 168:1 169:1 170:1 171:1 172:-1 173:1 174:1 175:1 176:0 177:0 178:0 179:0 180:0 181:0 182:0 183:0 184:0 185:0 186:0 187:0 188:0 189:0 190:0 191:0 192:0 193:0 194:0 195:0 196:0 197:1 198:0 199:0 200:0 201:0 202:0 203:0 204:0 205:0 206:0 207:0 208:0 209:0 210:0 211:0 212:0 213:0 214:0 215:0 216:0 217:1 218:0 219:0 220:0 221:0 222:0 223:0 224:0 225:0 226:0 227:0 228:0 229:1 230:0 231:1 232:0 233:1 234:1 235:0 236:0 237:0 238:0 239:0 240:0 241:0 242:1 243:0 #33461
0.10000000000000000555111512312578 1:0 2:0 3:0 4:0 5:0 6:0 7:0 8:0 9:0 10:0 11:0 12:1 13:0 14:0 15:0 16:1 17:0 18:0 19:1 20:0 21:0 22:0 23:0 24:0 25:0 26:0 27:0 28:0 29:0 30:0 31:1 32:0 33:0 34:0 35:0 36:1 37:0 38:0 39:0 40:0 41:1 42:0 43:0 44:0 45:0 46:1 47:0 48:0 49:0 50:0 51:1 52:0 53:0 54:0 55:0 56:0 57:0 58:0 59:0 60:0 61:1 62:0 63:0 64:0 65:0 66:1 67:0 68:0 69:1 70:0 71:0 72:0 73:0 74:0 75:0 76:0 77:0 78:0 79:0 80:0 81:0 82:0 83:0 84:0 85:0 86:0 87:0 88:0 89:0 90:0 91:0 92:0 93:0 94:0 95:0 96:0 97:1 98:0 99:0 100:0 101:0 102:0 103:0 104:0 105:1 106:0 107:0 108:0 109:0 110:0 111:0 112:0 113:1 114:0 115:0 116:0 117:0 118:0 119:0 120:0 121:1 122:0 123:0 124:0 125:0 126:0 127:0 128:0 129:1 130:0 131:0 132:0 133:0 134:0 135:0 136:0 137:0 138:0 139:0 140:0 141:0 142:0 143:0 144:0 145:1 146:0 147:0 148:0 149:0 150:0 151:0 152:0 153:1 154:0 155:1 156:0 157:0 158:1 159:0 160:0 161:0 162:0 163:0 164:0 165:0 166:1 167:-1 168:-1 169:1 170:1 171:1 172:-1 173:-1 174:1 175:1 176:0 177:0 178:0 179:0 180:0 181:0 182:0 183:0 184:0 185:0 186:0 187:0 188:0 189:0 190:0 191:0 192:0 193:0 194:0 195:0 196:1 197:0 198:0 199:0 200:0 201:0 202:0 203:0 204:0 205:0 206:0 207:0 208:0 209:0 210:0 211:0 212:1 213:0 214:0 215:0 216:1 217:0 218:0 219:0 220:0 221:1 222:0 223:0 224:0 225:0 226:0 227:0 228:0 229:0 230:0 231:1 232:0 233:1 234:1 235:0 236:0 237:0 238:0 239:0 240:0 241:0 242:0 243:1 #52378
0.10000000000000000555111512312578 1:1 2:0 3:0 4:0 5:0 6:0 7:0 8:0 9:0 10:0 11:0 12:0 13:1 14:0 15:0 16:0 17:1 18:0 19:0 20:1 21:0 22:0 23:0 24:1 25:0 26:0 27:0 28:0 29:0 30:1 31:0 32:0 33:0 34:0 35:0 36:1 37:0 38:0 39:0 40:1 41:0 42:0 43:0 44:0 45:1 46:0 47:0 48:0 49:0 50:0 51:1 52:0 53:0 54:0 55:1 56:0 57:0 58:0 59:0 60:1 61:0 62:0 63:0 64:0 65:0 66:1 67:0 68:0 69:0 70:0 71:0 72:1 73:0 74:0 75:0 76:0 77:0 78:0 79:0 80:0 81:0 82:1 83:0 84:0 85:0 86:0 87:0 88:0 89:0 90:1 91:0 92:0 93:0 94:0 95:0 96:0 97:0 98:1 99:0 100:0 101:0 102:0 103:0 104:0 105:0 106:1 107:0 108:0 109:0 110:0 111:0 112:0 113:0 114:1 115:0 116:0 117:0 118:0 119:0 120:0 121:0 122:1 123:0 124:0 125:0 126:0 127:0 128:0 129:0 130:1 131:0 132:0 133:0 134:0 135:0 136:0 137:0 138:1 139:0 140:0 141:0 142:0 143:0 144:0 145:0 146:1 147:0 148:0 149:0 150:0 151:0 152:0 153:0 154:1 155:0 156:0 157:0 158:1 159:0 160:0 161:0 162:0 163:0 164:0 165:0 166:1 167:1 168:1 169:-1 170:1 171:1 172:1 173:1 174:1 175:1 176:1 177:0 178:0 179:0 180:0 181:0 182:0 183:0 184:0 185:0 186:1 187:0 188:0 189:0 190:0 191:0 192:0 193:0 194:0 195:0 196:0 197:0 198:0 199:0 200:0 201:0 202:0 203:0 204:0 205:0 206:1 207:0 208:0 209:0 210:0 211:1 212:0 213:0 214:0 215:0 216:0 217:0 218:0 219:0 220:0 221:1 222:0 223:0 224:0 225:0 226:0 227:0 228:0 229:1 230:0 231:1 232:0 233:1 234:1 235:0 236:0 237:0 238:0 239:0 240:0 241:0 242:0 243:0 #62552
0.10000000000000000555111512312578 1:0 2:0 3:0 4:0 5:0 6:0 7:0 8:0 9:0 10:0 11:0 12:0 13:1 14:0 15:0 16:0 17:1 18:0 19:0 20:1 21:0 22:0 23:0 24:1 25:0 26:0 27:0 28:0 29:0 30:1 31:0 32:0 33:0 34:0 35:0 36:1 37:0 38:0 39:0 40:1 41:0 42:0 43:0 44:0 45:1 46:0 47:0 48:0 49:0 50:0 51:1 52:0 53:0 54:0 55:1 56:0 57:0 58:0 59:0 60:1 61:0 62:0 63:0 64:0 65:0 66:1 67:0 68:0 69:0 70:0 71:0 72:1 73:0 74:0 75:0 76:0 77:0 78:0 79:0 80:0 81:0 82:1 83:0 84:0 85:0 86:0 87:0 88:0 89:0 90:1 91:0 92:0 93:0 94:0 95:0 96:0 97:0 98:1 99:0 100:0 101:0 102:0 103:0 104:0 105:0 106:1 107:0 108:0 109:0 110:0 111:0 112:0 113:0 114:1 115:0 116:0 117:0 118:0 119:0 120:0 121:0 122:1 123:0 124:0 125:0 126:0 127:0 128:0 129:0 130:1 131:0 132:0 133:0 134:0 135:0 136:0 137:0 138:1 139:0 140:0 141:0 142:0 143:0 144:0 145:0 146:1 147:0 148:0 149:0 150:0 151:0 152:0 153:0 154:1 155:0 156:0 157:0 158:1 159:0 160:0 161:0 162:0 163:0 164:0 165:0 166:1 167:1 168:1 169:-1 170:1 171:1 172:1 173:1 174:1 175:-1 176:0 177:0 178:1 179:0 180:0 181:0 182:0 183:0 184:0 185:0 186:0 187:0 188:1 189:0 190:0 191:0 192:0 193:0 194:0 195:0 196:0 197:0 198:0 199:0 200:0 201:0 202:0 203:0 204:0 205:0 206:0 207:0 208:1 209:0 210:0 211:0 212:0 213:1 214:0 215:0 216:0 217:0 218:0 219:0 220:1 221:0 222:0 223:0 224:0 225:0 226:0 227:0 228:0 229:1 230:0 231:1 232:0 233:1 234:1 235:0 236:0 237:0 238:0 239:0 240:0 241:0 242:0 243:1 #34828
0.10000000000000000555111512312578 1:0 2:1 3:0 4:0 5:0 6:0 7:0 8:1 9:0 10:0 11:0 12:0 13:0 14:1 15:0 16:1 17:0 18:0 19:1 20:0 21:0 22:0 23:0 24:0 25:0 26:1 27:0 28:0 29:0 30:1 31:0 32:0 33:0 34:0 35:0 36:1 37:0 38:0 39:0 40:0 41:1 42:0 43:0 44:0 45:0 46:1 47:0 48:0 49:0 50:0 51:1 52:0 53:0 54:0 55:0 56:1 57:0 58:0 59:0 60:1 61:0 62:0 63:0 64:0 65:0 66:1 67:0 68:0 69:1 70:0 71:0 72:0 73:0 74:0 75:0 76:0 77:0 78:0 79:0 80:0 81:0 82:0 83:0 84:0 85:0 86:0 87:0 88:1 89:0 90:1 91:0 92:0 93:0 94:0 95:0 96:0 97:0 98:0 99:0 100:0 101:0 102:0 103:0 104:1 105:0 106:0 107:0 108:0 109:0 110:0 111:0 112:1 113:0 114:0 115:0 116:0 117:0 118:0 119:0 120:1 121:0 122:0 123:0 124:0 125:0 126:0 127:0 128:1 129:0 130:0 131:0 132:0 133:0 134:0 135:0 136:1 137:0 138:1 139:0 140:0 141:0 142:0 143:0 144:0 145:0 146:0 147:0 148:0 149:0 150:0 151:0 152:1 153:0 154:1 155:0 156:0 157:0 158:0 159:1 160:0 161:0 162:0 163:0 164:0 165:0 166:1 167:1 168:1 169:1 170:1 171:1 172:-1 173:1 174:1 175:1 176:0 177:0 178:0 179:0 180:0 181:0 182:0 183:0 184:0 185:0 186:0 187:0 188:0 189:0 190:0 191:0 192:0 193:0 194:0 195:0 196:1 197:0 198:0 199:0 200:0 201:0 202:0 203:0 204:0 205:0 206:0 207:0 208:0 209:0 210:0 211:0 212:0 213:0 214:0 215:0 216:1 217:0 218:0 219:0 220:0 221:0 222:0 223:0 224:0 225:0 226:0 227:0 228:0 229:0 230:0 231:1 232:0 233:1 234:1 235:0 236:1 237:0 238:0 239:0 240:0 241:0 242:0 243:0 #40330
0.10000000000000000555111512312578 1:0 2:1 3:0 4:0 5:0 6:0 7:0 8:0 9:0 10:0 11:0 12:1 13:0 14:0 15:1 16:0 17:0 18:1 19:0 20:0 21:0 22:0 23:0 24:0 25:0 26:0 27:0 28:0 29:0 30:0 31:0 32:0 33:0 34:0 35:0 36:0 37:0 38:1 39:0 40:0 41:0 42:0 43:1 44:0 45:0 46:0 47:0 48:0 49:0 50:1 51:0 52:0 53:0 54:0 55:0 56:0 57:0 58:0 59:0 60:0 61:0 62:0 63:0 64:0 65:0 66:0 67:0 68:1 69:0 70:0 71:0 72:0 73:1 74:0 75:0 76:0 77:0 78:0 79:0 80:0 81:0 82:0 83:0 84:1 85:0 86:0 87:0 88:0 89:0 90:0 91:0 92:1 93:0 94:0 95:0 96:0 97:0 98:0 99:0 100:1 101:0 102:0 103:0 104:0 105:0 106:0 107:1 108:0 109:0 110:0 111:0 112:0 113:0 114:0 115:1 116:0 117:0 118:0 119:0 120:0 121:0 122:0 123:1 124:0 125:0 126:0 127:0 128:0 129:0 130:0 131:0 132:1 133:0 134:0 135:0 136:0 137:0 138:0 139:0 140:1 141:0 142:0 143:0 144:0 145:0 146:0 147:0 148:1 149:0 150:0 151:0 152:0 153:0 154:1 155:0 156:0 157:0 158:1 159:0 160:0 161:0 162:0 163:0 164:0 165:0 166:1 167:1 168:1 169:-1 170:1 171:1 172:1 173:-1 174:1 175:1 176:0 177:0 178:0 179:1 180:0 181:0 182:0 183:0 184:0 185:0 186:0 187:0 188:0 189:1 190:0 191:0 192:0 193:0 194:0 195:0 196:0 197:0 198:0 199:0 200:0 201:0 202:0 203:0 204:0 205:0 206:0 207:0 208:0 209:1 210:0 211:0 212:0 213:0 214:0 215:1 216:0 217:0 218:0 219:0 220:0 221:0 222:0 223:0 224:0 225:1 226:0 227:0 228:0 229:1 230:0 231:1 232:1 233:1 234:1 235:0 236:0 237:0 238:0 239:0 240:0 241:0 242:0 243:0 #24836
0.10000000000000000555111512312578 1:0 2:1 3:0 4:0 5:0 6:0 7:0 8:0 9:0 10:0 11:0 12:1 13:0 14:0 15:0 16:1 17:0 18:0 19:0 20:1 21:0 22:0 23:0 24:0 25:0 26:0 27:0 28:0 29:0 30:0 31:0 32:0 33:0 34:0 35:0 36:0 37:0 38:0 39:0 40:0 41:1 42:0 43:0 44:0 45:0 46:1 47:0 48:0 49:0 50:0 51:1 52:0 53:0 54:0 55:0 56:0 57:0 58:0 59:0 60:0 61:0 62:0 63:0 64:0 65:0 66:0 67:0 68:1 69:0 70:0 71:0 72:0 73:0 74:0 75:0 76:0 77:0 78:0 79:0 80:0 81:0 82:0 83:0 84:1 85:0 86:0 87:0 88:0 89:0 90:0 91:0 92:1 93:0 94:0 95:0 96:0 97:0 98:0 99:0 100:1 101:0 102:0 103:0 104:0 105:0 106:0 107:0 108:0 109:0 110:0 111:0 112:0 113:0 114:0 115:0 116:0 117:0 118:0 119:0 120:0 121:0 122:0 123:0 124:0 125:0 126:0 127:0 128:0 129:0 130:0 131:0 132:1 133:0 134:0 135:0 136:0 137:0 138:0 139:0 140:1 141:0 142:0 143:0 144:0 145:0 146:0 147:0 148:1 149:0 150:0 151:0 152:0 153:0 154:1 155:0 156:0 157:0 158:1 159:0 160:0 161:0 162:0 163:0 164:0 165:0 166:1 167:1 168:1 169:-1 170:1 171:1 172:1 173:1 174:1 175:1 176:0 177:1 178:0 179:0 180:0 181:0 182:0 183:0 184:0 185:0 186:0 187:1 188:0 189:0 190:0 191:0 192:0 193:0 194:0 195:0 196:0 197:0 198:0 199:0 200:0 201:0 202:0 203:0 204:0 205:0 206:0 207:1 208:0 209:0 210:0 211:0 212:0 213:1 214:0 215:0 216:0 217:0 218:0 219:0 220:0 221:0 222:0 223:1 224:0 225:0 226:0 227:0 228:0 229:0 230:0 231:1 232:0 233:1 234:1 235:0 236:0 237:0 238:0 239:0 240:0 241:0 242:0 243:0 #44698
0.10000000000000000555111512312578 1:0 2:1 3:0 4:0 5:0 6:0 7:0 8:0 9:0 10:0 11:0 12:1 13:0 14:0 15:0 16:1 17:0 18:0 19:0 20:1 21:0 22:0 23:0 24:0 25:0 26:0 27:0 28:0 29:0 30:0 31:0 32:0 33:0 34:0 35:0 36:0 37:0 38:0 39:0 40:0 41:1 42:0 43:0 44:0 45:0 46:1 47:0 48:0 49:0 50:0 51:1 52:0 53:0 54:0 55:0 56:0 57:0 58:0 59:0 60:0 61:0 62:0 63:0 64:0 65:0 66:0 67:0 68:1 69:0 70:0 71:0 72:0 73:0 74:0 75:0 76:0 77:0 78:0 79:0 80:0 81:0 82:0 83:0 84:1 85:0 86:0 87:0 88:0 89:0 90:0 91:0 92:1 93:0 94:0 95:0 96:0 97:0 98:0 99:0 100:1 101:0 102:0 103:0 104:0 105:0 106:0 107:0 108:0 109:0 110:0 111:0 112:1 113:0 114:0 115:0 116:0 117:0 118:0 119:0 120:1 121:0 122:0 123:0 124:0 125:0 126:0 127:0 128:1 129:0 130:0 131:0 132:1 133:0 134:0 135:0 136:0 137:0 138:0 139:0 140:1 141:0 142:0 143:0 144:0 145:0 146:0 147:0 148:1 149:0 150:0 151:0 152:0 153:0 154:1 155:0 156:0 157:0 158:1 159:0 160:0 161:0 162:0 163:0 164:0 165:0 166:1 167:1 168:1 169:-1 170:1 171:1 172:1 173:-1 174:1 175:1 176:1 177:0 178:0 179:0 180:0 181:0 182:0 183:0 184:0 185:0 186:1 187:0 188:0 189:0 190:0 191:0 192:0 193:0 194:0 195:0 196:0 197:0 198:0 199:0 200:0 201:0 202:0 203:0 204:0 205:0 206:1 207:0 208:0 209:0 210:0 211:0 212:0 213:1 214:0 215:0 216:0 217:0 218:0 219:0 220:0 221:0 222:0 223:1 224:0 225:0 226:0 227:0 228:0 229:0 230:0 231:1 232:0 233:1 234:1 235:0 236:0 237:0 238:0 239:0 240:0 241:0 242:0 243:0 #54547
-0.10000000000000000555111512312578 1:0 2:0 3:1 4:0 5:0 6:0 7:0 8:0 9:0 10:0 11:0 12:1 13:0 14:0 15:0 16:1 17:0 18:0 19:0 20:1 21:0 22:0 23:0 24:0 25:0 26:0 27:0 28:0 29:0 30:0 31:0 32:0 33:0 34:0 35:0 36:0 37:0 38:0 39:0 40:0 41:1 42:0 43:0 44:0 45:0 46:1 47:0 48:0 49:0 50:0 51:1 52:0 53:0 54:0 55:0 56:0 57:0 58:0 59:0 60:0 61:0 62:0 63:0 64:0 65:0 66:0 67:0 68:1 69:0 70:0 71:0 72:0 73:0 74:0 75:0 76:0 77:0 78:0 79:0 80:0 81:0 82:0 83:0 84:1 85:0 86:0 87:0 88:0 89:0 90:0 91:0 92:1 93:0 94:0 95:0 96:0 97:0 98:0 99:0 100:1 101:0 102:0 103:0 104:0 105:0 106:0 107:0 108:0 109:0 110:0 111:0 112:1 113:0 114:0 115:0 116:0 117:0 118:0 119:0 120:1 121:0 122:0 123:0 124:0 125:0 126:0 127:0 128:1 129:0 130:0 131:0 132:1 133:0 134:0 135:0 136:0 137:0 138:0 139:0 140:1 141:0 142:0 143:0 144:0 145:0 146:0 147:0 148:1 149:0 150:0 151:0 152:0 153:0 154:1 155:0 156:0 157:0 158:1 159:0 160:0 161:0 162:0 163:0 164:0 165:0 166:1 167:1 168:1 169:-1 170:-1 171:1 172:1 173:-1 174:1 175:1 176:0 177:1 178:0 179:0 180:0 181:1 182:0 183:0 184:0 185:0 186:1 187:0 188:0 189:0 190:0 191:0 192:0 193:0 194:0 195:0 196:0 197:0 198:0 199:0 200:0 201:0 202:0 203:0 204:0 205:0 206:0 207:1 208:0 209:0 210:0 211:0 212:0 213:1 214:0 215:0 216:0 217:0 218:0 219:0 220:0 221:0 222:0 223:1 224:0 225:0 226:0 227:0 228:0 229:0 230:0 231:1 232:0 233:1 234:1 235:0 236:0 237:0 238:0 239:0 240:0 241:0 242:0 243:0 #27995
-0.011916420681767347922175304120174 1:0 2:0 3:0 4:0 5:0 6:0 7:0 8:0 9:0 10:0 11:0 12:1 13:0 14:0 15:1 16:0 17:0 18:1 19:0 20:0 21:0 22:0 23:0 24:0 25:0 26:0 27:0 28:0 29:0 30:0 31:0 32:0 33:0 34:0 35:0 36:0 37:0 38:0 39:0 40:0 41:0 42:0 43:0 44:0 45:0 46:0 47:0 48:0 49:0 50:0 51:0 52:0 53:0 54:0 55:0 56:0 57:0 58:0 59:0 60:0 61:0 62:0 63:0 64:0 65:0 66:0 67:0 68:1 69:0 70:0 71:0 72:0 73:0 74:0 75:0 76:0 77:0 78:0 79:0 80:0 81:0 82:0 83:0 84:0 85:0 86:0 87:1 88:0 89:0 90:0 91:0 92:0 93:0 94:0 95:0 96:0 97:1 98:0 99:0 100:0 101:0 102:0 103:1 104:0 105:0 106:0 107:0 108:0 109:0 110:0 111:1 112:0 113:0 114:0 115:0 116:0 117:0 118:0 119:1 120:0 121:0 122:0 123:0 124:0 125:0 126:0 127:1 128:0 129:0 130:0 131:0 132:0 133:0 134:0 135:1 136:0 137:0 138:0 139:0 140:0 141:0 142:0 143:0 144:0 145:1 146:0 147:0 148:0 149:0 150:0 151:1 152:0 153:0 154:1 155:0 156:0 157:0 158:1 159:0 160:0 161:0 162:0 163:0 164:0 165:0 166:1 167:1 168:1 169:-1 170:1 171:1 172:-1 173:1 174:1 175:1 176:1 177:0 178:0 179:0 180:0 181:0 182:0 183:0 184:0 185:0 186:1 187:0 188:0 189:0 190:0 191:0 192:0 193:0 194:0 195:0 196:1 197:0 198:0 199:0 200:0 201:0 202:0 203:0 204:0 205:0 206:0 207:0 208:0 209:0 210:0 211:0 212:1 213:0 214:0 215:0 216:1 217:0 218:0 219:0 220:0 221:1 222:0 223:0 224:0 225:0 226:0 227:0 228:0 229:0 230:0 231:1 232:0 233:1 234:1 235:0 236:0 237:0 238:0 239:0 240:0 241:0 242:0 243:0 #36875
-0.10000000000000000555111512312578 1:0 2:0 3:0 4:0 5:0 6:0 7:0 8:0 9:0 10:0 11:0 12:1 13:0 14:0 15:1 16:0 17:0 18:0 19:0 20:1 21:0 22:0 23:0 24:0 25:0 26:0 27:0 28:0 29:0 30:0 31:0 32:0 33:0 34:0 35:0 36:0 37:0 38:0 39:0 40:0 41:0 42:0 43:0 44:0 45:0 46:0 47:0 48:0 49:0 50:0 51:0 52:0 53:0 54:0 55:0 56:0 57:0 58:0 59:0 60:0 61:0 62:0 63:0 64:0 65:0 66:0 67:0 68:1 69:0 70:0 71:0 72:0 73:0 74:0 75:0 76:0 77:0 78:0 79:0 80:0 81:0 82:0 83:0 84:0 85:1 86:0 87:0 88:0 89:0 90:0 91:0 92:0 93:1 94:0 95:0 96:0 97:0 98:0 99:0 100:0 101:1 102:0 103:0 104:0 105:0 106:0 107:0 108:0 109:0 110:0 111:0 112:0 113:0 114:0 115:0 116:0 117:0 118:0 119:0 120:0 121:0 122:0 123:0 124:0 125:0 126:0 127:0 128:0 129:0 130:0 131:0 132:0 133:1 134:0 135:0 136:0 137:0 138:1 139:0 140:0 141:0 142:0 143:0 144:0 145:0 146:0 147:0 148:0 149:1 150:0 151:0 152:0 153:0 154:1 155:0 156:0 157:0 158:1 159:0 160:0 161:0 162:0 163:0 164:0 165:0 166:1 167:1 168:1 169:1 170:1 171:1 172:1 173:1 174:1 175:-1 176:0 177:0 178:0 179:0 180:0 181:0 182:0 183:0 184:0 185:0 186:0 187:0 188:0 189:0 190:0 191:0 192:0 193:0 194:0 195:0 196:0 197:0 198:0 199:0 200:0 201:0 202:0 203:0 204:0 205:0 206:0 207:0 208:0 209:0 210:0 211:0 212:1 213:0 214:0 215:0 216:0 217:1 218:0 219:0 220:0 221:0 222:0 223:0 224:0 225:0 226:0 227:0 228:0 229:0 230:0 231:0 232:1 233:1 234:1 235:0 236:0 237:0 238:0 239:0 240:0 241:1 242:0 243:0 #23468
-0.10000000000000000555111512312578 1:0 2:0 3:1 4:0 5:0 6:0 7:0 8:0 9:0 10:0 11:1 12:0 13:1 14:0 15:1 16:0 17:0 18:0 19:1 20:0 21:0 22:0 23:0 24:1 25:0 26:0 27:0 28:0 29:0 30:0 31:0 32:0 33:0 34:1 35:0 36:0 37:0 38:0 39:0 40:0 41:0 42:0 43:0 44:0 45:0 46:0 47:0 48:0 49:0 50:0 51:0 52:0 53:0 54:1 55:0 56:0 57:0 58:0 59:0 60:0 61:0 62:0 63:0 64:1 65:0 66:0 67:0 68:0 69:0 70:0 71:0 72:0 73:0 74:0 75:0 76:0 77:0 78:0 79:0 80:0 81:0 82:0 83:0 84:1 85:0 86:0 87:0 88:0 89:0 90:0 91:0 92:1 93:0 94:0 95:0 96:0 97:0 98:0 99:0 100:1 101:0 102:0 103:0 104:0 105:0 106:0 107:0 108:0 109:0 110:1 111:0 112:0 113:0 114:0 115:0 116:0 117:0 118:1 119:0 120:0 121:0 122:0 123:0 124:0 125:0 126:1 127:0 128:0 129:0 130:0 131:0 132:1 133:0 134:0 135:0 136:0 137:0 138:0 139:0 140:0 141:1 142:0 143:0 144:0 145:0 146:0 147:0 148:1 149:0 150:0 151:0 152:0 153:0 154:1 155:0 156:0 157:0 158:0 159:1 160:0 161:0 162:0 163:0 164:0 165:0 166:1 167:1 168:1 169:-1 170:1 171:1 172:-1 173:-1 174:1 175:1 176:1 177:0 178:0 179:0 180:0 181:0 182:0 183:0 184:0 185:0 186:1 187:0 188:0 189:0 190:0 191:0 192:0 193:0 194:0 195:0 196:0 197:1 198:0 199:0 200:0 201:0 202:0 203:0 204:0 205:0 206:0 207:0 208:0 209:0 210:0 211:0 212:0 213:1 214:0 215:0 216:0 217:1 218:0 219:0 220:0 221:1 222:0 223:0 224:0 225:0 226:0 227:0 228:0 229:0 230:0 231:1 232:0 233:1 234:1 235:0 236:0 237:0 238:0 239:0 240:1 241:0 242:0 243:0 #47275
-0.10000000000000000555111512312578 1:1 2:0 3:0 4:0 5:0 6:0 7:0 8:0 9:0 10:0 11:0 12:0 13:1 14:0 15:0 16:0 17:1 18:0 19:1 20:0 21:2 22:0 23:0 24:0 25:0 26:1 27:0 28:0 29:0 30:0 31:1 32:0 33:0 34:0 35:0 36:1 37:0 38:0 39:0 40:1 41:0 42:0 43:0 44:0 45:1 46:0 47:0 48:0 49:0 50:0 51:1 52:0 53:0 54:0 55:1 56:0 57:0 58:0 59:0 60:1 61:0 62:0 63:0 64:0 65:0 66:1 67:0 68:0 69:0 70:0 71:0 72:1 73:0 74:0 75:0 76:0 77:0 78:0 79:0 80:0 81:0 82:0 83:0 84:0 85:0 86:0 87:0 88:1 89:0 90:0 91:0 92:0 93:0 94:0 95:0 96:1 97:0 98:0 99:0 100:0 101:0 102:0 103:0 104:1 105:0 106:1 107:0 108:0 109:0 110:0 111:0 112:0 113:0 114:1 115:0 116:0 117:0 118:0 119:0 120:0 121:0 122:1 123:0 124:0 125:0 126:0 127:0 128:0 129:0 130:1 131:0 132:0 133:0 134:0 135:0 136:0 137:0 138:1 139:0 140:0 141:0 142:0 143:0 144:0 145:0 146:1 147:0 148:0 149:0 150:0 151:0 152:0 153:0 154:1 155:0 156:0 157:0 158:1 159:0 160:0 161:0 162:0 163:0 164:0 165:0 166:1 167:-1 168:-1 169:1 170:1 171:1 172:1 173:1 174:1 175:1 176:0 177:0 178:0 179:0 180:0 181:0 182:0 183:0 184:0 185:0 186:0 187:0 188:0 189:0 190:0 191:0 192:0 193:0 194:0 195:0 196:0 197:0 198:0 199:0 200:0 201:0 202:0 203:0 204:0 205:0 206:0 207:0 208:0 209:0 210:0 211:0 212:0 213:0 214:0 215:0 216:0 217:0 218:0 219:0 220:0 221:0 222:0 223:0 224:0 225:0 226:0 227:0 228:0 229:1 230:1 231:0 232:0 233:1 234:1 235:0 236:0 237:0 238:0 239:0 240:0 241:0 242:0 243:0 #75598
0.057920191946734686516684575963154 1:1 2:0 3:0 4:0 5:0 6:0 7:0 8:0 9:0 10:0 11:0 12:0 13:1 14:0 15:0 16:0 17:1 18:0 19:0 20:1 21:0 22:0 23:0 24:1 25:0 26:0 27:0 28:0 29:0 30:1 31:0 32:0 33:0 34:0 35:0 36:1 37:0 38:0 39:0 40:1 41:0 42:0 43:0 44:0 45:1 46:0 47:0 48:0 49:0 50:0 51:1 52:0 53:0 54:0 55:1 56:0 57:0 58:0 59:0 60:1 61:0 62:0 63:0 64:0 65:0 66:1 67:0 68:0 69:0 70:0 71:0 72:1 73:0 74:0 75:0 76:0 77:0 78:0 79:0 80:0 81:0 82:1 83:0 84:0 85:0 86:0 87:0 88:0 89:0 90:1 91:0 92:0 93:0 94:0 95:0 96:0 97:0 98:1 99:0 100:0 101:0 102:0 103:0 104:0 105:0 106:1 107:0 108:0 109:0 110:0 111:0 112:0 113:0 114:1 115:0 116:0 117:0 118:0 119:0 120:0 121:0 122:1 123:0 124:0 125:0 126:0 127:0 128:0 129:0 130:1 131:0 132:0 133:0 134:0 135:0 136:0 137:0 138:1 139:0 140:0 141:0 142:0 143:0 144:0 145:0 146:1 147:0 148:0 149:0 150:0 151:0 152:0 153:0 154:1 155:0 156:0 157:0 158:1 159:0 160:0 161:0 162:0 163:0 164:0 165:0 166:1 167:1 168:1 169:-1 170:1 171:1 172:1 173:1 174:1 175:1 176:0 177:0 178:1 179:0 180:0 181:0 182:0 183:0 184:0 185:0 186:0 187:0 188:1 189:0 190:0 191:0 192:0 193:0 194:0 195:0 196:0 197:0 198:0 199:0 200:0 201:0 202:0 203:0 204:0 205:0 206:0 207:0 208:1 209:0 210:0 211:0 212:0 213:0 214:1 215:0 216:0 217:0 218:0 219:0 220:0 221:0 222:0 223:0 224:1 225:0 226:0 227:0 228:0 229:1 230:0 231:1 232:0 233:1 234:1 235:0 236:0 237:0 238:0 239:0 240:0 241:0 242:0 243:0 #29345
-0.10000000000000000555111512312578 1:0 2:1 3:0 4:0 5:0 6:0 7:0 8:0 9:0 10:0 11:0 12:0 13:0 14:1 15:1 16:0 17:0 18:0 19:1 20:0 21:0 22:0 23:0 24:0 25:1 26:0 27:0 28:0 29:0 30:1 31:0 32:0 33:0 34:0 35:0 36:1 37:0 38:0 39:0 40:0 41:0 42:0 43:0 44:0 45:0 46:0 47:0 48:0 49:0 50:0 51:0 52:0 53:0 54:0 55:1 56:0 57:0 58:0 59:0 60:1 61:0 62:0 63:0 64:0 65:0 66:1 67:1 68:0 69:0 70:0 71:0 72:0 73:0 74:0 75:0 76:0 77:0 78:0 79:0 80:0 81:0 82:1 83:0 84:0 85:0 86:0 87:0 88:0 89:0 90:1 91:0 92:0 93:0 94:0 95:0 96:0 97:0 98:1 99:0 100:0 101:0 102:0 103:0 104:0 105:0 106:0 107:0 108:1 109:0 110:0 111:0 112:0 113:0 114:0 115:0 116:1 117:0 118:0 119:0 120:0 121:0 122:0 123:0 124:1 125:0 126:0 127:0 128:0 129:0 130:1 131:0 132:0 133:0 134:0 135:0 136:0 137:0 138:1 139:0 140:0 141:0 142:0 143:0 144:0 145:0 146:1 147:0 148:0 149:0 150:0 151:0 152:0 153:0 154:1 155:0 156:0 157:0 158:1 159:0 160:0 161:0 162:0 163:0 164:0 165:0 166:1 167:1 168:1 169:-1 170:1 171:1 172:1 173:1 174:1 175:1 176:1 177:0 178:0 179:0 180:0 181:0 182:0 183:0 184:0 185:0 186:1 187:0 188:0 189:0 190:0 191:0 192:0 193:0 194:0 195:0 196:0 197:0 198:0 199:0 200:0 201:0 202:0 203:0 204:0 205:0 206:1 207:0 208:0 209:0 210:0 211:1 212:0 213:0 214:0 215:0 216:0 217:0 218:0 219:0 220:0 221:1 222:0 223:0 224:0 225:0 226:0 227:0 228:0 229:0 230:0 231:1 232:0 233:1 234:1 235:0 236:0 237:0 238:0 239:0 240:0 241:0 242:0 243:0 #24272
0.10000000000000000555111512312578 1:1 2:0 3:0 4:0 5:0 6:0 7:0 8:0 9:0 10:0 11:0 12:0 13:1 14:0 15:0 16:0 17:1 18:0 19:1 20:0 21:2 22:0 23:0 24:0 25:0 26:1 27:0 28:0 29:0 30:0 31:1 32:0 33:0 34:0 35:0 36:1 37:0 38:0 39:0 40:1 41:0 42:0 43:0 44:0 45:1 46:0 47:0 48:0 49:0 50:0 51:1 52:0 53:0 54:0 55:1 56:0 57:0 58:0 59:0 60:1 61:0 62:0 63:0 64:0 65:0 66:1 67:0 68:0 69:0 70:0 71:0 72:1 73:0 74:0 75:0 76:0 77:0 78:0 79:0 80:0 81:0 82:0 83:0 84:0 85:0 86:0 87:1 88:0 89:0 90:0 91:0 92:0 93:0 94:0 95:1 96:0 97:0 98:0 99:0 100:0 101:0 102:0 103:1 104:0 105:0 106:1 107:0 108:0 109:0 110:0 111:0 112:0 113:0 114:1 115:0 116:0 117:0 118:0 119:0 120:0 121:0 122:1 123:0 124:0 125:0 126:0 127:0 128:0 129:0 130:1 131:0 132:0 133:0 134:0 135:0 136:0 137:0 138:1 139:0 140:0 141:0 142:0 143:0 144:0 145:0 146:1 147:0 148:0 149:0 150:0 151:0 152:0 153:0 154:1 155:0 156:0 157:0 158:1 159:0 160:0 161:0 162:0 163:0 164:0 165:0 166:1 167:-1 168:-1 169:1 170:1 171:1 172:1 173:1 174:1 175:1 176:0 177:0 178:0 179:0 180:0 181:0 182:0 183:0 184:0 185:0 186:0 187:0 188:0 189:0 190:0 191:0 192:0 193:0 194:0 195:0 196:0 197:0 198:0 199:0 200:0 201:0 202:0 203:0 204:0 205:0 206:0 207:0 208:0 209:0 210:0 211:0 212:0 213:0 214:0 215:0 216:0 217:0 218:0 219:0 220:0 221:0 222:0 223:0 224:0 225:0 226:0 227:0 228:0 229:1 230:0 231:0 232:0 233:1 234:1 235:0 236:0 237:0 238:0 239:0 240:0 241:0 242:0 243:0 #16061
-0.0060027145591512315325743998073449 1:0 2:0 3:0 4:0 5:0 6:0 7:0 8:0 9:0 10:0 11:1 12:0 13:1 14:0 15:0 16:1 17:0 18:1 19:0 20:0 21:0 22:0 23:0 24:1 25:0 26:0 27:0 28:0 29:1 30:0 31:0 32:0 33:0 34:0 35:0 36:1 37:0 38:0 39:1 40:0 41:0 42:0 43:0 44:1 45:0 46:0 47:0 48:0 49:0 50:0 51:1 52:0 53:0 54:1 55:0 56:0 57:0 58:0 59:1 60:0 61:0 62:0 63:0 64:0 65:0 66:1 67:0 68:0 69:0 70:0 71:0 72:0 73:0 74:0 75:0 76:0 77:0 78:0 79:0 80:0 81:0 82:1 83:0 84:0 85:0 86:0 87:0 88:0 89:0 90:1 91:0 92:0 93:0 94:0 95:0 96:0 97:0 98:1 99:0 100:0 101:0 102:0 103:0 104:0 105:0 106:1 107:0 108:0 109:0 110:0 111:0 112:0 113:0 114:1 115:0 116:0 117:0 118:0 119:0 120:0 121:0 122:1 123:0 124:0 125:0 126:0 127:0 128:0 129:0 130:1 131:0 132:0 133:0 134:0 135:0 136:0 137:0 138:1 139:0 140:0 141:0 142:0 143:0 144:0 145:0 146:1 147:0 148:0 149:0 150:0 151:0 152:0 153:0 154:0 155:0 156:1 157:0 158:0 159:1 160:0 161:0 162:0 163:0 164:0 165:0 166:1 167:1 168:1 169:-1 170:1 171:1 172:1 173:1 174:1 175:-1 176:0 177:1 178:0 179:0 180:0 181:0 182:0 183:0 184:0 185:0 186:0 187:1 188:0 189:0 190:0 191:0 192:0 193:0 194:0 195:0 196:0 197:0 198:0 199:0 200:0 201:0 202:0 203:0 204:0 205:0 206:0 207:1 208:0 209:0 210:0 211:0 212:0 213:1 214:0 215:0 216:1 217:0 218:0 219:0 220:0 221:0 222:1 223:0 224:0 225:0 226:0 227:0 228:0 229:1 230:0 231:0 232:0 233:1 234:1 235:0 236:0 237:0 238:0 239:0 240:0 241:0 242:0 243:0 #75386
0.10000000000000000555111512312578 1:0 2:1 3:0 4:0 5:0 6:0 7:0 8:0 9:0 10:0 11:0 12:0 13:1 14:0 15:1 16:0 17:0 18:0 19:0 20:1 21:0 22:0 23:0 24:1 25:0 26:0 27:0 28:0 29:1 30:0 31:0 32:0 33:0 34:0 35:0 36:1 37:0 38:0 39:0 40:0 41:0 42:0 43:0 44:0 45:0 46:0 47:0 48:0 49:0 50:0 51:0 52:0 53:0 54:1 55:0 56:0 57:0 58:0 59:1 60:0 61:0 62:0 63:0 64:0 65:0 66:1 67:0 68:0 69:0 70:0 71:0 72:0 73:0 74:0 75:0 76:0 77:0 78:0 79:0 80:0 81:0 82:1 83:0 84:0 85:0 86:0 87:0 88:0 89:0 90:1 91:0 92:0 93:0 94:0 95:0 96:0 97:0 98:1 99:0 100:0 101:0 102:0 103:0 104:0 105:0 106:0 107:0 108:0 109:0 110:0 111:1 112:0 113:0 114:0 115:0 116:0 117:0 118:0 119:1 120:0 121:0 122:0 123:0 124:0 125:0 126:0 127:1 128:0 129:0 130:1 131:0 132:0 133:0 134:0 135:0 136:0 137:0 138:1 139:0 140:0 141:0 142:0 143:0 144:0 145:0 146:1 147:0 148:0 149:0 150:0 151:0 152:0 153:0 154:1 155:0 156:0 157:0 158:1 159:0 160:0 161:0 162:0 163:0 164:0 165:0 166:1 167:-1 168:-1 169:-1 170:1 171:1 172:1 173:1 174:1 175:1 176:0 177:0 178:1 179:0 180:0 181:0 182:0 183:0 184:0 185:0 186:0 187:0 188:1 189:0 190:0 191:0 192:0 193:0 194:0 195:0 196:0 197:0 198:0 199:0 200:0 201:0 202:0 203:0 204:0 205:0 206:0 207:0 208:1 209:0 210:0 211:0 212:0 213:1 214:0 215:0 216:0 217:0 218:0 219:0 220:0 221:0 222:0 223:1 224:0 225:0 226:0 227:0 228:0 229:0 230:0 231:1 232:0 233:1 234:1 235:0 236:0 237:0 238:0 239:0 240:0 241:0 242:0 243:0 #15078
-0.10000000000000000555111512312578 1:1 2:0 3:0 4:0 5:0 6:0 7:0 8:0 9:0 10:0 11:0 12:0 13:0 14:1 15:0 16:0 17:1 18:1 19:0 20:0 21:0 22:0 23:0 24:0 25:1 26:0 27:0 28:0 29:0 30:1 31:0 32:0 33:0 34:0 35:0 36:1 37:0 38:0 39:0 40:1 41:0 42:0 43:0 44:0 45:1 46:0 47:0 48:0 49:0 50:0 51:1 52:0 53:0 54:0 55:1 56:0 57:0 58:0 59:0 60:1 61:0 62:0 63:0 64:0 65:0 66:1 67:1 68:0 69:0 70:0 71:0 72:1 73:0 74:0 75:0 76:0 77:0 78:0 79:0 80:0 81:0 82:1 83:0 84:0 85:0 86:0 87:0 88:0 89:0 90:1 91:0 92:0 93:0 94:0 95:0 96:0 97:0 98:1 99:0 100:0 101:0 102:0 103:0 104:0 105:0 106:1 107:0 108:0 109:0 110:0 111:0 112:0 113:0 114:1 115:0 116:0 117:0 118:0 119:0 120:0 121:0 122:1 123:0 124:0 125:0 126:0 127:0 128:0 129:0 130:1 131:0 132:0 133:0 134:0 135:0 136:0 137:0 138:1 139:0 140:0 141:0 142:0 143:0 144:0 145:0 146:1 147:0 148:0 149:0 150:0 151:0 152:0 153:0 154:1 155:0 156:0 157:0 158:1 159:0 160:0 161:0 162:0 163:0 164:0 165:0 166:1 167:-1 168:-1 169:-1 170:1 171:1 172:1 173:1 174:1 175:1 176:1 177:0 178:0 179:0 180:0 181:0 182:0 183:0 184:0 185:0 186:1 187:0 188:0 189:0 190:0 191:0 192:0 193:0 194:0 195:0 196:0 197:0 198:0 199:0 200:0 201:0 202:0 203:0 204:0 205:0 206:1 207:0 208:0 209:0 210:0 211:0 212:1 213:0 214:0 215:0 216:0 217:0 218:0 219:0 220:0 221:0 222:1 223:0 224:0 225:0 226:0 227:0 228:0 229:1 230:1 231:1 232:0 233:1 234:1 235:0 236:0 237:0 238:0 239:0 240:0 241:0 242:0 243:0 #38295
0.049500480939172558647598521019972 1:1 2:0 3:0 4:0 5:0 6:0 7:0 8:0 9:0 10:0 11:0 12:0 13:0 14:1 15:0 16:0 17:1 18:0 19:1 20:0 21:0 22:0 23:0 24:0 25:1 26:0 27:0 28:0 29:0 30:1 31:0 32:0 33:0 34:0 35:0 36:1 37:0 38:0 39:0 40:1 41:0 42:0 43:0 44:0 45:1 46:0 47:0 48:0 49:0 50:0 51:1 52:0 53:0 54:0 55:1 56:0 57:0 58:0 59:0 60:1 61:0 62:0 63:0 64:0 65:0 66:1 67:1 68:0 69:0 70:0 71:0 72:1 73:0 74:0 75:0 76:0 77:0 78:0 79:0 80:0 81:0 82:1 83:0 84:0 85:0 86:0 87:0 88:0 89:0 90:1 91:0 92:0 93:0 94:0 95:0 96:0 97:0 98:1 99:0 100:0 101:0 102:0 103:0 104:0 105:0 106:1 107:0 108:0 109:0 110:0 111:0 112:0 113:0 114:1 115:0 116:0 117:0 118:0 119:0 120:0 121:0 122:1 123:0 124:0 125:0 126:0 127:0 128:0 129:0 130:1 131:0 132:0 133:0 134:0 135:0 136:0 137:0 138:1 139:0 140:0 141:0 142:0 143:0 144:0 145:0 146:1 147:0 148:0 149:0 150:0 151:0 152:0 153:0 154:1 155:0 156:0 157:0 158:1 159:0 160:0 161:0 162:0 163:0 164:0 165:0 166:1 167:1 168:1 169:-1 170:1 171:1 172:1 173:-1 174:1 175:1 176:1 177:0 178:0 179:0 180:0 181:0 182:0 183:0 184:0 185:0 186:1 187:0 188:0 189:0 190:0 191:0 192:0 193:0 194:0 195:0 196:0 197:0 198:0 199:0 200:0 201:0 202:0 203:0 204:0 205:0 206:1 207:0 208:0 209:0 210:0 211:0 212:0 213:0 214:1 215:0 216:0 217:0 218:0 219:0 220:0 221:0 222:0 223:0 224:1 225:0 226:0 227:0 228:0 229:1 230:0 231:1 232:0 233:1 234:1 235:0 236:0 237:0 238:0 239:0 240:0 241:0 242:0 243:0 #36535
-0.10000000000000000555111512312578 1:1 2:0 3:0 4:0 5:0 6:0 7:0 8:0 9:0 10:0 11:0 12:0 13:1 14:0 15:0 16:1 17:0 18:0 19:1 20:0 21:0 22:0 23:0 24:0 25:0 26:1 27:0 28:0 29:0 30:0 31:1 32:0 33:0 34:0 35:0 36:1 37:0 38:0 39:0 40:0 41:1 42:0 43:0 44:0 45:0 46:1 47:0 48:0 49:0 50:0 51:1 52:0 53:0 54:0 55:0 56:1 57:0 58:0 59:0 60:0 61:1 62:0 63:0 64:0 65:0 66:1 67:0 68:0 69:0 70:0 71:0 72:0 73:0 74:0 75:0 76:0 77:0 78:0 79:0 80:0 81:0 82:0 83:0 84:0 85:0 86:0 87:0 88:0 89:0 90:0 91:0 92:0 93:0 94:0 95:0 96:0 97:0 98:0 99:0 100:0 101:0 102:0 103:0 104:0 105:0 106:0 107:0 108:0 109:0 110:0 111:0 112:0 113:0 114:0 115:0 116:0 117:0 118:0 119:0 120:0 121:0 122:0 123:0 124:0 125:0 126:0 127:0 128:0 129:0 130:0 131:0 132:0 133:0 134:0 135:0 136:0 137:0 138:0 139:0 140:0 141:0 142:0 143:0 144:0 145:0 146:0 147:0 148:0 149:0 150:0 151:0 152:0 153:0 154:1 155:0 156:0 157:0 158:1 159:0 160:0 161:0 162:0 163:0 164:0 165:0 166:1 167:1 168:1 169:-1 170:1 171:1 172:1 173:1 174:1 175:1 176:1 177:0 178:0 179:0 180:0 181:0 182:0 183:0 184:0 185:0 186:1 187:0 188:0 189:0 190:0 191:0 192:0 193:0 194:0 195:0 196:0 197:0 198:0 199:0 200:0 201:0 202:0 203:0 204:0 205:0 206:1 207:0 208:0 209:0 210:0 211:1 212:0 213:0 214:0 215:0 216:0 217:0 218:0 219:0 220:0 221:1 222:0 223:0 224:0 225:0 226:0 227:0 228:0 229:0 230:0 231:0 232:0 233:1 234:1 235:0 236:0 237:0 238:0 239:0 240:0 241:0 242:0 243:0 #38010
-0.0056750684442155212641734074452415 1:1 2:0 3:0 4:0 5:0 6:0 7:0 8:0 9:0 10:0 11:0 12:0 13:1 14:0 15:1 16:0 17:0 18:0 19:1 20:0 21:0 22:0 23:0 24:0 25:0 26:1 27:0 28:0 29:0 30:0 31:0 32:0 33:0 34:0 35:0 36:1 37:0 38:0 39:0 40:0 41:0 42:0 43:0 44:0 45:0 46:0 47:0 48:0 49:0 50:0 51:0 52:0 53:0 54:0 55:0 56:1 57:0 58:0 59:0 60:0 61:0 62:0 63:0 64:0 65:0 66:1 67:0 68:0 69:0 70:0 71:0 72:0 73:0 74:0 75:0 76:0 77:0 78:0 79:0 80:0 81:0 82:0 83:0 84:0 85:0 86:1 87:0 88:0 89:0 90:0 91:0 92:0 93:0 94:1 95:0 96:0 97:0 98:0 99:0 100:0 101:0 102:1 103:0 104:0 105:0 106:1 107:0 108:0 109:0 110:0 111:0 112:0 113:0 114:1 115:0 116:0 117:0 118:0 119:0 120:0 121:0 122:1 123:0 124:0 125:0 126:0 127:0 128:0 129:0 130:0 131:0 132:0 133:0 134:1 135:0 136:0 137:0 138:0 139:0 140:0 141:0 142:1 143:0 144:0 145:0 146:0 147:0 148:0 149:0 150:1 151:0 152:0 153:0 154:1 155:0 156:0 157:0 158:1 159:0 160:0 161:0 162:0 163:0 164:0 165:0 166:1 167:1 168:1 169:1 170:1 171:-1 172:1 173:-1 174:1 175:1 176:0 177:0 178:0 179:0 180:0 181:0 182:0 183:0 184:0 185:0 186:0 187:0 188:0 189:0 190:0 191:0 192:1 193:0 194:0 195:0 196:0 197:0 198:0 199:0 200:0 201:0 202:1 203:0 204:0 205:0 206:0 207:0 208:0 209:0 210:0 211:1 212:0 213:0 214:0 215:0 216:0 217:0 218:0 219:0 220:0 221:1 222:0 223:0 224:0 225:0 226:0 227:0 228:0 229:0 230:0 231:0 232:0 233:0 234:1 235:-1 236:0 237:0 238:0 239:0 240:0 241:0 242:1 243:0 #47367
0.10000000000000000555111512312578 1:0 2:0 3:0 4:0 5:1 6:0 7:0 8:0 9:0 10:0 11:1 12:0 13:1 14:0 15:0 16:1 17:0 18:0 19:1 20:0 21:0 22:0 23:0 24:1 25:0 26:0 27:0 28:0 29:1 30:0 31:0 32:0 33:0 34:0 35:0 36:1 37:0 38:0 39:1 40:0 41:0 42:0 43:0 44:1 45:0 46:0 47:0 48:0 49:0 50:0 51:1 52:0 53:0 54:1 55:0 56:0 57:0 58:0 59:1 60:0 61:0 62:0 63:0 64:0 65:0 66:1 67:0 68:0 69:0 70:0 71:0 72:0 73:0 74:0 75:0 76:0 77:0 78:0 79:0 80:0 81:0 82:0 83:0 84:0 85:0 86:1 87:0 88:0 89:0 90:0 91:0 92:0 93:0 94:1 95:0 96:0 97:0 98:0 99:0 100:0 101:0 102:1 103:0 104:0 105:0 106:0 107:0 108:0 109:0 110:1 111:0 112:0 113:0 114:0 115:0 116:0 117:0 118:1 119:0 120:0 121:0 122:0 123:0 124:0 125:0 126:1 127:0 128:0 129:0 130:0 131:0 132:0 133:0 134:1 135:0 136:0 137:0 138:0 139:0 140:0 141:0 142:1 143:0 144:0 145:0 146:0 147:0 148:0 149:0 150:1 151:0 152:0 153:0 154:1 155:0 156:0 157:0 158:0 159:1 160:0 161:0 162:0 163:0 164:0 165:0 166:1 167:1 168:1 169:1 170:1 171:1 172:-1 173:1 174:1 175:1 176:0 177:0 178:0 179:0 180:0 181:0 182:0 183:0 184:0 185:0 186:0 187:0 188:0 189:0 190:0 191:0 192:0 193:0 194:0 195:0 196:0 197:0 198:0 199:1 200:0 201:0 202:0 203:0 204:0 205:0 206:0 207:0 208:0 209:0 210:0 211:0 212:0 213:0 214:0 215:0 216:0 217:0 218:0 219:1 220:0 221:0 222:0 223:0 224:0 225:0 226:0 227:0 228:0 229:0 230:0 231:0 232:0 233:1 234:1 235:0 236:0 237:0 238:0 239:0 240:1 241:0 242:0 243:0 #60359
0.10000000000000000555111512312578 1:0 2:0 3:0 4:0 5:0 6:0 7:0 8:0 9:0 10:0 11:0 12:1 13:0 14:0 15:0 16:1 17:0 18:1 19:0 20:0 21:0 22:0 23:0 24:0 25:0 26:0 27:0 28:0 29:0 30:0 31:1 32:0 33:0 34:0 35:0 36:1 37:0 38:0 39:0 40:0 41:1 42:0 43:0 44:0 45:0 46:1 47:0 48:0 49:0 50:0 51:1 52:0 53:0 54:0 55:0 56:0 57:0 58:0 59:0 60:0 61:1 62:0 63:0 64:0 65:0 66:1 67:0 68:0 69:1 70:0 71:0 72:0 73:0 74:0 75:0 76:0 77:0 78:0 79:0 80:0 81:0 82:0 83:0 84:0 85:0 86:0 87:0 88:0 89:0 90:0 91:0 92:0 93:0 94:0 95:0 96:0 97:1 98:0 99:0 100:0 101:0 102:0 103:0 104:0 105:1 106:0 107:0 108:0 109:0 110:0 111:0 112:0 113:1 114:0 115:0 116:0 117:0 118:0 119:0 120:0 121:1 122:0 123:0 124:0 125:0 126:0 127:0 128:0 129:1 130:0 131:0 132:0 133:0 134:0 135:0 136:0 137:0 138:0 139:0 140:0 141:0 142:0 143:0 144:0 145:1 146:0 147:0 148:0 149:0 150:0 151:0 152:0 153:1 154:1 155:0 156:0 157:0 158:1 159:0 160:0 161:0 162:0 163:0 164:0 165:0 166:1 167:1 168:1 169:1 170:1 171:-1 172:1 173:1 174:1 175:1 176:0 177:0 178:0 179:0 180:0 181:0 182:0 183:0 184:0 185:0 186:0 187:0 188:0 189:0 190:0 191:1 192:0 193:0 194:0 195:0 196:0 197:0 198:0 199:0 200:0 201:1 202:0 203:0 204:0 205:0 206:0 207:0 208:0 209:0 210:0 211:1 212:0 213:0 214:0 215:0 216:0 217:0 218:0 219:0 220:0 221:1 222:0 223:0 224:0 225:0 226:0 227:0 228:0 229:0 230:0 231:1 232:1 233:1 234:1 235:0 236:0 237:0 238:0 239:0 240:0 241:0 242:0 243:1 #44390
-0.10000000000000000555111512312578 1:1 2:0 3:0 4:0 5:0 6:0 7:0 8:0 9:0 10:0 11:0 12:0 13:1 14:0 15:1 16:0 17:0 18:1 19:0 20:0 21:2 22:0 23:0 24:1 25:0 26:0 27:0 28:0 29:1 30:0 31:0 32:0 33:0 34:0 35:0 36:1 37:0 38:0 39:0 40:0 41:0 42:0 43:0 44:0 45:0 46:0 47:0 48:0 49:0 50:0 51:0 52:0 53:0 54:1 55:0 56:0 57:0 58:0 59:1 60:0 61:0 62:0 63:0 64:0 65:0 66:1 67:0 68:0 69:0 70:0 71:0 72:0 73:0 74:0 75:0 76:0 77:0 78:0 79:0 80:0 81:0 82:0 83:0 84:0 85:0 86:0 87:1 88:0 89:0 90:0 91:0 92:0 93:0 94:0 95:1 96:0 97:0 98:0 99:0 100:0 101:0 102:0 103:1 104:0 105:0 106:1 107:0 108:0 109:0 110:0 111:0 112:0 113:0 114:1 115:0 116:0 117:0 118:0 119:0 120:0 121:0 122:1 123:0 124:0 125:0 126:0 127:0 128:0 129:0 130:0 131:0 132:0 133:0 134:0 135:1 136:0 137:0 138:0 139:0 140:0 141:0 142:0 143:1 144:0 145:0 146:0 147:0 148:0 149:0 150:0 151:1 152:0 153:0 154:1 155:0 156:0 157:0 158:1 159:0 160:0 161:0 162:0 163:0 164:0 165:0 166:1 167:1 168:1 169:1 170:1 171:1 172:1 173:1 174:1 175:1 176:0 177:0 178:0 179:0 180:0 181:0 182:0 183:0 184:0 185:0 186:0 187:0 188:0 189:0 190:0 191:0 192:0 193:0 194:0 195:0 196:0 197:0 198:0 199:0 200:0 201:0 202:0 203:0 204:0 205:0 206:0 207:0 208:0 209:0 210:0 211:0 212:0 213:0 214:0 215:0 216:0 217:0 218:0 219:0 220:0 221:0 222:0 223:0 224:0 225:0 226:0 227:0 228:0 229:0 230:0 231:0 232:0 233:1 234:1 235:0 236:0 237:0 238:0 239:0 240:0 241:0 242:0 243:0 #64838
-0.08070762999917678592876058019101 1:0 2:0 3:0 4:0 5:0 6:0 7:0 8:0 9:0 10:0 11:0 12:1 13:0 14:0 15:0 16:1 17:0 18:1 19:0 20:0 21:0 22:0 23:0 24:1 25:0 26:0 27:0 28:0 29:1 30:0 31:0 32:0 33:0 34:0 35:0 36:1 37:0 38:0 39:1 40:0 41:0 42:0 43:0 44:1 45:0 46:0 47:0 48:0 49:0 50:0 51:1 52:0 53:0 54:1 55:0 56:0 57:0 58:0 59:1 60:0 61:0 62:0 63:0 64:0 65:0 66:1 67:0 68:1 69:0 70:0 71:0 72:0 73:0 74:0 75:0 76:0 77:0 78:0 79:0 80:0 81:0 82:0 83:0 84:0 85:0 86:0 87:1 88:0 89:0 90:0 91:0 92:0 93:0 94:0 95:1 96:0 97:0 98:0 99:0 100:0 101:0 102:0 103:1 104:0 105:0 106:0 107:0 108:0 109:0 110:0 111:1 112:0 113:0 114:0 115:0 116:0 117:0 118:0 119:1 120:0 121:0 122:0 123:0 124:0 125:0 126:0 127:1 128:0 129:0 130:0 131:0 132:0 133:0 134:0 135:1 136:0 137:0 138:0 139:0 140:0 141:0 142:0 143:1 144:0 145:0 146:0 147:0 148:0 149:0 150:0 151:1 152:0 153:0 154:1 155:0 156:0 157:0 158:1 159:0 160:0 161:0 162:0 163:0 164:0 165:0 166:1 167:1 168:1 169:1 170:1 171:1 172:1 173:-1 174:1 175:-1 176:0 177:0 178:0 179:0 180:0 181:0 182:0 183:0 184:0 185:0 186:0 187:0 188:0 189:0 190:0 191:0 192:0 193:0 194:0 195:0 196:0 197:0 198:0 199:0 200:0 201:0 202:0 203:0 204:0 205:0 206:0 207:0 208:0 209:0 210:0 211:1 212:0 213:0 214:0 215:0 216:1 217:0 218:0 219:0 220:0 221:0 222:0 223:0 224:0 225:0 226:0 227:0 228:0 229:0 230:0 231:1 232:0 233:1 234:1 235:0 236:0 237:0 238:0 239:1 240:0 241:0 242:0 243:1 #48996
-0.10000000000000000555111512312578 1:1 2:0 3:0 4:0 5:0 6:0 7:0 8:0 9:0 10:0 11:0 12:0 13:1 14:0 15:0 16:1 17:0 18:1 19:0 20:0 21:2 22:0 23:0 24:1 25:0 26:0 27:0 28:0 29:1 30:0 31:0 32:0 33:0 34:0 35:0 36:1 37:0 38:0 39:0 40:0 41:1 42:0 43:0 44:0 45:0 46:1 47:0 48:0 49:0 50:0 51:1 52:0 53:0 54:1 55:0 56:0 57:0 58:0 59:1 60:0 61:0 62:0 63:0 64:0 65:0 66:1 67:0 68:0 69:0 70:0 71:0 72:0 73:0 74:0 75:0 76:0 77:0 78:0 79:0 80:0 81:0 82:0 83:0 84:0 85:0 86:0 87:0 88:0 89:0 90:0 91:0 92:0 93:0 94:0 95:0 96:0 97:0 98:0 99:0 100:0 101:0 102:0 103:0 104:0 105:0 106:0 107:0 108:0 109:0 110:0 111:0 112:0 113:0 114:0 115:0 116:0 117:0 118:0 119:0 120:0 121:0 122:0 123:0 124:0 125:0 126:0 127:0 128:0 129:0 130:0 131:0 132:0 133:0 134:0 135:0 136:0 137:0 138:0 139:0 140:0 141:0 142:0 143:0 144:0 145:0 146:0 147:0 148:0 149:0 150:0 151:0 152:0 153:0 154:1 155:0 156:0 157:0 158:1 159:0 160:0 161:0 162:0 163:0 164:0 165:0 166:1 167:1 168:1 169:1 170:1 171:1 172:1 173:1 174:1 175:1 176:0 177:0 178:0 179:0 180:0 181:0 182:0 183:0 184:0 185:0 186:0 187:0 188:0 189:0 190:0 191:0 192:0 193:0 194:0 195:0 196:0 197:0 198:0 199:0 200:0 201:0 202:0 203:0 204:0 205:0 206:0 207:0 208:0 209:0 210:0 211:0 212:0 213:0 214:0 215:0 216:0 217:0 218:0 219:0 220:0 221:0 222:0 223:0 224:0 225:0 226:0 227:0 228:0 229:0 230:0 231:0 232:0 233:1 234:1 235:0 236:0 237:0 238:0 239:0 240:0 241:0 242:0 243:0 #30998
-0.10000000000000000555111512312578 1:1 2:0 3:0 4:0 5:0 6:0 7:0 8:0 9:0 10:0 11:0 12:0 13:1 14:0 15:0 16:1 17:0 18:0 19:1 20:0 21:2 22:0 23:1 24:0 25:0 26:0 27:0 28:1 29:0 30:0 31:0 32:0 33:0 34:0 35:1 36:0 37:0 38:0 39:1 40:0 41:0 42:0 43:0 44:1 45:0 46:0 47:0 48:0 49:0 50:0 51:1 52:0 53:0 54:1 55:0 56:0 57:0 58:0 59:1 60:0 61:0 62:0 63:0 64:0 65:0 66:1 67:0 68:0 69:0 70:0 71:0 72:0 73:0 74:0 75:0 76:0 77:0 78:0 79:0 80:0 81:0 82:0 83:0 84:0 85:1 86:0 87:0 88:0 89:0 90:0 91:0 92:0 93:1 94:0 95:0 96:0 97:0 98:0 99:0 100:0 101:1 102:0 103:0 104:0 105:0 106:0 107:0 108:0 109:1 110:0 111:0 112:0 113:0 114:0 115:0 116:0 117:1 118:0 119:0 120:0 121:0 122:0 123:0 124:0 125:1 126:0 127:0 128:0 129:0 130:0 131:0 132:0 133:1 134:0 135:0 136:0 137:0 138:0 139:0 140:0 141:1 142:0 143:0 144:0 145:0 146:0 147:0 148:0 149:1 150:0 151:0 152:0 153:0 154:1 155:0 156:0 157:0 158:1 159:0 160:0 161:0 162:0 163:0 164:0 165:0 166:1 167:1 168:1 169:-1 170:1 171:1 172:1 173:1 174:1 175:1 176:0 177:0 178:1 179:0 180:0 181:0 182:0 183:0 184:0 185:0 186:0 187:0 188:1 189:0 190:0 191:0 192:0 193:0 194:0 195:0 196:0 197:0 198:0 199:0 200:0 201:0 202:0 203:0 204:0 205:0 206:0 207:0 208:1 209:0 210:0 211:0 212:0 213:0 214:0 215:1 216:0 217:0 218:0 219:0 220:0 221:0 222:0 223:0 224:0 225:1 226:0 227:0 228:0 229:0 230:0 231:0 232:0 233:0 234:1 235:-1 236:0 237:0 238:0 239:0 240:0 241:0 242:0 243:0 #12946
0.10000000000000000555111512312578 1:0 2:1 3:0 4:0 5:0 6:0 7:0 8:0 9:0 10:0 11:1 12:0 13:0 14:1 15:0 16:0 17:1 18:0 19:1 20:0 21:0 22:0 23:0 24:0 25:1 26:0 27:0 28:0 29:0 30:1 31:0 32:0 33:0 34:0 35:0 36:1 37:0 38:0 39:0 40:1 41:0 42:0 43:0 44:0 45:1 46:0 47:0 48:0 49:0 50:0 51:1 52:0 53:0 54:0 55:1 56:0 57:0 58:0 59:0 60:1 61:0 62:0 63:0 64:0 65:0 66:1 67:1 68:0 69:0 70:0 71:0 72:1 73:0 74:0 75:0 76:0 77:0 78:0 79:0 80:0 81:0 82:1 83:0 84:0 85:0 86:0 87:0 88:0 89:0 90:1 91:0 92:0 93:0 94:0 95:0 96:0 97:0 98:1 99:0 100:0 101:0 102:0 103:0 104:0 105:0 106:1 107:0 108:0 109:0 110:0 111:0 112:0 113:0 114:1 115:0 116:0 117:0 118:0 119:0 120:0 121:0 122:1 123:0 124:0 125:0 126:0 127:0 128:0 129:0 130:1 131:0 132:0 133:0 134:0 135:0 136:0 137:0 138:1 139:0 140:0 141:0 142:0 143:0 144:0 145:0 146:1 147:0 148:0 149:0 150:0 151:0 152:0 153:0 154:1 155:0 156:0 157:0 158:0 159:1 160:0 161:0 162:0 163:0 164:0 165:0 166:1 167:-1 168:-1 169:-1 170:1 171:1 172:-1 173:1 174:1 175:1 176:0 177:1 178:0 179:0 180:0 181:0 182:0 183:0 184:0 185:0 186:0 187:1 188:0 189:0 190:0 191:0 192:0 193:0 194:0 195:0 196:1 197:0 198:0 199:0 200:0 201:0 202:0 203:0 204:0 205:0 206:1 207:0 208:0 209:0 210:0 211:0 212:0 213:0 214:0 215:1 216:1 217:0 218:0 219:0 220:0 221:0 222:0 223:0 224:1 225:0 226:0 227:0 228:0 229:1 230:0 231:1 232:0 233:1 234:1 235:0 236:0 237:0 238:0 239:0 240:1 241:0 242:0 243:0 #25371
0.10000000000000000555111512312578 1:0 2:0 3:0 4:0 5:0 6:0 7:0 8:0 9:0 10:0 11:1 12:0 13:0 14:1 15:0 16:0 17:1 18:0 19:0 20:1 21:0 22:0 23:0 24:0 25:1 26:0 27:0 28:0 29:0 30:1 31:0 32:0 33:0 34:0 35:0 36:1 37:0 38:0 39:0 40:1 41:0 42:0 43:0 44:0 45:1 46:0 47:0 48:0 49:0 50:0 51:1 52:0 53:0 54:0 55:1 56:0 57:0 58:0 59:0 60:1 61:0 62:0 63:0 64:0 65:0 66:1 67:1 68:0 69:0 70:0 71:0 72:1 73:0 74:0 75:0 76:0 77:0 78:0 79:0 80:0 81:0 82:1 83:0 84:0 85:0 86:0 87:0 88:0 89:0 90:1 91:0 92:0 93:0 94:0 95:0 96:0 97:0 98:1 99:0 100:0 101:0 102:0 103:0 104:0 105:0 106:1 107:0 108:0 109:0 110:0 111:0 112:0 113:0 114:1 115:0 116:0 117:0 118:0 119:0 120:0 121:0 122:1 123:0 124:0 125:0 126:0 127:0 128:0 129:0 130:1 131:0 132:0 133:0 134:0 135:0 136:0 137:0 138:1 139:0 140:0 141:0 142:0 143:0 144:0 145:0 146:1 147:0 148:0 149:0 150:0 151:0 152:0 153:0 154:1 155:0 156:0 157:0 158:0 159:1 160:0 161:0 162:0 163:0 164:0 165:0 166:1 167:1 168:1 169:-1 170:1 171:1 172:-1 173:1 174:1 175:1 176:0 177:1 178:0 179:0 180:0 181:0 182:0 183:0 184:0 185:0 186:0 187:1 188:0 189:0 190:0 191:0 192:0 193:0 194:0 195:0 196:1 197:0 198:0 199:0 200:0 201:0 202:0 203:0 204:0 205:0 206:1 207:0 208:0 209:0 210:0 211:0 212:1 213:0 214:0 215:0 216:1 217:0 218:0 219:0 220:0 221:1 222:0 223:0 224:0 225:0 226:0 227:0 228:0 229:1 230:0 231:1 232:0 233:1 234:1 235:0 236:0 237:0 238:0 239:0 240:1 241:0 242:0 243:0 #39464
0.10000000000000000555111512312578 1:0 2:0 3:0 4:0 5:0 6:0 7:0 8:0 9:0 10:0 11:0 12:1 13:0 14:0 15:1 16:0 17:0 18:1 19:0 20:0 21:0 22:0 23:0 24:0 25:0 26:0 27:0 28:0 29:0 30:0 31:0 32:0 33:0 34:0 35:0 36:0 37:0 38:0 39:0 40:0 41:0 42:0 43:0 44:0 45:0 46:0 47:0 48:0 49:0 50:0 51:0 52:0 53:0 54:0 55:0 56:0 57:0 58:0 59:0 60:0 61:0 62:0 63:0 64:0 65:0 66:0 67:0 68:1 69:0 70:0 71:0 72:0 73:0 74:1 75:0 76:0 77:0 78:0 79:0 80:0 81:0 82:0 83:0 84:0 85:0 86:0 87:0 88:0 89:0 90:0 91:0 92:1 93:0 94:0 95:0 96:0 97:0 98:0 99:0 100:1 101:0 102:0 103:0 104:0 105:0 106:0 107:0 108:0 109:0 110:0 111:0 112:0 113:0 114:0 115:0 116:0 117:0 118:0 119:0 120:0 121:0 122:0 123:0 124:0 125:0 126:0 127:0 128:0 129:0 130:0 131:0 132:0 133:0 134:0 135:0 136:0 137:0 138:0 139:0 140:0 141:0 142:0 143:0 144:0 145:0 146:0 147:0 148:0 149:0 150:0 151:0 152:0 153:0 154:1 155:0 156:0 157:0 158:1 159:0 160:0 161:0 162:0 163:0 164:0 165:0 166:1 167:1 168:1 169:1 170:1 171:1 172:1 173:1 174:1 175:1 176:0 177:0 178:0 179:0 180:0 181:0 182:0 183:0 184:0 185:0 186:0 187:0 188:0 189:0 190:0 191:0 192:0 193:0 194:0 195:0 196:0 197:0 198:0 199:0 200:0 201:0 202:0 203:0 204:0 205:0 206:0 207:0 208:0 209:0 210:0 211:0 212:1 213:0 214:0 215:0 216:0 217:0 218:0 219:0 220:0 221:0 222:1 223:0 224:0 225:0 226:0 227:0 228:0 229:1 230:0 231:1 232:0 233:1 234:1 235:0 236:1 237:0 238:0 239:0 240:0 241:0 242:0 243:0 #58964
0.10000000000000000555111512312578 1:0 2:0 3:0 4:0 5:0 6:0 7:0 8:1 9:0 10:0 11:0 12:1 13:0 14:0 15:1 16:0 17:0 18:1 19:0 20:0 21:0 22:0 23:0 24:0 25:0 26:0 27:0 28:0 29:0 30:0 31:0 32:0 33:0 34:0 35:0 36:0 37:0 38:0 39:0 40:0 41:0 42:0 43:0 44:0 45:0 46:0 47:0 48:0 49:0 50:0 51:0 52:0 53:0 54:0 55:0 56:0 57:0 58:0 59:0 60:0 61:0 62:0 63:0 64:0 65:0 66:0 67:0 68:0 69:1 70:0 71:0 72:0 73:0 74:0 75:0 76:0 77:0 78:0 79:0 80:0 81:0 82:0 83:0 84:0 85:0 86:0 87:0 88:0 89:0 90:0 91:0 92:0 93:0 94:0 95:0 96:0 97:0 98:0 99:0 100:0 101:0 102:0 103:0 104:0 105:0 106:0 107:0 108:0 109:0 110:0 111:0 112:0 113:0 114:0 115:0 116:0 117:0 118:0 119:0 120:0 121:0 122:0 123:0 124:0 125:0 126:0 127:0 128:0 129:0 130:0 131:0 132:0 133:0 134:0 135:0 136:0 137:0 138:0 139:0 140:0 141:0 142:0 143:0 144:0 145:0 146:0 147:0 148:0 149:0 150:0 151:0 152:0 153:0 154:1 155:0 156:0 157:0 158:0 159:1 160:0 161:0 162:0 163:0 164:0 165:0 166:1 167:1 168:1 169:1 170:1 171:1 172:1 173:1 174:1 175:-1 176:0 177:0 178:0 179:0 180:0 181:0 182:0 183:0 184:0 185:0 186:0 187:0 188:0 189:0 190:0 191:0 192:0 193:0 194:0 195:0 196:0 197:0 198:0 199:0 200:0 201:0 202:0 203:0 204:0 205:0 206:0 207:0 208:0 209:0 210:0 211:0 212:0 213:0 214:0 215:0 216:0 217:0 218:1 219:0 220:0 221:0 222:0 223:0 224:0 225:0 226:0 227:0 228:0 229:0 230:0 231:0 232:0 233:1 234:1 235:0 236:1 237:0 238:0 239:0 240:0 241:0 242:0 243:0 #30366
0.10000000000000000555111512312578 1:1 2:0 3:0 4:0 5:0 6:0 7:0 8:0 9:0 10:0 11:0 12:0 13:1 14:0 15:0 16:1 17:0 18:1 19:0 20:0 21:2 22:0 23:0 24:1 25:0 26:0 27:0 28:0 29:1 30:0 31:0 32:0 33:0 34:0 35:0 36:1 37:0 38:0 39:0 40:0 41:1 42:0 43:0 44:0 45:0 46:1 47:0 48:0 49:0 50:0 51:1 52:0 53:0 54:1 55:0 56:0 57:0 58:0 59:1 60:0 61:0 62:0 63:0 64:0 65:0 66:1 67:0 68:0 69:0 70:0 71:0 72:0 73:0 74:0 75:0 76:0 77:0 78:0 79:0 80:0 81:0 82:0 83:0 84:0 85:0 86:0 87:1 88:0 89:0 90:0 91:0 92:0 93:0 94:0 95:1 96:0 97:0 98:0 99:0 100:0 101:0 102:0 103:1 104:0 105:0 106:0 107:0 108:0 109:0 110:0 111:0 112:0 113:1 114:0 115:0 116:0 117:0 118:0 119:0 120:0 121:1 122:0 123:0 124:0 125:0 126:0 127:0 128:0 129:1 130:0 131:0 132:0 133:0 134:0 135:1 136:0 137:0 138:0 139:0 140:0 141:0 142:0 143:1 144:0 145:0 146:0 147:0 148:0 149:0 150:0 151:1 152:0 153:0 154:1 155:0 156:0 157:0 158:1 159:0 160:0 161:0 162:0 163:0 164:0 165:0 166:1 167:1 168:1 169:1 170:1 171:1 172:1 173:1 174:1 175:1 176:0 177:0 178:0 179:0 180:0 181:0 182:0 183:0 184:0 185:0 186:0 187:0 188:0 189:0 190:0 191:0 192:0 193:0 194:0 195:0 196:0 197:0 198:0 199:0 200:0 201:0 202:0 203:0 204:0 205:0 206:0 207:0 208:0 209:0 210:0 211:1 212:0 213:0 214:0 215:0 216:0 217:0 218:0 219:0 220:0 221:1 222:0 223:0 224:0 225:0 226:0 227:0 228:0 229:0 230:0 231:0 232:0 233:1 234:1 235:0 236:0 237:0 238:0 239:0 240:0 241:0 242:0 243:0 #57681
0.092961953377851402890996723726857 1:1 2:0 3:0 4:0 5:0 6:0 7:0 8:0 9:0 10:0 11:0 12:0 13:1 14:0 15:0 16:1 17:0 18:1 19:0 20:0 21:2 22:0 23:0 24:1 25:0 26:0 27:0 28:0 29:1 30:0 31:0 32:0 33:0 34:0 35:0 36:1 37:0 38:0 39:0 40:0 41:1 42:0 43:0 44:0 45:0 46:1 47:0 48:0 49:0 50:0 51:1 52:0 53:0 54:1 55:0 56:0 57:0 58:0 59:1 60:0 61:0 62:0 63:0 64:0 65:0 66:1 67:0 68:0 69:0 70:0 71:0 72:0 73:0 74:0 75:0 76:0 77:0 78:0 79:0 80:0 81:0 82:0 83:0 84:0 85:1 86:0 87:0 88:0 89:0 90:0 91:0 92:0 93:1 94:0 95:0 96:0 97:0 98:0 99:0 100:0 101:1 102:0 103:0 104:0 105:0 106:0 107:0 108:0 109:0 110:0 111:1 112:0 113:0 114:0 115:0 116:0 117:0 118:0 119:1 120:0 121:0 122:0 123:0 124:0 125:0 126:0 127:1 128:0 129:0 130:0 131:0 132:0 133:1 134:0 135:0 136:0 137:0 138:0 139:0 140:0 141:1 142:0 143:0 144:0 145:0 146:0 147:0 148:0 149:1 150:0 151:0 152:0 153:0 154:1 155:0 156:0 157:0 158:1 159:0 160:0 161:0 162:0 163:0 164:0 165:0 166:1 167:1 168:1 169:1 170:1 171:1 172:1 173:1 174:1 175:1 176:0 177:0 178:0 179:0 180:0 181:0 182:0 183:0 184:0 185:0 186:0 187:0 188:0 189:0 190:0 191:0 192:0 193:0 194:0 195:0 196:0 197:0 198:0 199:0 200:0 201:0 202:0 203:0 204:0 205:0 206:0 207:0 208:0 209:0 210:0 211:0 212:0 213:0 214:0 215:0 216:0 217:0 218:0 219:0 220:0 221:0 222:0 223:0 224:0 225:0 226:0 227:0 228:0 229:0 230:0 231:0 232:0 233:0 234:1 235:-1 236:0 237:0 238:0 239:0 240:0 241:0 242:0 243:0 #21339
