SVM-light Version V6.02
0 # kernel type
3 # kernel parameter -d 
1 # kernel parameter -g 
1 # kernel parameter -s 
1 # kernel parameter -r 
empty# kernel parameter -u 
328 # highest feature index 
3503 # number of training documents 
294 # number of support vectors plus 1 
11.693681 # threshold b, each following line is a SV (starting with alpha*y)
0.88981099210667335963620416805497 1:0 2:0 3:0 4:0 5:0 6:1 7:0 8:0 9:0 10:0 11:0 12:0 13:0 14:0 15:0 16:0 17:0 18:0 19:0 20:0 21:0 22:0 23:0 24:0 25:0 26:0 27:0 28:0 29:0 30:1 31:0 32:0 33:0 34:1 35:0 36:0 37:0 38:0 39:0 40:0 41:0 42:0 43:0 44:1 45:0 46:1 47:0 48:0 49:0 50:0 51:1 52:0 53:0 54:1 55:1 56:1 57:1 58:1 59:1 60:0 61:1 62:1 63:1 64:1 65:1 66:1 67:1 68:1 69:1 70:1 71:1 72:0 73:0 74:0 75:0 76:1 77:1 78:1 79:1 80:1 81:0 82:0 83:0 84:0 85:1 86:0 87:0 88:0 89:0 90:1 91:0 92:0 93:1 94:0 95:0 96:0 97:0 98:0 99:0 100:0 101:0 102:0 103:0 104:1 105:1 106:1 107:1 108:1 109:0 110:0 111:1 112:0 113:0 114:0 115:1 116:0 117:0 118:0 119:0 120:0 121:1 122:0 123:0 124:0 125:0 126:0 127:0 128:0 129:0 130:0 131:0 132:1 133:1 134:0 135:1 136:1 137:0 138:0 139:0 140:0 141:0 142:1 143:1 144:0 145:0 146:0 147:0 148:0 149:1 150:0 151:0 152:0 153:0 154:0 155:0 156:0 157:0 158:0 159:0 160:1 161:1 162:1 163:1 164:1 165:0 166:0 167:0 168:0 169:0 170:1 171:0 172:0 173:0 174:0 175:0 176:1 177:1 178:0 179:0 180:0 181:0 182:0 183:0 184:0 185:0 186:0 187:0 188:1 189:1 190:1 191:1 192:1 193:0 194:0 195:0 196:0 197:0 198:1 199:0 200:0 201:0 202:0 203:0 204:1 205:1 206:0 207:0 208:0 209:0 210:0 211:0 212:0 213:0 214:0 215:0 216:1 217:1 218:1 219:1 220:1 221:0 222:0 223:0 224:0 225:0 226:1 227:0 228:0 229:0 230:0 231:0 232:1 233:1 234:0 235:0 236:0 237:0 238:0 239:0 240:0 241:0 242:0 243:0 244:1 245:1 246:1 247:1 248:1 249:0 250:0 251:0 252:0 253:0 254:1 255:0 256:0 257:0 258:0 259:0 260:1 261:1 262:0 263:0 264:0 265:0 266:0 267:0 268:0 269:0 270:0 271:0 272:1 273:1 274:1 275:1 276:1 277:0 278:0 279:0 280:0 281:0 282:1 283:0 284:0 285:0 286:0 287:0 288:1 289:1 290:0 291:0 292:0 293:0 294:0 295:0 296:0 297:0 298:0 299:0 300:1 301:1 302:1 303:1 304:1 305:0 306:0 307:0 308:0 309:0 310:1 311:0 312:0 313:1 314:0 315:0 316:0 317:1 318:0 319:0 320:0 321:0 322:0 323:0 324:0 325:0 326:0 327:0 328:1 #
-0.30641450926367824747487134118273 1:0 2:0 3:0 4:0 5:0 6:1 7:0 8:0 9:0 10:0 11:0 12:0 13:0 14:0 15:0 16:0 17:0 18:0 19:0 20:0 21:0 22:0 23:0 24:0 25:0 26:0 27:0 28:0 29:0 30:1 31:0 32:0 33:0 34:0 35:1 36:0 37:0 38:0 39:1 40:0 41:0 42:0 43:1 44:0 45:0 46:1 47:0 48:0 49:0 50:0 51:1 52:0 53:0 54:0 55:0 56:1 57:1 58:1 59:1 60:1 61:1 62:1 63:1 64:1 65:1 66:1 67:1 68:1 69:1 70:1 71:1 72:0 73:0 74:0 75:0 76:1 77:1 78:1 79:1 80:1 81:0 82:0 83:0 84:0 85:0 86:1 87:0 88:0 89:0 90:0 91:0 92:1 93:1 94:0 95:0 96:0 97:0 98:0 99:0 100:0 101:1 102:0 103:0 104:0 105:1 106:1 107:1 108:1 109:0 110:0 111:0 112:1 113:0 114:0 115:0 116:0 117:1 118:0 119:0 120:0 121:1 122:0 123:0 124:0 125:0 126:0 127:0 128:0 129:1 130:0 131:0 132:0 133:1 134:1 135:1 136:1 137:0 138:0 139:0 140:1 141:0 142:0 143:0 144:0 145:0 146:1 147:0 148:0 149:1 150:0 151:0 152:0 153:0 154:0 155:0 156:0 157:1 158:0 159:0 160:0 161:1 162:1 163:1 164:1 165:0 166:0 167:0 168:0 169:0 170:1 171:0 172:0 173:0 174:0 175:0 176:1 177:1 178:0 179:0 180:0 181:0 182:0 183:0 184:0 185:1 186:0 187:0 188:0 189:1 190:1 191:1 192:1 193:0 194:0 195:0 196:0 197:0 198:1 199:0 200:0 201:0 202:0 203:0 204:1 205:1 206:0 207:0 208:0 209:0 210:0 211:0 212:0 213:1 214:0 215:0 216:0 217:1 218:1 219:1 220:1 221:0 222:0 223:0 224:0 225:0 226:1 227:0 228:0 229:0 230:0 231:0 232:1 233:1 234:0 235:0 236:0 237:0 238:0 239:0 240:0 241:1 242:0 243:0 244:0 245:1 246:1 247:1 248:1 249:0 250:0 251:0 252:0 253:0 254:1 255:0 256:0 257:0 258:0 259:0 260:1 261:1 262:0 263:0 264:0 265:0 266:0 267:0 268:0 269:1 270:0 271:0 272:0 273:1 274:1 275:1 276:1 277:0 278:0 279:0 280:0 281:0 282:1 283:0 284:0 285:0 286:0 287:0 288:1 289:1 290:0 291:0 292:0 293:0 294:0 295:0 296:0 297:1 298:0 299:0 300:0 301:1 302:1 303:1 304:1 305:0 306:0 307:1 308:0 309:0 310:0 311:0 312:0 313:0 314:1 315:0 316:0 317:1 318:0 319:0 320:0 321:0 322:0 323:0 324:0 325:1 326:0 327:0 328:0 #
1 1:0 2:0 3:0 4:0 5:0 6:0 7:0 8:0 9:0 10:0 11:0 12:0 13:0 14:0 15:0 16:1 17:0 18:0 19:0 20:0 21:0 22:0 23:0 24:0 25:0 26:1 27:0 28:0 29:0 30:0 31:0 32:0 33:0 34:0 35:0 36:1 37:0 38:0 39:0 40:0 41:0 42:1 43:0 44:0 45:0 46:1 47:0 48:0 49:0 50:0 51:1 52:1 53:1 54:1 55:1 56:1 57:1 58:0 59:1 60:1 61:1 62:1 63:0 64:1 65:1 66:1 67:1 68:0 69:0 70:1 71:1 72:0 73:0 74:0 75:0 76:1 77:0 78:0 79:1 80:1 81:0 82:1 83:0 84:0 85:0 86:0 87:0 88:1 89:0 90:0 91:0 92:0 93:1 94:0 95:0 96:0 97:0 98:0 99:1 100:0 101:0 102:0 103:0 104:0 105:1 106:1 107:1 108:1 109:0 110:1 111:0 112:0 113:0 114:0 115:1 116:0 117:0 118:0 119:0 120:0 121:1 122:0 123:0 124:0 125:0 126:0 127:1 128:0 129:0 130:0 131:0 132:0 133:1 134:1 135:1 136:1 137:0 138:1 139:0 140:0 141:0 142:0 143:0 144:1 145:0 146:0 147:0 148:0 149:1 150:0 151:0 152:0 153:0 154:0 155:1 156:0 157:0 158:0 159:0 160:0 161:1 162:1 163:1 164:1 165:0 166:1 167:0 168:0 169:0 170:0 171:0 172:1 173:0 174:0 175:0 176:0 177:1 178:0 179:0 180:0 181:0 182:0 183:1 184:0 185:0 186:0 187:0 188:0 189:1 190:1 191:1 192:1 193:0 194:0 195:1 196:0 197:0 198:0 199:0 200:1 201:0 202:0 203:0 204:0 205:1 206:0 207:0 208:0 209:0 210:0 211:1 212:0 213:0 214:0 215:0 216:0 217:1 218:1 219:1 220:1 221:0 222:1 223:0 224:0 225:0 226:0 227:0 228:1 229:0 230:0 231:0 232:0 233:1 234:0 235:0 236:0 237:0 238:0 239:1 240:0 241:0 242:0 243:0 244:0 245:1 246:0 247:1 248:1 249:0 250:1 251:0 252:0 253:0 254:0 255:0 256:1 257:0 258:0 259:0 260:0 261:1 262:0 263:0 264:0 265:0 266:0 267:1 268:0 269:0 270:0 271:0 272:0 273:1 274:0 275:1 276:1 277:0 278:1 279:0 280:0 281:0 282:0 283:0 284:1 285:0 286:0 287:0 288:0 289:1 290:0 291:0 292:0 293:0 294:0 295:1 296:0 297:0 298:0 299:0 300:0 301:1 302:1 303:1 304:1 305:0 306:0 307:1 308:0 309:0 310:0 311:0 312:1 313:0 314:0 315:0 316:0 317:1 318:0 319:0 320:0 321:0 322:0 323:1 324:0 325:0 326:0 327:0 328:0 #
0.40037305132892941905708994454471 1:0 2:0 3:0 4:0 5:0 6:0 7:0 8:0 9:0 10:0 11:0 12:0 13:0 14:0 15:0 16:1 17:0 18:0 19:0 20:0 21:1 22:0 23:0 24:0 25:0 26:0 27:0 28:0 29:1 30:0 31:0 32:0 33:0 34:1 35:0 36:0 37:0 38:0 39:0 40:0 41:0 42:1 43:0 44:0 45:0 46:0 47:1 48:0 49:0 50:0 51:1 52:1 53:1 54:0 55:1 56:1 57:1 58:1 59:1 60:0 61:1 62:1 63:1 64:1 65:1 66:1 67:1 68:0 69:0 70:1 71:1 72:0 73:0 74:0 75:0 76:1 77:0 78:1 79:1 80:1 81:0 82:0 83:0 84:1 85:0 86:0 87:0 88:0 89:0 90:1 91:0 92:0 93:1 94:0 95:0 96:0 97:0 98:0 99:0 100:0 101:1 102:0 103:0 104:0 105:1 106:1 107:1 108:1 109:0 110:0 111:0 112:1 113:0 114:0 115:0 116:0 117:1 118:0 119:0 120:0 121:1 122:0 123:0 124:0 125:0 126:0 127:0 128:0 129:1 130:0 131:0 132:0 133:1 134:0 135:1 136:1 137:0 138:0 139:1 140:0 141:0 142:0 143:1 144:0 145:0 146:0 147:0 148:0 149:1 150:0 151:0 152:0 153:0 154:0 155:0 156:0 157:1 158:0 159:0 160:0 161:1 162:1 163:1 164:1 165:0 166:0 167:1 168:0 169:0 170:0 171:0 172:0 173:1 174:0 175:0 176:0 177:1 178:0 179:0 180:0 181:0 182:0 183:0 184:0 185:1 186:0 187:0 188:0 189:1 190:1 191:1 192:1 193:0 194:0 195:1 196:0 197:0 198:0 199:0 200:0 201:1 202:0 203:0 204:0 205:1 206:0 207:0 208:0 209:0 210:0 211:0 212:0 213:1 214:0 215:0 216:0 217:1 218:1 219:1 220:1 221:0 222:0 223:1 224:0 225:0 226:0 227:0 228:0 229:0 230:1 231:0 232:0 233:1 234:0 235:0 236:0 237:0 238:0 239:0 240:0 241:1 242:0 243:0 244:0 245:0 246:0 247:1 248:1 249:0 250:0 251:0 252:1 253:0 254:0 255:1 256:0 257:0 258:0 259:0 260:0 261:1 262:0 263:0 264:0 265:0 266:0 267:0 268:0 269:1 270:0 271:0 272:0 273:0 274:0 275:1 276:1 277:0 278:0 279:0 280:1 281:0 282:0 283:1 284:0 285:0 286:0 287:0 288:0 289:1 290:0 291:0 292:0 293:0 294:0 295:0 296:0 297:1 298:0 299:0 300:0 301:1 302:1 303:1 304:1 305:0 306:0 307:1 308:0 309:0 310:0 311:0 312:0 313:1 314:0 315:0 316:0 317:1 318:0 319:0 320:0 321:0 322:0 323:0 324:0 325:1 326:0 327:0 328:0 #
1 1:0 2:0 3:0 4:0 5:0 6:0 7:0 8:0 9:0 10:0 11:0 12:0 13:0 14:0 15:0 16:0 17:0 18:0 19:0 20:0 21:1 22:0 23:0 24:0 25:0 26:0 27:0 28:0 29:0 30:1 31:0 32:0 33:0 34:0 35:1 36:0 37:0 38:0 39:0 40:0 41:0 42:0 43:1 44:0 45:0 46:0 47:1 48:0 49:0 50:0 51:0 52:1 53:1 54:1 55:1 56:1 57:1 58:1 59:1 60:1 61:1 62:0 63:0 64:0 65:0 66:1 67:1 68:0 69:0 70:0 71:0 72:0 73:0 74:0 75:0 76:1 77:1 78:1 79:1 80:1 81:0 82:0 83:0 84:0 85:0 86:1 87:0 88:0 89:0 90:0 91:1 92:0 93:1 94:0 95:0 96:0 97:0 98:0 99:0 100:0 101:1 102:0 103:0 104:0 105:1 106:1 107:1 108:1 109:0 110:0 111:0 112:0 113:1 114:0 115:0 116:0 117:0 118:1 119:0 120:0 121:1 122:0 123:0 124:0 125:0 126:0 127:0 128:0 129:1 130:0 131:0 132:0 133:1 134:1 135:1 136:1 137:0 138:0 139:0 140:1 141:0 142:0 143:0 144:0 145:0 146:1 147:0 148:0 149:1 150:0 151:0 152:0 153:0 154:0 155:0 156:0 157:1 158:0 159:0 160:0 161:1 162:1 163:1 164:1 165:0 166:1 167:0 168:0 169:0 170:0 171:0 172:1 173:0 174:0 175:0 176:0 177:1 178:0 179:0 180:0 181:0 182:0 183:0 184:0 185:1 186:0 187:0 188:0 189:1 190:0 191:1 192:1 193:0 194:0 195:0 196:1 197:0 198:0 199:0 200:0 201:0 202:1 203:0 204:0 205:1 206:0 207:0 208:0 209:0 210:0 211:0 212:0 213:1 214:0 215:0 216:0 217:1 218:0 219:1 220:1 221:0 222:0 223:0 224:1 225:0 226:0 227:0 228:0 229:0 230:0 231:1 232:0 233:1 234:0 235:0 236:0 237:0 238:0 239:0 240:0 241:1 242:0 243:0 244:0 245:1 246:1 247:1 248:1 249:0 250:0 251:0 252:0 253:0 254:1 255:0 256:0 257:0 258:0 259:0 260:1 261:1 262:0 263:0 264:0 265:0 266:0 267:0 268:0 269:1 270:0 271:0 272:0 273:1 274:1 275:1 276:1 277:0 278:0 279:0 280:0 281:0 282:1 283:0 284:0 285:0 286:0 287:0 288:1 289:1 290:0 291:0 292:0 293:0 294:0 295:0 296:0 297:1 298:0 299:0 300:0 301:1 302:1 303:1 304:1 305:0 306:0 307:0 308:1 309:0 310:0 311:0 312:0 313:0 314:1 315:0 316:0 317:1 318:0 319:0 320:0 321:0 322:0 323:0 324:0 325:1 326:0 327:0 328:0 #
0.4002156525307961065784922993771 1:0 2:0 3:0 4:0 5:0 6:1 7:0 8:0 9:0 10:0 11:0 12:0 13:0 14:0 15:0 16:0 17:0 18:0 19:0 20:0 21:0 22:0 23:0 24:0 25:0 26:0 27:0 28:0 29:1 30:0 31:0 32:0 33:0 34:1 35:0 36:0 37:0 38:0 39:0 40:0 41:0 42:0 43:1 44:0 45:0 46:1 47:0 48:0 49:0 50:0 51:1 52:1 53:0 54:1 55:0 56:1 57:1 58:1 59:1 60:1 61:1 62:1 63:1 64:1 65:1 66:1 67:1 68:1 69:1 70:1 71:1 72:0 73:0 74:0 75:0 76:1 77:1 78:1 79:1 80:1 81:0 82:0 83:0 84:1 85:0 86:0 87:0 88:0 89:0 90:1 91:0 92:0 93:1 94:0 95:0 96:0 97:0 98:0 99:1 100:0 101:0 102:0 103:0 104:0 105:1 106:1 107:1 108:1 109:0 110:0 111:1 112:0 113:0 114:0 115:0 116:1 117:0 118:0 119:0 120:0 121:1 122:0 123:0 124:0 125:0 126:0 127:1 128:0 129:0 130:0 131:0 132:0 133:1 134:1 135:1 136:1 137:0 138:0 139:0 140:1 141:0 142:0 143:0 144:0 145:0 146:1 147:0 148:0 149:1 150:0 151:0 152:0 153:0 154:0 155:1 156:0 157:0 158:0 159:0 160:0 161:1 162:1 163:1 164:1 165:1 166:0 167:0 168:0 169:0 170:0 171:1 172:0 173:0 174:0 175:0 176:0 177:1 178:0 179:0 180:0 181:0 182:0 183:1 184:0 185:0 186:0 187:0 188:0 189:1 190:1 191:1 192:1 193:0 194:0 195:0 196:0 197:1 198:0 199:0 200:0 201:0 202:0 203:1 204:0 205:1 206:0 207:0 208:0 209:0 210:0 211:1 212:0 213:0 214:0 215:0 216:0 217:1 218:1 219:1 220:1 221:0 222:0 223:0 224:0 225:1 226:0 227:0 228:0 229:0 230:0 231:1 232:0 233:1 234:0 235:0 236:0 237:0 238:0 239:1 240:0 241:0 242:0 243:0 244:0 245:1 246:1 247:1 248:1 249:0 250:0 251:0 252:1 253:0 254:0 255:0 256:0 257:0 258:1 259:0 260:0 261:1 262:0 263:0 264:0 265:0 266:0 267:1 268:0 269:0 270:0 271:0 272:0 273:1 274:1 275:1 276:1 277:0 278:0 279:0 280:1 281:0 282:0 283:0 284:0 285:0 286:1 287:0 288:0 289:1 290:0 291:0 292:0 293:0 294:0 295:1 296:0 297:0 298:0 299:0 300:0 301:1 302:1 303:1 304:1 305:1 306:0 307:0 308:0 309:0 310:0 311:0 312:0 313:0 314:0 315:1 316:0 317:1 318:0 319:0 320:0 321:0 322:0 323:1 324:0 325:0 326:0 327:0 328:0 #
1 1:0 2:0 3:0 4:0 5:0 6:0 7:0 8:0 9:0 10:0 11:0 12:0 13:0 14:0 15:0 16:0 17:0 18:0 19:0 20:0 21:1 22:0 23:0 24:0 25:0 26:0 27:0 28:0 29:0 30:1 31:0 32:0 33:0 34:0 35:1 36:0 37:0 38:0 39:0 40:1 41:0 42:0 43:1 44:0 45:0 46:0 47:1 48:0 49:0 50:0 51:1 52:1 53:0 54:1 55:1 56:1 57:1 58:1 59:1 60:0 61:1 62:0 63:0 64:0 65:1 66:1 67:1 68:0 69:0 70:0 71:0 72:0 73:0 74:0 75:0 76:1 77:1 78:1 79:1 80:1 81:0 82:0 83:0 84:0 85:0 86:1 87:0 88:0 89:0 90:0 91:0 92:1 93:1 94:0 95:0 96:0 97:0 98:0 99:1 100:0 101:0 102:0 103:0 104:0 105:1 106:1 107:1 108:1 109:0 110:0 111:0 112:0 113:0 114:1 115:0 116:1 117:0 118:0 119:0 120:0 121:1 122:0 123:0 124:0 125:0 126:0 127:1 128:0 129:0 130:0 131:0 132:0 133:1 134:0 135:1 136:1 137:0 138:0 139:0 140:0 141:0 142:1 143:0 144:0 145:0 146:0 147:0 148:1 149:1 150:0 151:0 152:0 153:0 154:0 155:1 156:0 157:0 158:0 159:0 160:0 161:1 162:1 163:1 164:1 165:0 166:0 167:0 168:0 169:0 170:1 171:0 172:0 173:0 174:0 175:0 176:1 177:1 178:0 179:0 180:0 181:0 182:0 183:1 184:0 185:0 186:0 187:0 188:0 189:1 190:0 191:1 192:1 193:0 194:0 195:0 196:0 197:0 198:1 199:0 200:0 201:0 202:0 203:0 204:1 205:1 206:0 207:0 208:0 209:0 210:0 211:1 212:0 213:0 214:0 215:0 216:0 217:1 218:0 219:1 220:1 221:0 222:0 223:0 224:0 225:0 226:1 227:0 228:0 229:0 230:0 231:0 232:1 233:1 234:0 235:0 236:0 237:0 238:0 239:1 240:0 241:0 242:0 243:0 244:0 245:1 246:0 247:1 248:1 249:0 250:0 251:0 252:0 253:0 254:1 255:0 256:0 257:0 258:0 259:0 260:1 261:1 262:0 263:0 264:0 265:0 266:0 267:1 268:0 269:0 270:0 271:0 272:0 273:1 274:0 275:1 276:1 277:0 278:0 279:0 280:0 281:0 282:1 283:0 284:0 285:0 286:0 287:0 288:1 289:1 290:0 291:0 292:0 293:0 294:0 295:1 296:0 297:0 298:0 299:0 300:0 301:1 302:1 303:1 304:1 305:1 306:0 307:0 308:0 309:0 310:0 311:1 312:0 313:0 314:0 315:0 316:0 317:1 318:0 319:0 320:0 321:0 322:0 323:1 324:0 325:0 326:0 327:0 328:0 #
1 1:0 2:0 3:0 4:0 5:0 6:0 7:0 8:0 9:0 10:0 11:1 12:0 13:0 14:0 15:0 16:0 17:0 18:0 19:0 20:0 21:0 22:0 23:0 24:0 25:0 26:0 27:0 28:1 29:0 30:0 31:0 32:0 33:0 34:0 35:0 36:0 37:0 38:1 39:0 40:0 41:0 42:1 43:0 44:0 45:0 46:1 47:0 48:0 49:0 50:0 51:1 52:0 53:0 54:1 55:1 56:1 57:1 58:1 59:1 60:1 61:1 62:1 63:1 64:1 65:1 66:1 67:1 68:1 69:1 70:1 71:1 72:0 73:0 74:0 75:0 76:1 77:1 78:1 79:1 80:1 81:1 82:0 83:0 84:0 85:0 86:0 87:1 88:0 89:0 90:0 91:0 92:0 93:1 94:0 95:0 96:0 97:0 98:0 99:0 100:0 101:1 102:0 103:0 104:0 105:1 106:1 107:1 108:1 109:1 110:0 111:0 112:0 113:0 114:0 115:1 116:0 117:0 118:0 119:0 120:0 121:1 122:0 123:0 124:0 125:0 126:0 127:0 128:0 129:1 130:0 131:0 132:0 133:1 134:1 135:1 136:1 137:0 138:0 139:1 140:0 141:0 142:0 143:0 144:0 145:1 146:0 147:0 148:0 149:1 150:0 151:0 152:0 153:0 154:0 155:0 156:0 157:1 158:0 159:0 160:0 161:1 162:1 163:1 164:1 165:0 166:0 167:1 168:0 169:0 170:0 171:0 172:0 173:1 174:0 175:0 176:0 177:1 178:0 179:0 180:0 181:0 182:0 183:0 184:0 185:1 186:0 187:0 188:0 189:1 190:1 191:1 192:1 193:0 194:0 195:0 196:1 197:0 198:0 199:0 200:0 201:1 202:0 203:0 204:0 205:1 206:0 207:0 208:0 209:0 210:0 211:0 212:0 213:1 214:0 215:0 216:0 217:1 218:1 219:1 220:1 221:0 222:0 223:0 224:1 225:0 226:0 227:0 228:0 229:0 230:1 231:0 232:0 233:1 234:0 235:0 236:0 237:0 238:0 239:0 240:0 241:1 242:0 243:0 244:0 245:1 246:1 247:1 248:1 249:0 250:0 251:1 252:0 253:0 254:0 255:0 256:0 257:1 258:0 259:0 260:0 261:1 262:0 263:0 264:0 265:0 266:0 267:0 268:0 269:1 270:0 271:0 272:0 273:1 274:1 275:1 276:1 277:0 278:0 279:1 280:0 281:0 282:0 283:0 284:0 285:1 286:0 287:0 288:0 289:1 290:0 291:0 292:0 293:0 294:0 295:0 296:0 297:1 298:0 299:0 300:0 301:1 302:1 303:1 304:1 305:0 306:0 307:1 308:0 309:0 310:0 311:0 312:0 313:1 314:0 315:0 316:0 317:1 318:0 319:0 320:0 321:0 322:0 323:0 324:0 325:1 326:0 327:0 328:0 #
0.72265549652363958443856972735375 1:0 2:0 3:0 4:0 5:0 6:0 7:0 8:0 9:0 10:0 11:1 12:0 13:0 14:0 15:0 16:1 17:0 18:0 19:0 20:0 21:0 22:0 23:0 24:0 25:0 26:0 27:0 28:0 29:0 30:1 31:0 32:0 33:1 34:0 35:0 36:0 37:0 38:0 39:0 40:1 41:0 42:0 43:1 44:0 45:0 46:1 47:0 48:0 49:0 50:0 51:1 52:1 53:0 54:0 55:0 56:1 57:1 58:1 59:1 60:0 61:1 62:1 63:1 64:1 65:1 66:1 67:1 68:1 69:1 70:1 71:1 72:0 73:0 74:0 75:0 76:1 77:1 78:1 79:1 80:1 81:0 82:0 83:0 84:0 85:0 86:1 87:0 88:0 89:0 90:0 91:0 92:1 93:1 94:0 95:0 96:0 97:0 98:0 99:0 100:0 101:1 102:0 103:0 104:0 105:1 106:1 107:1 108:1 109:0 110:0 111:1 112:0 113:0 114:0 115:1 116:0 117:0 118:0 119:0 120:0 121:1 122:0 123:0 124:0 125:0 126:0 127:0 128:0 129:1 130:0 131:0 132:0 133:1 134:0 135:1 136:1 137:0 138:0 139:1 140:0 141:0 142:0 143:1 144:0 145:0 146:0 147:0 148:0 149:1 150:0 151:0 152:0 153:0 154:0 155:0 156:0 157:1 158:0 159:0 160:0 161:1 162:1 163:1 164:1 165:1 166:0 167:0 168:0 169:0 170:0 171:1 172:0 173:0 174:0 175:0 176:0 177:1 178:0 179:0 180:0 181:0 182:0 183:0 184:0 185:1 186:0 187:0 188:0 189:1 190:1 191:1 192:1 193:0 194:0 195:0 196:0 197:0 198:1 199:0 200:0 201:0 202:0 203:0 204:1 205:1 206:0 207:0 208:0 209:0 210:0 211:0 212:0 213:1 214:0 215:0 216:0 217:1 218:1 219:1 220:1 221:0 222:0 223:0 224:0 225:0 226:1 227:0 228:0 229:0 230:0 231:0 232:1 233:1 234:0 235:0 236:0 237:0 238:0 239:0 240:0 241:1 242:0 243:0 244:0 245:1 246:1 247:1 248:1 249:0 250:0 251:0 252:0 253:0 254:1 255:0 256:0 257:0 258:0 259:0 260:1 261:1 262:0 263:0 264:0 265:0 266:0 267:0 268:0 269:1 270:0 271:0 272:0 273:1 274:1 275:1 276:1 277:0 278:0 279:0 280:0 281:0 282:1 283:0 284:0 285:0 286:0 287:0 288:1 289:1 290:0 291:0 292:0 293:0 294:0 295:0 296:0 297:1 298:0 299:0 300:0 301:1 302:1 303:1 304:1 305:0 306:0 307:0 308:0 309:0 310:1 311:0 312:0 313:0 314:1 315:0 316:0 317:1 318:0 319:0 320:0 321:0 322:0 323:0 324:0 325:1 326:0 327:0 328:0 #
-1 1:0 2:0 3:0 4:0 5:0 6:0 7:0 8:0 9:0 10:0 11:1 12:0 13:0 14:0 15:0 16:0 17:0 18:0 19:0 20:0 21:1 22:0 23:0 24:0 25:0 26:0 27:0 28:0 29:0 30:1 31:0 32:0 33:0 34:0 35:1 36:0 37:0 38:0 39:1 40:0 41:0 42:1 43:0 44:0 45:0 46:0 47:1 48:0 49:0 50:0 51:1 52:0 53:0 54:0 55:0 56:1 57:1 58:1 59:1 60:1 61:1 62:1 63:1 64:1 65:1 66:1 67:1 68:0 69:0 70:1 71:1 72:0 73:0 74:0 75:0 76:1 77:1 78:1 79:1 80:1 81:0 82:0 83:0 84:0 85:0 86:1 87:0 88:0 89:0 90:0 91:0 92:1 93:1 94:0 95:0 96:0 97:0 98:0 99:0 100:0 101:0 102:0 103:0 104:1 105:1 106:1 107:1 108:1 109:0 110:0 111:0 112:0 113:0 114:1 115:0 116:0 117:0 118:0 119:1 120:0 121:1 122:0 123:0 124:0 125:0 126:0 127:0 128:0 129:0 130:0 131:0 132:1 133:1 134:1 135:1 136:1 137:0 138:0 139:0 140:0 141:0 142:1 143:0 144:0 145:0 146:0 147:0 148:1 149:1 150:0 151:0 152:0 153:0 154:0 155:0 156:0 157:0 158:0 159:0 160:1 161:1 162:1 163:1 164:1 165:0 166:0 167:0 168:0 169:0 170:1 171:0 172:1 173:0 174:0 175:0 176:0 177:1 178:0 179:0 180:0 181:0 182:0 183:0 184:0 185:0 186:0 187:0 188:1 189:1 190:1 191:1 192:1 193:0 194:0 195:0 196:0 197:0 198:1 199:0 200:0 201:0 202:0 203:0 204:1 205:1 206:0 207:0 208:0 209:0 210:0 211:0 212:0 213:0 214:0 215:0 216:1 217:1 218:1 219:1 220:1 221:0 222:0 223:0 224:0 225:0 226:1 227:0 228:0 229:0 230:0 231:0 232:1 233:1 234:0 235:0 236:0 237:0 238:0 239:0 240:0 241:0 242:0 243:0 244:1 245:1 246:0 247:1 248:1 249:0 250:0 251:0 252:0 253:0 254:1 255:1 256:0 257:0 258:0 259:0 260:0 261:1 262:0 263:0 264:0 265:0 266:0 267:0 268:0 269:0 270:0 271:0 272:1 273:1 274:0 275:1 276:1 277:0 278:0 279:0 280:0 281:0 282:1 283:1 284:0 285:0 286:0 287:0 288:0 289:1 290:0 291:0 292:0 293:0 294:0 295:0 296:0 297:0 298:0 299:0 300:1 301:1 302:1 303:1 304:1 305:0 306:0 307:0 308:0 309:0 310:1 311:0 312:0 313:0 314:0 315:1 316:0 317:1 318:0 319:0 320:0 321:0 322:0 323:0 324:0 325:0 326:0 327:0 328:1 #
-1 1:0 2:0 3:0 4:0 5:0 6:0 7:0 8:0 9:0 10:0 11:0 12:0 13:0 14:0 15:0 16:1 17:0 18:0 19:0 20:0 21:1 22:0 23:0 24:0 25:0 26:0 27:0 28:0 29:0 30:1 31:0 32:0 33:0 34:0 35:1 36:0 37:0 38:1 39:0 40:0 41:0 42:0 43:1 44:0 45:0 46:0 47:1 48:0 49:0 50:0 51:1 52:1 53:0 54:0 55:0 56:0 57:1 58:0 59:1 60:1 61:1 62:1 63:1 64:1 65:1 66:1 67:1 68:0 69:0 70:1 71:1 72:0 73:0 74:0 75:0 76:1 77:1 78:0 79:1 80:1 81:0 82:0 83:0 84:0 85:0 86:1 87:1 88:0 89:0 90:0 91:0 92:0 93:1 94:0 95:0 96:0 97:0 98:0 99:1 100:0 101:0 102:0 103:0 104:0 105:1 106:1 107:1 108:1 109:1 110:0 111:0 112:0 113:0 114:0 115:1 116:0 117:0 118:0 119:0 120:0 121:1 122:0 123:0 124:0 125:0 126:0 127:1 128:0 129:0 130:0 131:0 132:0 133:1 134:1 135:1 136:1 137:0 138:0 139:0 140:0 141:0 142:1 143:0 144:0 145:0 146:0 147:0 148:1 149:1 150:0 151:0 152:0 153:0 154:0 155:1 156:0 157:0 158:0 159:0 160:0 161:1 162:1 163:1 164:1 165:0 166:0 167:0 168:0 169:0 170:1 171:0 172:0 173:0 174:0 175:0 176:1 177:1 178:0 179:0 180:0 181:0 182:0 183:1 184:0 185:0 186:0 187:0 188:0 189:1 190:1 191:1 192:1 193:0 194:0 195:0 196:0 197:0 198:1 199:0 200:0 201:0 202:0 203:0 204:1 205:1 206:0 207:0 208:0 209:0 210:0 211:1 212:0 213:0 214:0 215:0 216:0 217:1 218:1 219:1 220:1 221:0 222:0 223:0 224:0 225:0 226:1 227:0 228:0 229:0 230:0 231:0 232:1 233:1 234:0 235:0 236:0 237:0 238:0 239:1 240:0 241:0 242:0 243:0 244:0 245:1 246:0 247:1 248:1 249:0 250:0 251:0 252:0 253:0 254:1 255:1 256:0 257:0 258:0 259:0 260:0 261:1 262:0 263:0 264:0 265:0 266:0 267:1 268:0 269:0 270:0 271:0 272:0 273:1 274:0 275:1 276:1 277:0 278:0 279:0 280:0 281:0 282:1 283:1 284:0 285:0 286:0 287:0 288:0 289:1 290:0 291:0 292:0 293:0 294:0 295:1 296:0 297:0 298:0 299:0 300:0 301:1 302:1 303:1 304:1 305:0 306:0 307:1 308:0 309:0 310:0 311:0 312:1 313:0 314:0 315:0 316:0 317:1 318:0 319:0 320:0 321:0 322:0 323:1 324:0 325:0 326:0 327:0 328:0 #
0.47347029765742076889978307008278 1:0 2:0 3:0 4:0 5:0 6:1 7:0 8:0 9:0 10:0 11:0 12:0 13:0 14:0 15:0 16:0 17:0 18:0 19:0 20:0 21:0 22:0 23:0 24:0 25:0 26:0 27:0 28:0 29:0 30:1 31:0 32:0 33:0 34:0 35:1 36:0 37:0 38:0 39:0 40:0 41:1 42:0 43:0 44:0 45:0 46:1 47:0 48:0 49:0 50:0 51:1 52:0 53:0 54:0 55:1 56:1 57:1 58:0 59:1 60:0 61:1 62:1 63:1 64:1 65:1 66:1 67:1 68:0 69:0 70:1 71:1 72:0 73:0 74:0 75:0 76:1 77:1 78:0 79:1 80:1 81:0 82:0 83:0 84:0 85:1 86:0 87:1 88:0 89:0 90:0 91:0 92:0 93:1 94:0 95:0 96:0 97:0 98:0 99:0 100:0 101:0 102:0 103:1 104:0 105:1 106:1 107:1 108:1 109:0 110:0 111:0 112:1 113:0 114:0 115:0 116:0 117:0 118:1 119:0 120:0 121:1 122:0 123:0 124:0 125:0 126:0 127:0 128:0 129:0 130:0 131:1 132:0 133:1 134:0 135:1 136:1 137:0 138:0 139:0 140:0 141:1 142:0 143:1 144:0 145:0 146:0 147:0 148:0 149:1 150:0 151:0 152:0 153:0 154:0 155:0 156:0 157:0 158:0 159:1 160:0 161:1 162:1 163:1 164:1 165:0 166:0 167:0 168:0 169:1 170:0 171:0 172:0 173:1 174:0 175:0 176:0 177:1 178:0 179:0 180:0 181:0 182:0 183:0 184:0 185:0 186:0 187:1 188:0 189:1 190:1 191:1 192:1 193:0 194:0 195:0 196:0 197:1 198:0 199:0 200:0 201:0 202:0 203:1 204:0 205:1 206:0 207:0 208:0 209:0 210:0 211:0 212:0 213:0 214:0 215:1 216:0 217:1 218:1 219:1 220:1 221:0 222:0 223:0 224:0 225:1 226:0 227:0 228:0 229:0 230:0 231:1 232:0 233:1 234:0 235:0 236:0 237:0 238:0 239:0 240:0 241:0 242:0 243:1 244:0 245:1 246:0 247:1 248:1 249:0 250:0 251:0 252:0 253:1 254:0 255:1 256:0 257:0 258:0 259:0 260:0 261:1 262:0 263:0 264:0 265:0 266:0 267:0 268:0 269:0 270:0 271:1 272:0 273:1 274:0 275:1 276:1 277:0 278:0 279:0 280:0 281:1 282:0 283:1 284:0 285:0 286:0 287:0 288:0 289:1 290:0 291:0 292:0 293:0 294:0 295:0 296:0 297:0 298:0 299:1 300:0 301:1 302:1 303:1 304:1 305:0 306:0 307:0 308:0 309:1 310:0 311:0 312:0 313:0 314:0 315:1 316:0 317:1 318:0 319:0 320:0 321:0 322:0 323:0 324:0 325:0 326:0 327:1 328:0 #
-1 1:0 2:0 3:0 4:0 5:0 6:0 7:0 8:0 9:0 10:0 11:1 12:0 13:0 14:0 15:0 16:0 17:0 18:0 19:0 20:0 21:0 22:0 23:0 24:0 25:0 26:0 27:0 28:0 29:0 30:1 31:0 32:0 33:0 34:0 35:1 36:0 37:0 38:0 39:0 40:1 41:0 42:0 43:1 44:0 45:0 46:1 47:0 48:0 49:0 50:0 51:1 52:1 53:0 54:1 55:0 56:1 57:1 58:1 59:1 60:1 61:1 62:1 63:1 64:1 65:1 66:1 67:1 68:1 69:1 70:1 71:1 72:0 73:0 74:0 75:0 76:1 77:1 78:1 79:1 80:1 81:0 82:0 83:0 84:0 85:0 86:1 87:0 88:0 89:0 90:0 91:0 92:1 93:1 94:0 95:0 96:0 97:0 98:0 99:1 100:0 101:0 102:0 103:0 104:0 105:1 106:1 107:1 108:1 109:0 110:0 111:0 112:0 113:0 114:1 115:0 116:0 117:0 118:0 119:0 120:1 121:1 122:0 123:0 124:0 125:0 126:0 127:1 128:0 129:0 130:0 131:0 132:0 133:1 134:1 135:1 136:1 137:0 138:0 139:0 140:0 141:0 142:1 143:0 144:0 145:0 146:0 147:0 148:1 149:1 150:0 151:0 152:0 153:0 154:0 155:1 156:0 157:0 158:0 159:0 160:0 161:1 162:1 163:1 164:1 165:0 166:0 167:0 168:0 169:0 170:1 171:0 172:0 173:0 174:0 175:0 176:1 177:1 178:0 179:0 180:0 181:0 182:0 183:1 184:0 185:0 186:0 187:0 188:0 189:1 190:1 191:1 192:1 193:0 194:0 195:0 196:0 197:0 198:1 199:0 200:0 201:0 202:0 203:0 204:1 205:1 206:0 207:0 208:0 209:0 210:0 211:1 212:0 213:0 214:0 215:0 216:0 217:1 218:1 219:1 220:1 221:0 222:0 223:0 224:0 225:0 226:1 227:0 228:0 229:0 230:0 231:0 232:1 233:1 234:0 235:0 236:0 237:0 238:0 239:1 240:0 241:0 242:0 243:0 244:0 245:1 246:1 247:1 248:1 249:0 250:0 251:0 252:0 253:0 254:1 255:0 256:0 257:0 258:0 259:0 260:1 261:1 262:0 263:0 264:0 265:0 266:0 267:1 268:0 269:0 270:0 271:0 272:0 273:1 274:1 275:1 276:1 277:0 278:0 279:0 280:0 281:0 282:1 283:0 284:0 285:0 286:0 287:0 288:1 289:1 290:0 291:0 292:0 293:0 294:0 295:1 296:0 297:0 298:0 299:0 300:0 301:1 302:1 303:1 304:1 305:0 306:0 307:0 308:0 309:0 310:1 311:0 312:0 313:1 314:0 315:0 316:0 317:1 318:0 319:0 320:0 321:0 322:0 323:1 324:0 325:0 326:0 327:0 328:0 #
1 1:0 2:0 3:0 4:0 5:0 6:1 7:0 8:0 9:0 10:0 11:0 12:0 13:0 14:0 15:0 16:0 17:0 18:0 19:0 20:0 21:0 22:0 23:0 24:0 25:0 26:0 27:0 28:0 29:0 30:1 31:0 32:0 33:0 34:0 35:1 36:1 37:0 38:0 39:0 40:0 41:1 42:0 43:0 44:0 45:0 46:1 47:0 48:0 49:0 50:0 51:1 52:1 53:1 54:1 55:0 56:1 57:1 58:0 59:1 60:0 61:1 62:0 63:0 64:0 65:0 66:1 67:1 68:0 69:0 70:1 71:1 72:0 73:0 74:0 75:0 76:1 77:1 78:0 79:1 80:1 81:0 82:0 83:0 84:0 85:1 86:0 87:0 88:0 89:1 90:0 91:0 92:0 93:1 94:0 95:0 96:0 97:0 98:0 99:1 100:0 101:0 102:0 103:0 104:0 105:1 106:1 107:1 108:1 109:0 110:0 111:0 112:0 113:0 114:1 115:0 116:0 117:0 118:1 119:0 120:0 121:1 122:0 123:0 124:0 125:0 126:0 127:1 128:0 129:0 130:0 131:0 132:0 133:1 134:0 135:1 136:1 137:0 138:0 139:0 140:0 141:1 142:0 143:0 144:0 145:0 146:0 147:1 148:0 149:1 150:0 151:0 152:0 153:0 154:0 155:1 156:0 157:0 158:0 159:0 160:0 161:1 162:1 163:1 164:1 165:0 166:0 167:0 168:0 169:1 170:0 171:0 172:0 173:0 174:1 175:0 176:0 177:1 178:0 179:0 180:0 181:0 182:0 183:1 184:0 185:0 186:0 187:0 188:0 189:1 190:0 191:1 192:1 193:0 194:0 195:0 196:0 197:1 198:0 199:0 200:0 201:0 202:0 203:0 204:1 205:1 206:0 207:0 208:0 209:0 210:0 211:1 212:0 213:0 214:0 215:0 216:0 217:1 218:0 219:1 220:1 221:0 222:0 223:0 224:0 225:1 226:0 227:0 228:0 229:0 230:0 231:0 232:1 233:1 234:0 235:0 236:0 237:0 238:0 239:1 240:0 241:0 242:0 243:0 244:0 245:1 246:0 247:1 248:1 249:0 250:0 251:0 252:0 253:1 254:0 255:0 256:0 257:0 258:0 259:0 260:1 261:1 262:0 263:0 264:0 265:0 266:0 267:1 268:0 269:0 270:0 271:0 272:0 273:1 274:0 275:1 276:1 277:0 278:0 279:0 280:0 281:1 282:0 283:0 284:0 285:0 286:0 287:0 288:1 289:1 290:0 291:0 292:0 293:0 294:0 295:1 296:0 297:0 298:0 299:0 300:0 301:1 302:1 303:1 304:1 305:1 306:0 307:0 308:0 309:0 310:0 311:1 312:0 313:0 314:0 315:0 316:0 317:1 318:0 319:0 320:0 321:0 322:0 323:1 324:0 325:0 326:0 327:0 328:0 #
1 1:0 2:0 3:0 4:0 5:0 6:1 7:0 8:0 9:0 10:0 11:0 12:0 13:0 14:0 15:0 16:0 17:0 18:0 19:0 20:0 21:0 22:0 23:0 24:0 25:0 26:0 27:1 28:0 29:0 30:0 31:0 32:0 33:1 34:0 35:0 36:1 37:0 38:0 39:0 40:0 41:1 42:0 43:0 44:0 45:0 46:1 47:0 48:0 49:0 50:0 51:0 52:1 53:1 54:1 55:0 56:1 57:1 58:0 59:0 60:0 61:1 62:0 63:0 64:1 65:1 66:1 67:1 68:0 69:0 70:1 71:1 72:0 73:0 74:0 75:0 76:1 77:1 78:0 79:1 80:1 81:1 82:0 83:0 84:0 85:0 86:0 87:0 88:0 89:0 90:1 91:0 92:0 93:1 94:0 95:0 96:0 97:0 98:0 99:1 100:0 101:0 102:0 103:0 104:0 105:1 106:0 107:1 108:1 109:1 110:0 111:0 112:0 113:0 114:0 115:1 116:0 117:0 118:0 119:0 120:0 121:1 122:0 123:0 124:0 125:0 126:0 127:1 128:0 129:0 130:0 131:0 132:0 133:1 134:0 135:1 136:1 137:0 138:0 139:1 140:0 141:0 142:0 143:0 144:0 145:1 146:0 147:0 148:0 149:1 150:0 151:0 152:0 153:0 154:0 155:1 156:0 157:0 158:0 159:0 160:0 161:1 162:1 163:1 164:1 165:0 166:0 167:0 168:0 169:0 170:1 171:0 172:0 173:0 174:1 175:0 176:0 177:1 178:0 179:0 180:0 181:0 182:0 183:1 184:0 185:0 186:0 187:0 188:0 189:1 190:0 191:1 192:1 193:0 194:0 195:1 196:0 197:0 198:0 199:0 200:0 201:1 202:0 203:0 204:0 205:1 206:0 207:0 208:0 209:0 210:0 211:1 212:0 213:0 214:0 215:0 216:0 217:1 218:0 219:1 220:1 221:0 222:0 223:1 224:0 225:0 226:0 227:0 228:0 229:0 230:0 231:1 232:0 233:1 234:0 235:0 236:0 237:0 238:0 239:1 240:0 241:0 242:0 243:0 244:0 245:1 246:0 247:1 248:1 249:0 250:1 251:0 252:0 253:0 254:0 255:0 256:0 257:0 258:1 259:0 260:0 261:1 262:0 263:0 264:0 265:0 266:0 267:1 268:0 269:0 270:0 271:0 272:0 273:1 274:0 275:1 276:1 277:0 278:1 279:0 280:0 281:0 282:0 283:0 284:0 285:0 286:1 287:0 288:0 289:1 290:0 291:0 292:0 293:0 294:0 295:1 296:0 297:0 298:0 299:0 300:0 301:1 302:1 303:1 304:1 305:0 306:0 307:0 308:0 309:0 310:1 311:1 312:0 313:0 314:0 315:0 316:0 317:1 318:0 319:0 320:0 321:0 322:0 323:1 324:0 325:0 326:0 327:0 328:0 #
0.5821146159167368550058085929777 1:0 2:0 3:0 4:0 5:0 6:1 7:0 8:0 9:0 10:0 11:0 12:0 13:0 14:0 15:0 16:0 17:0 18:0 19:0 20:0 21:0 22:0 23:0 24:0 25:0 26:1 27:0 28:0 29:0 30:0 31:0 32:1 33:0 34:0 35:0 36:0 37:0 38:0 39:0 40:0 41:1 42:0 43:0 44:0 45:0 46:1 47:0 48:0 49:0 50:0 51:1 52:0 53:0 54:0 55:0 56:1 57:1 58:0 59:1 60:0 61:1 62:1 63:1 64:1 65:1 66:1 67:1 68:0 69:0 70:1 71:1 72:0 73:0 74:0 75:0 76:1 77:1 78:0 79:1 80:1 81:0 82:1 83:0 84:0 85:0 86:0 87:1 88:0 89:0 90:0 91:0 92:0 93:1 94:0 95:0 96:0 97:0 98:0 99:0 100:1 101:0 102:0 103:0 104:0 105:1 106:1 107:1 108:1 109:1 110:0 111:0 112:0 113:0 114:0 115:1 116:0 117:0 118:0 119:0 120:0 121:1 122:0 123:0 124:0 125:0 126:0 127:0 128:1 129:0 130:0 131:0 132:0 133:1 134:0 135:1 136:1 137:0 138:1 139:0 140:0 141:0 142:0 143:1 144:0 145:0 146:0 147:0 148:0 149:1 150:0 151:0 152:0 153:0 154:0 155:0 156:1 157:0 158:0 159:0 160:0 161:1 162:1 163:1 164:1 165:1 166:0 167:0 168:0 169:0 170:0 171:1 172:0 173:0 174:0 175:0 176:0 177:1 178:0 179:0 180:0 181:0 182:0 183:0 184:1 185:0 186:0 187:0 188:0 189:1 190:1 191:1 192:1 193:0 194:1 195:0 196:0 197:0 198:0 199:0 200:1 201:0 202:0 203:0 204:0 205:1 206:0 207:0 208:0 209:0 210:0 211:0 212:1 213:0 214:0 215:0 216:0 217:1 218:1 219:1 220:1 221:0 222:1 223:0 224:0 225:0 226:0 227:0 228:1 229:0 230:0 231:0 232:0 233:1 234:0 235:0 236:0 237:0 238:0 239:0 240:1 241:0 242:0 243:0 244:0 245:1 246:0 247:1 248:1 249:0 250:1 251:0 252:0 253:0 254:0 255:1 256:0 257:0 258:0 259:0 260:0 261:1 262:0 263:0 264:0 265:0 266:0 267:0 268:1 269:0 270:0 271:0 272:0 273:1 274:0 275:1 276:1 277:0 278:1 279:0 280:0 281:0 282:0 283:1 284:0 285:0 286:0 287:0 288:0 289:1 290:0 291:0 292:0 293:0 294:0 295:0 296:1 297:0 298:0 299:0 300:0 301:1 302:1 303:1 304:1 305:0 306:1 307:0 308:0 309:0 310:0 311:0 312:1 313:0 314:0 315:0 316:0 317:1 318:0 319:0 320:0 321:0 322:0 323:0 324:1 325:0 326:0 327:0 328:0 #
0.8862576678675948560481856475235 1:0 2:0 3:0 4:0 5:0 6:0 7:0 8:0 9:0 10:0 11:0 12:0 13:0 14:0 15:0 16:1 17:0 18:0 19:0 20:0 21:0 22:0 23:0 24:0 25:0 26:0 27:0 28:0 29:1 30:0 31:0 32:0 33:0 34:1 35:0 36:0 37:0 38:0 39:0 40:0 41:0 42:1 43:0 44:0 45:0 46:1 47:0 48:0 49:0 50:0 51:1 52:1 53:0 54:1 55:1 56:1 57:1 58:0 59:1 60:1 61:1 62:0 63:0 64:0 65:0 66:1 67:1 68:0 69:0 70:0 71:0 72:0 73:0 74:0 75:0 76:1 77:1 78:0 79:1 80:1 81:0 82:0 83:0 84:1 85:0 86:0 87:0 88:0 89:0 90:1 91:0 92:0 93:1 94:0 95:0 96:0 97:0 98:0 99:0 100:0 101:1 102:0 103:0 104:0 105:1 106:1 107:1 108:1 109:0 110:1 111:0 112:0 113:0 114:0 115:0 116:0 117:0 118:1 119:0 120:0 121:1 122:0 123:0 124:0 125:0 126:0 127:0 128:0 129:1 130:0 131:0 132:0 133:1 134:1 135:1 136:1 137:0 138:0 139:0 140:1 141:0 142:0 143:0 144:0 145:0 146:1 147:0 148:0 149:1 150:0 151:0 152:0 153:0 154:0 155:0 156:0 157:1 158:0 159:0 160:0 161:1 162:1 163:1 164:1 165:0 166:1 167:0 168:0 169:0 170:0 171:0 172:1 173:0 174:0 175:0 176:0 177:1 178:0 179:0 180:0 181:0 182:0 183:0 184:0 185:1 186:0 187:0 188:0 189:1 190:0 191:1 192:1 193:0 194:0 195:0 196:0 197:1 198:0 199:0 200:0 201:0 202:0 203:1 204:0 205:1 206:0 207:0 208:0 209:0 210:0 211:0 212:0 213:1 214:0 215:0 216:0 217:1 218:0 219:1 220:1 221:0 222:0 223:0 224:0 225:1 226:0 227:0 228:0 229:0 230:0 231:0 232:1 233:1 234:0 235:0 236:0 237:0 238:0 239:0 240:0 241:1 242:0 243:0 244:0 245:1 246:1 247:1 248:1 249:0 250:0 251:0 252:1 253:0 254:0 255:0 256:0 257:0 258:0 259:1 260:0 261:1 262:0 263:0 264:0 265:0 266:0 267:0 268:0 269:1 270:0 271:0 272:0 273:1 274:1 275:1 276:1 277:0 278:0 279:0 280:1 281:0 282:0 283:0 284:0 285:0 286:0 287:1 288:0 289:1 290:0 291:0 292:0 293:0 294:0 295:0 296:0 297:1 298:0 299:0 300:0 301:1 302:1 303:1 304:1 305:0 306:0 307:0 308:1 309:0 310:0 311:0 312:0 313:0 314:1 315:0 316:0 317:1 318:0 319:0 320:0 321:0 322:0 323:0 324:0 325:1 326:0 327:0 328:0 #
-0.17213018232960117237517749799736 1:0 2:0 3:0 4:0 5:0 6:1 7:0 8:0 9:0 10:0 11:0 12:0 13:0 14:0 15:0 16:0 17:0 18:0 19:0 20:0 21:0 22:0 23:0 24:0 25:0 26:0 27:0 28:0 29:0 30:1 31:0 32:0 33:0 34:0 35:1 36:0 37:0 38:1 39:0 40:0 41:0 42:1 43:0 44:0 45:0 46:1 47:0 48:0 49:0 50:0 51:0 52:0 53:0 54:1 55:0 56:1 57:1 58:1 59:1 60:1 61:1 62:0 63:0 64:0 65:0 66:1 67:1 68:0 69:0 70:0 71:0 72:0 73:0 74:0 75:0 76:1 77:0 78:1 79:1 80:1 81:0 82:0 83:0 84:1 85:0 86:0 87:0 88:1 89:0 90:0 91:0 92:0 93:1 94:0 95:0 96:0 97:0 98:0 99:0 100:0 101:0 102:0 103:0 104:1 105:1 106:1 107:1 108:1 109:1 110:0 111:0 112:0 113:0 114:0 115:1 116:0 117:0 118:0 119:0 120:0 121:1 122:0 123:0 124:0 125:0 126:0 127:0 128:0 129:0 130:0 131:0 132:1 133:1 134:1 135:1 136:1 137:0 138:0 139:0 140:0 141:0 142:1 143:0 144:0 145:0 146:1 147:0 148:0 149:1 150:0 151:0 152:0 153:0 154:0 155:0 156:0 157:0 158:0 159:0 160:1 161:1 162:1 163:1 164:1 165:1 166:0 167:0 168:0 169:0 170:0 171:1 172:0 173:0 174:0 175:0 176:0 177:1 178:0 179:0 180:0 181:0 182:0 183:0 184:0 185:0 186:0 187:0 188:1 189:1 190:1 191:1 192:1 193:0 194:0 195:0 196:0 197:0 198:1 199:0 200:0 201:0 202:0 203:0 204:1 205:1 206:0 207:0 208:0 209:0 210:0 211:0 212:0 213:0 214:0 215:0 216:1 217:1 218:1 219:1 220:1 221:0 222:0 223:0 224:0 225:0 226:1 227:0 228:0 229:0 230:0 231:0 232:1 233:1 234:0 235:0 236:0 237:0 238:0 239:0 240:0 241:0 242:0 243:0 244:1 245:0 246:1 247:1 248:1 249:0 250:0 251:0 252:0 253:0 254:1 255:0 256:0 257:0 258:0 259:1 260:0 261:1 262:0 263:0 264:0 265:0 266:0 267:0 268:0 269:0 270:0 271:0 272:1 273:0 274:1 275:1 276:1 277:0 278:0 279:0 280:0 281:0 282:1 283:0 284:0 285:0 286:0 287:1 288:0 289:1 290:0 291:0 292:0 293:0 294:0 295:0 296:0 297:0 298:0 299:0 300:1 301:0 302:1 303:1 304:1 305:0 306:0 307:0 308:0 309:0 310:1 311:0 312:0 313:0 314:0 315:0 316:1 317:1 318:0 319:0 320:0 321:0 322:0 323:0 324:0 325:0 326:0 327:0 328:1 #
-0.31013549785629290767019483610056 1:0 2:0 3:0 4:0 5:0 6:1 7:0 8:0 9:0 10:0 11:0 12:0 13:0 14:0 15:0 16:0 17:0 18:0 19:0 20:0 21:0 22:0 23:0 24:0 25:0 26:0 27:1 28:0 29:0 30:0 31:0 32:0 33:1 34:0 35:0 36:0 37:0 38:0 39:0 40:0 41:1 42:0 43:0 44:0 45:0 46:1 47:0 48:0 49:0 50:0 51:1 52:1 53:1 54:1 55:0 56:1 57:1 58:0 59:1 60:0 61:1 62:0 63:0 64:0 65:0 66:1 67:1 68:0 69:0 70:1 71:0 72:0 73:0 74:0 75:0 76:1 77:1 78:0 79:1 80:1 81:0 82:1 83:0 84:0 85:0 86:0 87:0 88:0 89:1 90:0 91:0 92:0 93:1 94:0 95:0 96:0 97:0 98:0 99:0 100:1 101:0 102:0 103:0 104:0 105:1 106:1 107:1 108:1 109:0 110:1 111:0 112:0 113:0 114:0 115:1 116:0 117:0 118:0 119:0 120:0 121:1 122:0 123:0 124:0 125:0 126:0 127:0 128:1 129:0 130:0 131:0 132:0 133:1 134:0 135:1 136:1 137:0 138:1 139:0 140:0 141:0 142:0 143:0 144:0 145:0 146:1 147:0 148:0 149:1 150:0 151:0 152:0 153:0 154:0 155:0 156:1 157:0 158:0 159:0 160:0 161:1 162:1 163:1 164:1 165:1 166:0 167:0 168:0 169:0 170:0 171:1 172:0 173:0 174:0 175:0 176:0 177:1 178:0 179:0 180:0 181:0 182:0 183:0 184:1 185:0 186:0 187:0 188:0 189:1 190:0 191:1 192:1 193:0 194:1 195:0 196:0 197:0 198:0 199:0 200:0 201:1 202:0 203:0 204:0 205:1 206:0 207:0 208:0 209:0 210:0 211:0 212:1 213:0 214:0 215:0 216:0 217:1 218:0 219:1 220:1 221:0 222:1 223:0 224:0 225:0 226:0 227:0 228:0 229:0 230:0 231:1 232:0 233:1 234:0 235:0 236:0 237:0 238:0 239:0 240:1 241:0 242:0 243:0 244:0 245:1 246:0 247:1 248:1 249:0 250:1 251:0 252:0 253:0 254:0 255:0 256:0 257:0 258:0 259:1 260:0 261:1 262:0 263:0 264:0 265:0 266:0 267:0 268:1 269:0 270:0 271:0 272:0 273:1 274:0 275:1 276:1 277:0 278:1 279:0 280:0 281:0 282:0 283:0 284:0 285:0 286:0 287:1 288:0 289:1 290:0 291:0 292:0 293:0 294:0 295:0 296:1 297:0 298:0 299:0 300:0 301:1 302:1 303:1 304:1 305:0 306:1 307:0 308:0 309:0 310:0 311:0 312:1 313:0 314:0 315:0 316:0 317:1 318:0 319:0 320:0 321:0 322:0 323:0 324:1 325:0 326:0 327:0 328:0 #
1 1:0 2:0 3:0 4:0 5:0 6:0 7:0 8:0 9:0 10:0 11:0 12:0 13:0 14:0 15:0 16:1 17:0 18:0 19:0 20:0 21:0 22:0 23:0 24:0 25:0 26:0 27:0 28:0 29:0 30:1 31:0 32:0 33:0 34:0 35:1 36:0 37:0 38:0 39:0 40:0 41:0 42:0 43:1 44:0 45:0 46:1 47:0 48:0 49:0 50:0 51:1 52:0 53:0 54:0 55:0 56:1 57:1 58:1 59:1 60:1 61:1 62:1 63:0 64:1 65:1 66:1 67:1 68:1 69:1 70:1 71:1 72:0 73:0 74:0 75:0 76:1 77:1 78:1 79:1 80:1 81:0 82:0 83:0 84:0 85:0 86:1 87:0 88:0 89:0 90:0 91:0 92:1 93:1 94:0 95:0 96:0 97:0 98:0 99:1 100:0 101:0 102:0 103:0 104:0 105:1 106:1 107:1 108:1 109:0 110:1 111:0 112:0 113:0 114:0 115:1 116:0 117:0 118:0 119:0 120:0 121:1 122:0 123:0 124:0 125:0 126:0 127:1 128:0 129:0 130:0 131:0 132:0 133:1 134:1 135:1 136:1 137:0 138:0 139:0 140:0 141:0 142:1 143:0 144:0 145:0 146:1 147:0 148:0 149:1 150:0 151:0 152:0 153:0 154:0 155:1 156:0 157:0 158:0 159:0 160:0 161:1 162:1 163:1 164:1 165:0 166:0 167:0 168:0 169:0 170:1 171:0 172:0 173:1 174:0 175:0 176:0 177:1 178:0 179:0 180:0 181:0 182:0 183:1 184:0 185:0 186:0 187:0 188:0 189:1 190:1 191:1 192:1 193:0 194:0 195:0 196:0 197:0 198:1 199:0 200:0 201:0 202:0 203:0 204:1 205:1 206:0 207:0 208:0 209:0 210:0 211:1 212:0 213:0 214:0 215:0 216:0 217:1 218:1 219:1 220:1 221:0 222:0 223:0 224:0 225:0 226:1 227:0 228:0 229:0 230:0 231:0 232:1 233:1 234:0 235:0 236:0 237:0 238:0 239:1 240:0 241:0 242:0 243:0 244:0 245:1 246:1 247:1 248:1 249:0 250:0 251:0 252:0 253:0 254:1 255:0 256:0 257:0 258:0 259:0 260:1 261:1 262:0 263:0 264:0 265:0 266:0 267:1 268:0 269:0 270:0 271:0 272:0 273:1 274:1 275:1 276:1 277:0 278:0 279:0 280:0 281:0 282:1 283:0 284:0 285:0 286:0 287:0 288:1 289:1 290:0 291:0 292:0 293:0 294:0 295:1 296:0 297:0 298:0 299:0 300:0 301:1 302:1 303:1 304:1 305:1 306:0 307:0 308:0 309:0 310:0 311:1 312:0 313:0 314:0 315:0 316:0 317:1 318:0 319:0 320:0 321:0 322:0 323:1 324:0 325:0 326:0 327:0 328:0 #
-1 1:0 2:0 3:0 4:0 5:0 6:1 7:0 8:0 9:0 10:0 11:0 12:0 13:0 14:0 15:0 16:0 17:0 18:0 19:0 20:0 21:0 22:0 23:0 24:0 25:0 26:0 27:0 28:0 29:0 30:1 31:0 32:0 33:0 34:0 35:1 36:0 37:0 38:0 39:0 40:1 41:0 42:1 43:0 44:0 45:0 46:1 47:0 48:0 49:0 50:0 51:1 52:0 53:0 54:0 55:0 56:1 57:1 58:0 59:1 60:1 61:1 62:0 63:0 64:1 65:1 66:1 67:1 68:0 69:0 70:1 71:1 72:0 73:0 74:0 75:0 76:1 77:1 78:0 79:1 80:1 81:0 82:0 83:0 84:0 85:0 86:1 87:0 88:0 89:0 90:0 91:0 92:1 93:1 94:0 95:0 96:0 97:0 98:0 99:0 100:0 101:0 102:0 103:0 104:1 105:1 106:1 107:1 108:1 109:0 110:0 111:0 112:0 113:0 114:1 115:0 116:0 117:0 118:0 119:0 120:1 121:1 122:0 123:0 124:0 125:0 126:0 127:0 128:0 129:0 130:0 131:0 132:1 133:1 134:1 135:1 136:1 137:0 138:0 139:0 140:0 141:0 142:1 143:0 144:0 145:0 146:0 147:0 148:1 149:1 150:0 151:0 152:0 153:0 154:0 155:0 156:0 157:0 158:0 159:0 160:1 161:1 162:1 163:1 164:1 165:0 166:0 167:0 168:0 169:0 170:1 171:0 172:0 173:0 174:0 175:1 176:0 177:1 178:0 179:0 180:0 181:0 182:0 183:0 184:0 185:0 186:0 187:0 188:1 189:1 190:0 191:1 192:1 193:0 194:0 195:0 196:0 197:0 198:1 199:1 200:0 201:0 202:0 203:0 204:0 205:1 206:0 207:0 208:0 209:0 210:0 211:0 212:0 213:0 214:0 215:0 216:1 217:1 218:1 219:1 220:1 221:0 222:0 223:0 224:0 225:0 226:1 227:0 228:0 229:0 230:0 231:0 232:1 233:1 234:0 235:0 236:0 237:0 238:0 239:0 240:0 241:0 242:0 243:0 244:1 245:1 246:0 247:1 248:1 249:0 250:0 251:0 252:0 253:0 254:1 255:0 256:0 257:0 258:0 259:0 260:1 261:1 262:0 263:0 264:0 265:0 266:0 267:0 268:0 269:0 270:0 271:0 272:1 273:1 274:0 275:1 276:1 277:0 278:0 279:0 280:0 281:0 282:1 283:0 284:0 285:0 286:0 287:0 288:1 289:1 290:0 291:0 292:0 293:0 294:0 295:0 296:0 297:0 298:0 299:0 300:1 301:1 302:1 303:1 304:1 305:0 306:0 307:0 308:0 309:0 310:1 311:0 312:0 313:0 314:0 315:0 316:1 317:1 318:0 319:0 320:0 321:0 322:0 323:0 324:0 325:0 326:0 327:0 328:1 #
1 1:0 2:0 3:0 4:0 5:0 6:1 7:0 8:0 9:0 10:0 11:0 12:0 13:0 14:0 15:0 16:0 17:0 18:0 19:0 20:0 21:0 22:0 23:0 24:0 25:0 26:0 27:0 28:0 29:0 30:1 31:0 32:0 33:0 34:0 35:1 36:0 37:0 38:0 39:0 40:0 41:0 42:1 43:0 44:0 45:0 46:1 47:0 48:0 49:0 50:0 51:1 52:0 53:0 54:1 55:0 56:1 57:1 58:0 59:1 60:0 61:1 62:1 63:1 64:1 65:1 66:1 67:1 68:0 69:0 70:1 71:1 72:0 73:0 74:0 75:0 76:1 77:1 78:0 79:1 80:1 81:0 82:0 83:0 84:0 85:1 86:0 87:1 88:0 89:0 90:0 91:0 92:0 93:1 94:0 95:0 96:0 97:0 98:0 99:1 100:0 101:0 102:0 103:0 104:0 105:1 106:1 107:1 108:1 109:0 110:0 111:0 112:1 113:0 114:0 115:0 116:1 117:0 118:0 119:0 120:0 121:1 122:0 123:0 124:0 125:0 126:0 127:1 128:0 129:0 130:0 131:0 132:0 133:1 134:0 135:1 136:1 137:0 138:0 139:0 140:0 141:1 142:0 143:1 144:0 145:0 146:0 147:0 148:0 149:1 150:0 151:0 152:0 153:0 154:0 155:1 156:0 157:0 158:0 159:0 160:0 161:1 162:1 163:1 164:1 165:1 166:0 167:0 168:0 169:0 170:0 171:1 172:0 173:0 174:0 175:0 176:0 177:1 178:0 179:0 180:0 181:0 182:0 183:1 184:0 185:0 186:0 187:0 188:0 189:1 190:1 191:1 192:1 193:0 194:0 195:0 196:0 197:0 198:1 199:0 200:0 201:0 202:0 203:0 204:1 205:1 206:0 207:0 208:0 209:0 210:0 211:1 212:0 213:0 214:0 215:0 216:0 217:1 218:1 219:1 220:1 221:0 222:0 223:0 224:0 225:0 226:1 227:0 228:0 229:0 230:0 231:0 232:1 233:1 234:0 235:0 236:0 237:0 238:0 239:1 240:0 241:0 242:0 243:0 244:0 245:1 246:0 247:1 248:1 249:0 250:0 251:0 252:0 253:0 254:1 255:1 256:0 257:0 258:0 259:0 260:0 261:1 262:0 263:0 264:0 265:0 266:0 267:1 268:0 269:0 270:0 271:0 272:0 273:1 274:0 275:1 276:1 277:0 278:0 279:0 280:0 281:0 282:1 283:1 284:0 285:0 286:0 287:0 288:0 289:1 290:0 291:0 292:0 293:0 294:0 295:1 296:0 297:0 298:0 299:0 300:0 301:1 302:1 303:1 304:1 305:0 306:0 307:1 308:0 309:0 310:0 311:0 312:1 313:0 314:0 315:0 316:0 317:1 318:0 319:0 320:0 321:0 322:0 323:1 324:0 325:0 326:0 327:0 328:0 #
1 1:0 2:0 3:0 4:0 5:0 6:0 7:0 8:0 9:0 10:0 11:0 12:0 13:0 14:0 15:0 16:1 17:0 18:0 19:0 20:0 21:1 22:0 23:0 24:0 25:0 26:0 27:0 28:0 29:0 30:1 31:0 32:0 33:0 34:0 35:1 36:0 37:0 38:0 39:0 40:0 41:0 42:0 43:1 44:0 45:0 46:0 47:1 48:0 49:0 50:0 51:1 52:1 53:0 54:0 55:0 56:1 57:1 58:1 59:1 60:1 61:1 62:1 63:1 64:1 65:1 66:1 67:1 68:1 69:1 70:1 71:1 72:0 73:0 74:0 75:0 76:1 77:1 78:1 79:1 80:1 81:0 82:0 83:0 84:0 85:0 86:1 87:0 88:0 89:0 90:0 91:0 92:1 93:1 94:0 95:0 96:0 97:0 98:0 99:0 100:0 101:0 102:0 103:0 104:1 105:1 106:1 107:1 108:1 109:0 110:0 111:0 112:0 113:0 114:1 115:0 116:1 117:0 118:0 119:0 120:0 121:1 122:0 123:0 124:0 125:0 126:0 127:0 128:0 129:0 130:0 131:0 132:1 133:1 134:1 135:1 136:1 137:0 138:0 139:0 140:0 141:0 142:1 143:0 144:0 145:0 146:0 147:0 148:1 149:1 150:0 151:0 152:0 153:0 154:0 155:0 156:0 157:0 158:0 159:0 160:1 161:1 162:1 163:1 164:1 165:0 166:0 167:0 168:0 169:0 170:1 171:1 172:0 173:0 174:0 175:0 176:0 177:1 178:0 179:0 180:0 181:0 182:0 183:0 184:0 185:0 186:0 187:0 188:1 189:1 190:1 191:1 192:1 193:0 194:0 195:0 196:0 197:0 198:1 199:0 200:0 201:0 202:0 203:0 204:1 205:1 206:0 207:0 208:0 209:0 210:0 211:0 212:0 213:0 214:0 215:0 216:1 217:1 218:1 219:1 220:1 221:0 222:0 223:0 224:0 225:0 226:1 227:0 228:0 229:0 230:0 231:0 232:1 233:1 234:0 235:0 236:0 237:0 238:0 239:0 240:0 241:0 242:0 243:0 244:1 245:1 246:1 247:1 248:1 249:0 250:0 251:0 252:0 253:0 254:1 255:0 256:0 257:0 258:0 259:0 260:1 261:1 262:0 263:0 264:0 265:0 266:0 267:0 268:0 269:0 270:0 271:0 272:1 273:1 274:1 275:1 276:1 277:0 278:0 279:0 280:0 281:0 282:1 283:0 284:0 285:0 286:0 287:0 288:1 289:1 290:0 291:0 292:0 293:0 294:0 295:0 296:0 297:0 298:0 299:0 300:1 301:1 302:1 303:1 304:1 305:0 306:0 307:0 308:0 309:0 310:1 311:0 312:0 313:1 314:0 315:0 316:0 317:1 318:0 319:0 320:0 321:0 322:0 323:0 324:0 325:0 326:0 327:0 328:1 #
1 1:0 2:0 3:0 4:0 5:0 6:0 7:0 8:0 9:0 10:0 11:1 12:0 13:0 14:0 15:0 16:0 17:0 18:0 19:0 20:0 21:0 22:0 23:0 24:0 25:0 26:0 27:0 28:0 29:0 30:1 31:0 32:0 33:0 34:0 35:1 36:0 37:1 38:0 39:0 40:0 41:0 42:1 43:0 44:0 45:0 46:1 47:0 48:0 49:0 50:0 51:1 52:0 53:0 54:0 55:0 56:1 57:1 58:1 59:1 60:1 61:1 62:1 63:1 64:1 65:1 66:1 67:1 68:1 69:1 70:1 71:1 72:0 73:0 74:0 75:0 76:1 77:0 78:1 79:1 80:1 81:0 82:0 83:0 84:0 85:0 86:1 87:0 88:0 89:0 90:0 91:0 92:1 93:1 94:0 95:0 96:0 97:0 98:0 99:0 100:0 101:0 102:0 103:0 104:1 105:1 106:1 107:1 108:1 109:0 110:0 111:0 112:0 113:0 114:1 115:0 116:0 117:0 118:0 119:0 120:1 121:1 122:0 123:0 124:0 125:0 126:0 127:0 128:0 129:0 130:0 131:0 132:1 133:1 134:1 135:1 136:1 137:0 138:0 139:0 140:0 141:0 142:1 143:0 144:0 145:0 146:0 147:0 148:1 149:1 150:0 151:0 152:0 153:0 154:0 155:0 156:0 157:0 158:0 159:0 160:1 161:1 162:1 163:1 164:1 165:0 166:0 167:0 168:0 169:0 170:1 171:0 172:0 173:0 174:0 175:0 176:1 177:1 178:0 179:0 180:0 181:0 182:0 183:0 184:0 185:0 186:0 187:0 188:1 189:1 190:1 191:1 192:1 193:0 194:0 195:0 196:0 197:0 198:1 199:0 200:0 201:0 202:0 203:0 204:1 205:1 206:0 207:0 208:0 209:0 210:0 211:0 212:0 213:0 214:0 215:0 216:1 217:1 218:1 219:1 220:1 221:0 222:0 223:0 224:0 225:0 226:1 227:0 228:0 229:0 230:0 231:0 232:1 233:1 234:0 235:0 236:0 237:0 238:0 239:0 240:0 241:0 242:0 243:0 244:1 245:1 246:1 247:1 248:1 249:0 250:0 251:0 252:0 253:0 254:1 255:0 256:0 257:0 258:0 259:0 260:1 261:1 262:0 263:0 264:0 265:0 266:0 267:0 268:0 269:0 270:0 271:0 272:1 273:1 274:1 275:1 276:1 277:0 278:0 279:0 280:0 281:0 282:1 283:0 284:0 285:0 286:0 287:0 288:1 289:1 290:0 291:0 292:0 293:0 294:0 295:0 296:0 297:0 298:0 299:0 300:1 301:1 302:1 303:1 304:1 305:0 306:0 307:0 308:0 309:0 310:1 311:0 312:0 313:0 314:0 315:0 316:1 317:1 318:0 319:0 320:0 321:0 322:0 323:0 324:0 325:0 326:0 327:0 328:1 #
-1 1:0 2:0 3:0 4:0 5:0 6:0 7:0 8:0 9:0 10:0 11:1 12:0 13:0 14:0 15:0 16:0 17:0 18:0 19:0 20:0 21:0 22:0 23:0 24:0 25:0 26:0 27:0 28:0 29:0 30:1 31:0 32:0 33:0 34:0 35:1 36:0 37:0 38:0 39:0 40:1 41:0 42:0 43:1 44:0 45:0 46:1 47:0 48:0 49:0 50:0 51:1 52:0 53:0 54:1 55:0 56:1 57:1 58:1 59:1 60:1 61:1 62:1 63:1 64:1 65:1 66:1 67:1 68:1 69:1 70:1 71:1 72:0 73:0 74:0 75:0 76:1 77:1 78:1 79:1 80:1 81:0 82:0 83:0 84:0 85:0 86:1 87:0 88:0 89:0 90:0 91:0 92:1 93:1 94:0 95:0 96:0 97:0 98:0 99:0 100:0 101:0 102:0 103:0 104:1 105:1 106:1 107:1 108:1 109:0 110:0 111:0 112:0 113:0 114:1 115:0 116:0 117:1 118:0 119:0 120:0 121:1 122:0 123:0 124:0 125:0 126:0 127:0 128:0 129:0 130:0 131:0 132:1 133:1 134:1 135:1 136:1 137:0 138:0 139:0 140:0 141:0 142:1 143:0 144:0 145:0 146:0 147:0 148:1 149:1 150:0 151:0 152:0 153:0 154:0 155:0 156:0 157:0 158:0 159:0 160:1 161:1 162:1 163:1 164:1 165:0 166:0 167:0 168:0 169:0 170:1 171:0 172:1 173:0 174:0 175:0 176:0 177:1 178:0 179:0 180:0 181:0 182:0 183:0 184:0 185:0 186:0 187:0 188:1 189:1 190:1 191:1 192:1 193:0 194:0 195:0 196:0 197:0 198:1 199:0 200:0 201:0 202:0 203:0 204:1 205:1 206:0 207:0 208:0 209:0 210:0 211:0 212:0 213:0 214:0 215:0 216:1 217:1 218:1 219:1 220:1 221:0 222:0 223:0 224:0 225:0 226:1 227:0 228:0 229:0 230:0 231:0 232:1 233:1 234:0 235:0 236:0 237:0 238:0 239:0 240:0 241:0 242:0 243:0 244:1 245:1 246:1 247:1 248:1 249:0 250:0 251:0 252:0 253:0 254:1 255:0 256:0 257:0 258:0 259:0 260:1 261:1 262:0 263:0 264:0 265:0 266:0 267:0 268:0 269:0 270:0 271:0 272:1 273:1 274:1 275:1 276:1 277:0 278:0 279:0 280:0 281:0 282:1 283:0 284:0 285:0 286:0 287:0 288:1 289:1 290:0 291:0 292:0 293:0 294:0 295:0 296:0 297:0 298:0 299:0 300:1 301:1 302:1 303:1 304:1 305:0 306:0 307:0 308:0 309:0 310:1 311:0 312:0 313:0 314:0 315:0 316:1 317:1 318:0 319:0 320:0 321:0 322:0 323:0 324:0 325:0 326:0 327:0 328:1 #
1 1:0 2:0 3:0 4:0 5:0 6:0 7:0 8:0 9:0 10:0 11:1 12:0 13:0 14:0 15:0 16:0 17:0 18:0 19:0 20:0 21:0 22:0 23:0 24:0 25:0 26:0 27:0 28:0 29:0 30:1 31:0 32:0 33:0 34:0 35:1 36:0 37:0 38:0 39:1 40:0 41:0 42:0 43:1 44:0 45:0 46:1 47:0 48:0 49:0 50:0 51:1 52:1 53:0 54:1 55:0 56:1 57:1 58:1 59:1 60:1 61:1 62:1 63:1 64:1 65:1 66:1 67:1 68:1 69:1 70:1 71:1 72:0 73:0 74:0 75:0 76:1 77:1 78:1 79:1 80:1 81:0 82:0 83:0 84:0 85:0 86:1 87:0 88:0 89:0 90:0 91:0 92:1 93:1 94:0 95:0 96:0 97:0 98:0 99:0 100:0 101:0 102:0 103:0 104:1 105:1 106:1 107:1 108:1 109:0 110:0 111:0 112:0 113:0 114:1 115:1 116:0 117:0 118:0 119:0 120:0 121:1 122:0 123:0 124:0 125:0 126:0 127:0 128:0 129:0 130:0 131:0 132:1 133:1 134:1 135:1 136:1 137:0 138:0 139:0 140:0 141:0 142:1 143:0 144:0 145:0 146:0 147:0 148:1 149:1 150:0 151:0 152:0 153:0 154:0 155:0 156:0 157:0 158:0 159:0 160:1 161:1 162:1 163:1 164:1 165:0 166:0 167:0 168:0 169:0 170:1 171:0 172:0 173:0 174:0 175:0 176:1 177:1 178:0 179:0 180:0 181:0 182:0 183:0 184:0 185:0 186:0 187:0 188:1 189:1 190:1 191:1 192:1 193:0 194:0 195:0 196:0 197:0 198:1 199:0 200:0 201:0 202:0 203:0 204:1 205:1 206:0 207:0 208:0 209:0 210:0 211:0 212:0 213:0 214:0 215:0 216:1 217:1 218:1 219:1 220:1 221:0 222:0 223:0 224:0 225:0 226:1 227:0 228:0 229:0 230:0 231:0 232:1 233:1 234:0 235:0 236:0 237:0 238:0 239:0 240:0 241:0 242:0 243:0 244:1 245:1 246:1 247:1 248:1 249:0 250:0 251:0 252:0 253:0 254:1 255:0 256:0 257:0 258:0 259:0 260:1 261:1 262:0 263:0 264:0 265:0 266:0 267:0 268:0 269:0 270:0 271:0 272:1 273:1 274:1 275:1 276:1 277:0 278:0 279:0 280:0 281:0 282:1 283:0 284:0 285:0 286:0 287:0 288:1 289:1 290:0 291:0 292:0 293:0 294:0 295:0 296:0 297:0 298:0 299:0 300:1 301:1 302:1 303:1 304:1 305:0 306:0 307:0 308:0 309:0 310:1 311:0 312:0 313:0 314:0 315:0 316:1 317:1 318:0 319:0 320:0 321:0 322:0 323:0 324:0 325:0 326:0 327:0 328:1 #
-1 1:0 2:0 3:0 4:0 5:0 6:0 7:0 8:0 9:0 10:0 11:0 12:0 13:0 14:0 15:0 16:1 17:0 18:0 19:0 20:0 21:0 22:0 23:0 24:0 25:0 26:0 27:0 28:0 29:0 30:1 31:0 32:0 33:0 34:0 35:1 36:0 37:0 38:0 39:0 40:0 41:0 42:1 43:0 44:0 45:0 46:1 47:0 48:0 49:0 50:0 51:1 52:1 53:1 54:1 55:1 56:1 57:1 58:0 59:1 60:0 61:1 62:1 63:1 64:1 65:1 66:1 67:1 68:0 69:0 70:1 71:1 72:0 73:0 74:0 75:0 76:1 77:1 78:0 79:1 80:1 81:0 82:0 83:0 84:0 85:0 86:1 87:1 88:0 89:0 90:0 91:0 92:0 93:1 94:0 95:0 96:0 97:0 98:0 99:0 100:0 101:0 102:0 103:0 104:1 105:1 106:1 107:1 108:1 109:0 110:0 111:0 112:0 113:0 114:1 115:0 116:1 117:0 118:0 119:0 120:0 121:1 122:0 123:0 124:0 125:0 126:0 127:0 128:0 129:0 130:0 131:0 132:1 133:1 134:0 135:1 136:1 137:0 138:0 139:0 140:0 141:0 142:1 143:1 144:0 145:0 146:0 147:0 148:0 149:1 150:0 151:0 152:0 153:0 154:0 155:0 156:0 157:0 158:0 159:0 160:1 161:1 162:1 163:1 164:1 165:0 166:0 167:0 168:0 169:0 170:1 171:0 172:0 173:0 174:0 175:0 176:1 177:1 178:0 179:0 180:0 181:0 182:0 183:0 184:0 185:0 186:0 187:0 188:1 189:1 190:1 191:1 192:1 193:0 194:0 195:0 196:0 197:0 198:1 199:0 200:0 201:0 202:0 203:0 204:1 205:1 206:0 207:0 208:0 209:0 210:0 211:0 212:0 213:0 214:0 215:0 216:1 217:1 218:1 219:1 220:1 221:0 222:0 223:0 224:0 225:0 226:1 227:0 228:0 229:0 230:0 231:0 232:1 233:1 234:0 235:0 236:0 237:0 238:0 239:0 240:0 241:0 242:0 243:0 244:1 245:1 246:0 247:1 248:1 249:0 250:0 251:0 252:0 253:0 254:1 255:1 256:0 257:0 258:0 259:0 260:0 261:1 262:0 263:0 264:0 265:0 266:0 267:0 268:0 269:0 270:0 271:0 272:1 273:1 274:0 275:1 276:1 277:0 278:0 279:0 280:0 281:0 282:1 283:1 284:0 285:0 286:0 287:0 288:0 289:1 290:0 291:0 292:0 293:0 294:0 295:0 296:0 297:0 298:0 299:0 300:1 301:1 302:1 303:1 304:1 305:0 306:0 307:0 308:0 309:0 310:1 311:0 312:1 313:0 314:0 315:0 316:0 317:1 318:0 319:0 320:0 321:0 322:0 323:0 324:0 325:0 326:0 327:0 328:1 #
-0.45690440980050739394613401600509 1:0 2:0 3:0 4:0 5:0 6:0 7:0 8:0 9:0 10:0 11:1 12:0 13:0 14:0 15:0 16:0 17:0 18:0 19:0 20:0 21:0 22:0 23:0 24:0 25:0 26:0 27:0 28:0 29:0 30:1 31:0 32:0 33:0 34:0 35:1 36:0 37:0 38:1 39:0 40:0 41:0 42:1 43:0 44:0 45:0 46:1 47:0 48:0 49:0 50:0 51:1 52:1 53:1 54:1 55:0 56:1 57:1 58:1 59:1 60:1 61:1 62:1 63:1 64:1 65:1 66:1 67:1 68:1 69:1 70:1 71:1 72:0 73:0 74:0 75:0 76:1 77:1 78:1 79:1 80:1 81:0 82:0 83:0 84:0 85:0 86:1 87:0 88:0 89:0 90:0 91:0 92:1 93:1 94:0 95:0 96:0 97:0 98:0 99:0 100:0 101:0 102:0 103:0 104:1 105:1 106:1 107:1 108:1 109:0 110:0 111:0 112:0 113:0 114:1 115:0 116:0 117:1 118:0 119:0 120:0 121:1 122:0 123:0 124:0 125:0 126:0 127:0 128:0 129:0 130:0 131:0 132:1 133:1 134:1 135:1 136:1 137:0 138:0 139:0 140:0 141:0 142:1 143:0 144:0 145:0 146:0 147:0 148:1 149:1 150:0 151:0 152:0 153:0 154:0 155:0 156:0 157:0 158:0 159:0 160:1 161:1 162:1 163:1 164:1 165:0 166:0 167:0 168:0 169:0 170:1 171:0 172:0 173:1 174:0 175:0 176:0 177:1 178:0 179:0 180:0 181:0 182:0 183:0 184:0 185:0 186:0 187:0 188:1 189:1 190:1 191:1 192:1 193:0 194:0 195:0 196:0 197:0 198:1 199:0 200:0 201:0 202:0 203:0 204:1 205:1 206:0 207:0 208:0 209:0 210:0 211:0 212:0 213:0 214:0 215:0 216:1 217:1 218:1 219:1 220:1 221:0 222:0 223:0 224:0 225:0 226:1 227:0 228:0 229:0 230:0 231:0 232:1 233:1 234:0 235:0 236:0 237:0 238:0 239:0 240:0 241:0 242:0 243:0 244:1 245:1 246:1 247:1 248:1 249:0 250:0 251:0 252:0 253:0 254:1 255:0 256:0 257:0 258:0 259:0 260:1 261:1 262:0 263:0 264:0 265:0 266:0 267:0 268:0 269:0 270:0 271:0 272:1 273:1 274:1 275:1 276:1 277:0 278:0 279:0 280:0 281:0 282:1 283:0 284:0 285:0 286:0 287:0 288:1 289:1 290:0 291:0 292:0 293:0 294:0 295:0 296:0 297:0 298:0 299:0 300:1 301:1 302:1 303:1 304:1 305:0 306:0 307:0 308:0 309:0 310:1 311:0 312:0 313:0 314:1 315:0 316:0 317:1 318:0 319:0 320:0 321:0 322:0 323:0 324:0 325:0 326:0 327:0 328:1 #
1 1:0 2:0 3:0 4:0 5:0 6:1 7:0 8:0 9:0 10:0 11:0 12:0 13:0 14:0 15:0 16:0 17:0 18:0 19:0 20:0 21:0 22:0 23:0 24:0 25:0 26:0 27:0 28:0 29:0 30:1 31:0 32:0 33:0 34:0 35:1 36:1 37:0 38:0 39:0 40:0 41:1 42:0 43:0 44:0 45:0 46:1 47:0 48:0 49:0 50:0 51:0 52:1 53:1 54:1 55:0 56:1 57:1 58:0 59:1 60:1 61:1 62:0 63:0 64:1 65:0 66:1 67:1 68:0 69:0 70:1 71:1 72:0 73:0 74:0 75:0 76:1 77:0 78:0 79:1 80:1 81:0 82:0 83:0 84:0 85:0 86:1 87:0 88:0 89:1 90:0 91:0 92:0 93:1 94:0 95:0 96:0 97:0 98:0 99:1 100:0 101:0 102:0 103:0 104:0 105:1 106:1 107:1 108:1 109:0 110:0 111:0 112:0 113:0 114:1 115:0 116:0 117:0 118:0 119:0 120:1 121:1 122:0 123:0 124:0 125:0 126:0 127:1 128:0 129:0 130:0 131:0 132:0 133:1 134:1 135:1 136:1 137:0 138:0 139:0 140:0 141:0 142:1 143:0 144:0 145:0 146:0 147:0 148:1 149:1 150:0 151:0 152:0 153:0 154:0 155:1 156:0 157:0 158:0 159:0 160:0 161:1 162:1 163:1 164:1 165:0 166:0 167:0 168:0 169:0 170:1 171:0 172:0 173:0 174:0 175:0 176:1 177:1 178:0 179:0 180:0 181:0 182:0 183:1 184:0 185:0 186:0 187:0 188:0 189:1 190:0 191:1 192:1 193:0 194:0 195:0 196:0 197:0 198:1 199:0 200:0 201:0 202:0 203:0 204:1 205:1 206:0 207:0 208:0 209:0 210:0 211:1 212:0 213:0 214:0 215:0 216:0 217:1 218:0 219:1 220:1 221:0 222:0 223:0 224:0 225:0 226:1 227:0 228:0 229:0 230:0 231:0 232:1 233:1 234:0 235:0 236:0 237:0 238:0 239:1 240:0 241:0 242:0 243:0 244:0 245:0 246:0 247:1 248:1 249:0 250:0 251:0 252:0 253:0 254:1 255:0 256:0 257:1 258:0 259:0 260:0 261:1 262:0 263:0 264:0 265:0 266:0 267:1 268:0 269:0 270:0 271:0 272:0 273:0 274:0 275:1 276:1 277:0 278:0 279:0 280:0 281:0 282:1 283:0 284:0 285:1 286:0 287:0 288:0 289:1 290:0 291:0 292:0 293:0 294:0 295:1 296:0 297:0 298:0 299:0 300:0 301:1 302:1 303:1 304:1 305:0 306:0 307:0 308:0 309:0 310:1 311:0 312:0 313:1 314:0 315:0 316:0 317:1 318:0 319:0 320:0 321:0 322:0 323:1 324:0 325:0 326:0 327:0 328:0 #
-1 1:0 2:0 3:0 4:0 5:0 6:0 7:0 8:0 9:0 10:0 11:0 12:0 13:0 14:0 15:0 16:1 17:0 18:0 19:0 20:0 21:0 22:0 23:0 24:0 25:0 26:0 27:0 28:1 29:0 30:0 31:0 32:0 33:1 34:0 35:0 36:0 37:0 38:0 39:0 40:0 41:0 42:1 43:0 44:0 45:0 46:1 47:0 48:0 49:0 50:0 51:1 52:0 53:0 54:1 55:0 56:1 57:1 58:0 59:1 60:1 61:1 62:0 63:0 64:0 65:0 66:1 67:1 68:0 69:0 70:1 71:1 72:0 73:0 74:0 75:0 76:1 77:1 78:0 79:1 80:1 81:0 82:1 83:0 84:0 85:0 86:0 87:0 88:1 89:0 90:0 91:0 92:0 93:1 94:0 95:0 96:0 97:0 98:0 99:1 100:0 101:0 102:0 103:0 104:0 105:1 106:1 107:1 108:1 109:1 110:0 111:0 112:0 113:0 114:0 115:0 116:0 117:1 118:0 119:0 120:0 121:1 122:0 123:0 124:0 125:0 126:0 127:1 128:0 129:0 130:0 131:0 132:0 133:1 134:1 135:1 136:1 137:0 138:0 139:0 140:1 141:0 142:0 143:0 144:0 145:0 146:1 147:0 148:0 149:1 150:0 151:0 152:0 153:0 154:0 155:1 156:0 157:0 158:0 159:0 160:0 161:1 162:1 163:1 164:1 165:0 166:1 167:0 168:0 169:0 170:0 171:0 172:1 173:0 174:0 175:0 176:0 177:1 178:0 179:0 180:0 181:0 182:0 183:1 184:0 185:0 186:0 187:0 188:0 189:1 190:0 191:1 192:1 193:0 194:1 195:0 196:0 197:0 198:0 199:1 200:0 201:0 202:0 203:0 204:0 205:1 206:0 207:0 208:0 209:0 210:0 211:1 212:0 213:0 214:0 215:0 216:0 217:1 218:0 219:1 220:1 221:0 222:0 223:0 224:1 225:0 226:0 227:1 228:0 229:0 230:0 231:0 232:0 233:1 234:0 235:0 236:0 237:0 238:0 239:1 240:0 241:0 242:0 243:0 244:0 245:1 246:0 247:1 248:1 249:0 250:0 251:0 252:1 253:0 254:0 255:0 256:0 257:0 258:1 259:0 260:0 261:1 262:0 263:0 264:0 265:0 266:0 267:1 268:0 269:0 270:0 271:0 272:0 273:1 274:0 275:1 276:1 277:0 278:0 279:0 280:1 281:0 282:0 283:0 284:0 285:0 286:1 287:0 288:0 289:1 290:0 291:0 292:0 293:0 294:0 295:1 296:0 297:0 298:0 299:0 300:0 301:1 302:1 303:1 304:1 305:1 306:0 307:0 308:0 309:0 310:0 311:1 312:0 313:0 314:0 315:0 316:0 317:1 318:0 319:0 320:0 321:0 322:0 323:1 324:0 325:0 326:0 327:0 328:0 #
-1 1:0 2:0 3:0 4:0 5:0 6:1 7:0 8:0 9:0 10:0 11:0 12:0 13:0 14:0 15:0 16:0 17:0 18:0 19:0 20:0 21:0 22:0 23:0 24:0 25:0 26:0 27:0 28:0 29:0 30:1 31:0 32:0 33:0 34:0 35:1 36:1 37:0 38:0 39:0 40:0 41:0 42:1 43:0 44:0 45:0 46:1 47:0 48:0 49:0 50:0 51:1 52:1 53:0 54:1 55:1 56:1 57:1 58:1 59:1 60:1 61:1 62:1 63:0 64:0 65:0 66:1 67:1 68:0 69:0 70:0 71:0 72:0 73:0 74:0 75:0 76:1 77:1 78:1 79:1 80:1 81:0 82:0 83:0 84:0 85:0 86:1 87:0 88:0 89:0 90:0 91:0 92:1 93:1 94:0 95:0 96:0 97:0 98:0 99:0 100:0 101:0 102:0 103:0 104:1 105:1 106:1 107:1 108:1 109:0 110:0 111:0 112:0 113:0 114:1 115:0 116:0 117:0 118:0 119:0 120:1 121:1 122:0 123:0 124:0 125:0 126:0 127:0 128:0 129:0 130:0 131:0 132:1 133:1 134:1 135:1 136:1 137:0 138:0 139:0 140:0 141:0 142:1 143:0 144:0 145:0 146:0 147:0 148:1 149:1 150:0 151:0 152:0 153:0 154:0 155:0 156:0 157:0 158:0 159:0 160:1 161:1 162:1 163:1 164:1 165:0 166:0 167:0 168:0 169:0 170:1 171:0 172:0 173:0 174:0 175:0 176:1 177:1 178:0 179:0 180:0 181:0 182:0 183:0 184:0 185:0 186:0 187:0 188:1 189:1 190:1 191:1 192:1 193:0 194:0 195:0 196:0 197:0 198:1 199:0 200:0 201:0 202:0 203:0 204:1 205:1 206:0 207:0 208:0 209:0 210:0 211:0 212:0 213:0 214:0 215:0 216:1 217:1 218:1 219:1 220:1 221:0 222:0 223:0 224:0 225:0 226:1 227:0 228:0 229:0 230:0 231:0 232:1 233:1 234:0 235:0 236:0 237:0 238:0 239:0 240:0 241:0 242:0 243:0 244:1 245:1 246:1 247:1 248:1 249:0 250:0 251:0 252:0 253:0 254:1 255:0 256:0 257:0 258:0 259:0 260:1 261:1 262:0 263:0 264:0 265:0 266:0 267:0 268:0 269:0 270:0 271:0 272:1 273:1 274:1 275:1 276:1 277:0 278:0 279:0 280:0 281:0 282:1 283:0 284:0 285:0 286:0 287:0 288:1 289:1 290:0 291:0 292:0 293:0 294:0 295:0 296:0 297:0 298:0 299:0 300:1 301:1 302:1 303:1 304:1 305:0 306:0 307:0 308:0 309:0 310:1 311:0 312:0 313:0 314:0 315:0 316:1 317:1 318:0 319:0 320:0 321:0 322:0 323:0 324:0 325:0 326:0 327:0 328:1 #
1 1:0 2:0 3:0 4:0 5:0 6:0 7:0 8:0 9:0 10:0 11:0 12:0 13:0 14:0 15:0 16:1 17:0 18:0 19:0 20:0 21:0 22:0 23:0 24:0 25:0 26:0 27:0 28:1 29:0 30:0 31:0 32:0 33:1 34:0 35:0 36:1 37:0 38:0 39:0 40:0 41:0 42:1 43:0 44:0 45:0 46:1 47:0 48:0 49:0 50:0 51:0 52:1 53:0 54:1 55:1 56:1 57:1 58:0 59:1 60:1 61:1 62:0 63:0 64:0 65:0 66:1 67:1 68:0 69:0 70:0 71:0 72:0 73:0 74:0 75:0 76:1 77:1 78:0 79:1 80:1 81:0 82:1 83:0 84:0 85:0 86:0 87:0 88:1 89:0 90:0 91:0 92:0 93:1 94:0 95:0 96:0 97:0 98:0 99:1 100:0 101:0 102:0 103:0 104:0 105:1 106:1 107:1 108:1 109:1 110:0 111:0 112:0 113:0 114:0 115:1 116:0 117:0 118:0 119:0 120:0 121:1 122:0 123:0 124:0 125:0 126:0 127:1 128:0 129:0 130:0 131:0 132:0 133:1 134:1 135:1 136:1 137:0 138:0 139:1 140:0 141:0 142:0 143:0 144:0 145:1 146:0 147:0 148:0 149:1 150:0 151:0 152:0 153:0 154:0 155:1 156:0 157:0 158:0 159:0 160:0 161:1 162:1 163:1 164:1 165:0 166:0 167:1 168:0 169:0 170:0 171:0 172:1 173:0 174:0 175:0 176:0 177:1 178:0 179:0 180:0 181:0 182:0 183:1 184:0 185:0 186:0 187:0 188:0 189:1 190:0 191:1 192:1 193:0 194:0 195:1 196:0 197:0 198:0 199:0 200:1 201:0 202:0 203:0 204:0 205:1 206:0 207:0 208:0 209:0 210:0 211:1 212:0 213:0 214:0 215:0 216:0 217:1 218:0 219:1 220:1 221:0 222:0 223:1 224:0 225:0 226:0 227:1 228:0 229:0 230:0 231:0 232:0 233:1 234:0 235:0 236:0 237:0 238:0 239:1 240:0 241:0 242:0 243:0 244:0 245:1 246:0 247:1 248:1 249:0 250:1 251:0 252:0 253:0 254:0 255:0 256:0 257:0 258:0 259:1 260:0 261:1 262:0 263:0 264:0 265:0 266:0 267:1 268:0 269:0 270:0 271:0 272:0 273:1 274:0 275:1 276:1 277:0 278:1 279:0 280:0 281:0 282:0 283:0 284:0 285:0 286:0 287:1 288:0 289:1 290:0 291:0 292:0 293:0 294:0 295:1 296:0 297:0 298:0 299:0 300:0 301:1 302:1 303:1 304:1 305:0 306:1 307:0 308:0 309:0 310:0 311:1 312:0 313:0 314:0 315:0 316:0 317:1 318:0 319:0 320:0 321:0 322:0 323:1 324:0 325:0 326:0 327:0 328:0 #
-1 1:0 2:0 3:0 4:0 5:0 6:0 7:0 8:0 9:0 10:0 11:0 12:0 13:0 14:0 15:0 16:1 17:0 18:0 19:0 20:0 21:0 22:0 23:0 24:0 25:0 26:0 27:0 28:0 29:0 30:1 31:0 32:0 33:0 34:0 35:1 36:1 37:0 38:0 39:0 40:0 41:0 42:1 43:0 44:0 45:0 46:1 47:0 48:0 49:0 50:0 51:1 52:0 53:0 54:1 55:1 56:1 57:1 58:1 59:1 60:1 61:1 62:0 63:0 64:0 65:0 66:1 67:1 68:0 69:0 70:0 71:0 72:0 73:0 74:0 75:0 76:1 77:1 78:1 79:1 80:1 81:0 82:0 83:0 84:0 85:0 86:1 87:0 88:0 89:0 90:0 91:0 92:1 93:1 94:0 95:0 96:0 97:0 98:0 99:0 100:0 101:0 102:0 103:0 104:1 105:1 106:1 107:1 108:1 109:0 110:0 111:0 112:0 113:0 114:1 115:0 116:0 117:0 118:0 119:0 120:1 121:1 122:0 123:0 124:0 125:0 126:0 127:0 128:0 129:0 130:0 131:0 132:1 133:1 134:0 135:1 136:1 137:0 138:0 139:0 140:0 141:0 142:1 143:0 144:0 145:0 146:0 147:0 148:1 149:1 150:0 151:0 152:0 153:0 154:0 155:0 156:0 157:0 158:0 159:0 160:1 161:1 162:1 163:1 164:1 165:0 166:0 167:0 168:0 169:0 170:1 171:0 172:0 173:0 174:0 175:0 176:1 177:1 178:0 179:0 180:0 181:0 182:0 183:0 184:0 185:0 186:0 187:0 188:1 189:1 190:0 191:1 192:1 193:0 194:0 195:0 196:0 197:0 198:1 199:0 200:0 201:0 202:0 203:0 204:1 205:1 206:0 207:0 208:0 209:0 210:0 211:0 212:0 213:0 214:0 215:0 216:1 217:1 218:0 219:1 220:1 221:0 222:0 223:0 224:0 225:0 226:1 227:0 228:0 229:0 230:1 231:0 232:0 233:1 234:0 235:0 236:0 237:0 238:0 239:0 240:0 241:0 242:0 243:0 244:1 245:1 246:0 247:1 248:1 249:0 250:0 251:0 252:0 253:0 254:1 255:0 256:0 257:0 258:0 259:0 260:1 261:1 262:0 263:0 264:0 265:0 266:0 267:0 268:0 269:0 270:0 271:0 272:1 273:1 274:0 275:1 276:1 277:0 278:0 279:0 280:0 281:0 282:1 283:0 284:0 285:0 286:0 287:0 288:1 289:1 290:0 291:0 292:0 293:0 294:0 295:0 296:0 297:0 298:0 299:0 300:1 301:1 302:1 303:1 304:1 305:0 306:0 307:0 308:0 309:0 310:1 311:0 312:0 313:0 314:0 315:0 316:1 317:1 318:0 319:0 320:0 321:0 322:0 323:0 324:0 325:0 326:0 327:0 328:1 #
1 1:0 2:0 3:0 4:0 5:0 6:0 7:0 8:0 9:0 10:0 11:0 12:0 13:0 14:0 15:0 16:1 17:0 18:0 19:0 20:0 21:0 22:0 23:0 24:0 25:0 26:0 27:0 28:0 29:0 30:1 31:0 32:0 33:0 34:0 35:1 36:0 37:0 38:0 39:0 40:0 41:0 42:1 43:0 44:0 45:0 46:1 47:0 48:0 49:0 50:0 51:0 52:0 53:0 54:1 55:0 56:1 57:1 58:0 59:0 60:1 61:1 62:0 63:0 64:1 65:1 66:1 67:1 68:0 69:0 70:0 71:1 72:0 73:0 74:0 75:0 76:1 77:1 78:0 79:1 80:1 81:0 82:0 83:0 84:0 85:0 86:1 87:0 88:0 89:0 90:0 91:0 92:1 93:1 94:0 95:0 96:0 97:0 98:0 99:0 100:1 101:0 102:0 103:0 104:0 105:1 106:0 107:1 108:1 109:0 110:0 111:0 112:0 113:0 114:1 115:0 116:0 117:0 118:0 119:1 120:0 121:1 122:0 123:0 124:0 125:0 126:0 127:0 128:1 129:0 130:0 131:0 132:0 133:1 134:1 135:1 136:1 137:0 138:0 139:0 140:0 141:0 142:1 143:0 144:0 145:0 146:0 147:0 148:1 149:1 150:0 151:0 152:0 153:0 154:0 155:0 156:1 157:0 158:0 159:0 160:0 161:1 162:1 163:1 164:1 165:0 166:0 167:0 168:0 169:0 170:1 171:0 172:0 173:0 174:1 175:0 176:0 177:1 178:0 179:0 180:0 181:0 182:0 183:0 184:1 185:0 186:0 187:0 188:0 189:1 190:0 191:1 192:1 193:0 194:0 195:0 196:0 197:0 198:1 199:0 200:0 201:0 202:0 203:0 204:1 205:1 206:0 207:0 208:0 209:0 210:0 211:0 212:1 213:0 214:0 215:0 216:0 217:1 218:0 219:1 220:1 221:0 222:0 223:0 224:0 225:0 226:1 227:0 228:0 229:0 230:0 231:0 232:1 233:1 234:0 235:0 236:0 237:0 238:0 239:0 240:1 241:0 242:0 243:0 244:0 245:1 246:0 247:1 248:1 249:0 250:0 251:0 252:0 253:0 254:1 255:0 256:0 257:0 258:0 259:0 260:1 261:1 262:0 263:0 264:0 265:0 266:0 267:0 268:1 269:0 270:0 271:0 272:0 273:1 274:0 275:1 276:1 277:0 278:0 279:0 280:0 281:0 282:1 283:0 284:0 285:0 286:0 287:0 288:1 289:1 290:0 291:0 292:0 293:0 294:0 295:0 296:1 297:0 298:0 299:0 300:0 301:1 302:1 303:1 304:1 305:0 306:1 307:0 308:0 309:0 310:0 311:1 312:0 313:0 314:0 315:0 316:0 317:1 318:0 319:0 320:0 321:0 322:0 323:0 324:1 325:0 326:0 327:0 328:0 #
1 1:0 2:0 3:0 4:0 5:0 6:0 7:0 8:0 9:0 10:0 11:0 12:0 13:0 14:0 15:0 16:0 17:0 18:0 19:0 20:0 21:1 22:0 23:0 24:0 25:0 26:0 27:0 28:0 29:0 30:1 31:0 32:0 33:0 34:1 35:0 36:0 37:0 38:0 39:0 40:0 41:0 42:0 43:1 44:0 45:0 46:0 47:1 48:0 49:0 50:0 51:0 52:1 53:0 54:1 55:0 56:1 57:1 58:0 59:0 60:1 61:1 62:0 63:0 64:1 65:0 66:1 67:1 68:0 69:0 70:1 71:0 72:0 73:0 74:0 75:0 76:1 77:1 78:0 79:1 80:1 81:0 82:0 83:1 84:0 85:0 86:0 87:0 88:1 89:0 90:0 91:0 92:0 93:1 94:0 95:0 96:0 97:0 98:0 99:1 100:0 101:0 102:0 103:0 104:0 105:1 106:0 107:1 108:1 109:0 110:1 111:0 112:0 113:0 114:0 115:1 116:0 117:0 118:0 119:0 120:0 121:1 122:0 123:0 124:0 125:0 126:0 127:1 128:0 129:0 130:0 131:0 132:0 133:1 134:1 135:1 136:1 137:0 138:0 139:1 140:0 141:0 142:0 143:0 144:0 145:1 146:0 147:0 148:0 149:1 150:0 151:0 152:0 153:0 154:0 155:1 156:0 157:0 158:0 159:0 160:0 161:1 162:1 163:1 164:1 165:1 166:0 167:0 168:0 169:0 170:0 171:1 172:0 173:0 174:0 175:0 176:0 177:1 178:0 179:0 180:0 181:0 182:0 183:1 184:0 185:0 186:0 187:0 188:0 189:1 190:0 191:1 192:1 193:0 194:0 195:1 196:0 197:0 198:0 199:0 200:0 201:1 202:0 203:0 204:0 205:1 206:0 207:0 208:0 209:0 210:0 211:1 212:0 213:0 214:0 215:0 216:0 217:1 218:0 219:1 220:1 221:0 222:0 223:1 224:0 225:0 226:0 227:0 228:0 229:1 230:0 231:0 232:0 233:1 234:0 235:0 236:0 237:0 238:0 239:1 240:0 241:0 242:0 243:0 244:0 245:1 246:0 247:1 248:1 249:0 250:0 251:1 252:0 253:0 254:0 255:0 256:1 257:0 258:0 259:0 260:0 261:1 262:0 263:0 264:0 265:0 266:0 267:1 268:0 269:0 270:0 271:0 272:0 273:1 274:0 275:1 276:1 277:0 278:0 279:1 280:0 281:0 282:0 283:0 284:1 285:0 286:0 287:0 288:0 289:1 290:0 291:0 292:0 293:0 294:0 295:1 296:0 297:0 298:0 299:0 300:0 301:1 302:1 303:1 304:1 305:1 306:0 307:0 308:0 309:0 310:0 311:1 312:0 313:0 314:0 315:0 316:0 317:1 318:0 319:0 320:0 321:0 322:0 323:1 324:0 325:0 326:0 327:0 328:0 #
-0.020468627986873322299743449548259 1:0 2:0 3:0 4:0 5:0 6:0 7:0 8:0 9:0 10:0 11:1 12:0 13:0 14:0 15:0 16:0 17:0 18:0 19:0 20:0 21:0 22:0 23:0 24:0 25:0 26:0 27:0 28:0 29:0 30:1 31:0 32:0 33:0 34:0 35:1 36:0 37:0 38:1 39:0 40:0 41:0 42:1 43:0 44:0 45:0 46:1 47:0 48:0 49:0 50:0 51:1 52:0 53:0 54:1 55:0 56:1 57:1 58:1 59:1 60:1 61:1 62:1 63:0 64:1 65:0 66:1 67:1 68:0 69:0 70:0 71:1 72:0 73:0 74:0 75:0 76:1 77:1 78:1 79:1 80:1 81:0 82:0 83:0 84:0 85:0 86:1 87:0 88:0 89:0 90:0 91:0 92:1 93:1 94:0 95:0 96:0 97:0 98:0 99:0 100:0 101:0 102:0 103:0 104:1 105:1 106:1 107:1 108:1 109:0 110:0 111:0 112:0 113:0 114:1 115:0 116:0 117:0 118:1 119:0 120:0 121:1 122:0 123:0 124:0 125:0 126:0 127:0 128:0 129:0 130:0 131:0 132:1 133:1 134:1 135:1 136:1 137:0 138:0 139:0 140:0 141:0 142:1 143:0 144:0 145:0 146:0 147:0 148:1 149:1 150:0 151:0 152:0 153:0 154:0 155:0 156:0 157:0 158:0 159:0 160:1 161:1 162:1 163:1 164:1 165:0 166:0 167:0 168:0 169:0 170:1 171:0 172:0 173:0 174:0 175:0 176:1 177:1 178:0 179:0 180:0 181:0 182:0 183:0 184:0 185:0 186:0 187:0 188:1 189:1 190:1 191:1 192:1 193:0 194:0 195:0 196:0 197:0 198:1 199:0 200:0 201:0 202:0 203:0 204:1 205:1 206:0 207:0 208:0 209:0 210:0 211:0 212:0 213:0 214:0 215:0 216:1 217:1 218:1 219:1 220:1 221:0 222:0 223:0 224:0 225:0 226:1 227:0 228:0 229:0 230:0 231:0 232:1 233:1 234:0 235:0 236:0 237:0 238:0 239:0 240:0 241:0 242:0 243:0 244:1 245:1 246:0 247:1 248:1 249:0 250:0 251:0 252:0 253:0 254:1 255:0 256:0 257:0 258:0 259:0 260:1 261:1 262:0 263:0 264:0 265:0 266:0 267:0 268:0 269:0 270:0 271:0 272:1 273:1 274:0 275:1 276:1 277:0 278:0 279:0 280:0 281:0 282:1 283:0 284:0 285:0 286:0 287:0 288:1 289:1 290:0 291:0 292:0 293:0 294:0 295:0 296:0 297:0 298:0 299:0 300:1 301:1 302:1 303:1 304:1 305:0 306:0 307:0 308:0 309:0 310:1 311:0 312:0 313:1 314:0 315:0 316:0 317:1 318:0 319:0 320:0 321:0 322:0 323:0 324:0 325:0 326:0 327:0 328:1 #
-0.57638748849447196676010207738727 1:0 2:0 3:0 4:0 5:0 6:0 7:0 8:0 9:0 10:0 11:0 12:0 13:0 14:0 15:0 16:0 17:0 18:0 19:0 20:0 21:1 22:0 23:0 24:0 25:0 26:0 27:0 28:0 29:0 30:1 31:0 32:0 33:0 34:0 35:1 36:0 37:0 38:0 39:0 40:0 41:0 42:1 43:0 44:0 45:0 46:0 47:1 48:0 49:0 50:0 51:1 52:1 53:0 54:1 55:1 56:1 57:1 58:1 59:1 60:0 61:0 62:0 63:0 64:1 65:1 66:1 67:1 68:0 69:0 70:1 71:1 72:0 73:0 74:0 75:0 76:1 77:1 78:1 79:1 80:1 81:0 82:0 83:0 84:0 85:0 86:1 87:0 88:0 89:0 90:1 91:0 92:0 93:1 94:0 95:0 96:0 97:0 98:0 99:0 100:0 101:1 102:0 103:0 104:0 105:1 106:1 107:1 108:1 109:1 110:0 111:0 112:0 113:0 114:0 115:1 116:0 117:0 118:0 119:0 120:0 121:1 122:0 123:0 124:0 125:0 126:0 127:0 128:0 129:1 130:0 131:0 132:0 133:1 134:0 135:1 136:1 137:0 138:0 139:0 140:1 141:0 142:0 143:0 144:0 145:0 146:1 147:0 148:0 149:1 150:0 151:0 152:0 153:0 154:0 155:0 156:0 157:1 158:0 159:0 160:0 161:1 162:0 163:1 164:1 165:0 166:0 167:1 168:0 169:0 170:0 171:0 172:1 173:0 174:0 175:0 176:0 177:1 178:0 179:0 180:0 181:0 182:0 183:0 184:0 185:1 186:0 187:0 188:0 189:1 190:0 191:1 192:1 193:0 194:0 195:1 196:0 197:0 198:0 199:0 200:0 201:1 202:0 203:0 204:0 205:1 206:0 207:0 208:0 209:0 210:0 211:0 212:0 213:1 214:0 215:0 216:0 217:1 218:0 219:1 220:1 221:0 222:0 223:0 224:1 225:0 226:0 227:0 228:0 229:1 230:0 231:0 232:0 233:1 234:0 235:0 236:0 237:0 238:0 239:0 240:0 241:1 242:0 243:0 244:0 245:1 246:0 247:1 248:1 249:0 250:0 251:0 252:0 253:1 254:0 255:0 256:0 257:1 258:0 259:0 260:0 261:1 262:0 263:0 264:0 265:0 266:0 267:0 268:0 269:1 270:0 271:0 272:0 273:1 274:0 275:1 276:1 277:0 278:0 279:0 280:0 281:1 282:0 283:0 284:0 285:1 286:0 287:0 288:0 289:1 290:0 291:0 292:0 293:0 294:0 295:0 296:0 297:1 298:0 299:0 300:0 301:1 302:1 303:1 304:1 305:0 306:0 307:1 308:0 309:0 310:0 311:0 312:1 313:0 314:0 315:0 316:0 317:1 318:0 319:0 320:0 321:0 322:0 323:0 324:0 325:1 326:0 327:0 328:0 #
-0.52713795423003539930562055815244 1:0 2:0 3:0 4:0 5:0 6:1 7:0 8:0 9:0 10:0 11:0 12:0 13:0 14:0 15:0 16:0 17:0 18:0 19:0 20:0 21:0 22:0 23:0 24:0 25:0 26:1 27:0 28:0 29:0 30:0 31:0 32:1 33:0 34:0 35:0 36:1 37:0 38:0 39:0 40:0 41:1 42:0 43:0 44:0 45:0 46:1 47:0 48:0 49:0 50:0 51:1 52:1 53:0 54:1 55:0 56:1 57:1 58:0 59:1 60:0 61:1 62:0 63:0 64:0 65:0 66:1 67:1 68:0 69:0 70:1 71:1 72:0 73:0 74:0 75:0 76:1 77:1 78:0 79:1 80:0 81:1 82:0 83:0 84:0 85:0 86:0 87:1 88:0 89:0 90:0 91:0 92:0 93:1 94:0 95:0 96:0 97:0 98:0 99:1 100:0 101:0 102:0 103:0 104:0 105:1 106:1 107:1 108:0 109:1 110:0 111:0 112:0 113:0 114:0 115:1 116:0 117:0 118:0 119:0 120:0 121:1 122:0 123:0 124:0 125:0 126:0 127:1 128:0 129:0 130:0 131:0 132:0 133:0 134:0 135:1 136:0 137:1 138:0 139:0 140:0 141:0 142:0 143:1 144:0 145:0 146:0 147:0 148:0 149:1 150:0 151:0 152:0 153:0 154:0 155:1 156:0 157:0 158:0 159:0 160:0 161:1 162:1 163:1 164:0 165:1 166:0 167:0 168:0 169:0 170:0 171:1 172:0 173:0 174:0 175:0 176:0 177:1 178:0 179:0 180:0 181:0 182:0 183:1 184:0 185:0 186:0 187:0 188:0 189:1 190:0 191:1 192:0 193:1 194:0 195:0 196:0 197:0 198:0 199:1 200:0 201:0 202:0 203:0 204:0 205:1 206:0 207:0 208:0 209:0 210:0 211:1 212:0 213:0 214:0 215:0 216:0 217:1 218:0 219:1 220:0 221:1 222:0 223:0 224:0 225:0 226:0 227:1 228:0 229:0 230:0 231:0 232:0 233:1 234:0 235:0 236:0 237:0 238:0 239:1 240:0 241:0 242:0 243:0 244:0 245:1 246:0 247:1 248:0 249:1 250:0 251:0 252:0 253:0 254:0 255:0 256:0 257:1 258:0 259:0 260:0 261:1 262:0 263:0 264:0 265:0 266:0 267:1 268:0 269:0 270:0 271:0 272:0 273:1 274:0 275:1 276:0 277:1 278:0 279:0 280:0 281:0 282:0 283:0 284:0 285:1 286:0 287:0 288:0 289:1 290:0 291:0 292:0 293:0 294:0 295:1 296:0 297:0 298:0 299:0 300:0 301:0 302:1 303:1 304:0 305:0 306:0 307:0 308:1 309:0 310:0 311:0 312:0 313:0 314:0 315:0 316:1 317:1 318:0 319:0 320:0 321:0 322:0 323:1 324:0 325:0 326:0 327:0 328:0 #
-0.11301841189941264076423976803198 1:0 2:0 3:0 4:0 5:0 6:0 7:0 8:0 9:0 10:0 11:0 12:0 13:0 14:0 15:0 16:1 17:0 18:0 19:0 20:0 21:0 22:0 23:0 24:0 25:0 26:0 27:0 28:0 29:0 30:1 31:0 32:0 33:0 34:0 35:1 36:0 37:0 38:0 39:0 40:0 41:0 42:0 43:1 44:0 45:0 46:1 47:0 48:0 49:0 50:0 51:1 52:1 53:0 54:1 55:1 56:1 57:1 58:1 59:1 60:1 61:1 62:0 63:0 64:0 65:0 66:1 67:1 68:0 69:0 70:0 71:1 72:0 73:0 74:0 75:0 76:1 77:1 78:1 79:1 80:1 81:0 82:0 83:0 84:0 85:0 86:1 87:0 88:0 89:0 90:0 91:0 92:1 93:1 94:0 95:0 96:0 97:0 98:0 99:0 100:0 101:0 102:0 103:0 104:1 105:1 106:1 107:1 108:1 109:0 110:0 111:0 112:0 113:0 114:1 115:1 116:0 117:0 118:0 119:0 120:0 121:1 122:0 123:0 124:0 125:0 126:0 127:0 128:0 129:0 130:0 131:0 132:1 133:1 134:1 135:1 136:1 137:0 138:0 139:0 140:0 141:0 142:1 143:0 144:0 145:0 146:1 147:0 148:0 149:1 150:0 151:0 152:0 153:0 154:0 155:0 156:0 157:0 158:0 159:0 160:1 161:1 162:1 163:1 164:1 165:0 166:0 167:0 168:0 169:0 170:1 171:0 172:0 173:0 174:0 175:0 176:1 177:1 178:0 179:0 180:0 181:0 182:0 183:0 184:0 185:0 186:0 187:0 188:1 189:1 190:0 191:1 192:1 193:0 194:0 195:0 196:0 197:0 198:1 199:0 200:0 201:0 202:0 203:0 204:1 205:1 206:0 207:0 208:0 209:0 210:0 211:0 212:0 213:0 214:0 215:0 216:1 217:1 218:0 219:1 220:1 221:0 222:0 223:0 224:0 225:0 226:1 227:0 228:0 229:0 230:0 231:0 232:1 233:1 234:0 235:0 236:0 237:0 238:0 239:0 240:0 241:0 242:0 243:0 244:1 245:1 246:0 247:1 248:1 249:0 250:0 251:0 252:0 253:0 254:1 255:0 256:0 257:0 258:0 259:0 260:1 261:1 262:0 263:0 264:0 265:0 266:0 267:0 268:0 269:0 270:0 271:0 272:1 273:1 274:0 275:1 276:1 277:0 278:0 279:0 280:0 281:0 282:1 283:0 284:0 285:0 286:0 287:0 288:1 289:1 290:0 291:0 292:0 293:0 294:0 295:0 296:0 297:0 298:0 299:0 300:1 301:1 302:0 303:1 304:1 305:0 306:0 307:0 308:0 309:0 310:1 311:1 312:0 313:0 314:0 315:0 316:0 317:1 318:0 319:0 320:0 321:0 322:0 323:0 324:0 325:0 326:0 327:0 328:1 #
0.79619633346492602044008890516125 1:0 2:0 3:0 4:0 5:0 6:0 7:0 8:0 9:0 10:0 11:0 12:0 13:0 14:0 15:0 16:1 17:0 18:0 19:0 20:0 21:0 22:0 23:0 24:0 25:0 26:0 27:0 28:0 29:1 30:0 31:0 32:0 33:0 34:1 35:0 36:0 37:0 38:0 39:0 40:0 41:0 42:1 43:0 44:0 45:0 46:1 47:0 48:0 49:0 50:0 51:1 52:1 53:1 54:1 55:1 56:1 57:1 58:0 59:1 60:0 61:1 62:1 63:0 64:1 65:1 66:1 67:1 68:0 69:0 70:1 71:1 72:0 73:0 74:0 75:0 76:1 77:1 78:0 79:1 80:1 81:0 82:0 83:0 84:1 85:0 86:0 87:1 88:0 89:0 90:0 91:0 92:0 93:1 94:0 95:0 96:0 97:0 98:0 99:0 100:0 101:1 102:0 103:0 104:0 105:1 106:1 107:1 108:1 109:0 110:0 111:0 112:1 113:0 114:0 115:0 116:0 117:0 118:1 119:0 120:0 121:1 122:0 123:0 124:0 125:0 126:0 127:0 128:0 129:1 130:0 131:0 132:0 133:1 134:0 135:1 136:1 137:0 138:0 139:1 140:0 141:0 142:0 143:1 144:0 145:0 146:0 147:0 148:0 149:1 150:0 151:0 152:0 153:0 154:0 155:0 156:0 157:1 158:0 159:0 160:0 161:1 162:1 163:1 164:1 165:0 166:0 167:0 168:1 169:0 170:0 171:0 172:0 173:0 174:1 175:0 176:0 177:1 178:0 179:0 180:0 181:0 182:0 183:0 184:0 185:1 186:0 187:0 188:0 189:1 190:1 191:1 192:1 193:0 194:0 195:0 196:0 197:1 198:0 199:0 200:0 201:0 202:1 203:0 204:0 205:1 206:0 207:0 208:0 209:0 210:0 211:0 212:0 213:1 214:0 215:0 216:0 217:1 218:1 219:1 220:1 221:0 222:0 223:0 224:0 225:1 226:0 227:0 228:0 229:0 230:1 231:0 232:0 233:1 234:0 235:0 236:0 237:0 238:0 239:0 240:0 241:1 242:0 243:0 244:0 245:1 246:0 247:1 248:1 249:0 250:0 251:0 252:1 253:0 254:0 255:1 256:0 257:0 258:0 259:0 260:0 261:1 262:0 263:0 264:0 265:0 266:0 267:0 268:0 269:1 270:0 271:0 272:0 273:1 274:0 275:1 276:1 277:0 278:0 279:0 280:1 281:0 282:0 283:1 284:0 285:0 286:0 287:0 288:0 289:1 290:0 291:0 292:0 293:0 294:0 295:0 296:0 297:1 298:0 299:0 300:0 301:1 302:1 303:1 304:1 305:0 306:0 307:1 308:0 309:0 310:0 311:0 312:0 313:1 314:0 315:0 316:0 317:1 318:0 319:0 320:0 321:0 322:0 323:0 324:0 325:1 326:0 327:0 328:0 #
-0.10784614545657474071749248878405 1:0 2:0 3:0 4:0 5:0 6:1 7:0 8:0 9:0 10:0 11:0 12:0 13:0 14:0 15:0 16:0 17:0 18:0 19:0 20:0 21:0 22:0 23:0 24:0 25:0 26:0 27:0 28:0 29:0 30:1 31:0 32:0 33:0 34:0 35:1 36:0 37:0 38:0 39:0 40:0 41:0 42:1 43:0 44:0 45:0 46:1 47:0 48:0 49:0 50:0 51:1 52:0 53:0 54:1 55:0 56:1 57:1 58:0 59:1 60:1 61:1 62:0 63:0 64:0 65:1 66:1 67:1 68:0 69:0 70:0 71:1 72:0 73:0 74:0 75:0 76:1 77:1 78:0 79:1 80:1 81:0 82:0 83:0 84:0 85:1 86:0 87:0 88:0 89:0 90:0 91:0 92:1 93:1 94:0 95:0 96:0 97:0 98:0 99:0 100:1 101:0 102:0 103:0 104:0 105:1 106:1 107:1 108:1 109:0 110:0 111:0 112:0 113:1 114:0 115:0 116:0 117:0 118:0 119:0 120:1 121:1 122:0 123:0 124:0 125:0 126:0 127:0 128:1 129:0 130:0 131:0 132:0 133:1 134:1 135:1 136:1 137:0 138:0 139:0 140:0 141:0 142:1 143:0 144:0 145:0 146:0 147:0 148:1 149:1 150:0 151:0 152:0 153:0 154:0 155:0 156:1 157:0 158:0 159:0 160:0 161:1 162:1 163:1 164:1 165:0 166:0 167:0 168:0 169:0 170:1 171:0 172:0 173:0 174:1 175:0 176:0 177:1 178:0 179:0 180:0 181:0 182:0 183:0 184:1 185:0 186:0 187:0 188:0 189:1 190:1 191:1 192:1 193:0 194:0 195:0 196:0 197:0 198:1 199:0 200:0 201:0 202:0 203:0 204:1 205:1 206:0 207:0 208:0 209:0 210:0 211:0 212:1 213:0 214:0 215:0 216:0 217:1 218:1 219:1 220:1 221:0 222:0 223:0 224:0 225:0 226:1 227:0 228:0 229:0 230:0 231:0 232:1 233:1 234:0 235:0 236:0 237:0 238:0 239:0 240:1 241:0 242:0 243:0 244:0 245:1 246:0 247:1 248:1 249:0 250:0 251:0 252:0 253:0 254:1 255:0 256:0 257:0 258:0 259:0 260:1 261:1 262:0 263:0 264:0 265:0 266:0 267:0 268:1 269:0 270:0 271:0 272:0 273:1 274:0 275:1 276:1 277:0 278:0 279:0 280:0 281:0 282:1 283:0 284:0 285:0 286:0 287:0 288:1 289:1 290:0 291:0 292:0 293:0 294:0 295:0 296:1 297:0 298:0 299:0 300:0 301:1 302:1 303:1 304:1 305:0 306:1 307:0 308:0 309:0 310:0 311:1 312:0 313:0 314:0 315:0 316:0 317:1 318:0 319:0 320:0 321:0 322:0 323:0 324:1 325:0 326:0 327:0 328:0 #
-0.41660286892003561831643310142681 1:0 2:0 3:0 4:0 5:0 6:0 7:0 8:0 9:0 10:0 11:0 12:0 13:0 14:0 15:0 16:0 17:0 18:0 19:0 20:0 21:1 22:0 23:0 24:0 25:0 26:0 27:0 28:0 29:0 30:1 31:0 32:0 33:0 34:0 35:1 36:0 37:0 38:0 39:0 40:0 41:0 42:0 43:1 44:0 45:0 46:0 47:1 48:0 49:0 50:0 51:1 52:1 53:1 54:1 55:0 56:1 57:1 58:1 59:1 60:0 61:1 62:0 63:0 64:1 65:1 66:1 67:1 68:0 69:0 70:1 71:1 72:0 73:0 74:0 75:0 76:1 77:1 78:1 79:1 80:1 81:0 82:0 83:0 84:0 85:0 86:1 87:0 88:0 89:0 90:0 91:0 92:1 93:1 94:0 95:0 96:0 97:0 98:0 99:0 100:0 101:0 102:0 103:1 104:0 105:1 106:1 107:1 108:1 109:0 110:0 111:0 112:0 113:0 114:1 115:0 116:0 117:0 118:1 119:0 120:0 121:1 122:0 123:0 124:0 125:0 126:0 127:0 128:0 129:0 130:0 131:1 132:0 133:1 134:0 135:1 136:1 137:0 138:0 139:0 140:0 141:1 142:0 143:0 144:0 145:0 146:0 147:0 148:1 149:1 150:0 151:0 152:0 153:0 154:0 155:0 156:0 157:0 158:0 159:1 160:0 161:1 162:1 163:1 164:1 165:1 166:0 167:0 168:0 169:0 170:0 171:1 172:0 173:0 174:0 175:0 176:0 177:1 178:0 179:0 180:0 181:0 182:0 183:0 184:0 185:0 186:0 187:1 188:0 189:1 190:0 191:1 192:1 193:0 194:0 195:0 196:0 197:1 198:0 199:0 200:0 201:0 202:0 203:0 204:1 205:1 206:0 207:0 208:0 209:0 210:0 211:0 212:0 213:0 214:0 215:1 216:0 217:1 218:0 219:1 220:1 221:0 222:0 223:0 224:0 225:1 226:0 227:0 228:0 229:0 230:0 231:0 232:1 233:1 234:0 235:0 236:0 237:0 238:0 239:0 240:0 241:0 242:0 243:1 244:0 245:1 246:0 247:1 248:1 249:0 250:0 251:0 252:0 253:1 254:0 255:0 256:1 257:0 258:0 259:0 260:0 261:1 262:0 263:0 264:0 265:0 266:0 267:0 268:0 269:0 270:0 271:1 272:0 273:1 274:0 275:1 276:1 277:0 278:0 279:0 280:0 281:1 282:0 283:0 284:1 285:0 286:0 287:0 288:0 289:1 290:0 291:0 292:0 293:0 294:0 295:0 296:0 297:0 298:0 299:1 300:0 301:1 302:1 303:1 304:1 305:0 306:0 307:0 308:0 309:0 310:1 311:0 312:0 313:0 314:0 315:0 316:1 317:1 318:0 319:0 320:0 321:0 322:0 323:0 324:0 325:0 326:0 327:1 328:0 #
1 1:0 2:0 3:0 4:0 5:0 6:1 7:0 8:0 9:0 10:0 11:0 12:0 13:0 14:0 15:0 16:0 17:0 18:0 19:0 20:0 21:0 22:0 23:0 24:0 25:0 26:0 27:0 28:0 29:0 30:1 31:0 32:0 33:0 34:0 35:1 36:0 37:1 38:0 39:0 40:0 41:0 42:1 43:0 44:0 45:0 46:1 47:0 48:0 49:0 50:0 51:1 52:1 53:0 54:0 55:0 56:1 57:1 58:0 59:1 60:0 61:1 62:1 63:1 64:1 65:1 66:1 67:1 68:0 69:0 70:1 71:1 72:0 73:0 74:0 75:0 76:1 77:0 78:0 79:1 80:1 81:0 82:0 83:0 84:0 85:0 86:1 87:1 88:0 89:0 90:0 91:0 92:0 93:1 94:0 95:0 96:0 97:0 98:0 99:0 100:0 101:0 102:0 103:0 104:1 105:1 106:1 107:1 108:1 109:0 110:0 111:0 112:1 113:0 114:0 115:0 116:1 117:0 118:0 119:0 120:0 121:1 122:0 123:0 124:0 125:0 126:0 127:0 128:0 129:0 130:0 131:0 132:1 133:1 134:0 135:1 136:1 137:0 138:0 139:0 140:0 141:0 142:1 143:1 144:0 145:0 146:0 147:0 148:0 149:1 150:0 151:0 152:0 153:0 154:0 155:0 156:0 157:0 158:0 159:0 160:1 161:1 162:1 163:1 164:1 165:0 166:0 167:0 168:0 169:0 170:1 171:0 172:0 173:0 174:0 175:0 176:1 177:1 178:0 179:0 180:0 181:0 182:0 183:0 184:0 185:0 186:0 187:0 188:1 189:1 190:1 191:1 192:1 193:0 194:0 195:0 196:0 197:0 198:1 199:0 200:0 201:0 202:0 203:0 204:1 205:1 206:0 207:0 208:0 209:0 210:0 211:0 212:0 213:0 214:0 215:0 216:1 217:1 218:1 219:1 220:1 221:0 222:0 223:0 224:0 225:0 226:1 227:0 228:0 229:0 230:0 231:0 232:1 233:1 234:0 235:0 236:0 237:0 238:0 239:0 240:0 241:0 242:0 243:0 244:1 245:1 246:0 247:1 248:1 249:0 250:0 251:0 252:0 253:0 254:1 255:1 256:0 257:0 258:0 259:0 260:0 261:1 262:0 263:0 264:0 265:0 266:0 267:0 268:0 269:0 270:0 271:0 272:1 273:1 274:0 275:1 276:1 277:0 278:0 279:0 280:0 281:0 282:1 283:1 284:0 285:0 286:0 287:0 288:0 289:1 290:0 291:0 292:0 293:0 294:0 295:0 296:0 297:0 298:0 299:0 300:1 301:1 302:1 303:1 304:1 305:0 306:0 307:0 308:0 309:0 310:1 311:0 312:1 313:0 314:0 315:0 316:0 317:1 318:0 319:0 320:0 321:0 322:0 323:0 324:0 325:0 326:0 327:0 328:1 #
1 1:0 2:0 3:0 4:0 5:0 6:0 7:0 8:0 9:0 10:0 11:0 12:0 13:0 14:0 15:0 16:1 17:0 18:0 19:0 20:0 21:0 22:0 23:0 24:0 25:0 26:0 27:0 28:0 29:0 30:1 31:0 32:0 33:0 34:0 35:1 36:0 37:0 38:0 39:0 40:0 41:0 42:1 43:0 44:0 45:0 46:1 47:0 48:0 49:0 50:0 51:0 52:1 53:0 54:1 55:0 56:1 57:1 58:0 59:0 60:1 61:1 62:0 63:0 64:0 65:0 66:1 67:1 68:0 69:0 70:0 71:0 72:0 73:0 74:0 75:0 76:1 77:1 78:0 79:1 80:1 81:0 82:0 83:0 84:0 85:0 86:1 87:0 88:0 89:0 90:0 91:0 92:1 93:1 94:0 95:0 96:0 97:0 98:0 99:0 100:0 101:0 102:0 103:0 104:1 105:1 106:0 107:1 108:1 109:0 110:0 111:0 112:0 113:1 114:0 115:0 116:1 117:0 118:0 119:0 120:0 121:1 122:0 123:0 124:0 125:0 126:0 127:0 128:0 129:0 130:0 131:0 132:1 133:1 134:1 135:1 136:1 137:0 138:0 139:0 140:0 141:0 142:1 143:0 144:0 145:0 146:0 147:0 148:1 149:1 150:0 151:0 152:0 153:0 154:0 155:0 156:0 157:0 158:0 159:0 160:1 161:1 162:1 163:1 164:1 165:0 166:1 167:0 168:0 169:0 170:0 171:0 172:1 173:0 174:0 175:0 176:0 177:1 178:0 179:0 180:0 181:0 182:0 183:0 184:0 185:0 186:0 187:0 188:1 189:1 190:0 191:1 192:1 193:0 194:0 195:0 196:0 197:0 198:1 199:0 200:0 201:0 202:0 203:0 204:1 205:1 206:0 207:0 208:0 209:0 210:0 211:0 212:0 213:0 214:0 215:0 216:1 217:1 218:0 219:1 220:1 221:0 222:0 223:0 224:0 225:0 226:1 227:0 228:0 229:0 230:0 231:0 232:1 233:1 234:0 235:0 236:0 237:0 238:0 239:0 240:0 241:0 242:0 243:0 244:1 245:1 246:0 247:1 248:1 249:0 250:0 251:0 252:0 253:0 254:1 255:0 256:0 257:0 258:0 259:0 260:1 261:1 262:0 263:0 264:0 265:0 266:0 267:0 268:0 269:0 270:0 271:0 272:1 273:1 274:0 275:1 276:1 277:0 278:0 279:0 280:0 281:0 282:1 283:0 284:0 285:0 286:0 287:0 288:1 289:1 290:0 291:0 292:0 293:0 294:0 295:0 296:0 297:0 298:0 299:0 300:1 301:1 302:1 303:1 304:1 305:0 306:0 307:0 308:0 309:0 310:1 311:0 312:0 313:0 314:0 315:0 316:1 317:1 318:0 319:0 320:0 321:0 322:0 323:0 324:0 325:0 326:0 327:0 328:1 #
-0.70838862274686276165880371991079 1:0 2:0 3:0 4:0 5:0 6:0 7:0 8:0 9:0 10:0 11:0 12:0 13:0 14:0 15:0 16:1 17:0 18:0 19:0 20:0 21:1 22:0 23:0 24:0 25:0 26:0 27:0 28:0 29:0 30:1 31:0 32:0 33:0 34:0 35:1 36:0 37:1 38:0 39:0 40:0 41:0 42:0 43:1 44:0 45:0 46:0 47:1 48:0 49:0 50:0 51:1 52:1 53:1 54:0 55:0 56:1 57:1 58:1 59:1 60:1 61:1 62:1 63:1 64:1 65:1 66:1 67:1 68:1 69:1 70:1 71:1 72:0 73:0 74:0 75:0 76:1 77:1 78:1 79:1 80:1 81:0 82:0 83:0 84:0 85:0 86:1 87:0 88:0 89:0 90:0 91:0 92:1 93:1 94:0 95:0 96:0 97:0 98:0 99:1 100:0 101:0 102:0 103:0 104:0 105:1 106:1 107:1 108:1 109:0 110:0 111:0 112:0 113:0 114:1 115:0 116:0 117:0 118:1 119:0 120:0 121:1 122:0 123:0 124:0 125:0 126:0 127:1 128:0 129:0 130:0 131:0 132:0 133:1 134:1 135:1 136:1 137:0 138:0 139:0 140:0 141:0 142:1 143:0 144:0 145:0 146:0 147:0 148:1 149:1 150:0 151:0 152:0 153:0 154:0 155:1 156:0 157:0 158:0 159:0 160:0 161:1 162:1 163:1 164:1 165:0 166:0 167:0 168:0 169:1 170:0 171:0 172:0 173:0 174:1 175:0 176:0 177:1 178:0 179:0 180:0 181:0 182:0 183:1 184:0 185:0 186:0 187:0 188:0 189:1 190:1 191:1 192:1 193:0 194:0 195:0 196:0 197:0 198:1 199:0 200:0 201:0 202:0 203:0 204:1 205:1 206:0 207:0 208:0 209:0 210:0 211:1 212:0 213:0 214:0 215:0 216:0 217:1 218:1 219:1 220:1 221:0 222:0 223:0 224:0 225:0 226:1 227:0 228:0 229:0 230:0 231:0 232:1 233:1 234:0 235:0 236:0 237:0 238:0 239:1 240:0 241:0 242:0 243:0 244:0 245:1 246:1 247:1 248:1 249:0 250:0 251:0 252:0 253:0 254:1 255:0 256:0 257:0 258:0 259:0 260:1 261:1 262:0 263:0 264:0 265:0 266:0 267:1 268:0 269:0 270:0 271:0 272:0 273:1 274:1 275:1 276:1 277:0 278:0 279:0 280:0 281:0 282:1 283:0 284:0 285:0 286:0 287:0 288:1 289:1 290:0 291:0 292:0 293:0 294:0 295:1 296:0 297:0 298:0 299:0 300:0 301:1 302:1 303:1 304:1 305:1 306:0 307:0 308:0 309:0 310:0 311:1 312:0 313:0 314:0 315:0 316:0 317:1 318:0 319:0 320:0 321:0 322:0 323:1 324:0 325:0 326:0 327:0 328:0 #
-0.0083958217463202533537014460307546 1:0 2:0 3:0 4:0 5:0 6:0 7:0 8:0 9:0 10:0 11:0 12:0 13:0 14:0 15:0 16:1 17:0 18:0 19:0 20:0 21:0 22:0 23:0 24:0 25:0 26:0 27:0 28:1 29:0 30:0 31:0 32:0 33:1 34:0 35:0 36:1 37:0 38:0 39:0 40:0 41:0 42:1 43:0 44:0 45:0 46:1 47:0 48:0 49:0 50:0 51:1 52:1 53:1 54:1 55:1 56:1 57:1 58:0 59:1 60:0 61:0 62:0 63:0 64:1 65:1 66:1 67:1 68:0 69:0 70:0 71:0 72:0 73:0 74:0 75:0 76:1 77:1 78:0 79:1 80:1 81:0 82:0 83:0 84:1 85:0 86:0 87:0 88:0 89:1 90:0 91:0 92:0 93:1 94:0 95:0 96:0 97:0 98:0 99:1 100:0 101:0 102:0 103:0 104:0 105:1 106:1 107:1 108:1 109:0 110:0 111:1 112:0 113:0 114:0 115:0 116:0 117:1 118:0 119:0 120:0 121:1 122:0 123:0 124:0 125:0 126:0 127:1 128:0 129:0 130:0 131:0 132:0 133:1 134:0 135:1 136:1 137:0 138:0 139:1 140:0 141:0 142:0 143:0 144:1 145:0 146:0 147:0 148:0 149:1 150:0 151:0 152:0 153:0 154:0 155:1 156:0 157:0 158:0 159:0 160:0 161:1 162:0 163:1 164:1 165:0 166:0 167:1 168:0 169:0 170:0 171:0 172:0 173:1 174:0 175:0 176:0 177:1 178:0 179:0 180:0 181:0 182:0 183:1 184:0 185:0 186:0 187:0 188:0 189:1 190:0 191:1 192:1 193:0 194:0 195:1 196:0 197:0 198:0 199:0 200:0 201:0 202:1 203:0 204:0 205:1 206:0 207:0 208:0 209:0 210:0 211:1 212:0 213:0 214:0 215:0 216:0 217:1 218:0 219:1 220:1 221:0 222:0 223:0 224:1 225:0 226:0 227:0 228:0 229:0 230:1 231:0 232:0 233:1 234:0 235:0 236:0 237:0 238:0 239:1 240:0 241:0 242:0 243:0 244:0 245:1 246:0 247:1 248:1 249:0 250:0 251:1 252:0 253:0 254:0 255:0 256:1 257:0 258:0 259:0 260:0 261:1 262:0 263:0 264:0 265:0 266:0 267:1 268:0 269:0 270:0 271:0 272:0 273:1 274:0 275:1 276:1 277:0 278:0 279:1 280:0 281:0 282:0 283:0 284:1 285:0 286:0 287:0 288:0 289:1 290:0 291:0 292:0 293:0 294:0 295:1 296:0 297:0 298:0 299:0 300:0 301:1 302:1 303:1 304:1 305:1 306:0 307:0 308:0 309:0 310:0 311:1 312:0 313:0 314:0 315:0 316:0 317:1 318:0 319:0 320:0 321:0 322:0 323:1 324:0 325:0 326:0 327:0 328:0 #
-1 1:0 2:0 3:0 4:0 5:0 6:1 7:0 8:0 9:0 10:0 11:0 12:0 13:0 14:0 15:0 16:0 17:0 18:0 19:0 20:0 21:0 22:0 23:0 24:0 25:0 26:0 27:0 28:0 29:0 30:1 31:0 32:0 33:0 34:0 35:1 36:0 37:0 38:0 39:0 40:0 41:0 42:0 43:1 44:0 45:0 46:1 47:0 48:0 49:0 50:0 51:1 52:1 53:0 54:1 55:0 56:1 57:1 58:0 59:1 60:0 61:1 62:1 63:1 64:1 65:1 66:1 67:1 68:0 69:0 70:1 71:1 72:0 73:0 74:0 75:0 76:1 77:1 78:0 79:1 80:1 81:0 82:0 83:0 84:0 85:0 86:1 87:1 88:0 89:0 90:0 91:0 92:0 93:1 94:0 95:0 96:0 97:0 98:0 99:1 100:0 101:0 102:0 103:0 104:0 105:1 106:1 107:1 108:1 109:0 110:0 111:1 112:0 113:0 114:0 115:0 116:1 117:0 118:0 119:0 120:0 121:1 122:0 123:0 124:0 125:0 126:0 127:1 128:0 129:0 130:0 131:0 132:0 133:1 134:0 135:1 136:1 137:0 138:0 139:0 140:0 141:0 142:1 143:1 144:0 145:0 146:0 147:0 148:0 149:1 150:0 151:0 152:0 153:0 154:0 155:1 156:0 157:0 158:0 159:0 160:0 161:1 162:1 163:1 164:1 165:0 166:0 167:0 168:0 169:1 170:0 171:0 172:0 173:0 174:1 175:0 176:0 177:1 178:0 179:0 180:0 181:0 182:0 183:1 184:0 185:0 186:0 187:0 188:0 189:1 190:1 191:1 192:1 193:0 194:0 195:0 196:0 197:0 198:1 199:0 200:0 201:0 202:0 203:0 204:1 205:1 206:0 207:0 208:0 209:0 210:0 211:1 212:0 213:0 214:0 215:0 216:0 217:1 218:1 219:1 220:1 221:0 222:0 223:0 224:0 225:0 226:1 227:0 228:0 229:0 230:0 231:0 232:1 233:1 234:0 235:0 236:0 237:0 238:0 239:1 240:0 241:0 242:0 243:0 244:0 245:1 246:0 247:1 248:1 249:0 250:0 251:0 252:0 253:0 254:1 255:1 256:0 257:0 258:0 259:0 260:0 261:1 262:0 263:0 264:0 265:0 266:0 267:1 268:0 269:0 270:0 271:0 272:0 273:1 274:0 275:1 276:1 277:0 278:0 279:0 280:0 281:0 282:1 283:1 284:0 285:0 286:0 287:0 288:0 289:1 290:0 291:0 292:0 293:0 294:0 295:1 296:0 297:0 298:0 299:0 300:0 301:1 302:1 303:1 304:1 305:0 306:0 307:0 308:0 309:1 310:0 311:1 312:0 313:0 314:0 315:0 316:0 317:1 318:0 319:0 320:0 321:0 322:0 323:1 324:0 325:0 326:0 327:0 328:0 #
1 1:0 2:0 3:0 4:0 5:0 6:1 7:0 8:0 9:0 10:0 11:0 12:0 13:0 14:0 15:0 16:0 17:0 18:0 19:0 20:0 21:0 22:0 23:0 24:0 25:0 26:0 27:1 28:0 29:0 30:0 31:0 32:1 33:0 34:0 35:0 36:1 37:0 38:0 39:0 40:0 41:0 42:1 43:0 44:0 45:0 46:1 47:0 48:0 49:0 50:0 51:0 52:0 53:0 54:1 55:0 56:1 57:1 58:1 59:1 60:1 61:1 62:1 63:0 64:0 65:0 66:1 67:1 68:0 69:0 70:0 71:0 72:0 73:0 74:0 75:0 76:1 77:1 78:1 79:1 80:1 81:0 82:0 83:0 84:0 85:0 86:1 87:1 88:0 89:0 90:0 91:0 92:0 93:1 94:0 95:0 96:0 97:0 98:0 99:0 100:1 101:0 102:0 103:0 104:0 105:1 106:1 107:1 108:1 109:1 110:0 111:0 112:0 113:0 114:0 115:1 116:0 117:0 118:0 119:0 120:0 121:1 122:0 123:0 124:0 125:0 126:0 127:0 128:1 129:0 130:0 131:0 132:0 133:1 134:1 135:1 136:1 137:0 138:0 139:1 140:0 141:0 142:0 143:0 144:1 145:0 146:0 147:0 148:0 149:1 150:0 151:0 152:0 153:0 154:0 155:0 156:1 157:0 158:0 159:0 160:0 161:1 162:1 163:1 164:1 165:1 166:0 167:0 168:0 169:0 170:0 171:1 172:0 173:0 174:0 175:0 176:0 177:1 178:0 179:0 180:0 181:0 182:0 183:0 184:1 185:0 186:0 187:0 188:0 189:1 190:1 191:1 192:1 193:0 194:0 195:1 196:0 197:0 198:0 199:0 200:0 201:0 202:1 203:0 204:0 205:1 206:0 207:0 208:0 209:0 210:0 211:0 212:1 213:0 214:0 215:0 216:0 217:1 218:1 219:1 220:1 221:0 222:0 223:1 224:0 225:0 226:0 227:0 228:0 229:0 230:0 231:0 232:1 233:1 234:0 235:0 236:0 237:0 238:0 239:0 240:1 241:0 242:0 243:0 244:0 245:1 246:1 247:1 248:1 249:0 250:0 251:1 252:0 253:0 254:0 255:0 256:0 257:0 258:1 259:0 260:0 261:1 262:0 263:0 264:0 265:0 266:0 267:0 268:1 269:0 270:0 271:0 272:0 273:1 274:1 275:1 276:1 277:0 278:0 279:1 280:0 281:0 282:0 283:0 284:0 285:0 286:1 287:0 288:0 289:1 290:0 291:0 292:0 293:0 294:0 295:0 296:1 297:0 298:0 299:0 300:0 301:1 302:1 303:1 304:1 305:0 306:0 307:1 308:0 309:0 310:0 311:0 312:0 313:1 314:0 315:0 316:0 317:1 318:0 319:0 320:0 321:0 322:0 323:0 324:1 325:0 326:0 327:0 328:0 #
1 1:0 2:0 3:0 4:0 5:0 6:0 7:0 8:0 9:0 10:0 11:0 12:0 13:0 14:0 15:0 16:1 17:0 18:0 19:0 20:0 21:0 22:0 23:0 24:0 25:0 26:0 27:0 28:1 29:0 30:0 31:0 32:1 33:0 34:0 35:0 36:1 37:0 38:0 39:0 40:0 41:0 42:0 43:1 44:0 45:0 46:1 47:0 48:0 49:0 50:0 51:1 52:1 53:0 54:0 55:0 56:1 57:1 58:1 59:1 60:1 61:1 62:0 63:0 64:0 65:0 66:1 67:1 68:1 69:1 70:0 71:0 72:0 73:0 74:0 75:0 76:1 77:1 78:1 79:1 80:1 81:0 82:0 83:0 84:0 85:0 86:1 87:0 88:0 89:1 90:0 91:0 92:0 93:1 94:0 95:0 96:0 97:0 98:0 99:0 100:1 101:0 102:0 103:0 104:0 105:1 106:1 107:1 108:1 109:0 110:1 111:0 112:0 113:0 114:0 115:1 116:0 117:0 118:0 119:0 120:0 121:1 122:0 123:0 124:0 125:0 126:0 127:0 128:1 129:0 130:0 131:0 132:0 133:1 134:1 135:1 136:1 137:0 138:1 139:0 140:0 141:0 142:0 143:0 144:1 145:0 146:0 147:0 148:0 149:1 150:0 151:0 152:0 153:0 154:0 155:0 156:1 157:0 158:0 159:0 160:0 161:1 162:1 163:1 164:1 165:1 166:0 167:0 168:0 169:0 170:0 171:1 172:0 173:0 174:0 175:0 176:0 177:1 178:0 179:0 180:0 181:0 182:0 183:0 184:1 185:0 186:0 187:0 188:0 189:1 190:0 191:1 192:1 193:0 194:0 195:0 196:1 197:0 198:0 199:0 200:0 201:0 202:0 203:1 204:0 205:1 206:0 207:0 208:0 209:0 210:0 211:0 212:1 213:0 214:0 215:0 216:0 217:1 218:0 219:1 220:1 221:0 222:0 223:0 224:1 225:0 226:0 227:0 228:0 229:0 230:0 231:1 232:0 233:1 234:0 235:0 236:0 237:0 238:0 239:0 240:1 241:0 242:0 243:0 244:0 245:1 246:1 247:1 248:1 249:0 250:0 251:0 252:0 253:0 254:1 255:0 256:0 257:0 258:1 259:0 260:0 261:1 262:0 263:0 264:0 265:0 266:0 267:0 268:1 269:0 270:0 271:0 272:0 273:1 274:1 275:1 276:1 277:0 278:0 279:0 280:0 281:0 282:1 283:0 284:0 285:0 286:1 287:0 288:0 289:1 290:0 291:0 292:0 293:0 294:0 295:0 296:1 297:0 298:0 299:0 300:0 301:1 302:1 303:1 304:1 305:0 306:0 307:0 308:0 309:0 310:1 311:0 312:0 313:1 314:0 315:0 316:0 317:1 318:0 319:0 320:0 321:0 322:0 323:0 324:1 325:0 326:0 327:0 328:0 #
-1 1:0 2:0 3:0 4:0 5:0 6:1 7:0 8:0 9:0 10:0 11:0 12:0 13:0 14:0 15:0 16:0 17:0 18:0 19:0 20:0 21:0 22:0 23:0 24:0 25:0 26:0 27:0 28:0 29:0 30:1 31:0 32:0 33:0 34:0 35:1 36:0 37:1 38:0 39:0 40:0 41:0 42:1 43:0 44:0 45:0 46:1 47:0 48:0 49:0 50:0 51:0 52:1 53:0 54:1 55:0 56:1 57:1 58:0 59:1 60:1 61:1 62:1 63:1 64:1 65:1 66:1 67:1 68:1 69:1 70:1 71:1 72:0 73:0 74:0 75:0 76:1 77:1 78:0 79:1 80:1 81:0 82:0 83:0 84:0 85:0 86:1 87:1 88:0 89:0 90:0 91:0 92:0 93:1 94:0 95:0 96:0 97:0 98:0 99:0 100:0 101:0 102:0 103:0 104:1 105:1 106:1 107:1 108:1 109:0 110:0 111:0 112:0 113:0 114:1 115:1 116:0 117:0 118:0 119:0 120:0 121:1 122:0 123:0 124:0 125:0 126:0 127:0 128:0 129:0 130:0 131:0 132:1 133:1 134:1 135:1 136:1 137:0 138:0 139:0 140:0 141:0 142:1 143:0 144:0 145:0 146:0 147:0 148:1 149:1 150:0 151:0 152:0 153:0 154:0 155:0 156:0 157:0 158:0 159:0 160:1 161:1 162:1 163:1 164:1 165:0 166:0 167:0 168:0 169:0 170:1 171:0 172:0 173:0 174:0 175:0 176:1 177:1 178:0 179:0 180:0 181:0 182:0 183:0 184:0 185:0 186:0 187:0 188:1 189:1 190:1 191:1 192:1 193:0 194:0 195:0 196:0 197:0 198:1 199:0 200:0 201:0 202:0 203:0 204:1 205:1 206:0 207:0 208:0 209:0 210:0 211:0 212:0 213:0 214:0 215:0 216:1 217:1 218:1 219:1 220:1 221:0 222:0 223:0 224:0 225:0 226:1 227:0 228:0 229:0 230:0 231:0 232:1 233:1 234:0 235:0 236:0 237:0 238:0 239:0 240:0 241:0 242:0 243:0 244:1 245:1 246:1 247:1 248:1 249:0 250:0 251:0 252:0 253:0 254:1 255:0 256:0 257:0 258:0 259:0 260:1 261:1 262:0 263:0 264:0 265:0 266:0 267:0 268:0 269:0 270:0 271:0 272:1 273:1 274:1 275:1 276:1 277:0 278:0 279:0 280:0 281:0 282:1 283:0 284:0 285:0 286:0 287:0 288:1 289:1 290:0 291:0 292:0 293:0 294:0 295:0 296:0 297:0 298:0 299:0 300:1 301:1 302:1 303:1 304:1 305:0 306:0 307:0 308:0 309:0 310:1 311:0 312:0 313:0 314:0 315:0 316:1 317:1 318:0 319:0 320:0 321:0 322:0 323:0 324:0 325:0 326:0 327:0 328:1 #
0.65875655981241565406492100009928 1:0 2:0 3:0 4:0 5:0 6:0 7:0 8:0 9:0 10:0 11:0 12:0 13:0 14:0 15:0 16:1 17:0 18:0 19:0 20:0 21:0 22:0 23:0 24:0 25:0 26:0 27:0 28:0 29:1 30:0 31:0 32:0 33:0 34:1 35:0 36:0 37:0 38:0 39:0 40:0 41:0 42:1 43:0 44:0 45:0 46:1 47:0 48:0 49:0 50:0 51:1 52:1 53:1 54:1 55:1 56:1 57:1 58:1 59:1 60:1 61:1 62:1 63:1 64:1 65:1 66:1 67:1 68:1 69:1 70:1 71:1 72:0 73:0 74:0 75:0 76:1 77:1 78:1 79:1 80:1 81:0 82:0 83:0 84:0 85:1 86:0 87:0 88:0 89:0 90:0 91:1 92:0 93:1 94:0 95:0 96:0 97:0 98:0 99:1 100:0 101:0 102:0 103:0 104:0 105:1 106:1 107:1 108:1 109:0 110:0 111:0 112:0 113:1 114:0 115:0 116:0 117:1 118:0 119:0 120:0 121:1 122:0 123:0 124:0 125:0 126:0 127:1 128:0 129:0 130:0 131:0 132:0 133:1 134:1 135:1 136:1 137:0 138:0 139:0 140:0 141:1 142:0 143:0 144:0 145:0 146:0 147:1 148:0 149:1 150:0 151:0 152:0 153:0 154:0 155:1 156:0 157:0 158:0 159:0 160:0 161:1 162:1 163:1 164:1 165:0 166:0 167:0 168:0 169:1 170:0 171:0 172:0 173:0 174:0 175:1 176:0 177:1 178:0 179:0 180:0 181:0 182:0 183:1 184:0 185:0 186:0 187:0 188:0 189:1 190:1 191:1 192:1 193:0 194:0 195:0 196:0 197:1 198:0 199:0 200:0 201:0 202:0 203:1 204:0 205:1 206:0 207:0 208:0 209:0 210:0 211:1 212:0 213:0 214:0 215:0 216:0 217:1 218:1 219:1 220:1 221:0 222:0 223:0 224:0 225:1 226:0 227:0 228:0 229:0 230:0 231:1 232:0 233:1 234:0 235:0 236:0 237:0 238:0 239:1 240:0 241:0 242:0 243:0 244:0 245:1 246:1 247:1 248:1 249:0 250:0 251:0 252:0 253:1 254:0 255:0 256:0 257:0 258:0 259:1 260:0 261:1 262:0 263:0 264:0 265:0 266:0 267:1 268:0 269:0 270:0 271:0 272:0 273:1 274:1 275:1 276:1 277:0 278:0 279:0 280:0 281:1 282:0 283:0 284:0 285:0 286:0 287:1 288:0 289:1 290:0 291:0 292:0 293:0 294:0 295:1 296:0 297:0 298:0 299:0 300:0 301:1 302:1 303:1 304:1 305:0 306:0 307:1 308:0 309:0 310:0 311:1 312:0 313:0 314:0 315:0 316:0 317:1 318:0 319:0 320:0 321:0 322:0 323:1 324:0 325:0 326:0 327:0 328:0 #
-0.38410892119698947233530361700105 1:0 2:0 3:0 4:0 5:0 6:0 7:0 8:0 9:0 10:0 11:0 12:0 13:0 14:0 15:0 16:1 17:0 18:0 19:0 20:0 21:0 22:0 23:0 24:0 25:0 26:0 27:0 28:0 29:0 30:1 31:0 32:0 33:0 34:0 35:1 36:1 37:0 38:0 39:0 40:0 41:0 42:1 43:0 44:0 45:0 46:1 47:0 48:0 49:0 50:0 51:1 52:1 53:0 54:1 55:0 56:1 57:1 58:1 59:1 60:1 61:1 62:1 63:0 64:0 65:0 66:1 67:1 68:0 69:0 70:1 71:1 72:0 73:0 74:0 75:0 76:1 77:1 78:0 79:1 80:1 81:0 82:0 83:0 84:0 85:0 86:1 87:0 88:0 89:0 90:0 91:0 92:1 93:1 94:0 95:0 96:0 97:0 98:0 99:1 100:0 101:0 102:0 103:0 104:0 105:1 106:1 107:1 108:1 109:0 110:0 111:0 112:0 113:1 114:0 115:0 116:0 117:0 118:1 119:0 120:0 121:1 122:0 123:0 124:0 125:0 126:0 127:1 128:0 129:0 130:0 131:0 132:0 133:1 134:1 135:1 136:1 137:0 138:0 139:0 140:0 141:0 142:1 143:0 144:0 145:0 146:0 147:0 148:1 149:1 150:0 151:0 152:0 153:0 154:0 155:1 156:0 157:0 158:0 159:0 160:0 161:1 162:1 163:1 164:1 165:0 166:0 167:0 168:0 169:1 170:0 171:0 172:0 173:0 174:1 175:0 176:0 177:1 178:0 179:0 180:0 181:0 182:0 183:1 184:0 185:0 186:0 187:0 188:0 189:1 190:1 191:1 192:1 193:0 194:0 195:0 196:0 197:0 198:1 199:0 200:0 201:0 202:0 203:0 204:1 205:1 206:0 207:0 208:0 209:0 210:0 211:1 212:0 213:0 214:0 215:0 216:0 217:1 218:0 219:1 220:1 221:0 222:0 223:0 224:0 225:0 226:1 227:0 228:0 229:0 230:0 231:0 232:1 233:1 234:0 235:0 236:0 237:0 238:0 239:1 240:0 241:0 242:0 243:0 244:0 245:1 246:0 247:1 248:1 249:0 250:0 251:0 252:0 253:0 254:1 255:0 256:0 257:0 258:0 259:0 260:1 261:1 262:0 263:0 264:0 265:0 266:0 267:1 268:0 269:0 270:0 271:0 272:0 273:1 274:0 275:1 276:1 277:0 278:0 279:0 280:0 281:0 282:1 283:0 284:0 285:0 286:0 287:0 288:1 289:1 290:0 291:0 292:0 293:0 294:0 295:1 296:0 297:0 298:0 299:0 300:0 301:1 302:1 303:1 304:1 305:1 306:0 307:0 308:0 309:0 310:0 311:1 312:0 313:0 314:0 315:0 316:0 317:1 318:0 319:0 320:0 321:0 322:0 323:1 324:0 325:0 326:0 327:0 328:0 #
-1 1:0 2:0 3:0 4:0 5:0 6:1 7:0 8:0 9:0 10:0 11:0 12:0 13:0 14:0 15:0 16:0 17:0 18:0 19:0 20:0 21:0 22:0 23:0 24:0 25:0 26:0 27:0 28:0 29:0 30:1 31:0 32:0 33:0 34:0 35:1 36:0 37:0 38:0 39:0 40:0 41:1 42:0 43:0 44:0 45:0 46:1 47:0 48:0 49:0 50:0 51:1 52:1 53:0 54:1 55:0 56:1 57:1 58:0 59:0 60:0 61:1 62:1 63:1 64:1 65:1 66:1 67:1 68:0 69:0 70:1 71:1 72:0 73:0 74:0 75:0 76:1 77:1 78:0 79:1 80:1 81:0 82:0 83:0 84:0 85:0 86:1 87:0 88:1 89:0 90:0 91:0 92:0 93:1 94:0 95:0 96:0 97:0 98:0 99:0 100:0 101:0 102:0 103:1 104:0 105:1 106:0 107:1 108:1 109:0 110:0 111:0 112:1 113:0 114:0 115:1 116:0 117:0 118:0 119:0 120:0 121:1 122:0 123:0 124:0 125:0 126:0 127:0 128:0 129:0 130:0 131:1 132:0 133:1 134:0 135:1 136:1 137:0 138:0 139:0 140:0 141:1 142:0 143:1 144:0 145:0 146:0 147:0 148:0 149:1 150:0 151:0 152:0 153:0 154:0 155:0 156:0 157:0 158:0 159:1 160:0 161:1 162:1 163:1 164:1 165:0 166:0 167:1 168:0 169:0 170:0 171:1 172:0 173:0 174:0 175:0 176:0 177:1 178:0 179:0 180:0 181:0 182:0 183:0 184:0 185:0 186:0 187:1 188:0 189:1 190:1 191:1 192:1 193:0 194:0 195:0 196:0 197:0 198:1 199:0 200:0 201:0 202:0 203:1 204:0 205:1 206:0 207:0 208:0 209:0 210:0 211:0 212:0 213:0 214:0 215:1 216:0 217:1 218:1 219:1 220:1 221:0 222:0 223:0 224:0 225:1 226:0 227:0 228:0 229:0 230:0 231:1 232:0 233:1 234:0 235:0 236:0 237:0 238:0 239:0 240:0 241:0 242:0 243:1 244:0 245:1 246:0 247:1 248:1 249:0 250:0 251:0 252:0 253:1 254:0 255:1 256:0 257:0 258:0 259:0 260:0 261:1 262:0 263:0 264:0 265:0 266:0 267:0 268:0 269:0 270:0 271:1 272:0 273:1 274:0 275:1 276:1 277:0 278:0 279:0 280:0 281:1 282:0 283:1 284:0 285:0 286:0 287:0 288:0 289:1 290:0 291:0 292:0 293:0 294:0 295:0 296:0 297:0 298:0 299:1 300:0 301:1 302:1 303:1 304:1 305:0 306:0 307:0 308:0 309:1 310:0 311:0 312:0 313:0 314:0 315:1 316:0 317:1 318:0 319:0 320:0 321:0 322:0 323:0 324:0 325:0 326:0 327:1 328:0 #
