SVM-light Version V6.02
0 # kernel type
3 # kernel parameter -d 
1 # kernel parameter -g 
1 # kernel parameter -s 
1 # kernel parameter -r 
empty# kernel parameter -u 
343 # highest feature index 
1657 # number of training documents 
465 # number of support vectors plus 1 
2.9423995 # threshold b, each following line is a SV (starting with alpha*y)
-0.0074182241378296541120529461466049 6:0 7:0 8:0 9:0 10:0 11:0 12:0 13:0 14:0 15:0 16:0 17:0 18:0 19:0 20:0 21:1 22:0 23:0 24:0 25:0 26:0 27:0 28:0 29:0 30:1 31:0 32:0 33:0 34:0 35:0 36:0 37:0 38:0 39:0 40:1 41:0 42:0 43:1 44:0 45:0 46:0 47:1 48:0 49:0 50:0 66:1 67:1 68:0 69:0 70:1 71:1 72:0 73:1 74:0 75:1 76:0 77:0 78:1 79:1 80:1 81:0 82:1 83:0 84:1 85:1 86:1 87:1 88:0 89:0 90:1 91:1 92:1 93:0 94:1 95:1 96:0 97:0 98:0 99:1 100:0 101:0 102:0 103:1 104:0 105:0 106:0 107:0 108:1 109:0 110:0 111:0 112:0 113:0 114:1 115:0 116:0 117:0 118:0 119:0 120:1 121:1 122:1 123:1 124:0 125:0 126:0 127:1 128:0 129:0 130:0 131:0 132:1 133:0 134:0 135:0 136:1 137:0 138:0 139:0 140:0 141:0 142:1 143:0 144:0 145:0 146:0 147:0 148:0 149:0 150:1 151:1 152:0 153:1 154:0 155:0 156:0 157:0 158:1 159:0 160:0 161:0 162:0 163:0 164:1 165:0 166:0 167:0 168:0 169:0 170:1 171:0 172:0 173:0 174:0 175:0 176:1 177:1 178:1 179:1 180:0 181:0 182:1 183:0 184:0 185:0 186:1 187:0 188:0 189:0 190:0 191:0 192:1 193:0 194:0 195:0 196:0 197:0 198:1 199:0 200:0 201:0 202:0 203:0 204:1 205:0 206:1 207:1 208:0 209:0 210:1 211:0 212:0 213:0 214:1 215:0 216:0 217:0 218:0 219:0 220:1 221:0 222:0 223:0 224:0 225:0 226:1 227:0 228:0 229:0 230:0 231:0 232:1 233:0 234:1 235:1 236:0 237:1 238:0 239:0 240:0 241:0 242:1 243:0 244:0 245:0 246:0 247:0 248:1 249:0 250:0 251:0 252:0 253:0 254:1 255:0 256:0 257:0 258:0 259:0 260:1 261:0 262:1 263:1 264:0 265:1 266:0 267:0 268:0 269:0 270:1 271:0 272:0 273:0 274:0 275:0 276:1 277:0 278:0 279:0 280:0 281:0 282:1 283:0 284:0 285:0 286:0 287:0 288:0 289:0 290:1 291:1 292:1 293:0 294:0 295:0 296:0 297:0 298:1 299:0 300:0 301:0 302:0 303:0 304:1 305:0 306:0 307:0 308:0 309:0 310:1 311:0 312:0 313:0 314:0 315:0 316:1 317:0 318:1 319:1 320:1 321:0 322:0 323:0 324:0 325:0 326:1 327:0 328:0 329:0 330:0 331:0 332:1 333:0 334:0 335:0 336:0 337:0 338:1 339:0 340:0 341:0 342:0 343:0 #
-0.011579167126154536054949417689386 6:0 7:0 8:0 9:0 10:0 11:1 12:0 13:0 14:0 15:0 16:0 17:0 18:0 19:0 20:0 21:0 22:0 23:0 24:0 25:0 26:1 27:0 28:0 29:0 30:0 31:0 32:0 33:0 34:0 35:0 36:0 37:1 38:0 39:0 40:0 41:1 42:0 43:0 44:0 45:0 46:1 47:0 48:0 49:0 50:0 66:1 67:0 68:1 69:1 70:1 71:1 72:0 73:1 74:0 75:0 76:0 77:0 78:0 79:0 80:1 81:0 82:1 83:1 84:1 85:1 86:1 87:1 88:0 89:0 90:1 91:1 92:1 93:0 94:1 95:1 96:1 97:0 98:0 99:0 100:0 101:0 102:1 103:0 104:0 105:0 106:0 107:0 108:1 109:0 110:0 111:0 112:0 113:0 114:1 115:0 116:0 117:0 118:0 119:0 120:1 121:1 122:1 123:1 124:1 125:0 126:0 127:0 128:0 129:0 130:1 131:0 132:0 133:0 134:0 135:0 136:1 137:0 138:0 139:0 140:0 141:0 142:1 143:0 144:0 145:0 146:0 147:0 148:1 149:0 150:1 151:1 152:1 153:0 154:0 155:0 156:0 157:0 158:1 159:0 160:0 161:0 162:0 163:0 164:1 165:0 166:0 167:0 168:0 169:0 170:1 171:0 172:0 173:0 174:0 175:0 176:1 177:0 178:1 179:1 180:1 181:0 182:0 183:0 184:0 185:0 186:1 187:0 188:0 189:0 190:0 191:0 192:1 193:0 194:0 195:0 196:0 197:0 198:1 199:0 200:0 201:0 202:0 203:0 204:1 205:0 206:1 207:1 208:1 209:0 210:0 211:0 212:0 213:0 214:1 215:0 216:0 217:0 218:0 219:0 220:1 221:0 222:0 223:0 224:0 225:0 226:1 227:0 228:0 229:0 230:0 231:0 232:1 233:0 234:1 235:1 236:1 237:0 238:0 239:0 240:0 241:0 242:1 243:0 244:0 245:0 246:0 247:0 248:1 249:0 250:0 251:0 252:0 253:0 254:1 255:0 256:0 257:0 258:0 259:0 260:1 261:0 262:1 263:1 264:1 265:0 266:0 267:0 268:0 269:0 270:1 271:0 272:0 273:0 274:0 275:0 276:1 277:0 278:0 279:0 280:0 281:0 282:1 283:0 284:0 285:0 286:0 287:0 288:1 289:1 290:1 291:1 292:1 293:0 294:0 295:0 296:0 297:0 298:1 299:0 300:0 301:0 302:0 303:0 304:1 305:0 306:0 307:0 308:0 309:0 310:1 311:0 312:0 313:0 314:0 315:0 316:1 317:1 318:1 319:1 320:0 321:1 322:0 323:0 324:0 325:0 326:1 327:0 328:0 329:0 330:0 331:0 332:1 333:0 334:0 335:0 336:0 337:0 338:1 339:0 340:0 341:0 342:0 343:0 #
0.011579167126154536054949417689386 6:0 7:0 8:0 9:0 10:0 11:1 12:0 13:0 14:0 15:0 16:0 17:0 18:0 19:0 20:0 21:0 22:0 23:0 24:0 25:0 26:0 27:0 28:0 29:0 30:1 31:0 32:0 33:0 34:0 35:0 36:0 37:0 38:0 39:0 40:1 41:0 42:1 43:0 44:0 45:0 46:1 47:0 48:0 49:0 50:0 66:0 67:0 68:1 69:0 70:1 71:1 72:0 73:1 74:0 75:1 76:0 77:0 78:1 79:1 80:1 81:0 82:1 83:0 84:1 85:1 86:1 87:1 88:0 89:0 90:1 91:1 92:1 93:0 94:1 95:1 96:0 97:0 98:0 99:0 100:0 101:1 102:1 103:0 104:0 105:0 106:0 107:0 108:1 109:0 110:0 111:0 112:0 113:0 114:0 115:0 116:0 117:1 118:0 119:0 120:1 121:1 122:1 123:1 124:0 125:0 126:1 127:0 128:0 129:0 130:0 131:1 132:0 133:0 134:0 135:0 136:1 137:0 138:0 139:0 140:0 141:0 142:0 143:0 144:0 145:1 146:0 147:0 148:1 149:0 150:1 151:1 152:0 153:0 154:0 155:0 156:0 157:1 158:1 159:0 160:0 161:0 162:0 163:0 164:1 165:0 166:0 167:0 168:0 169:0 170:0 171:0 172:0 173:1 174:0 175:0 176:1 177:1 178:1 179:1 180:0 181:0 182:0 183:0 184:1 185:0 186:0 187:1 188:0 189:0 190:0 191:0 192:1 193:0 194:0 195:0 196:0 197:0 198:0 199:0 200:0 201:1 202:0 203:0 204:1 205:0 206:1 207:1 208:0 209:0 210:0 211:0 212:0 213:1 214:0 215:0 216:0 217:1 218:0 219:0 220:1 221:0 222:0 223:0 224:0 225:0 226:0 227:0 228:0 229:1 230:0 231:0 232:1 233:0 234:1 235:1 236:0 237:0 238:0 239:0 240:0 241:1 242:1 243:0 244:0 245:0 246:0 247:0 248:1 249:0 250:0 251:0 252:0 253:0 254:0 255:0 256:0 257:1 258:0 259:0 260:1 261:0 262:1 263:1 264:0 265:0 266:0 267:0 268:0 269:1 270:1 271:0 272:0 273:0 274:0 275:0 276:1 277:0 278:0 279:0 280:0 281:0 282:0 283:0 284:0 285:1 286:0 287:0 288:1 289:1 290:1 291:1 292:0 293:0 294:0 295:1 296:0 297:0 298:0 299:0 300:0 301:1 302:0 303:0 304:1 305:0 306:0 307:0 308:0 309:0 310:0 311:0 312:0 313:1 314:0 315:0 316:1 317:1 318:1 319:1 320:0 321:0 322:0 323:0 324:1 325:0 326:0 327:0 328:0 329:0 330:1 331:0 332:1 333:0 334:0 335:0 336:0 337:0 338:0 339:0 340:0 341:1 342:0 343:0 #
0.011579167126154536054949417689386 6:0 7:0 8:0 9:0 10:0 11:0 12:0 13:0 14:0 15:0 16:1 17:0 18:0 19:0 20:0 21:0 22:0 23:0 24:0 25:0 26:1 27:0 28:0 29:0 30:0 31:0 32:0 33:0 34:0 35:0 36:1 37:0 38:0 39:0 40:0 41:0 42:1 43:0 44:0 45:0 46:1 47:0 48:0 49:0 50:0 66:0 67:0 68:1 69:1 70:1 71:1 72:1 73:1 74:1 75:1 76:1 77:0 78:0 79:0 80:0 81:0 82:0 83:0 84:0 85:1 86:1 87:1 88:1 89:1 90:0 91:0 92:1 93:1 94:1 95:1 96:0 97:1 98:0 99:0 100:0 101:0 102:0 103:1 104:0 105:0 106:0 107:0 108:1 109:0 110:0 111:0 112:0 113:0 114:0 115:1 116:0 117:0 118:0 119:0 120:1 121:1 122:1 123:1 124:0 125:1 126:0 127:0 128:0 129:0 130:1 131:0 132:0 133:0 134:0 135:0 136:1 137:0 138:0 139:0 140:0 141:0 142:0 143:1 144:0 145:0 146:0 147:0 148:1 149:1 150:1 151:1 152:0 153:1 154:0 155:0 156:0 157:0 158:0 159:1 160:0 161:0 162:0 163:0 164:1 165:0 166:0 167:0 168:0 169:0 170:0 171:1 172:0 173:0 174:0 175:0 176:1 177:1 178:1 179:1 180:0 181:0 182:0 183:1 184:0 185:0 186:0 187:1 188:0 189:0 190:0 191:0 192:1 193:0 194:0 195:0 196:0 197:0 198:0 199:1 200:0 201:0 202:0 203:0 204:1 205:1 206:1 207:1 208:0 209:0 210:0 211:1 212:0 213:0 214:0 215:1 216:0 217:0 218:0 219:0 220:1 221:0 222:0 223:0 224:0 225:0 226:0 227:1 228:0 229:0 230:0 231:0 232:1 233:1 234:1 235:1 236:0 237:0 238:0 239:1 240:0 241:0 242:0 243:1 244:0 245:0 246:0 247:0 248:1 249:0 250:0 251:0 252:0 253:0 254:0 255:1 256:0 257:0 258:0 259:0 260:1 261:1 262:1 263:1 264:0 265:0 266:0 267:1 268:0 269:0 270:0 271:1 272:0 273:0 274:0 275:0 276:1 277:0 278:0 279:0 280:0 281:0 282:0 283:1 284:0 285:0 286:0 287:0 288:1 289:1 290:1 291:1 292:0 293:1 294:0 295:0 296:0 297:0 298:1 299:0 300:0 301:0 302:0 303:0 304:1 305:0 306:0 307:0 308:0 309:0 310:0 311:1 312:0 313:0 314:0 315:0 316:1 317:1 318:1 319:1 320:0 321:0 322:0 323:1 324:0 325:0 326:0 327:1 328:0 329:0 330:0 331:0 332:1 333:0 334:0 335:0 336:0 337:0 338:0 339:1 340:0 341:0 342:0 343:0 #
0.011579167126154536054949417689386 6:0 7:0 8:0 9:0 10:0 11:1 12:0 13:0 14:0 15:0 16:0 17:0 18:0 19:0 20:0 21:0 22:0 23:0 24:0 25:0 26:0 27:0 28:0 29:0 30:1 31:0 32:0 33:0 34:0 35:0 36:0 37:0 38:0 39:0 40:1 41:0 42:1 43:0 44:0 45:0 46:1 47:0 48:0 49:0 50:0 66:1 67:0 68:1 69:0 70:1 71:1 72:0 73:1 74:0 75:1 76:1 77:0 78:1 79:1 80:1 81:0 82:1 83:0 84:0 85:1 86:1 87:1 88:0 89:0 90:1 91:1 92:1 93:0 94:1 95:1 96:0 97:0 98:0 99:0 100:0 101:1 102:1 103:0 104:0 105:0 106:0 107:0 108:1 109:0 110:0 111:0 112:0 113:0 114:0 115:0 116:0 117:0 118:1 119:0 120:1 121:1 122:1 123:1 124:0 125:0 126:0 127:1 128:0 129:0 130:0 131:0 132:1 133:0 134:0 135:0 136:1 137:0 138:0 139:0 140:0 141:0 142:0 143:0 144:0 145:0 146:1 147:0 148:1 149:0 150:1 151:1 152:0 153:0 154:0 155:0 156:0 157:1 158:1 159:0 160:0 161:0 162:0 163:0 164:1 165:0 166:0 167:0 168:0 169:0 170:0 171:0 172:0 173:0 174:1 175:0 176:1 177:1 178:1 179:1 180:1 181:0 182:0 183:0 184:0 185:0 186:1 187:0 188:0 189:0 190:0 191:0 192:1 193:0 194:0 195:0 196:0 197:0 198:0 199:0 200:0 201:0 202:1 203:0 204:1 205:1 206:1 207:1 208:0 209:0 210:0 211:0 212:0 213:1 214:0 215:0 216:0 217:0 218:0 219:1 220:1 221:0 222:0 223:0 224:0 225:0 226:0 227:0 228:0 229:0 230:1 231:0 232:1 233:0 234:1 235:1 236:0 237:0 238:0 239:0 240:0 241:1 242:1 243:0 244:0 245:0 246:0 247:0 248:1 249:0 250:0 251:0 252:0 253:0 254:0 255:0 256:0 257:0 258:1 259:0 260:1 261:0 262:1 263:1 264:0 265:0 266:0 267:0 268:0 269:1 270:1 271:0 272:0 273:0 274:0 275:0 276:1 277:0 278:0 279:0 280:0 281:0 282:0 283:0 284:0 285:0 286:1 287:0 288:1 289:1 290:1 291:1 292:0 293:0 294:0 295:0 296:0 297:1 298:0 299:0 300:0 301:0 302:1 303:0 304:1 305:0 306:0 307:0 308:0 309:0 310:0 311:0 312:0 313:0 314:1 315:0 316:1 317:1 318:1 319:1 320:0 321:0 322:0 323:0 324:1 325:0 326:0 327:0 328:0 329:0 330:1 331:0 332:1 333:0 334:0 335:0 336:0 337:0 338:0 339:0 340:0 341:0 342:1 343:0 #
-0.005218965421749918731642026159534 6:1 7:0 8:0 9:0 10:0 11:0 12:0 13:0 14:0 15:0 16:1 17:0 18:0 19:0 20:0 21:0 22:0 23:0 24:0 25:0 26:1 27:0 28:0 29:0 30:0 31:0 32:1 33:0 34:0 35:0 36:1 37:0 38:0 39:0 40:0 41:0 42:1 43:0 44:0 45:0 46:1 47:0 48:0 49:0 50:0 66:1 67:0 68:1 69:1 70:1 71:1 72:1 73:1 74:1 75:1 76:0 77:0 78:0 79:0 80:0 81:0 82:0 83:0 84:1 85:1 86:1 87:1 88:0 89:0 90:0 91:0 92:1 93:1 94:1 95:1 96:1 97:0 98:0 99:0 100:0 101:0 102:1 103:0 104:0 105:0 106:0 107:0 108:1 109:0 110:0 111:0 112:0 113:0 114:0 115:1 116:0 117:0 118:0 119:0 120:1 121:1 122:1 123:1 124:1 125:0 126:0 127:0 128:0 129:0 130:1 131:0 132:0 133:0 134:0 135:0 136:1 137:0 138:0 139:0 140:0 141:0 142:0 143:1 144:0 145:0 146:0 147:0 148:1 149:1 150:1 151:1 152:0 153:0 154:0 155:0 156:1 157:0 158:0 159:0 160:0 161:0 162:1 163:0 164:1 165:0 166:0 167:0 168:0 169:0 170:0 171:1 172:0 173:0 174:0 175:0 176:1 177:1 178:1 179:1 180:1 181:0 182:0 183:0 184:0 185:0 186:1 187:0 188:0 189:0 190:0 191:0 192:1 193:0 194:0 195:0 196:0 197:0 198:0 199:1 200:0 201:0 202:0 203:0 204:1 205:0 206:1 207:1 208:0 209:1 210:0 211:0 212:0 213:0 214:0 215:0 216:1 217:0 218:0 219:0 220:1 221:0 222:0 223:0 224:0 225:0 226:0 227:1 228:0 229:0 230:0 231:0 232:1 233:1 234:1 235:1 236:0 237:0 238:0 239:1 240:0 241:0 242:0 243:0 244:0 245:0 246:1 247:0 248:1 249:0 250:0 251:0 252:0 253:0 254:0 255:1 256:0 257:0 258:0 259:0 260:1 261:1 262:1 263:1 264:0 265:0 266:0 267:1 268:0 269:0 270:0 271:0 272:0 273:0 274:1 275:0 276:1 277:0 278:0 279:0 280:0 281:0 282:0 283:1 284:0 285:0 286:0 287:0 288:1 289:1 290:1 291:1 292:0 293:0 294:0 295:1 296:0 297:0 298:0 299:0 300:1 301:0 302:0 303:0 304:1 305:0 306:0 307:0 308:0 309:0 310:0 311:1 312:0 313:0 314:0 315:0 316:0 317:1 318:1 319:1 320:0 321:0 322:0 323:0 324:1 325:0 326:0 327:0 328:0 329:0 330:0 331:1 332:1 333:0 334:0 335:0 336:0 337:0 338:0 339:1 340:0 341:0 342:0 343:0 #
0.0067908465903266041277519526886408 6:0 7:0 8:0 9:0 10:0 11:0 12:0 13:0 14:0 15:0 16:1 17:0 18:0 19:0 20:0 21:1 22:0 23:0 24:0 25:0 26:0 27:0 28:0 29:0 30:1 31:0 32:0 33:0 34:0 35:0 36:0 37:0 38:0 39:0 40:1 41:0 42:0 43:1 44:0 45:0 46:0 47:1 48:0 49:0 50:0 66:1 67:0 68:1 69:1 70:1 71:1 72:0 73:1 74:1 75:1 76:1 77:0 78:1 79:1 80:1 81:0 82:0 83:0 84:0 85:1 86:1 87:1 88:0 89:0 90:1 91:1 92:1 93:0 94:1 95:1 96:0 97:0 98:0 99:0 100:0 101:1 102:1 103:0 104:0 105:0 106:0 107:0 108:1 109:0 110:0 111:0 112:0 113:0 114:0 115:0 116:0 117:1 118:0 119:0 120:1 121:1 122:1 123:1 124:1 125:0 126:0 127:0 128:0 129:0 130:1 131:0 132:0 133:0 134:0 135:0 136:1 137:0 138:0 139:0 140:0 141:0 142:0 143:0 144:0 145:1 146:0 147:0 148:1 149:1 150:1 151:1 152:0 153:0 154:0 155:0 156:0 157:1 158:0 159:0 160:0 161:0 162:0 163:1 164:1 165:0 166:0 167:0 168:0 169:0 170:0 171:0 172:0 173:1 174:0 175:0 176:1 177:1 178:1 179:1 180:0 181:0 182:0 183:0 184:0 185:1 186:0 187:0 188:0 189:0 190:0 191:1 192:1 193:0 194:0 195:0 196:0 197:0 198:0 199:0 200:0 201:1 202:0 203:0 204:1 205:1 206:1 207:1 208:0 209:0 210:0 211:0 212:0 213:1 214:0 215:0 216:0 217:0 218:0 219:1 220:1 221:0 222:0 223:0 224:0 225:0 226:0 227:0 228:0 229:1 230:0 231:0 232:1 233:0 234:1 235:1 236:0 237:0 238:0 239:0 240:0 241:1 242:1 243:0 244:0 245:0 246:0 247:0 248:1 249:0 250:0 251:0 252:0 253:0 254:0 255:0 256:0 257:1 258:0 259:0 260:1 261:0 262:1 263:1 264:0 265:0 266:0 267:0 268:0 269:1 270:1 271:0 272:0 273:0 274:0 275:0 276:1 277:0 278:0 279:0 280:0 281:0 282:0 283:0 284:0 285:1 286:0 287:0 288:1 289:1 290:1 291:1 292:0 293:0 294:0 295:1 296:0 297:0 298:0 299:0 300:0 301:1 302:0 303:0 304:1 305:0 306:0 307:0 308:0 309:0 310:0 311:0 312:0 313:1 314:0 315:0 316:1 317:1 318:1 319:1 320:0 321:0 322:0 323:0 324:1 325:0 326:0 327:0 328:1 329:0 330:0 331:0 332:1 333:0 334:0 335:0 336:0 337:0 338:0 339:0 340:0 341:1 342:0 343:0 #
0.011579167126154536054949417689386 6:0 7:0 8:0 9:0 10:0 11:1 12:0 13:0 14:0 15:0 16:0 17:0 18:0 19:0 20:0 21:0 22:0 23:0 24:0 25:0 26:0 27:0 28:0 29:0 30:1 31:0 32:0 33:0 34:0 35:0 36:0 37:0 38:0 39:0 40:1 41:0 42:1 43:0 44:0 45:0 46:1 47:0 48:0 49:0 50:0 66:1 67:0 68:1 69:0 70:1 71:1 72:0 73:1 74:0 75:1 76:1 77:0 78:1 79:1 80:1 81:0 82:1 83:0 84:0 85:1 86:1 87:1 88:0 89:0 90:1 91:1 92:1 93:0 94:1 95:1 96:0 97:0 98:0 99:0 100:0 101:1 102:1 103:0 104:0 105:0 106:0 107:0 108:1 109:0 110:0 111:0 112:0 113:0 114:0 115:0 116:0 117:0 118:0 119:1 120:1 121:1 122:1 123:1 124:0 125:0 126:0 127:0 128:0 129:1 130:0 131:0 132:0 133:1 134:0 135:0 136:1 137:0 138:0 139:0 140:0 141:0 142:0 143:0 144:0 145:0 146:0 147:1 148:1 149:0 150:1 151:1 152:0 153:0 154:0 155:0 156:0 157:1 158:1 159:0 160:0 161:0 162:0 163:0 164:1 165:0 166:0 167:0 168:0 169:0 170:0 171:0 172:0 173:0 174:0 175:1 176:1 177:1 178:1 179:1 180:0 181:0 182:0 183:0 184:0 185:1 186:0 187:0 188:0 189:0 190:0 191:1 192:1 193:0 194:0 195:0 196:0 197:0 198:0 199:0 200:0 201:0 202:0 203:1 204:1 205:1 206:1 207:1 208:0 209:0 210:0 211:0 212:0 213:1 214:0 215:0 216:0 217:0 218:0 219:1 220:1 221:0 222:0 223:0 224:0 225:0 226:0 227:0 228:0 229:0 230:0 231:1 232:1 233:0 234:1 235:1 236:0 237:0 238:0 239:0 240:0 241:1 242:1 243:0 244:0 245:0 246:0 247:0 248:1 249:0 250:0 251:0 252:0 253:0 254:0 255:0 256:0 257:0 258:0 259:1 260:1 261:0 262:1 263:1 264:0 265:0 266:0 267:0 268:0 269:1 270:1 271:0 272:0 273:0 274:0 275:0 276:1 277:0 278:0 279:0 280:0 281:0 282:0 283:0 284:0 285:0 286:0 287:1 288:1 289:0 290:1 291:1 292:0 293:0 294:0 295:0 296:0 297:1 298:1 299:0 300:0 301:0 302:0 303:0 304:1 305:0 306:0 307:0 308:0 309:0 310:0 311:0 312:0 313:0 314:0 315:1 316:1 317:1 318:1 319:1 320:0 321:0 322:0 323:0 324:0 325:1 326:0 327:0 328:0 329:0 330:0 331:1 332:1 333:0 334:0 335:0 336:0 337:0 338:0 339:0 340:0 341:0 342:0 343:1 #
0.0077578159904616219438855395651444 6:0 7:0 8:0 9:0 10:0 11:1 12:0 13:0 14:0 15:0 16:0 17:0 18:0 19:0 20:0 21:0 22:0 23:0 24:0 25:0 26:0 27:0 28:1 29:0 30:0 31:0 32:0 33:0 34:0 35:0 36:0 37:0 38:1 39:0 40:0 41:0 42:1 43:0 44:0 45:0 46:1 47:0 48:0 49:0 50:0 66:0 67:0 68:1 69:0 70:1 71:1 72:0 73:1 74:0 75:1 76:1 77:1 78:1 79:1 80:1 81:0 82:1 83:0 84:0 85:0 86:1 87:1 88:0 89:0 90:1 91:1 92:1 93:0 94:1 95:1 96:0 97:0 98:0 99:1 100:0 101:0 102:1 103:0 104:0 105:0 106:0 107:0 108:1 109:0 110:0 111:0 112:0 113:0 114:1 115:0 116:0 117:0 118:0 119:0 120:1 121:1 122:1 123:1 124:0 125:0 126:1 127:0 128:0 129:0 130:0 131:0 132:1 133:0 134:0 135:0 136:1 137:0 138:0 139:0 140:0 141:0 142:1 143:0 144:0 145:0 146:0 147:0 148:1 149:0 150:1 151:1 152:0 153:0 154:0 155:1 156:0 157:0 158:1 159:0 160:0 161:0 162:0 163:0 164:1 165:0 166:0 167:0 168:0 169:0 170:1 171:0 172:0 173:0 174:0 175:0 176:1 177:1 178:1 179:1 180:1 181:0 182:0 183:0 184:0 185:0 186:1 187:0 188:0 189:0 190:0 191:0 192:1 193:0 194:0 195:0 196:0 197:0 198:1 199:0 200:0 201:0 202:0 203:0 204:1 205:1 206:1 207:1 208:0 209:0 210:0 211:1 212:0 213:0 214:0 215:0 216:0 217:1 218:0 219:0 220:1 221:0 222:0 223:0 224:0 225:0 226:1 227:0 228:0 229:0 230:0 231:0 232:1 233:0 234:1 235:1 236:0 237:0 238:0 239:1 240:0 241:0 242:1 243:0 244:0 245:0 246:0 247:0 248:1 249:0 250:0 251:0 252:0 253:0 254:1 255:0 256:0 257:0 258:0 259:0 260:1 261:0 262:1 263:1 264:0 265:0 266:0 267:1 268:0 269:0 270:1 271:0 272:0 273:0 274:0 275:0 276:1 277:0 278:0 279:0 280:0 281:0 282:1 283:0 284:0 285:0 286:0 287:0 288:1 289:1 290:1 291:1 292:0 293:0 294:0 295:1 296:0 297:0 298:1 299:0 300:0 301:0 302:0 303:0 304:1 305:0 306:0 307:0 308:0 309:0 310:1 311:0 312:0 313:0 314:0 315:0 316:1 317:1 318:1 319:1 320:1 321:0 322:0 323:0 324:0 325:0 326:1 327:0 328:0 329:0 330:0 331:0 332:1 333:0 334:0 335:0 336:0 337:0 338:1 339:0 340:0 341:0 342:0 343:0 #
-0.011579167126154536054949417689386 6:0 7:0 8:0 9:0 10:0 11:0 12:0 13:0 14:0 15:0 16:1 17:0 18:0 19:0 20:0 21:0 22:0 23:0 24:0 25:0 26:1 27:0 28:0 29:0 30:0 31:0 32:0 33:0 34:0 35:0 36:0 37:0 38:0 39:0 40:0 41:0 42:1 43:0 44:0 45:0 46:1 47:0 48:0 49:0 50:0 66:1 67:0 68:1 69:1 70:1 71:1 72:0 73:1 74:0 75:1 76:0 77:0 78:0 79:1 80:1 81:0 82:1 83:0 84:1 85:1 86:1 87:1 88:0 89:0 90:1 91:1 92:1 93:0 94:1 95:1 96:0 97:1 98:0 99:0 100:0 101:0 102:0 103:1 104:0 105:0 106:0 107:0 108:1 109:0 110:0 111:0 112:0 113:0 114:1 115:0 116:0 117:0 118:0 119:0 120:1 121:1 122:1 123:1 124:0 125:1 126:0 127:0 128:0 129:0 130:1 131:0 132:0 133:0 134:0 135:0 136:1 137:0 138:0 139:0 140:0 141:0 142:1 143:0 144:0 145:0 146:0 147:0 148:1 149:0 150:1 151:1 152:0 153:1 154:0 155:0 156:0 157:0 158:0 159:0 160:1 161:0 162:0 163:0 164:1 165:0 166:0 167:0 168:0 169:0 170:1 171:0 172:0 173:0 174:0 175:0 176:1 177:1 178:1 179:1 180:0 181:1 182:0 183:0 184:0 185:0 186:0 187:1 188:0 189:0 190:0 191:0 192:1 193:0 194:0 195:0 196:0 197:0 198:1 199:0 200:0 201:0 202:0 203:0 204:1 205:0 206:1 207:1 208:0 209:1 210:0 211:0 212:0 213:0 214:0 215:0 216:1 217:0 218:0 219:0 220:1 221:0 222:0 223:0 224:0 225:0 226:1 227:0 228:0 229:0 230:0 231:0 232:1 233:0 234:1 235:1 236:0 237:1 238:0 239:0 240:0 241:0 242:0 243:0 244:1 245:0 246:0 247:0 248:1 249:0 250:0 251:0 252:0 253:0 254:1 255:0 256:0 257:0 258:0 259:0 260:1 261:0 262:1 263:1 264:0 265:1 266:0 267:0 268:0 269:0 270:0 271:0 272:1 273:0 274:0 275:0 276:1 277:0 278:0 279:0 280:0 281:0 282:1 283:0 284:0 285:0 286:0 287:0 288:1 289:1 290:1 291:1 292:0 293:0 294:1 295:0 296:0 297:0 298:1 299:0 300:0 301:0 302:0 303:0 304:1 305:0 306:0 307:0 308:0 309:0 310:1 311:0 312:0 313:0 314:0 315:0 316:1 317:1 318:1 319:1 320:0 321:0 322:1 323:0 324:0 325:0 326:1 327:0 328:0 329:0 330:0 331:0 332:1 333:0 334:0 335:0 336:0 337:0 338:1 339:0 340:0 341:0 342:0 343:0 #
-0.011579167126154536054949417689386 6:0 7:0 8:0 9:0 10:0 11:1 12:0 13:0 14:0 15:0 16:0 17:0 18:0 19:0 20:0 21:0 22:0 23:0 24:0 25:0 26:0 27:0 28:0 29:0 30:1 31:0 32:0 33:1 34:0 35:0 36:0 37:0 38:0 39:0 40:1 41:0 42:1 43:0 44:0 45:0 46:1 47:0 48:0 49:0 50:0 66:0 67:0 68:0 69:0 70:1 71:1 72:0 73:1 74:1 75:1 76:1 77:0 78:1 79:1 80:1 81:0 82:0 83:0 84:0 85:1 86:0 87:0 88:0 89:0 90:1 91:1 92:0 93:0 94:1 95:1 96:0 97:0 98:0 99:0 100:0 101:1 102:1 103:0 104:0 105:0 106:0 107:0 108:1 109:0 110:0 111:0 112:0 113:0 114:0 115:0 116:0 117:0 118:0 119:1 120:1 121:1 122:1 123:1 124:0 125:0 126:1 127:0 128:0 129:0 130:0 131:0 132:1 133:0 134:0 135:0 136:1 137:0 138:0 139:0 140:0 141:0 142:0 143:0 144:0 145:0 146:0 147:1 148:1 149:1 150:1 151:1 152:0 153:0 154:1 155:0 156:0 157:0 158:0 159:0 160:1 161:0 162:0 163:0 164:1 165:0 166:0 167:0 168:0 169:0 170:0 171:0 172:0 173:0 174:0 175:1 176:1 177:1 178:1 179:1 180:1 181:0 182:0 183:0 184:0 185:0 186:1 187:0 188:0 189:0 190:0 191:0 192:1 193:0 194:0 195:0 196:0 197:0 198:0 199:0 200:0 201:0 202:0 203:1 204:1 205:1 206:1 207:1 208:0 209:0 210:0 211:0 212:0 213:1 214:0 215:0 216:0 217:0 218:0 219:1 220:1 221:0 222:0 223:0 224:0 225:0 226:0 227:0 228:0 229:0 230:0 231:1 232:1 233:0 234:1 235:1 236:0 237:0 238:0 239:0 240:0 241:1 242:1 243:0 244:0 245:0 246:0 247:0 248:1 249:0 250:0 251:0 252:0 253:0 254:0 255:0 256:0 257:0 258:0 259:1 260:1 261:0 262:1 263:1 264:0 265:0 266:0 267:0 268:0 269:1 270:1 271:0 272:0 273:0 274:0 275:0 276:1 277:0 278:0 279:0 280:0 281:0 282:0 283:0 284:0 285:0 286:0 287:1 288:1 289:1 290:1 291:1 292:1 293:0 294:0 295:0 296:0 297:0 298:1 299:0 300:0 301:0 302:0 303:0 304:1 305:0 306:0 307:0 308:0 309:0 310:0 311:0 312:0 313:0 314:0 315:1 316:1 317:1 318:1 319:1 320:0 321:0 322:0 323:0 324:0 325:1 326:0 327:0 328:0 329:1 330:0 331:0 332:1 333:0 334:0 335:0 336:0 337:0 338:0 339:0 340:0 341:0 342:0 343:1 #
-0.011579167126154536054949417689386 6:0 7:0 8:0 9:0 10:0 11:1 12:0 13:0 14:0 15:0 16:0 17:0 18:0 19:0 20:0 21:0 22:0 23:0 24:0 25:0 26:0 27:0 28:0 29:0 30:1 31:0 32:1 33:0 34:0 35:0 36:0 37:0 38:0 39:0 40:1 41:0 42:1 43:0 44:0 45:0 46:1 47:0 48:0 49:0 50:0 66:0 67:0 68:0 69:0 70:1 71:1 72:0 73:1 74:1 75:1 76:1 77:1 78:1 79:1 80:1 81:0 82:0 83:0 84:0 85:0 86:0 87:0 88:0 89:0 90:1 91:1 92:1 93:0 94:1 95:1 96:0 97:0 98:0 99:0 100:0 101:1 102:1 103:0 104:0 105:0 106:0 107:0 108:1 109:0 110:0 111:0 112:0 113:0 114:0 115:0 116:0 117:0 118:0 119:1 120:1 121:1 122:1 123:1 124:0 125:1 126:0 127:0 128:0 129:0 130:0 131:1 132:0 133:0 134:0 135:0 136:1 137:0 138:0 139:0 140:0 141:0 142:0 143:0 144:0 145:0 146:0 147:1 148:1 149:1 150:1 151:1 152:0 153:0 154:0 155:0 156:0 157:1 158:0 159:0 160:0 161:0 162:0 163:1 164:1 165:0 166:0 167:0 168:0 169:0 170:0 171:0 172:0 173:0 174:0 175:1 176:1 177:1 178:1 179:1 180:1 181:0 182:0 183:0 184:0 185:0 186:1 187:0 188:0 189:0 190:0 191:0 192:1 193:0 194:0 195:0 196:0 197:0 198:0 199:0 200:0 201:0 202:0 203:1 204:1 205:1 206:1 207:1 208:0 209:0 210:0 211:0 212:0 213:1 214:0 215:0 216:0 217:0 218:0 219:1 220:1 221:0 222:0 223:0 224:0 225:0 226:0 227:0 228:0 229:0 230:0 231:1 232:1 233:0 234:1 235:1 236:0 237:0 238:0 239:0 240:0 241:1 242:1 243:0 244:0 245:0 246:0 247:0 248:1 249:0 250:0 251:0 252:0 253:0 254:0 255:0 256:0 257:0 258:0 259:1 260:1 261:0 262:1 263:1 264:0 265:0 266:0 267:0 268:1 269:0 270:1 271:0 272:0 273:0 274:0 275:0 276:1 277:0 278:0 279:0 280:0 281:0 282:0 283:0 284:0 285:0 286:0 287:1 288:1 289:1 290:1 291:1 292:0 293:0 294:0 295:0 296:0 297:1 298:0 299:0 300:0 301:0 302:1 303:0 304:1 305:0 306:0 307:0 308:0 309:0 310:0 311:0 312:0 313:0 314:0 315:1 316:1 317:1 318:1 319:1 320:0 321:0 322:0 323:0 324:0 325:1 326:0 327:1 328:0 329:0 330:0 331:0 332:1 333:0 334:0 335:0 336:0 337:0 338:0 339:0 340:0 341:0 342:0 343:1 #
-0.011579167126154536054949417689386 6:0 7:0 8:0 9:0 10:0 11:0 12:0 13:0 14:0 15:0 16:1 17:0 18:0 19:0 20:0 21:0 22:0 23:0 24:0 25:0 26:0 27:0 28:0 29:0 30:1 31:0 32:1 33:0 34:0 35:0 36:0 37:0 38:0 39:0 40:1 41:0 42:0 43:1 44:0 45:0 46:1 47:0 48:0 49:0 50:0 66:1 67:0 68:0 69:0 70:1 71:1 72:1 73:1 74:1 75:1 76:1 77:1 78:1 79:1 80:0 81:0 82:0 83:0 84:0 85:0 86:1 87:1 88:1 89:1 90:1 91:1 92:1 93:1 94:1 95:1 96:0 97:0 98:0 99:0 100:0 101:1 102:0 103:0 104:0 105:0 106:1 107:0 108:1 109:0 110:0 111:0 112:0 113:0 114:0 115:0 116:0 117:0 118:0 119:1 120:1 121:1 122:1 123:1 124:0 125:1 126:0 127:0 128:0 129:0 130:0 131:1 132:0 133:0 134:0 135:0 136:1 137:0 138:0 139:0 140:0 141:0 142:0 143:0 144:0 145:0 146:0 147:1 148:1 149:1 150:1 151:1 152:0 153:0 154:0 155:0 156:0 157:1 158:0 159:0 160:0 161:0 162:0 163:1 164:1 165:0 166:0 167:0 168:0 169:0 170:0 171:0 172:0 173:0 174:0 175:1 176:1 177:1 178:1 179:1 180:1 181:0 182:0 183:0 184:0 185:0 186:1 187:0 188:0 189:0 190:0 191:0 192:1 193:0 194:0 195:0 196:0 197:0 198:0 199:0 200:0 201:0 202:0 203:1 204:1 205:1 206:1 207:1 208:0 209:0 210:0 211:0 212:0 213:1 214:0 215:0 216:0 217:0 218:0 219:1 220:1 221:0 222:0 223:0 224:0 225:0 226:0 227:0 228:0 229:0 230:0 231:1 232:1 233:1 234:1 235:1 236:0 237:0 238:0 239:0 240:0 241:1 242:0 243:0 244:0 245:0 246:0 247:1 248:1 249:0 250:0 251:0 252:0 253:0 254:0 255:0 256:0 257:0 258:0 259:1 260:1 261:1 262:1 263:1 264:0 265:0 266:0 267:0 268:0 269:1 270:0 271:0 272:0 273:0 274:0 275:1 276:1 277:0 278:0 279:0 280:0 281:0 282:0 283:0 284:0 285:0 286:0 287:1 288:1 289:1 290:1 291:1 292:0 293:0 294:0 295:0 296:0 297:1 298:0 299:0 300:0 301:0 302:1 303:0 304:1 305:0 306:0 307:0 308:0 309:0 310:0 311:0 312:0 313:0 314:0 315:1 316:1 317:1 318:1 319:1 320:0 321:0 322:0 323:0 324:0 325:1 326:0 327:1 328:0 329:0 330:0 331:0 332:1 333:0 334:0 335:0 336:0 337:0 338:0 339:0 340:0 341:0 342:0 343:1 #
-0.0034076116160136542092284894778231 6:0 7:0 8:0 9:0 10:0 11:1 12:0 13:0 14:0 15:0 16:0 17:0 18:0 19:0 20:0 21:0 22:0 23:0 24:0 25:0 26:0 27:0 28:0 29:0 30:1 31:0 32:1 33:0 34:0 35:0 36:0 37:0 38:0 39:0 40:1 41:0 42:0 43:1 44:0 45:0 46:1 47:0 48:0 49:0 50:0 66:0 67:0 68:0 69:0 70:0 71:1 72:1 73:1 74:1 75:1 76:1 77:0 78:1 79:1 80:0 81:0 82:0 83:0 84:0 85:1 86:1 87:1 88:0 89:0 90:1 91:1 92:1 93:1 94:1 95:1 96:0 97:0 98:0 99:0 100:0 101:1 102:0 103:0 104:0 105:1 106:0 107:0 108:1 109:0 110:0 111:0 112:0 113:0 114:0 115:0 116:0 117:0 118:0 119:1 120:1 121:1 122:1 123:1 124:1 125:0 126:0 127:0 128:0 129:0 130:1 131:0 132:0 133:0 134:0 135:0 136:1 137:0 138:0 139:0 140:0 141:0 142:0 143:0 144:0 145:0 146:0 147:1 148:1 149:1 150:1 151:1 152:0 153:0 154:1 155:0 156:0 157:0 158:0 159:0 160:1 161:0 162:0 163:0 164:1 165:0 166:0 167:0 168:0 169:0 170:0 171:0 172:0 173:0 174:0 175:1 176:1 177:1 178:1 179:1 180:1 181:0 182:0 183:0 184:0 185:0 186:1 187:0 188:0 189:0 190:0 191:0 192:1 193:0 194:0 195:0 196:0 197:0 198:0 199:0 200:0 201:0 202:0 203:1 204:1 205:1 206:1 207:1 208:0 209:0 210:0 211:0 212:0 213:1 214:0 215:0 216:0 217:0 218:0 219:1 220:1 221:0 222:0 223:0 224:0 225:0 226:0 227:0 228:0 229:0 230:0 231:1 232:1 233:0 234:1 235:1 236:0 237:0 238:0 239:0 240:0 241:1 242:1 243:0 244:0 245:0 246:0 247:0 248:1 249:0 250:0 251:0 252:0 253:0 254:0 255:0 256:0 257:0 258:0 259:1 260:1 261:0 262:1 263:1 264:0 265:0 266:0 267:0 268:0 269:1 270:1 271:0 272:0 273:0 274:0 275:0 276:1 277:0 278:0 279:0 280:0 281:0 282:0 283:0 284:0 285:0 286:0 287:1 288:1 289:1 290:1 291:1 292:0 293:1 294:0 295:0 296:0 297:0 298:1 299:0 300:0 301:0 302:0 303:0 304:1 305:0 306:0 307:0 308:0 309:0 310:0 311:0 312:0 313:0 314:0 315:1 316:1 317:1 318:1 319:1 320:0 321:0 322:0 323:0 324:0 325:1 326:0 327:0 328:0 329:0 330:0 331:1 332:1 333:0 334:0 335:0 336:0 337:0 338:0 339:0 340:0 341:0 342:0 343:1 #
0.011579167126154536054949417689386 6:0 7:0 8:0 9:0 10:0 11:1 12:0 13:0 14:0 15:0 16:0 17:0 18:0 19:0 20:0 21:0 22:0 23:0 24:0 25:0 26:0 27:0 28:0 29:0 30:1 31:0 32:0 33:0 34:0 35:0 36:0 37:0 38:0 39:1 40:0 41:0 42:0 43:1 44:0 45:0 46:1 47:0 48:0 49:0 50:0 66:0 67:0 68:1 69:1 70:1 71:1 72:1 73:1 74:0 75:1 76:1 77:1 78:1 79:1 80:0 81:0 82:1 83:0 84:0 85:0 86:1 87:1 88:0 89:0 90:1 91:1 92:1 93:1 94:1 95:1 96:0 97:0 98:0 99:0 100:1 101:0 102:0 103:0 104:1 105:0 106:0 107:0 108:1 109:0 110:0 111:0 112:0 113:0 114:0 115:0 116:1 117:0 118:0 119:0 120:1 121:1 122:1 123:1 124:1 125:0 126:0 127:0 128:0 129:0 130:1 131:0 132:0 133:0 134:0 135:0 136:1 137:0 138:0 139:0 140:0 141:0 142:0 143:0 144:1 145:0 146:0 147:0 148:1 149:0 150:1 151:1 152:0 153:0 154:0 155:0 156:0 157:1 158:1 159:0 160:0 161:0 162:0 163:0 164:1 165:0 166:0 167:0 168:0 169:0 170:0 171:0 172:1 173:0 174:0 175:0 176:1 177:1 178:1 179:1 180:0 181:0 182:0 183:0 184:1 185:0 186:0 187:0 188:0 189:0 190:1 191:0 192:1 193:0 194:0 195:0 196:0 197:0 198:0 199:0 200:1 201:0 202:0 203:0 204:1 205:1 206:1 207:1 208:0 209:0 210:0 211:0 212:0 213:1 214:0 215:0 216:0 217:0 218:0 219:1 220:1 221:0 222:0 223:0 224:0 225:0 226:0 227:0 228:1 229:0 230:0 231:0 232:1 233:0 234:1 235:1 236:0 237:0 238:0 239:0 240:0 241:1 242:1 243:0 244:0 245:0 246:0 247:0 248:1 249:0 250:0 251:0 252:0 253:0 254:0 255:0 256:1 257:0 258:0 259:0 260:1 261:0 262:1 263:1 264:0 265:0 266:0 267:0 268:0 269:1 270:1 271:0 272:0 273:0 274:0 275:0 276:1 277:0 278:0 279:0 280:0 281:0 282:0 283:0 284:1 285:0 286:0 287:0 288:1 289:1 290:1 291:1 292:0 293:0 294:0 295:1 296:0 297:0 298:0 299:1 300:0 301:0 302:0 303:0 304:1 305:0 306:0 307:0 308:0 309:0 310:0 311:0 312:1 313:0 314:0 315:0 316:1 317:1 318:1 319:1 320:0 321:0 322:0 323:1 324:0 325:0 326:0 327:0 328:1 329:0 330:0 331:0 332:1 333:0 334:0 335:0 336:0 337:0 338:0 339:0 340:1 341:0 342:0 343:0 #
0.011579167126154536054949417689386 6:0 7:0 8:0 9:0 10:0 11:0 12:0 13:0 14:0 15:0 16:0 17:0 18:0 19:0 20:0 21:1 22:0 23:0 24:0 25:0 26:0 27:0 28:0 29:0 30:1 31:0 32:1 33:0 34:0 35:0 36:0 37:0 38:0 39:0 40:1 41:0 42:1 43:0 44:0 45:0 46:0 47:1 48:0 49:0 50:0 66:0 67:0 68:1 69:0 70:1 71:1 72:1 73:1 74:0 75:0 76:0 77:0 78:0 79:0 80:0 81:0 82:1 83:1 84:1 85:1 86:1 87:1 88:0 89:0 90:0 91:0 92:1 93:1 94:1 95:1 96:0 97:1 98:0 99:0 100:0 101:0 102:0 103:0 104:1 105:0 106:0 107:0 108:1 109:0 110:0 111:0 112:0 113:0 114:0 115:1 116:0 117:0 118:0 119:0 120:1 121:1 122:1 123:1 124:1 125:0 126:0 127:0 128:0 129:0 130:1 131:0 132:0 133:0 134:0 135:0 136:1 137:0 138:0 139:0 140:0 141:0 142:0 143:1 144:0 145:0 146:0 147:0 148:1 149:0 150:1 151:1 152:0 153:1 154:0 155:0 156:0 157:0 158:0 159:1 160:0 161:0 162:0 163:0 164:1 165:0 166:0 167:0 168:0 169:0 170:0 171:1 172:0 173:0 174:0 175:0 176:1 177:0 178:1 179:1 180:0 181:1 182:0 183:0 184:0 185:0 186:0 187:1 188:0 189:0 190:0 191:0 192:1 193:0 194:0 195:0 196:0 197:0 198:0 199:1 200:0 201:0 202:0 203:0 204:1 205:0 206:1 207:1 208:0 209:1 210:0 211:0 212:0 213:0 214:0 215:1 216:0 217:0 218:0 219:0 220:1 221:0 222:0 223:0 224:0 225:0 226:0 227:1 228:0 229:0 230:0 231:0 232:1 233:0 234:1 235:1 236:0 237:1 238:0 239:0 240:0 241:0 242:0 243:1 244:0 245:0 246:0 247:0 248:1 249:0 250:0 251:0 252:0 253:0 254:0 255:1 256:0 257:0 258:0 259:0 260:1 261:0 262:1 263:1 264:0 265:1 266:0 267:0 268:0 269:0 270:0 271:1 272:0 273:0 274:0 275:0 276:1 277:0 278:0 279:0 280:0 281:0 282:0 283:1 284:0 285:0 286:0 287:0 288:1 289:1 290:1 291:1 292:0 293:1 294:0 295:0 296:0 297:0 298:1 299:0 300:0 301:0 302:0 303:0 304:1 305:0 306:0 307:0 308:0 309:0 310:0 311:1 312:0 313:0 314:0 315:0 316:1 317:0 318:1 319:1 320:0 321:0 322:1 323:0 324:0 325:0 326:0 327:1 328:0 329:0 330:0 331:0 332:1 333:0 334:0 335:0 336:0 337:0 338:0 339:1 340:0 341:0 342:0 343:0 #
0.011579167126154536054949417689386 6:0 7:0 8:0 9:0 10:0 11:1 12:0 13:0 14:0 15:0 16:0 17:0 18:0 19:0 20:0 21:0 22:0 23:0 24:0 25:0 26:0 27:1 28:0 29:0 30:0 31:0 32:0 33:0 34:0 35:0 36:0 37:0 38:1 39:0 40:0 41:1 42:0 43:0 44:0 45:0 46:1 47:0 48:0 49:0 50:0 66:0 67:0 68:1 69:0 70:1 71:1 72:0 73:1 74:0 75:1 76:0 77:0 78:1 79:1 80:1 81:0 82:1 83:0 84:1 85:1 86:1 87:1 88:1 89:1 90:1 91:1 92:0 93:0 94:1 95:1 96:0 97:0 98:1 99:0 100:0 101:0 102:0 103:0 104:1 105:0 106:0 107:0 108:1 109:0 110:0 111:0 112:0 113:0 114:0 115:1 116:0 117:0 118:0 119:0 120:1 121:1 122:1 123:1 124:1 125:0 126:0 127:0 128:0 129:0 130:1 131:0 132:0 133:0 134:0 135:0 136:1 137:0 138:0 139:0 140:0 141:0 142:0 143:1 144:0 145:0 146:0 147:0 148:1 149:0 150:1 151:1 152:0 153:1 154:0 155:0 156:0 157:0 158:0 159:1 160:0 161:0 162:0 163:0 164:1 165:0 166:0 167:0 168:0 169:0 170:0 171:1 172:0 173:0 174:0 175:0 176:1 177:1 178:1 179:1 180:1 181:0 182:0 183:0 184:0 185:0 186:1 187:0 188:0 189:0 190:0 191:0 192:1 193:0 194:0 195:0 196:0 197:0 198:0 199:1 200:0 201:0 202:0 203:0 204:1 205:0 206:1 207:1 208:0 209:1 210:0 211:0 212:0 213:0 214:0 215:1 216:0 217:0 218:0 219:0 220:1 221:0 222:0 223:0 224:0 225:0 226:0 227:1 228:0 229:0 230:0 231:0 232:1 233:1 234:1 235:1 236:0 237:0 238:0 239:0 240:1 241:0 242:0 243:1 244:0 245:0 246:0 247:0 248:1 249:0 250:0 251:0 252:0 253:0 254:0 255:1 256:0 257:0 258:0 259:0 260:1 261:1 262:1 263:1 264:0 265:0 266:0 267:0 268:1 269:0 270:0 271:1 272:0 273:0 274:0 275:0 276:1 277:0 278:0 279:0 280:0 281:0 282:0 283:1 284:0 285:0 286:0 287:0 288:1 289:1 290:1 291:1 292:1 293:0 294:0 295:0 296:0 297:0 298:1 299:0 300:0 301:0 302:0 303:0 304:1 305:0 306:0 307:0 308:0 309:0 310:0 311:1 312:0 313:0 314:0 315:0 316:1 317:0 318:1 319:1 320:0 321:1 322:0 323:0 324:0 325:0 326:0 327:1 328:0 329:0 330:0 331:0 332:1 333:0 334:0 335:0 336:0 337:0 338:0 339:1 340:0 341:0 342:0 343:0 #
0.011579167126154536054949417689386 6:0 7:0 8:0 9:0 10:0 11:1 12:0 13:0 14:0 15:0 16:0 17:0 18:0 19:0 20:0 21:0 22:0 23:0 24:0 25:0 26:0 27:0 28:1 29:0 30:0 31:0 32:0 33:0 34:0 35:0 36:0 37:0 38:1 39:0 40:0 41:0 42:1 43:0 44:0 45:0 46:1 47:0 48:0 49:0 50:0 66:0 67:0 68:1 69:1 70:1 71:1 72:0 73:1 74:0 75:1 76:0 77:0 78:1 79:0 80:1 81:0 82:1 83:0 84:1 85:1 86:1 87:1 88:0 89:0 90:0 91:0 92:1 93:0 94:1 95:1 96:0 97:0 98:1 99:0 100:0 101:0 102:0 103:0 104:1 105:0 106:0 107:0 108:1 109:0 110:0 111:0 112:0 113:0 114:0 115:0 116:1 117:0 118:0 119:0 120:1 121:1 122:1 123:1 124:1 125:0 126:0 127:0 128:0 129:0 130:1 131:0 132:0 133:0 134:0 135:0 136:1 137:0 138:0 139:0 140:0 141:0 142:0 143:0 144:1 145:0 146:0 147:0 148:1 149:0 150:1 151:1 152:0 153:0 154:1 155:0 156:0 157:0 158:0 159:0 160:1 161:0 162:0 163:0 164:1 165:0 166:0 167:0 168:0 169:0 170:0 171:0 172:1 173:0 174:0 175:0 176:1 177:1 178:1 179:1 180:0 181:0 182:0 183:0 184:0 185:1 186:0 187:0 188:1 189:0 190:0 191:0 192:1 193:0 194:0 195:0 196:0 197:0 198:0 199:0 200:1 201:0 202:0 203:0 204:1 205:0 206:1 207:1 208:0 209:0 210:0 211:1 212:0 213:0 214:0 215:0 216:0 217:0 218:1 219:0 220:1 221:0 222:0 223:0 224:0 225:0 226:0 227:0 228:1 229:0 230:0 231:0 232:1 233:0 234:1 235:1 236:0 237:0 238:0 239:1 240:0 241:0 242:0 243:0 244:0 245:1 246:0 247:0 248:1 249:0 250:0 251:0 252:0 253:0 254:0 255:0 256:1 257:0 258:0 259:0 260:1 261:0 262:1 263:1 264:0 265:0 266:0 267:1 268:0 269:0 270:0 271:0 272:0 273:0 274:0 275:1 276:1 277:0 278:0 279:0 280:0 281:0 282:0 283:0 284:1 285:0 286:0 287:0 288:1 289:1 290:1 291:1 292:0 293:0 294:0 295:1 296:0 297:0 298:0 299:0 300:1 301:0 302:0 303:0 304:1 305:0 306:0 307:0 308:0 309:0 310:0 311:0 312:1 313:0 314:0 315:0 316:1 317:1 318:1 319:1 320:0 321:0 322:0 323:0 324:0 325:1 326:0 327:1 328:0 329:0 330:0 331:0 332:1 333:0 334:0 335:0 336:0 337:0 338:0 339:0 340:1 341:0 342:0 343:0 #
0.011579167126154536054949417689386 6:0 7:0 8:0 9:0 10:0 11:1 12:0 13:0 14:0 15:0 16:0 17:0 18:0 19:0 20:0 21:0 22:0 23:0 24:0 25:0 26:0 27:1 28:0 29:0 30:0 31:0 32:0 33:0 34:0 35:0 36:0 37:0 38:1 39:0 40:0 41:1 42:0 43:0 44:0 45:0 46:1 47:0 48:0 49:0 50:0 66:0 67:0 68:0 69:0 70:1 71:1 72:0 73:1 74:0 75:1 76:0 77:0 78:1 79:1 80:1 81:0 82:1 83:0 84:1 85:1 86:1 87:1 88:0 89:0 90:0 91:1 92:1 93:0 94:1 95:1 96:0 97:1 98:0 99:0 100:0 101:0 102:0 103:0 104:1 105:0 106:0 107:0 108:1 109:0 110:0 111:0 112:0 113:0 114:0 115:1 116:0 117:0 118:0 119:0 120:0 121:1 122:1 123:1 124:1 125:0 126:0 127:0 128:0 129:0 130:1 131:0 132:0 133:0 134:0 135:0 136:1 137:0 138:0 139:0 140:0 141:0 142:0 143:1 144:0 145:0 146:0 147:0 148:1 149:0 150:1 151:1 152:0 153:1 154:0 155:0 156:0 157:0 158:0 159:1 160:0 161:0 162:0 163:0 164:1 165:0 166:0 167:0 168:0 169:0 170:0 171:1 172:0 173:0 174:0 175:0 176:1 177:1 178:1 179:1 180:1 181:0 182:0 183:0 184:0 185:0 186:1 187:0 188:0 189:0 190:0 191:0 192:1 193:0 194:0 195:0 196:0 197:0 198:0 199:1 200:0 201:0 202:0 203:0 204:1 205:1 206:1 207:1 208:0 209:1 210:0 211:0 212:0 213:0 214:0 215:1 216:0 217:0 218:0 219:0 220:1 221:0 222:0 223:0 224:0 225:0 226:0 227:1 228:0 229:0 230:0 231:0 232:1 233:0 234:1 235:1 236:0 237:1 238:0 239:0 240:0 241:0 242:0 243:1 244:0 245:0 246:0 247:0 248:1 249:0 250:0 251:0 252:0 253:0 254:0 255:1 256:0 257:0 258:0 259:0 260:1 261:0 262:1 263:1 264:0 265:1 266:0 267:0 268:0 269:0 270:0 271:1 272:0 273:0 274:0 275:0 276:1 277:0 278:0 279:0 280:0 281:0 282:0 283:1 284:0 285:0 286:0 287:0 288:1 289:1 290:1 291:1 292:0 293:1 294:0 295:0 296:0 297:0 298:0 299:1 300:0 301:0 302:0 303:0 304:1 305:0 306:0 307:0 308:0 309:0 310:0 311:1 312:0 313:0 314:0 315:0 316:1 317:1 318:1 319:1 320:0 321:1 322:0 323:0 324:0 325:0 326:0 327:1 328:0 329:0 330:0 331:0 332:1 333:0 334:0 335:0 336:0 337:0 338:0 339:1 340:0 341:0 342:0 343:0 #
0.011579167126154536054949417689386 6:0 7:0 8:0 9:0 10:0 11:1 12:0 13:0 14:0 15:0 16:0 17:0 18:0 19:0 20:0 21:0 22:0 23:0 24:0 25:0 26:0 27:1 28:0 29:0 30:0 31:0 32:0 33:0 34:0 35:0 36:0 37:0 38:1 39:0 40:0 41:1 42:0 43:0 44:0 45:0 46:1 47:0 48:0 49:0 50:0 66:0 67:0 68:1 69:0 70:1 71:1 72:1 73:1 74:0 75:1 76:0 77:0 78:0 79:0 80:0 81:0 82:1 83:0 84:1 85:1 86:1 87:1 88:0 89:0 90:0 91:0 92:1 93:1 94:1 95:1 96:0 97:0 98:0 99:0 100:0 101:1 102:1 103:0 104:0 105:0 106:0 107:0 108:1 109:0 110:0 111:0 112:0 113:0 114:0 115:1 116:0 117:0 118:0 119:0 120:1 121:1 122:1 123:1 124:1 125:0 126:0 127:0 128:0 129:0 130:1 131:0 132:0 133:0 134:0 135:0 136:1 137:0 138:0 139:0 140:0 141:0 142:0 143:1 144:0 145:0 146:0 147:0 148:1 149:0 150:1 151:1 152:0 153:1 154:0 155:0 156:0 157:0 158:0 159:1 160:0 161:0 162:0 163:0 164:1 165:0 166:0 167:0 168:0 169:0 170:0 171:1 172:0 173:0 174:0 175:0 176:1 177:1 178:1 179:1 180:1 181:0 182:0 183:0 184:0 185:0 186:1 187:0 188:0 189:0 190:0 191:0 192:1 193:0 194:0 195:0 196:0 197:0 198:0 199:1 200:0 201:0 202:0 203:0 204:1 205:0 206:1 207:1 208:0 209:1 210:0 211:0 212:0 213:0 214:0 215:0 216:1 217:0 218:0 219:0 220:1 221:0 222:0 223:0 224:0 225:0 226:0 227:1 228:0 229:0 230:0 231:0 232:1 233:0 234:1 235:1 236:0 237:1 238:0 239:0 240:0 241:0 242:0 243:1 244:0 245:0 246:0 247:0 248:1 249:0 250:0 251:0 252:0 253:0 254:0 255:1 256:0 257:0 258:0 259:0 260:1 261:0 262:1 263:1 264:0 265:1 266:0 267:0 268:0 269:0 270:0 271:1 272:0 273:0 274:0 275:0 276:1 277:0 278:0 279:0 280:0 281:0 282:0 283:1 284:0 285:0 286:0 287:0 288:0 289:0 290:1 291:1 292:1 293:0 294:0 295:0 296:0 297:0 298:0 299:0 300:0 301:0 302:1 303:0 304:1 305:0 306:0 307:0 308:0 309:0 310:0 311:1 312:0 313:0 314:0 315:0 316:1 317:1 318:1 319:1 320:0 321:0 322:0 323:0 324:0 325:1 326:0 327:1 328:0 329:0 330:0 331:0 332:1 333:0 334:0 335:0 336:0 337:0 338:0 339:1 340:0 341:0 342:0 343:0 #
-0.011579167126154536054949417689386 6:0 7:0 8:0 9:0 10:0 11:0 12:0 13:0 14:0 15:0 16:0 17:0 18:0 19:0 20:0 21:1 22:0 23:0 24:0 25:0 26:0 27:0 28:0 29:1 30:0 31:0 32:0 33:0 34:0 35:0 36:0 37:0 38:1 39:0 40:0 41:0 42:1 43:0 44:0 45:0 46:0 47:1 48:0 49:0 50:0 66:0 67:0 68:1 69:1 70:1 71:1 72:0 73:1 74:0 75:1 76:0 77:0 78:1 79:1 80:1 81:0 82:1 83:0 84:1 85:1 86:1 87:1 88:0 89:0 90:1 91:1 92:1 93:0 94:1 95:1 96:0 97:1 98:0 99:0 100:0 101:0 102:1 103:0 104:0 105:0 106:0 107:0 108:1 109:0 110:0 111:0 112:0 113:0 114:0 115:1 116:0 117:0 118:0 119:0 120:1 121:1 122:1 123:1 124:1 125:0 126:0 127:0 128:0 129:0 130:1 131:0 132:0 133:0 134:0 135:0 136:1 137:0 138:0 139:0 140:0 141:0 142:0 143:1 144:0 145:0 146:0 147:0 148:1 149:0 150:1 151:1 152:0 153:1 154:0 155:0 156:0 157:0 158:0 159:1 160:0 161:0 162:0 163:0 164:1 165:0 166:0 167:0 168:0 169:0 170:0 171:1 172:0 173:0 174:0 175:0 176:1 177:1 178:1 179:1 180:0 181:0 182:1 183:0 184:0 185:0 186:1 187:0 188:0 189:0 190:0 191:0 192:1 193:0 194:0 195:0 196:0 197:0 198:0 199:1 200:0 201:0 202:0 203:0 204:1 205:0 206:1 207:1 208:0 209:1 210:0 211:0 212:0 213:0 214:0 215:1 216:0 217:0 218:0 219:0 220:1 221:0 222:0 223:0 224:0 225:0 226:0 227:1 228:0 229:0 230:0 231:0 232:1 233:0 234:1 235:1 236:0 237:1 238:0 239:0 240:0 241:0 242:0 243:1 244:0 245:0 246:0 247:0 248:1 249:0 250:0 251:0 252:0 253:0 254:0 255:1 256:0 257:0 258:0 259:0 260:1 261:0 262:1 263:1 264:0 265:1 266:0 267:0 268:0 269:0 270:0 271:1 272:0 273:0 274:0 275:0 276:1 277:0 278:0 279:0 280:0 281:0 282:0 283:1 284:0 285:0 286:0 287:0 288:1 289:0 290:1 291:1 292:0 293:1 294:0 295:0 296:0 297:0 298:0 299:1 300:0 301:0 302:0 303:0 304:1 305:0 306:0 307:0 308:0 309:0 310:0 311:1 312:0 313:0 314:0 315:0 316:1 317:1 318:1 319:1 320:0 321:0 322:1 323:0 324:0 325:0 326:1 327:0 328:0 329:0 330:0 331:0 332:1 333:0 334:0 335:0 336:0 337:0 338:0 339:1 340:0 341:0 342:0 343:0 #
-0.011579167126154536054949417689386 6:0 7:0 8:0 9:0 10:0 11:1 12:0 13:0 14:0 15:0 16:0 17:0 18:0 19:0 20:0 21:0 22:0 23:0 24:0 25:0 26:1 27:0 28:0 29:0 30:0 31:1 32:0 33:0 34:0 35:0 36:0 37:1 38:0 39:0 40:0 41:1 42:0 43:0 44:0 45:0 46:1 47:0 48:0 49:0 50:0 66:0 67:0 68:1 69:1 70:1 71:1 72:0 73:0 74:0 75:1 76:0 77:0 78:1 79:0 80:1 81:1 82:1 83:0 84:1 85:1 86:1 87:1 88:0 89:0 90:0 91:0 92:1 93:0 94:1 95:1 96:1 97:0 98:0 99:0 100:0 101:0 102:0 103:1 104:0 105:0 106:0 107:0 108:1 109:0 110:0 111:0 112:0 113:0 114:1 115:0 116:0 117:0 118:0 119:0 120:1 121:0 122:1 123:1 124:1 125:0 126:0 127:0 128:0 129:0 130:1 131:0 132:0 133:0 134:0 135:0 136:1 137:0 138:0 139:0 140:0 141:0 142:1 143:0 144:0 145:0 146:0 147:0 148:1 149:0 150:1 151:1 152:1 153:0 154:0 155:0 156:0 157:0 158:1 159:0 160:0 161:0 162:0 163:0 164:1 165:0 166:0 167:0 168:0 169:0 170:1 171:0 172:0 173:0 174:0 175:0 176:1 177:1 178:1 179:1 180:1 181:0 182:0 183:0 184:0 185:0 186:1 187:0 188:0 189:0 190:0 191:0 192:1 193:0 194:0 195:0 196:0 197:0 198:1 199:0 200:0 201:0 202:0 203:0 204:1 205:0 206:1 207:1 208:1 209:0 210:0 211:0 212:0 213:0 214:0 215:1 216:0 217:0 218:0 219:0 220:1 221:0 222:0 223:0 224:0 225:0 226:1 227:0 228:0 229:0 230:0 231:0 232:1 233:0 234:1 235:1 236:1 237:0 238:0 239:0 240:0 241:0 242:0 243:1 244:0 245:0 246:0 247:0 248:1 249:0 250:0 251:0 252:0 253:0 254:1 255:0 256:0 257:0 258:0 259:0 260:1 261:0 262:1 263:1 264:1 265:0 266:0 267:0 268:0 269:0 270:0 271:1 272:0 273:0 274:0 275:0 276:1 277:0 278:0 279:0 280:0 281:0 282:1 283:0 284:0 285:0 286:0 287:0 288:0 289:1 290:1 291:1 292:0 293:0 294:0 295:1 296:0 297:0 298:0 299:0 300:0 301:0 302:1 303:0 304:1 305:0 306:0 307:0 308:0 309:0 310:1 311:0 312:0 313:0 314:0 315:0 316:1 317:1 318:1 319:1 320:0 321:0 322:0 323:0 324:0 325:1 326:0 327:1 328:0 329:0 330:0 331:0 332:1 333:0 334:0 335:0 336:0 337:0 338:1 339:0 340:0 341:0 342:0 343:0 #
-0.011579167126154536054949417689386 6:0 7:0 8:0 9:0 10:0 11:0 12:0 13:0 14:0 15:0 16:0 17:0 18:0 19:0 20:0 21:1 22:0 23:0 24:0 25:0 26:0 27:0 28:0 29:1 30:0 31:0 32:0 33:0 34:0 35:0 36:0 37:0 38:1 39:0 40:0 41:0 42:1 43:0 44:0 45:0 46:0 47:1 48:0 49:0 50:0 66:0 67:0 68:1 69:0 70:1 71:1 72:0 73:1 74:0 75:1 76:0 77:0 78:1 79:1 80:1 81:0 82:1 83:0 84:1 85:1 86:1 87:1 88:0 89:0 90:0 91:1 92:1 93:0 94:1 95:1 96:0 97:1 98:0 99:0 100:0 101:0 102:0 103:1 104:0 105:0 106:0 107:0 108:1 109:0 110:0 111:0 112:0 113:0 114:0 115:1 116:0 117:0 118:0 119:0 120:1 121:1 122:1 123:1 124:1 125:0 126:0 127:0 128:0 129:0 130:1 131:0 132:0 133:0 134:0 135:0 136:1 137:0 138:0 139:0 140:0 141:0 142:0 143:1 144:0 145:0 146:0 147:0 148:1 149:0 150:1 151:1 152:0 153:1 154:0 155:0 156:0 157:0 158:0 159:0 160:1 161:0 162:0 163:0 164:1 165:0 166:0 167:0 168:0 169:0 170:0 171:1 172:0 173:0 174:0 175:0 176:1 177:1 178:1 179:1 180:1 181:0 182:0 183:0 184:0 185:0 186:1 187:0 188:0 189:0 190:0 191:0 192:1 193:0 194:0 195:0 196:0 197:0 198:0 199:1 200:0 201:0 202:0 203:0 204:1 205:0 206:1 207:1 208:0 209:1 210:0 211:0 212:0 213:0 214:0 215:1 216:0 217:0 218:0 219:0 220:1 221:0 222:0 223:0 224:0 225:0 226:0 227:1 228:0 229:0 230:0 231:0 232:1 233:0 234:1 235:1 236:0 237:1 238:0 239:0 240:0 241:0 242:1 243:0 244:0 245:0 246:0 247:0 248:1 249:0 250:0 251:0 252:0 253:0 254:0 255:1 256:0 257:0 258:0 259:0 260:1 261:0 262:1 263:1 264:0 265:1 266:0 267:0 268:0 269:0 270:1 271:0 272:0 273:0 274:0 275:0 276:1 277:0 278:0 279:0 280:0 281:0 282:0 283:1 284:0 285:0 286:0 287:0 288:1 289:1 290:1 291:1 292:0 293:1 294:0 295:0 296:0 297:0 298:0 299:1 300:0 301:0 302:0 303:0 304:1 305:0 306:0 307:0 308:0 309:0 310:0 311:1 312:0 313:0 314:0 315:0 316:1 317:1 318:1 319:1 320:0 321:0 322:1 323:0 324:0 325:0 326:0 327:1 328:0 329:0 330:0 331:0 332:1 333:0 334:0 335:0 336:0 337:0 338:0 339:1 340:0 341:0 342:0 343:0 #
-0.011579167126154536054949417689386 6:0 7:0 8:0 9:0 10:0 11:0 12:0 13:0 14:0 15:0 16:1 17:0 18:0 19:0 20:0 21:0 22:0 23:0 24:0 25:0 26:0 27:1 28:0 29:0 30:0 31:0 32:0 33:0 34:0 35:0 36:0 37:1 38:0 39:0 40:0 41:0 42:1 43:0 44:0 45:0 46:1 47:0 48:0 49:0 50:0 66:1 67:0 68:1 69:0 70:1 71:1 72:0 73:1 74:0 75:1 76:0 77:0 78:1 79:1 80:1 81:0 82:1 83:0 84:1 85:1 86:1 87:1 88:0 89:0 90:1 91:1 92:1 93:0 94:1 95:1 96:0 97:1 98:0 99:0 100:0 101:0 102:1 103:0 104:0 105:0 106:0 107:0 108:1 109:0 110:0 111:0 112:0 113:0 114:0 115:1 116:0 117:0 118:0 119:0 120:1 121:1 122:1 123:1 124:0 125:1 126:0 127:0 128:0 129:0 130:0 131:1 132:0 133:0 134:0 135:0 136:1 137:0 138:0 139:0 140:0 141:0 142:0 143:1 144:0 145:0 146:0 147:0 148:1 149:0 150:1 151:1 152:0 153:0 154:1 155:0 156:0 157:0 158:0 159:1 160:0 161:0 162:0 163:0 164:1 165:0 166:0 167:0 168:0 169:0 170:0 171:1 172:0 173:0 174:0 175:0 176:1 177:1 178:1 179:1 180:1 181:0 182:0 183:0 184:0 185:0 186:1 187:0 188:0 189:0 190:0 191:0 192:1 193:0 194:0 195:0 196:0 197:0 198:0 199:1 200:0 201:0 202:0 203:0 204:1 205:0 206:1 207:1 208:0 209:1 210:0 211:0 212:0 213:0 214:0 215:1 216:0 217:0 218:0 219:0 220:1 221:0 222:0 223:0 224:0 225:0 226:0 227:1 228:0 229:0 230:0 231:0 232:1 233:0 234:1 235:1 236:0 237:1 238:0 239:0 240:0 241:0 242:0 243:1 244:0 245:0 246:0 247:0 248:1 249:0 250:0 251:0 252:0 253:0 254:0 255:1 256:0 257:0 258:0 259:0 260:1 261:0 262:1 263:1 264:0 265:1 266:0 267:0 268:0 269:0 270:0 271:1 272:0 273:0 274:0 275:0 276:1 277:0 278:0 279:0 280:0 281:0 282:0 283:1 284:0 285:0 286:0 287:0 288:1 289:1 290:1 291:1 292:0 293:0 294:1 295:0 296:0 297:0 298:1 299:0 300:0 301:0 302:0 303:0 304:1 305:0 306:0 307:0 308:0 309:0 310:0 311:1 312:0 313:0 314:0 315:0 316:1 317:0 318:1 319:1 320:0 321:1 322:0 323:0 324:0 325:0 326:1 327:0 328:0 329:0 330:0 331:0 332:1 333:0 334:0 335:0 336:0 337:0 338:0 339:1 340:0 341:0 342:0 343:0 #
-0.011579167126154536054949417689386 6:0 7:0 8:0 9:0 10:0 11:1 12:0 13:0 14:0 15:0 16:0 17:0 18:0 19:0 20:0 21:0 22:0 23:0 24:0 25:0 26:0 27:0 28:0 29:0 30:1 31:0 32:1 33:0 34:0 35:0 36:0 37:0 38:0 39:0 40:1 41:0 42:1 43:0 44:0 45:0 46:1 47:0 48:0 49:0 50:0 66:0 67:0 68:0 69:0 70:0 71:1 72:1 73:1 74:1 75:1 76:1 77:1 78:1 79:1 80:0 81:0 82:0 83:0 84:0 85:0 86:1 87:1 88:1 89:1 90:1 91:1 92:1 93:1 94:1 95:1 96:1 97:0 98:0 99:0 100:0 101:0 102:1 103:0 104:0 105:0 106:0 107:0 108:1 109:0 110:0 111:0 112:0 113:0 114:1 115:0 116:0 117:0 118:0 119:0 120:1 121:1 122:1 123:1 124:1 125:0 126:0 127:0 128:0 129:0 130:1 131:0 132:0 133:0 134:0 135:0 136:1 137:0 138:0 139:0 140:0 141:0 142:1 143:0 144:0 145:0 146:0 147:0 148:1 149:1 150:1 151:1 152:1 153:0 154:0 155:0 156:0 157:0 158:1 159:0 160:0 161:0 162:0 163:0 164:1 165:0 166:0 167:0 168:0 169:0 170:1 171:0 172:0 173:0 174:0 175:0 176:1 177:1 178:1 179:1 180:0 181:0 182:0 183:0 184:0 185:1 186:1 187:0 188:0 189:0 190:0 191:0 192:1 193:0 194:0 195:0 196:0 197:0 198:1 199:0 200:0 201:0 202:0 203:0 204:1 205:1 206:1 207:1 208:0 209:0 210:0 211:0 212:0 213:1 214:0 215:0 216:0 217:0 218:0 219:1 220:1 221:0 222:0 223:0 224:0 225:0 226:1 227:0 228:0 229:0 230:0 231:0 232:1 233:1 234:1 235:1 236:0 237:0 238:0 239:0 240:0 241:1 242:0 243:0 244:0 245:0 246:0 247:1 248:1 249:0 250:0 251:0 252:0 253:0 254:1 255:0 256:0 257:0 258:0 259:0 260:1 261:1 262:1 263:1 264:0 265:0 266:0 267:0 268:0 269:1 270:0 271:0 272:0 273:0 274:0 275:1 276:1 277:0 278:0 279:0 280:0 281:0 282:1 283:0 284:0 285:0 286:0 287:0 288:1 289:1 290:1 291:1 292:1 293:0 294:0 295:0 296:0 297:0 298:1 299:0 300:0 301:0 302:0 303:0 304:1 305:0 306:0 307:0 308:0 309:0 310:1 311:0 312:0 313:0 314:0 315:0 316:1 317:1 318:1 319:1 320:1 321:0 322:0 323:0 324:0 325:0 326:1 327:0 328:0 329:0 330:0 331:0 332:1 333:0 334:0 335:0 336:0 337:0 338:1 339:0 340:0 341:0 342:0 343:0 #
0.011579167126154536054949417689386 6:0 7:0 8:0 9:0 10:0 11:1 12:0 13:0 14:0 15:0 16:0 17:0 18:0 19:0 20:0 21:0 22:0 23:0 24:0 25:0 26:0 27:0 28:0 29:0 30:1 31:0 32:0 33:0 34:0 35:0 36:0 37:0 38:0 39:0 40:1 41:0 42:0 43:1 44:0 45:0 46:1 47:0 48:0 49:0 50:0 66:0 67:0 68:1 69:1 70:1 71:1 72:1 73:1 74:1 75:1 76:1 77:0 78:1 79:1 80:0 81:0 82:0 83:0 84:0 85:1 86:1 87:1 88:1 89:1 90:1 91:1 92:1 93:1 94:1 95:1 96:0 97:0 98:0 99:0 100:0 101:1 102:0 103:0 104:0 105:0 106:0 107:1 108:1 109:0 110:0 111:0 112:0 113:0 114:0 115:0 116:0 117:0 118:0 119:1 120:1 121:1 122:1 123:1 124:0 125:0 126:0 127:0 128:0 129:1 130:0 131:0 132:0 133:1 134:0 135:0 136:1 137:0 138:0 139:0 140:0 141:0 142:0 143:0 144:0 145:0 146:0 147:1 148:1 149:1 150:1 151:1 152:0 153:0 154:0 155:0 156:0 157:1 158:0 159:0 160:0 161:0 162:0 163:1 164:1 165:0 166:0 167:0 168:0 169:0 170:0 171:0 172:0 173:0 174:0 175:1 176:1 177:1 178:1 179:1 180:0 181:0 182:0 183:0 184:0 185:1 186:0 187:0 188:0 189:0 190:0 191:1 192:1 193:0 194:0 195:0 196:0 197:0 198:0 199:0 200:0 201:0 202:0 203:1 204:1 205:1 206:1 207:1 208:0 209:0 210:0 211:0 212:0 213:1 214:0 215:0 216:0 217:0 218:0 219:1 220:1 221:0 222:0 223:0 224:0 225:0 226:0 227:0 228:0 229:0 230:0 231:1 232:1 233:1 234:1 235:1 236:0 237:0 238:0 239:0 240:0 241:1 242:0 243:0 244:0 245:0 246:0 247:1 248:1 249:0 250:0 251:0 252:0 253:0 254:0 255:0 256:0 257:0 258:0 259:1 260:1 261:1 262:1 263:1 264:0 265:0 266:0 267:0 268:0 269:1 270:0 271:0 272:0 273:0 274:0 275:1 276:1 277:0 278:0 279:0 280:0 281:0 282:0 283:0 284:0 285:0 286:0 287:1 288:1 289:1 290:1 291:1 292:0 293:0 294:0 295:0 296:0 297:1 298:0 299:0 300:0 301:0 302:0 303:1 304:1 305:0 306:0 307:0 308:0 309:0 310:0 311:0 312:0 313:0 314:0 315:1 316:1 317:1 318:1 319:1 320:0 321:0 322:0 323:0 324:0 325:1 326:0 327:0 328:0 329:0 330:0 331:1 332:1 333:0 334:0 335:0 336:0 337:0 338:0 339:0 340:0 341:0 342:0 343:1 #
0.011579167126154536054949417689386 6:0 7:0 8:0 9:0 10:0 11:1 12:0 13:0 14:0 15:0 16:0 17:0 18:0 19:0 20:0 21:0 22:0 23:0 24:0 25:0 26:1 27:0 28:0 29:0 30:0 31:1 32:0 33:0 34:0 35:0 36:0 37:1 38:0 39:0 40:0 41:1 42:0 43:0 44:0 45:0 46:1 47:0 48:0 49:0 50:0 66:1 67:0 68:1 69:0 70:1 71:1 72:1 73:1 74:1 75:1 76:0 77:0 78:0 79:0 80:0 81:0 82:0 83:0 84:1 85:1 86:1 87:1 88:0 89:0 90:1 91:1 92:1 93:1 94:1 95:1 96:0 97:0 98:0 99:0 100:1 101:0 102:0 103:0 104:0 105:1 106:0 107:0 108:1 109:0 110:0 111:0 112:0 113:0 114:0 115:0 116:0 117:0 118:0 119:1 120:1 121:1 122:1 123:1 124:1 125:0 126:0 127:0 128:0 129:0 130:1 131:0 132:0 133:0 134:0 135:0 136:1 137:0 138:0 139:0 140:0 141:0 142:0 143:0 144:0 145:0 146:0 147:1 148:1 149:1 150:1 151:1 152:0 153:0 154:0 155:1 156:0 157:0 158:0 159:0 160:1 161:0 162:0 163:0 164:1 165:0 166:0 167:0 168:0 169:0 170:0 171:0 172:0 173:0 174:0 175:1 176:1 177:1 178:1 179:1 180:1 181:0 182:0 183:0 184:0 185:0 186:1 187:0 188:0 189:0 190:0 191:0 192:1 193:0 194:0 195:0 196:0 197:0 198:0 199:0 200:0 201:0 202:0 203:1 204:0 205:0 206:1 207:1 208:1 209:0 210:0 211:0 212:0 213:0 214:1 215:0 216:0 217:0 218:0 219:0 220:1 221:0 222:0 223:0 224:0 225:0 226:0 227:0 228:0 229:0 230:0 231:1 232:1 233:0 234:1 235:1 236:1 237:0 238:0 239:0 240:0 241:0 242:0 243:0 244:0 245:0 246:0 247:1 248:1 249:0 250:0 251:0 252:0 253:0 254:0 255:0 256:0 257:0 258:0 259:1 260:1 261:0 262:1 263:1 264:1 265:0 266:0 267:0 268:0 269:0 270:0 271:0 272:0 273:0 274:0 275:1 276:1 277:0 278:0 279:0 280:0 281:0 282:0 283:0 284:0 285:0 286:0 287:1 288:1 289:1 290:1 291:1 292:1 293:0 294:0 295:0 296:0 297:0 298:1 299:0 300:0 301:0 302:0 303:0 304:1 305:0 306:0 307:0 308:0 309:0 310:0 311:0 312:0 313:0 314:0 315:1 316:0 317:0 318:1 319:1 320:1 321:0 322:0 323:0 324:0 325:0 326:1 327:0 328:0 329:0 330:0 331:0 332:1 333:0 334:0 335:0 336:0 337:0 338:0 339:0 340:0 341:0 342:0 343:1 #
0.011579167126154536054949417689386 6:0 7:0 8:0 9:0 10:0 11:0 12:0 13:0 14:0 15:0 16:1 17:0 18:0 19:0 20:0 21:0 22:0 23:0 24:0 25:0 26:0 27:0 28:0 29:0 30:1 31:1 32:0 33:0 34:0 35:0 36:0 37:0 38:0 39:0 40:1 41:0 42:1 43:0 44:0 45:0 46:1 47:0 48:0 49:0 50:0 66:1 67:0 68:1 69:1 70:1 71:1 72:1 73:1 74:1 75:1 76:0 77:0 78:0 79:0 80:0 81:0 82:0 83:0 84:1 85:1 86:1 87:1 88:0 89:0 90:0 91:0 92:1 93:1 94:1 95:1 96:0 97:0 98:0 99:0 100:0 101:1 102:0 103:0 104:0 105:0 106:0 107:1 108:1 109:0 110:0 111:0 112:0 113:0 114:0 115:0 116:0 117:0 118:0 119:1 120:1 121:1 122:1 123:1 124:1 125:0 126:0 127:0 128:0 129:0 130:1 131:0 132:0 133:0 134:0 135:0 136:1 137:0 138:0 139:0 140:0 141:0 142:0 143:0 144:0 145:0 146:0 147:1 148:1 149:1 150:1 151:1 152:0 153:0 154:0 155:0 156:0 157:1 158:0 159:0 160:0 161:0 162:0 163:1 164:1 165:0 166:0 167:0 168:0 169:0 170:0 171:0 172:0 173:0 174:0 175:1 176:1 177:1 178:1 179:1 180:0 181:0 182:0 183:0 184:0 185:1 186:0 187:0 188:0 189:0 190:0 191:1 192:1 193:0 194:0 195:0 196:0 197:0 198:0 199:0 200:0 201:0 202:0 203:1 204:1 205:0 206:1 207:1 208:0 209:0 210:0 211:0 212:0 213:1 214:0 215:0 216:0 217:0 218:0 219:1 220:1 221:0 222:0 223:0 224:0 225:0 226:0 227:0 228:0 229:0 230:0 231:1 232:1 233:1 234:1 235:1 236:0 237:0 238:0 239:0 240:0 241:1 242:0 243:0 244:0 245:0 246:0 247:1 248:1 249:0 250:0 251:0 252:0 253:0 254:0 255:0 256:0 257:0 258:0 259:1 260:1 261:1 262:1 263:1 264:0 265:0 266:0 267:0 268:0 269:1 270:0 271:0 272:0 273:0 274:0 275:1 276:1 277:0 278:0 279:0 280:0 281:0 282:0 283:0 284:0 285:0 286:0 287:1 288:1 289:1 290:1 291:1 292:0 293:0 294:0 295:0 296:0 297:1 298:0 299:0 300:0 301:1 302:0 303:0 304:1 305:0 306:0 307:0 308:0 309:0 310:0 311:0 312:0 313:0 314:0 315:1 316:1 317:1 318:1 319:1 320:0 321:0 322:0 323:0 324:0 325:1 326:0 327:0 328:0 329:1 330:0 331:0 332:1 333:0 334:0 335:0 336:0 337:0 338:0 339:0 340:0 341:0 342:0 343:1 #
0.0090164196464787779716765214743646 6:0 7:0 8:0 9:0 10:0 11:0 12:0 13:0 14:0 15:0 16:1 17:0 18:0 19:0 20:0 21:0 22:0 23:0 24:0 25:0 26:0 27:0 28:0 29:0 30:1 31:0 32:0 33:0 34:0 35:0 36:0 37:0 38:0 39:0 40:1 41:0 42:0 43:1 44:0 45:0 46:1 47:0 48:0 49:0 50:0 66:1 67:0 68:1 69:0 70:1 71:1 72:1 73:1 74:1 75:1 76:1 77:1 78:1 79:1 80:0 81:0 82:0 83:0 84:0 85:0 86:1 87:1 88:0 89:0 90:1 91:1 92:1 93:1 94:1 95:1 96:0 97:0 98:0 99:0 100:0 101:1 102:0 103:0 104:0 105:0 106:0 107:1 108:1 109:0 110:0 111:0 112:0 113:0 114:0 115:0 116:0 117:0 118:0 119:1 120:1 121:1 122:1 123:1 124:0 125:0 126:0 127:0 128:0 129:1 130:0 131:0 132:0 133:0 134:0 135:1 136:1 137:0 138:0 139:0 140:0 141:0 142:0 143:0 144:0 145:0 146:0 147:1 148:1 149:1 150:1 151:1 152:0 153:0 154:0 155:0 156:0 157:1 158:0 159:0 160:0 161:0 162:0 163:1 164:1 165:0 166:0 167:0 168:0 169:0 170:0 171:0 172:0 173:0 174:0 175:1 176:1 177:1 178:1 179:1 180:0 181:0 182:0 183:0 184:0 185:1 186:0 187:0 188:0 189:0 190:1 191:0 192:1 193:0 194:0 195:0 196:0 197:0 198:0 199:0 200:0 201:0 202:0 203:1 204:1 205:1 206:1 207:1 208:0 209:0 210:0 211:0 212:0 213:1 214:0 215:0 216:0 217:0 218:0 219:1 220:1 221:0 222:0 223:0 224:0 225:0 226:0 227:0 228:0 229:0 230:0 231:1 232:1 233:0 234:1 235:1 236:0 237:0 238:0 239:0 240:0 241:1 242:1 243:0 244:0 245:0 246:0 247:0 248:1 249:0 250:0 251:0 252:0 253:0 254:0 255:0 256:0 257:0 258:0 259:1 260:1 261:0 262:1 263:1 264:0 265:0 266:0 267:0 268:0 269:1 270:1 271:0 272:0 273:0 274:0 275:0 276:1 277:0 278:0 279:0 280:0 281:0 282:0 283:0 284:0 285:0 286:0 287:1 288:1 289:1 290:1 291:1 292:0 293:0 294:0 295:0 296:0 297:1 298:0 299:0 300:0 301:0 302:0 303:1 304:1 305:0 306:0 307:0 308:0 309:0 310:0 311:0 312:0 313:0 314:0 315:1 316:1 317:1 318:1 319:1 320:0 321:0 322:0 323:0 324:0 325:1 326:0 327:0 328:0 329:1 330:0 331:0 332:1 333:0 334:0 335:0 336:0 337:0 338:0 339:0 340:0 341:0 342:0 343:1 #
0.011579167126154536054949417689386 6:0 7:0 8:0 9:0 10:0 11:0 12:0 13:0 14:0 15:0 16:0 17:0 18:0 19:0 20:0 21:1 22:0 23:0 24:0 25:0 26:0 27:0 28:0 29:0 30:1 31:0 32:1 33:0 34:0 35:0 36:0 37:0 38:0 39:0 40:1 41:0 42:0 43:1 44:0 45:0 46:0 47:1 48:0 49:0 50:0 66:1 67:0 68:1 69:1 70:1 71:1 72:0 73:1 74:1 75:1 76:0 77:0 78:0 79:0 80:1 81:0 82:0 83:0 84:1 85:1 86:1 87:1 88:0 89:0 90:0 91:0 92:1 93:0 94:1 95:1 96:0 97:0 98:0 99:0 100:0 101:1 102:0 103:0 104:0 105:0 106:0 107:1 108:1 109:0 110:0 111:0 112:0 113:0 114:0 115:0 116:0 117:0 118:0 119:1 120:1 121:1 122:1 123:1 124:1 125:0 126:0 127:0 128:0 129:0 130:1 131:0 132:0 133:0 134:0 135:0 136:1 137:0 138:0 139:0 140:0 141:0 142:0 143:0 144:0 145:0 146:0 147:1 148:1 149:1 150:1 151:1 152:0 153:0 154:0 155:0 156:0 157:1 158:0 159:0 160:0 161:0 162:0 163:1 164:1 165:0 166:0 167:0 168:0 169:0 170:0 171:0 172:0 173:0 174:0 175:1 176:1 177:1 178:1 179:1 180:0 181:0 182:0 183:0 184:0 185:1 186:0 187:0 188:0 189:0 190:0 191:1 192:1 193:0 194:0 195:0 196:0 197:0 198:0 199:0 200:0 201:0 202:0 203:1 204:1 205:0 206:1 207:1 208:0 209:0 210:0 211:0 212:0 213:1 214:0 215:1 216:0 217:0 218:0 219:0 220:1 221:0 222:0 223:0 224:0 225:0 226:0 227:0 228:0 229:0 230:0 231:1 232:1 233:0 234:1 235:1 236:0 237:0 238:0 239:0 240:0 241:1 242:0 243:0 244:0 245:0 246:0 247:1 248:1 249:0 250:0 251:0 252:0 253:0 254:0 255:0 256:0 257:0 258:0 259:1 260:1 261:0 262:1 263:1 264:0 265:0 266:0 267:0 268:0 269:1 270:0 271:0 272:0 273:0 274:0 275:1 276:1 277:0 278:0 279:0 280:0 281:0 282:0 283:0 284:0 285:0 286:0 287:1 288:1 289:1 290:1 291:1 292:0 293:0 294:0 295:0 296:0 297:1 298:0 299:0 300:0 301:0 302:0 303:1 304:1 305:0 306:0 307:0 308:0 309:0 310:0 311:0 312:0 313:0 314:0 315:1 316:1 317:0 318:1 319:1 320:0 321:0 322:0 323:0 324:0 325:1 326:1 327:0 328:0 329:0 330:0 331:0 332:1 333:0 334:0 335:0 336:0 337:0 338:0 339:0 340:0 341:0 342:0 343:1 #
-0.011579167126154536054949417689386 6:0 7:0 8:0 9:0 10:0 11:0 12:0 13:0 14:0 15:0 16:1 17:0 18:0 19:0 20:0 21:0 22:0 23:0 24:0 25:0 26:0 27:0 28:0 29:0 30:1 31:0 32:0 33:0 34:0 35:1 36:0 37:0 38:0 39:0 40:1 41:0 42:0 43:1 44:0 45:0 46:1 47:0 48:0 49:0 50:0 66:1 67:0 68:0 69:0 70:1 71:1 72:1 73:1 74:1 75:1 76:1 77:0 78:0 79:0 80:0 81:0 82:0 83:0 84:0 85:1 86:1 87:1 88:1 89:1 90:0 91:0 92:1 93:1 94:1 95:1 96:0 97:0 98:0 99:0 100:0 101:1 102:0 103:0 104:0 105:0 106:0 107:1 108:1 109:0 110:0 111:0 112:0 113:0 114:0 115:0 116:0 117:0 118:0 119:1 120:1 121:1 122:1 123:1 124:1 125:0 126:0 127:0 128:0 129:0 130:1 131:0 132:0 133:0 134:0 135:0 136:1 137:0 138:0 139:0 140:0 141:0 142:0 143:0 144:0 145:0 146:0 147:1 148:1 149:1 150:1 151:1 152:0 153:0 154:0 155:0 156:0 157:1 158:0 159:0 160:0 161:0 162:0 163:1 164:1 165:0 166:0 167:0 168:0 169:0 170:0 171:0 172:0 173:0 174:0 175:1 176:1 177:1 178:1 179:1 180:0 181:0 182:0 183:0 184:0 185:1 186:0 187:0 188:0 189:0 190:0 191:1 192:1 193:0 194:0 195:0 196:0 197:0 198:0 199:0 200:0 201:0 202:0 203:1 204:1 205:1 206:1 207:1 208:0 209:0 210:0 211:0 212:0 213:1 214:0 215:0 216:0 217:0 218:0 219:1 220:1 221:0 222:0 223:0 224:0 225:0 226:0 227:0 228:0 229:0 230:0 231:1 232:1 233:1 234:1 235:1 236:0 237:0 238:0 239:0 240:0 241:1 242:0 243:0 244:0 245:0 246:0 247:1 248:1 249:0 250:0 251:0 252:0 253:0 254:0 255:0 256:0 257:0 258:0 259:1 260:1 261:1 262:1 263:1 264:0 265:0 266:0 267:0 268:0 269:1 270:0 271:0 272:0 273:0 274:0 275:1 276:1 277:0 278:0 279:0 280:0 281:0 282:0 283:0 284:0 285:0 286:0 287:1 288:1 289:1 290:1 291:1 292:0 293:0 294:0 295:0 296:0 297:1 298:0 299:0 300:0 301:1 302:0 303:0 304:1 305:0 306:0 307:0 308:0 309:0 310:0 311:0 312:0 313:0 314:0 315:1 316:1 317:1 318:1 319:1 320:0 321:0 322:0 323:0 324:0 325:1 326:0 327:0 328:0 329:1 330:0 331:0 332:1 333:0 334:0 335:0 336:0 337:0 338:0 339:0 340:0 341:0 342:0 343:1 #
0.011579167126154536054949417689386 6:0 7:0 8:0 9:0 10:0 11:0 12:0 13:0 14:0 15:0 16:1 17:0 18:0 19:0 20:0 21:0 22:0 23:0 24:0 25:0 26:1 27:0 28:0 29:0 30:0 31:0 32:0 33:0 34:0 35:0 36:1 37:0 38:0 39:0 40:0 41:0 42:1 43:0 44:0 45:0 46:1 47:0 48:0 49:0 50:0 66:1 67:0 68:1 69:0 70:1 71:1 72:0 73:1 74:0 75:1 76:0 77:0 78:1 79:1 80:1 81:0 82:1 83:0 84:1 85:1 86:1 87:1 88:0 89:0 90:1 91:1 92:1 93:0 94:1 95:1 96:0 97:1 98:0 99:0 100:0 101:0 102:0 103:1 104:0 105:0 106:0 107:0 108:1 109:0 110:0 111:0 112:0 113:0 114:0 115:1 116:0 117:0 118:0 119:0 120:1 121:1 122:1 123:1 124:1 125:0 126:0 127:0 128:0 129:0 130:1 131:0 132:0 133:0 134:0 135:0 136:1 137:0 138:0 139:0 140:0 141:0 142:0 143:1 144:0 145:0 146:0 147:0 148:1 149:0 150:1 151:1 152:0 153:1 154:0 155:0 156:0 157:0 158:0 159:1 160:0 161:0 162:0 163:0 164:1 165:0 166:0 167:0 168:0 169:0 170:0 171:1 172:0 173:0 174:0 175:0 176:1 177:1 178:1 179:1 180:1 181:0 182:0 183:0 184:0 185:0 186:1 187:0 188:0 189:0 190:0 191:0 192:1 193:0 194:0 195:0 196:0 197:0 198:0 199:1 200:0 201:0 202:0 203:0 204:1 205:1 206:1 207:1 208:0 209:1 210:0 211:0 212:0 213:0 214:0 215:0 216:0 217:1 218:0 219:0 220:1 221:0 222:0 223:0 224:0 225:0 226:0 227:1 228:0 229:0 230:0 231:0 232:1 233:0 234:1 235:1 236:0 237:1 238:0 239:0 240:0 241:0 242:0 243:1 244:0 245:0 246:0 247:0 248:1 249:0 250:0 251:0 252:0 253:0 254:0 255:1 256:0 257:0 258:0 259:0 260:1 261:0 262:1 263:1 264:0 265:1 266:0 267:0 268:0 269:0 270:0 271:1 272:0 273:0 274:0 275:0 276:1 277:0 278:0 279:0 280:0 281:0 282:0 283:1 284:0 285:0 286:0 287:0 288:1 289:1 290:1 291:1 292:0 293:1 294:0 295:0 296:0 297:0 298:1 299:0 300:0 301:0 302:0 303:0 304:1 305:0 306:0 307:0 308:0 309:0 310:0 311:1 312:0 313:0 314:0 315:0 316:1 317:0 318:1 319:1 320:0 321:1 322:0 323:0 324:0 325:0 326:1 327:0 328:0 329:0 330:0 331:0 332:1 333:0 334:0 335:0 336:0 337:0 338:0 339:1 340:0 341:0 342:0 343:0 #
-0.0018385541241963594162600603709734 6:0 7:0 8:0 9:0 10:0 11:0 12:0 13:0 14:0 15:0 16:1 17:0 18:0 19:0 20:0 21:0 22:0 23:0 24:0 25:0 26:0 27:0 28:1 29:0 30:0 31:0 32:0 33:0 34:0 35:0 36:0 37:0 38:1 39:0 40:0 41:0 42:1 43:0 44:0 45:0 46:1 47:0 48:0 49:0 50:0 66:0 67:0 68:1 69:0 70:1 71:1 72:0 73:1 74:0 75:1 76:0 77:0 78:1 79:1 80:1 81:0 82:1 83:0 84:1 85:1 86:1 87:1 88:0 89:0 90:1 91:1 92:1 93:0 94:1 95:1 96:0 97:0 98:0 99:1 100:0 101:0 102:0 103:0 104:0 105:1 106:0 107:0 108:1 109:0 110:0 111:0 112:0 113:0 114:0 115:0 116:0 117:1 118:0 119:0 120:1 121:1 122:1 123:1 124:0 125:0 126:0 127:1 128:0 129:0 130:0 131:0 132:1 133:0 134:0 135:0 136:1 137:0 138:0 139:0 140:0 141:0 142:0 143:0 144:0 145:1 146:0 147:0 148:1 149:0 150:1 151:1 152:0 153:0 154:0 155:1 156:0 157:0 158:0 159:0 160:0 161:0 162:1 163:0 164:1 165:0 166:0 167:0 168:0 169:0 170:0 171:0 172:0 173:1 174:0 175:0 176:1 177:1 178:1 179:1 180:1 181:0 182:0 183:0 184:0 185:0 186:1 187:0 188:0 189:0 190:0 191:0 192:1 193:0 194:0 195:0 196:0 197:0 198:0 199:0 200:0 201:1 202:0 203:0 204:1 205:0 206:1 207:1 208:0 209:0 210:0 211:1 212:0 213:0 214:0 215:1 216:0 217:0 218:0 219:0 220:1 221:0 222:0 223:0 224:0 225:0 226:0 227:0 228:0 229:1 230:0 231:0 232:1 233:0 234:1 235:1 236:0 237:0 238:0 239:1 240:0 241:0 242:0 243:0 244:0 245:0 246:1 247:0 248:1 249:0 250:0 251:0 252:0 253:0 254:0 255:0 256:0 257:1 258:0 259:0 260:1 261:0 262:1 263:1 264:0 265:0 266:0 267:1 268:0 269:0 270:0 271:0 272:0 273:0 274:1 275:0 276:1 277:0 278:0 279:0 280:0 281:0 282:0 283:0 284:0 285:1 286:0 287:0 288:1 289:0 290:1 291:1 292:0 293:0 294:0 295:1 296:0 297:0 298:0 299:0 300:0 301:1 302:0 303:0 304:1 305:0 306:0 307:0 308:0 309:0 310:0 311:0 312:0 313:1 314:0 315:0 316:1 317:0 318:1 319:1 320:0 321:0 322:0 323:1 324:0 325:0 326:0 327:0 328:0 329:1 330:0 331:0 332:1 333:0 334:0 335:0 336:0 337:0 338:0 339:0 340:0 341:1 342:0 343:0 #
-0.011579167126154536054949417689386 6:0 7:0 8:0 9:0 10:0 11:1 12:0 13:0 14:0 15:0 16:0 17:0 18:0 19:0 20:0 21:0 22:0 23:0 24:0 25:0 26:1 27:0 28:0 29:0 30:0 31:0 32:0 33:0 34:0 35:0 36:0 37:1 38:0 39:0 40:0 41:1 42:0 43:0 44:0 45:0 46:1 47:0 48:0 49:0 50:0 66:1 67:0 68:1 69:0 70:1 71:1 72:0 73:1 74:0 75:1 76:0 77:0 78:1 79:1 80:1 81:0 82:1 83:0 84:1 85:1 86:1 87:1 88:0 89:0 90:1 91:1 92:1 93:0 94:1 95:1 96:1 97:0 98:0 99:0 100:0 101:0 102:0 103:0 104:1 105:0 106:0 107:0 108:1 109:0 110:0 111:0 112:0 113:0 114:1 115:0 116:0 117:0 118:0 119:0 120:1 121:1 122:1 123:1 124:1 125:0 126:0 127:0 128:0 129:0 130:1 131:0 132:0 133:0 134:0 135:0 136:1 137:0 138:0 139:0 140:0 141:0 142:1 143:0 144:0 145:0 146:0 147:0 148:1 149:0 150:1 151:1 152:1 153:0 154:0 155:0 156:0 157:0 158:0 159:0 160:1 161:0 162:0 163:0 164:1 165:0 166:0 167:0 168:0 169:0 170:1 171:0 172:0 173:0 174:0 175:0 176:1 177:1 178:1 179:1 180:1 181:0 182:0 183:0 184:0 185:0 186:1 187:0 188:0 189:0 190:0 191:0 192:1 193:0 194:0 195:0 196:0 197:0 198:1 199:0 200:0 201:0 202:0 203:0 204:1 205:0 206:1 207:1 208:1 209:0 210:0 211:0 212:0 213:0 214:1 215:0 216:0 217:0 218:0 219:0 220:1 221:0 222:0 223:0 224:0 225:0 226:1 227:0 228:0 229:0 230:0 231:0 232:1 233:0 234:1 235:1 236:1 237:0 238:0 239:0 240:0 241:0 242:1 243:0 244:0 245:0 246:0 247:0 248:1 249:0 250:0 251:0 252:0 253:0 254:1 255:0 256:0 257:0 258:0 259:0 260:1 261:0 262:1 263:1 264:1 265:0 266:0 267:0 268:0 269:0 270:1 271:0 272:0 273:0 274:0 275:0 276:1 277:0 278:0 279:0 280:0 281:0 282:1 283:0 284:0 285:0 286:0 287:0 288:1 289:1 290:1 291:1 292:1 293:0 294:0 295:0 296:0 297:0 298:1 299:0 300:0 301:0 302:0 303:0 304:1 305:0 306:0 307:0 308:0 309:0 310:1 311:0 312:0 313:0 314:0 315:0 316:1 317:0 318:1 319:1 320:1 321:0 322:0 323:0 324:0 325:0 326:1 327:0 328:0 329:0 330:0 331:0 332:1 333:0 334:0 335:0 336:0 337:0 338:1 339:0 340:0 341:0 342:0 343:0 #
-0.011579167126154536054949417689386 6:0 7:0 8:0 9:0 10:0 11:1 12:0 13:0 14:0 15:0 16:0 17:0 18:0 19:0 20:0 21:0 22:0 23:0 24:0 25:0 26:0 27:0 28:0 29:0 30:1 31:0 32:1 33:0 34:0 35:0 36:0 37:0 38:0 39:0 40:1 41:0 42:0 43:1 44:0 45:0 46:1 47:0 48:0 49:0 50:0 66:0 67:0 68:0 69:0 70:1 71:1 72:1 73:1 74:1 75:1 76:1 77:0 78:1 79:1 80:0 81:0 82:0 83:0 84:0 85:1 86:1 87:1 88:1 89:1 90:1 91:1 92:1 93:1 94:1 95:1 96:0 97:0 98:0 99:0 100:0 101:1 102:0 103:0 104:0 105:0 106:0 107:1 108:1 109:0 110:0 111:0 112:0 113:0 114:0 115:0 116:0 117:0 118:0 119:1 120:1 121:1 122:1 123:1 124:1 125:0 126:0 127:0 128:0 129:0 130:1 131:0 132:0 133:0 134:0 135:0 136:1 137:0 138:0 139:0 140:0 141:0 142:0 143:0 144:0 145:0 146:0 147:1 148:1 149:1 150:1 151:1 152:0 153:0 154:0 155:0 156:0 157:1 158:0 159:0 160:0 161:0 162:0 163:1 164:1 165:0 166:0 167:0 168:0 169:0 170:0 171:0 172:0 173:0 174:0 175:1 176:1 177:1 178:1 179:1 180:0 181:0 182:0 183:0 184:0 185:1 186:0 187:0 188:0 189:0 190:0 191:1 192:1 193:0 194:0 195:0 196:0 197:0 198:0 199:0 200:0 201:0 202:0 203:1 204:1 205:1 206:1 207:1 208:0 209:0 210:0 211:0 212:0 213:1 214:0 215:0 216:0 217:0 218:0 219:1 220:1 221:0 222:0 223:0 224:0 225:0 226:0 227:0 228:0 229:0 230:0 231:1 232:1 233:1 234:1 235:1 236:0 237:0 238:0 239:0 240:0 241:1 242:0 243:0 244:0 245:0 246:0 247:1 248:1 249:0 250:0 251:0 252:0 253:0 254:0 255:0 256:0 257:0 258:0 259:1 260:1 261:1 262:1 263:1 264:0 265:0 266:0 267:0 268:0 269:1 270:0 271:0 272:0 273:0 274:0 275:1 276:1 277:0 278:0 279:0 280:0 281:0 282:0 283:0 284:0 285:0 286:0 287:1 288:1 289:1 290:1 291:1 292:0 293:0 294:0 295:0 296:0 297:1 298:0 299:0 300:0 301:0 302:0 303:1 304:1 305:0 306:0 307:0 308:0 309:0 310:0 311:0 312:0 313:0 314:0 315:1 316:1 317:1 318:1 319:1 320:0 321:0 322:0 323:0 324:0 325:1 326:0 327:0 328:0 329:0 330:1 331:0 332:1 333:0 334:0 335:0 336:0 337:0 338:0 339:0 340:0 341:0 342:0 343:1 #
0.011579167126154536054949417689386 6:0 7:0 8:0 9:0 10:0 11:0 12:0 13:0 14:0 15:0 16:1 17:0 18:0 19:0 20:0 21:1 22:0 23:0 24:0 25:0 26:0 27:0 28:0 29:0 30:1 31:0 32:0 33:0 34:0 35:0 36:0 37:0 38:0 39:1 40:0 41:0 42:0 43:1 44:0 45:0 46:0 47:1 48:0 49:0 50:0 66:0 67:0 68:1 69:0 70:1 71:1 72:0 73:1 74:1 75:1 76:1 77:0 78:1 79:1 80:1 81:0 82:0 83:0 84:0 85:1 86:1 87:1 88:0 89:0 90:1 91:1 92:1 93:0 94:1 95:1 96:0 97:0 98:1 99:0 100:0 101:0 102:1 103:0 104:0 105:0 106:0 107:0 108:1 109:0 110:0 111:0 112:0 113:0 114:0 115:1 116:0 117:0 118:0 119:0 120:1 121:1 122:1 123:1 124:1 125:0 126:0 127:0 128:0 129:0 130:1 131:0 132:0 133:0 134:0 135:0 136:1 137:0 138:0 139:0 140:0 141:0 142:0 143:1 144:0 145:0 146:0 147:0 148:1 149:1 150:1 151:1 152:0 153:0 154:1 155:0 156:0 157:0 158:0 159:0 160:1 161:0 162:0 163:0 164:1 165:0 166:0 167:0 168:0 169:0 170:0 171:1 172:0 173:0 174:0 175:0 176:1 177:1 178:1 179:1 180:0 181:0 182:1 183:0 184:0 185:0 186:0 187:0 188:1 189:0 190:0 191:0 192:1 193:0 194:0 195:0 196:0 197:0 198:0 199:1 200:0 201:0 202:0 203:0 204:1 205:1 206:1 207:1 208:0 209:0 210:0 211:1 212:0 213:0 214:0 215:0 216:0 217:1 218:0 219:0 220:1 221:0 222:0 223:0 224:0 225:0 226:0 227:1 228:0 229:0 230:0 231:0 232:1 233:0 234:1 235:1 236:0 237:0 238:1 239:0 240:0 241:0 242:1 243:0 244:0 245:0 246:0 247:0 248:1 249:0 250:0 251:0 252:0 253:0 254:0 255:1 256:0 257:0 258:0 259:0 260:1 261:0 262:1 263:1 264:0 265:0 266:1 267:0 268:0 269:0 270:1 271:0 272:0 273:0 274:0 275:0 276:1 277:0 278:0 279:0 280:0 281:0 282:0 283:1 284:0 285:0 286:0 287:0 288:1 289:1 290:1 291:1 292:0 293:0 294:0 295:1 296:0 297:0 298:0 299:0 300:1 301:0 302:0 303:0 304:1 305:0 306:0 307:0 308:0 309:0 310:0 311:1 312:0 313:0 314:0 315:0 316:1 317:1 318:1 319:1 320:0 321:0 322:0 323:1 324:0 325:0 326:0 327:0 328:0 329:1 330:0 331:0 332:1 333:0 334:0 335:0 336:0 337:0 338:0 339:1 340:0 341:0 342:0 343:0 #
-0.011579167126154536054949417689386 6:0 7:0 8:0 9:0 10:0 11:1 12:0 13:0 14:0 15:0 16:0 17:0 18:0 19:0 20:0 21:0 22:0 23:0 24:0 25:0 26:0 27:0 28:1 29:0 30:0 31:0 32:0 33:0 34:0 35:0 36:0 37:0 38:0 39:1 40:0 41:1 42:0 43:0 44:0 45:0 46:1 47:0 48:0 49:0 50:0 66:1 67:0 68:1 69:0 70:1 71:1 72:0 73:1 74:0 75:1 76:0 77:0 78:1 79:1 80:1 81:0 82:1 83:0 84:1 85:1 86:1 87:1 88:0 89:0 90:1 91:1 92:0 93:0 94:1 95:1 96:0 97:0 98:1 99:0 100:0 101:0 102:0 103:0 104:0 105:0 106:0 107:1 108:1 109:0 110:0 111:0 112:0 113:0 114:0 115:1 116:0 117:0 118:0 119:0 120:0 121:1 122:1 123:1 124:1 125:0 126:0 127:0 128:0 129:0 130:0 131:0 132:1 133:0 134:0 135:0 136:1 137:0 138:0 139:0 140:0 141:0 142:0 143:1 144:0 145:0 146:0 147:0 148:0 149:0 150:1 151:1 152:0 153:0 154:1 155:0 156:0 157:0 158:0 159:0 160:0 161:0 162:0 163:1 164:1 165:0 166:0 167:0 168:0 169:0 170:0 171:1 172:0 173:0 174:0 175:0 176:1 177:1 178:1 179:1 180:0 181:0 182:0 183:1 184:0 185:0 186:0 187:0 188:1 189:0 190:0 191:0 192:1 193:0 194:0 195:0 196:0 197:0 198:0 199:1 200:0 201:0 202:0 203:0 204:1 205:1 206:1 207:1 208:0 209:0 210:1 211:0 212:0 213:0 214:0 215:0 216:0 217:0 218:0 219:1 220:1 221:0 222:0 223:0 224:0 225:0 226:0 227:1 228:0 229:0 230:0 231:0 232:1 233:0 234:1 235:1 236:0 237:0 238:1 239:0 240:0 241:0 242:1 243:0 244:0 245:0 246:0 247:0 248:1 249:0 250:0 251:0 252:0 253:0 254:0 255:1 256:0 257:0 258:0 259:0 260:1 261:0 262:1 263:1 264:0 265:0 266:1 267:0 268:0 269:0 270:1 271:0 272:0 273:0 274:0 275:0 276:1 277:0 278:0 279:0 280:0 281:0 282:0 283:1 284:0 285:0 286:0 287:0 288:1 289:1 290:1 291:1 292:0 293:0 294:0 295:1 296:0 297:0 298:0 299:0 300:1 301:0 302:0 303:0 304:1 305:0 306:0 307:0 308:0 309:0 310:0 311:1 312:0 313:0 314:0 315:0 316:1 317:1 318:1 319:1 320:0 321:0 322:1 323:0 324:0 325:0 326:0 327:0 328:0 329:0 330:1 331:0 332:1 333:0 334:0 335:0 336:0 337:0 338:0 339:1 340:0 341:0 342:0 343:0 #
0.011579167126154536054949417689386 6:0 7:0 8:0 9:0 10:0 11:0 12:0 13:0 14:0 15:0 16:1 17:0 18:0 19:0 20:0 21:0 22:0 23:0 24:0 25:0 26:1 27:0 28:0 29:0 30:0 31:0 32:0 33:0 34:0 35:0 36:0 37:0 38:0 39:0 40:0 41:0 42:1 43:0 44:0 45:0 46:1 47:0 48:0 49:0 50:0 66:0 67:0 68:1 69:0 70:1 71:1 72:0 73:1 74:1 75:1 76:0 77:0 78:1 79:0 80:1 81:0 82:0 83:0 84:1 85:1 86:1 87:1 88:0 89:0 90:0 91:0 92:1 93:0 94:1 95:1 96:0 97:1 98:0 99:0 100:0 101:0 102:1 103:0 104:0 105:0 106:0 107:0 108:1 109:0 110:0 111:0 112:0 113:0 114:0 115:1 116:0 117:0 118:0 119:0 120:1 121:1 122:1 123:1 124:0 125:1 126:0 127:0 128:0 129:0 130:0 131:1 132:0 133:0 134:0 135:0 136:1 137:0 138:0 139:0 140:0 141:0 142:0 143:1 144:0 145:0 146:0 147:0 148:1 149:1 150:1 151:1 152:0 153:1 154:0 155:0 156:0 157:0 158:0 159:1 160:0 161:0 162:0 163:0 164:1 165:0 166:0 167:0 168:0 169:0 170:0 171:1 172:0 173:0 174:0 175:0 176:1 177:1 178:1 179:1 180:1 181:0 182:0 183:0 184:0 185:0 186:1 187:0 188:0 189:0 190:0 191:0 192:1 193:0 194:0 195:0 196:0 197:0 198:0 199:1 200:0 201:0 202:0 203:0 204:1 205:0 206:1 207:1 208:0 209:1 210:0 211:0 212:0 213:0 214:0 215:1 216:0 217:0 218:0 219:0 220:1 221:0 222:0 223:0 224:0 225:0 226:0 227:1 228:0 229:0 230:0 231:0 232:1 233:0 234:1 235:1 236:0 237:1 238:0 239:0 240:0 241:0 242:0 243:1 244:0 245:0 246:0 247:0 248:1 249:0 250:0 251:0 252:0 253:0 254:0 255:1 256:0 257:0 258:0 259:0 260:1 261:0 262:1 263:1 264:0 265:1 266:0 267:0 268:0 269:0 270:0 271:1 272:0 273:0 274:0 275:0 276:1 277:0 278:0 279:0 280:0 281:0 282:0 283:1 284:0 285:0 286:0 287:0 288:1 289:1 290:1 291:1 292:0 293:1 294:0 295:0 296:0 297:0 298:0 299:1 300:0 301:0 302:0 303:0 304:1 305:0 306:0 307:0 308:0 309:0 310:0 311:1 312:0 313:0 314:0 315:0 316:1 317:1 318:1 319:1 320:0 321:0 322:1 323:0 324:0 325:0 326:1 327:0 328:0 329:0 330:0 331:0 332:1 333:0 334:0 335:0 336:0 337:0 338:0 339:1 340:0 341:0 342:0 343:0 #
-0.011579167126154536054949417689386 6:0 7:0 8:0 9:0 10:0 11:0 12:0 13:0 14:0 15:0 16:1 17:0 18:0 19:0 20:0 21:0 22:0 23:0 24:0 25:0 26:1 27:0 28:0 29:0 30:0 31:0 32:0 33:0 34:0 35:0 36:0 37:0 38:0 39:0 40:0 41:0 42:1 43:0 44:0 45:0 46:1 47:0 48:0 49:0 50:0 66:1 67:0 68:1 69:0 70:1 71:1 72:0 73:1 74:1 75:1 76:0 77:0 78:0 79:1 80:1 81:0 82:0 83:0 84:1 85:1 86:1 87:1 88:1 89:1 90:0 91:0 92:1 93:0 94:1 95:1 96:0 97:1 98:0 99:0 100:0 101:0 102:0 103:1 104:0 105:0 106:0 107:0 108:1 109:0 110:0 111:0 112:0 113:0 114:0 115:1 116:0 117:0 118:0 119:0 120:1 121:1 122:1 123:1 124:0 125:1 126:0 127:0 128:0 129:0 130:0 131:1 132:0 133:0 134:0 135:0 136:1 137:0 138:0 139:0 140:0 141:0 142:0 143:1 144:0 145:0 146:0 147:0 148:1 149:1 150:1 151:1 152:0 153:1 154:0 155:0 156:0 157:0 158:0 159:1 160:0 161:0 162:0 163:0 164:1 165:0 166:0 167:0 168:0 169:0 170:0 171:1 172:0 173:0 174:0 175:0 176:1 177:1 178:1 179:1 180:0 181:1 182:0 183:0 184:0 185:0 186:0 187:1 188:0 189:0 190:0 191:0 192:1 193:0 194:0 195:0 196:0 197:0 198:0 199:1 200:0 201:0 202:0 203:0 204:1 205:0 206:1 207:1 208:0 209:1 210:0 211:0 212:0 213:0 214:1 215:0 216:0 217:0 218:0 219:0 220:1 221:0 222:0 223:0 224:0 225:0 226:0 227:1 228:0 229:0 230:0 231:0 232:1 233:1 234:1 235:1 236:0 237:0 238:1 239:0 240:0 241:0 242:0 243:1 244:0 245:0 246:0 247:0 248:1 249:0 250:0 251:0 252:0 253:0 254:0 255:1 256:0 257:0 258:0 259:0 260:1 261:1 262:1 263:1 264:0 265:0 266:1 267:0 268:0 269:0 270:0 271:1 272:0 273:0 274:0 275:0 276:1 277:0 278:0 279:0 280:0 281:0 282:0 283:1 284:0 285:0 286:0 287:0 288:1 289:1 290:1 291:1 292:0 293:0 294:1 295:0 296:0 297:0 298:0 299:1 300:0 301:0 302:0 303:0 304:1 305:0 306:0 307:0 308:0 309:0 310:0 311:1 312:0 313:0 314:0 315:0 316:0 317:1 318:1 319:1 320:0 321:0 322:1 323:0 324:0 325:0 326:0 327:1 328:0 329:0 330:0 331:0 332:1 333:0 334:0 335:0 336:0 337:0 338:0 339:1 340:0 341:0 342:0 343:0 #
0.011579167126154536054949417689386 6:0 7:0 8:0 9:0 10:0 11:0 12:0 13:0 14:0 15:0 16:1 17:0 18:0 19:0 20:0 21:0 22:0 23:0 24:0 25:0 26:1 27:0 28:0 29:0 30:0 31:0 32:0 33:0 34:0 35:0 36:0 37:0 38:0 39:0 40:0 41:0 42:1 43:0 44:0 45:0 46:1 47:0 48:0 49:0 50:0 66:0 67:0 68:0 69:1 70:1 71:1 72:1 73:1 74:0 75:1 76:0 77:0 78:1 79:1 80:0 81:0 82:1 83:0 84:1 85:1 86:1 87:1 88:1 89:1 90:1 91:1 92:1 93:1 94:1 95:1 96:0 97:1 98:0 99:0 100:0 101:0 102:0 103:1 104:0 105:0 106:0 107:0 108:1 109:0 110:0 111:0 112:0 113:0 114:0 115:1 116:0 117:0 118:0 119:0 120:1 121:1 122:1 123:1 124:0 125:1 126:0 127:0 128:0 129:0 130:0 131:1 132:0 133:0 134:0 135:0 136:1 137:0 138:0 139:0 140:0 141:0 142:0 143:1 144:0 145:0 146:0 147:0 148:1 149:0 150:1 151:1 152:0 153:1 154:0 155:0 156:0 157:0 158:1 159:0 160:0 161:0 162:0 163:0 164:1 165:0 166:0 167:0 168:0 169:0 170:0 171:1 172:0 173:0 174:0 175:0 176:1 177:1 178:1 179:1 180:0 181:1 182:0 183:0 184:0 185:0 186:0 187:1 188:0 189:0 190:0 191:0 192:1 193:0 194:0 195:0 196:0 197:0 198:0 199:1 200:0 201:0 202:0 203:0 204:1 205:0 206:1 207:1 208:0 209:1 210:0 211:0 212:0 213:0 214:1 215:0 216:0 217:0 218:0 219:0 220:1 221:0 222:0 223:0 224:0 225:0 226:0 227:1 228:0 229:0 230:0 231:0 232:1 233:1 234:1 235:1 236:0 237:1 238:0 239:0 240:0 241:0 242:0 243:1 244:0 245:0 246:0 247:0 248:1 249:0 250:0 251:0 252:0 253:0 254:0 255:1 256:0 257:0 258:0 259:0 260:1 261:1 262:1 263:1 264:0 265:1 266:0 267:0 268:0 269:0 270:0 271:1 272:0 273:0 274:0 275:0 276:1 277:0 278:0 279:0 280:0 281:0 282:0 283:1 284:0 285:0 286:0 287:0 288:1 289:1 290:1 291:1 292:1 293:0 294:0 295:0 296:0 297:0 298:1 299:0 300:0 301:0 302:0 303:0 304:1 305:0 306:0 307:0 308:0 309:0 310:0 311:1 312:0 313:0 314:0 315:0 316:1 317:1 318:1 319:1 320:0 321:1 322:0 323:0 324:0 325:0 326:0 327:1 328:0 329:0 330:0 331:0 332:1 333:0 334:0 335:0 336:0 337:0 338:0 339:1 340:0 341:0 342:0 343:0 #
0.011579167126154536054949417689386 6:0 7:0 8:0 9:0 10:0 11:0 12:0 13:0 14:0 15:0 16:1 17:0 18:0 19:0 20:0 21:0 22:0 23:0 24:0 25:0 26:1 27:0 28:0 29:0 30:0 31:1 32:0 33:0 34:0 35:0 36:1 37:0 38:0 39:0 40:0 41:0 42:1 43:0 44:0 45:0 46:1 47:0 48:0 49:0 50:0 66:0 67:0 68:1 69:1 70:1 71:1 72:0 73:1 74:1 75:1 76:0 77:0 78:0 79:0 80:1 81:0 82:0 83:0 84:1 85:1 86:1 87:1 88:0 89:0 90:0 91:0 92:1 93:0 94:1 95:1 96:0 97:1 98:0 99:0 100:0 101:0 102:0 103:1 104:0 105:0 106:0 107:0 108:1 109:0 110:0 111:0 112:0 113:0 114:0 115:1 116:0 117:0 118:0 119:0 120:1 121:1 122:1 123:1 124:0 125:1 126:0 127:0 128:0 129:0 130:1 131:0 132:0 133:0 134:0 135:0 136:1 137:0 138:0 139:0 140:0 141:0 142:0 143:1 144:0 145:0 146:0 147:0 148:1 149:1 150:1 151:1 152:0 153:1 154:0 155:0 156:0 157:0 158:0 159:1 160:0 161:0 162:0 163:0 164:1 165:0 166:0 167:0 168:0 169:0 170:0 171:1 172:0 173:0 174:0 175:0 176:1 177:1 178:1 179:1 180:0 181:1 182:0 183:0 184:0 185:0 186:0 187:1 188:0 189:0 190:0 191:0 192:1 193:0 194:0 195:0 196:0 197:0 198:0 199:1 200:0 201:0 202:0 203:0 204:1 205:0 206:1 207:1 208:0 209:1 210:0 211:0 212:0 213:0 214:0 215:1 216:0 217:0 218:0 219:0 220:1 221:0 222:0 223:0 224:0 225:0 226:0 227:1 228:0 229:0 230:0 231:0 232:1 233:1 234:1 235:1 236:0 237:1 238:0 239:0 240:0 241:0 242:0 243:0 244:1 245:0 246:0 247:0 248:1 249:0 250:0 251:0 252:0 253:0 254:0 255:1 256:0 257:0 258:0 259:0 260:1 261:1 262:1 263:1 264:0 265:1 266:0 267:0 268:0 269:0 270:0 271:0 272:1 273:0 274:0 275:0 276:1 277:0 278:0 279:0 280:0 281:0 282:0 283:1 284:0 285:0 286:0 287:0 288:1 289:1 290:1 291:1 292:0 293:1 294:0 295:0 296:0 297:0 298:0 299:1 300:0 301:0 302:0 303:0 304:1 305:0 306:0 307:0 308:0 309:0 310:0 311:1 312:0 313:0 314:0 315:0 316:1 317:1 318:1 319:1 320:0 321:0 322:0 323:0 324:0 325:1 326:0 327:1 328:0 329:0 330:0 331:0 332:1 333:0 334:0 335:0 336:0 337:0 338:0 339:1 340:0 341:0 342:0 343:0 #
-0.011579167126154536054949417689386 6:0 7:0 8:0 9:0 10:0 11:0 12:0 13:0 14:0 15:0 16:1 17:0 18:0 19:0 20:0 21:0 22:0 23:0 24:0 25:0 26:1 27:0 28:0 29:0 30:0 31:0 32:0 33:0 34:0 35:0 36:0 37:0 38:0 39:0 40:0 41:0 42:1 43:0 44:0 45:0 46:1 47:0 48:0 49:0 50:0 66:0 67:0 68:0 69:0 70:1 71:1 72:0 73:1 74:1 75:1 76:0 77:0 78:0 79:1 80:1 81:0 82:0 83:0 84:1 85:1 86:1 87:1 88:1 89:1 90:0 91:0 92:1 93:0 94:1 95:1 96:0 97:1 98:0 99:0 100:0 101:0 102:0 103:1 104:0 105:0 106:0 107:0 108:1 109:0 110:0 111:0 112:0 113:0 114:0 115:1 116:0 117:0 118:0 119:0 120:1 121:1 122:1 123:1 124:0 125:1 126:0 127:0 128:0 129:0 130:0 131:1 132:0 133:0 134:0 135:0 136:1 137:0 138:0 139:0 140:0 141:0 142:0 143:1 144:0 145:0 146:0 147:0 148:1 149:1 150:1 151:1 152:0 153:0 154:1 155:0 156:0 157:0 158:0 159:1 160:0 161:0 162:0 163:0 164:1 165:0 166:0 167:0 168:0 169:0 170:0 171:1 172:0 173:0 174:0 175:0 176:1 177:1 178:1 179:1 180:0 181:1 182:0 183:0 184:0 185:0 186:0 187:1 188:0 189:0 190:0 191:0 192:1 193:0 194:0 195:0 196:0 197:0 198:0 199:1 200:0 201:0 202:0 203:0 204:1 205:1 206:1 207:1 208:0 209:1 210:0 211:0 212:0 213:0 214:0 215:1 216:0 217:0 218:0 219:0 220:1 221:0 222:0 223:0 224:0 225:0 226:0 227:1 228:0 229:0 230:0 231:0 232:1 233:1 234:1 235:1 236:0 237:0 238:1 239:0 240:0 241:0 242:0 243:1 244:0 245:0 246:0 247:0 248:1 249:0 250:0 251:0 252:0 253:0 254:0 255:1 256:0 257:0 258:0 259:0 260:1 261:1 262:1 263:1 264:0 265:0 266:1 267:0 268:0 269:0 270:0 271:1 272:0 273:0 274:0 275:0 276:1 277:0 278:0 279:0 280:0 281:0 282:0 283:1 284:0 285:0 286:0 287:0 288:1 289:1 290:1 291:1 292:0 293:0 294:1 295:0 296:0 297:0 298:0 299:1 300:0 301:0 302:0 303:0 304:1 305:0 306:0 307:0 308:0 309:0 310:0 311:1 312:0 313:0 314:0 315:0 316:1 317:1 318:1 319:1 320:0 321:0 322:1 323:0 324:0 325:0 326:0 327:1 328:0 329:0 330:0 331:0 332:1 333:0 334:0 335:0 336:0 337:0 338:0 339:1 340:0 341:0 342:0 343:0 #
-0.011579167126154536054949417689386 6:0 7:0 8:0 9:0 10:0 11:0 12:0 13:0 14:0 15:0 16:1 17:0 18:0 19:0 20:0 21:0 22:0 23:0 24:0 25:0 26:1 27:0 28:0 29:0 30:0 31:0 32:0 33:0 34:0 35:0 36:0 37:0 38:0 39:0 40:0 41:0 42:1 43:0 44:0 45:0 46:1 47:0 48:0 49:0 50:0 66:1 67:0 68:1 69:0 70:1 71:1 72:0 73:1 74:0 75:1 76:0 77:0 78:1 79:0 80:1 81:0 82:1 83:0 84:1 85:1 86:1 87:1 88:0 89:0 90:1 91:1 92:1 93:0 94:1 95:1 96:0 97:1 98:0 99:0 100:0 101:0 102:0 103:1 104:0 105:0 106:0 107:0 108:1 109:0 110:0 111:0 112:0 113:0 114:0 115:1 116:0 117:0 118:0 119:0 120:1 121:1 122:1 123:1 124:0 125:1 126:0 127:0 128:0 129:0 130:0 131:1 132:0 133:0 134:0 135:0 136:1 137:0 138:0 139:0 140:0 141:0 142:0 143:1 144:0 145:0 146:0 147:0 148:1 149:0 150:1 151:1 152:0 153:1 154:0 155:0 156:0 157:0 158:0 159:0 160:1 161:0 162:0 163:0 164:1 165:0 166:0 167:0 168:0 169:0 170:0 171:1 172:0 173:0 174:0 175:0 176:1 177:1 178:1 179:1 180:0 181:1 182:0 183:0 184:0 185:0 186:0 187:1 188:0 189:0 190:0 191:0 192:1 193:0 194:0 195:0 196:0 197:0 198:0 199:1 200:0 201:0 202:0 203:0 204:1 205:0 206:1 207:1 208:0 209:1 210:0 211:0 212:0 213:0 214:0 215:1 216:0 217:0 218:0 219:0 220:1 221:0 222:0 223:0 224:0 225:0 226:0 227:1 228:0 229:0 230:0 231:0 232:1 233:0 234:1 235:1 236:0 237:1 238:0 239:0 240:0 241:0 242:0 243:0 244:1 245:0 246:0 247:0 248:1 249:0 250:0 251:0 252:0 253:0 254:0 255:1 256:0 257:0 258:0 259:0 260:1 261:0 262:1 263:1 264:0 265:1 266:0 267:0 268:0 269:0 270:0 271:0 272:1 273:0 274:0 275:0 276:1 277:0 278:0 279:0 280:0 281:0 282:0 283:1 284:0 285:0 286:0 287:0 288:1 289:1 290:1 291:1 292:0 293:1 294:0 295:0 296:0 297:0 298:1 299:0 300:0 301:0 302:0 303:0 304:1 305:0 306:0 307:0 308:0 309:0 310:0 311:1 312:0 313:0 314:0 315:0 316:1 317:1 318:1 319:1 320:0 321:1 322:0 323:0 324:0 325:0 326:1 327:0 328:0 329:0 330:0 331:0 332:1 333:0 334:0 335:0 336:0 337:0 338:0 339:1 340:0 341:0 342:0 343:0 #
-0.011579167126154536054949417689386 6:0 7:0 8:0 9:0 10:0 11:1 12:0 13:0 14:0 15:0 16:0 17:0 18:0 19:0 20:0 21:0 22:0 23:0 24:0 25:0 26:0 27:0 28:0 29:0 30:1 31:0 32:1 33:0 34:0 35:0 36:0 37:0 38:0 39:0 40:1 41:0 42:1 43:0 44:0 45:0 46:1 47:0 48:0 49:0 50:0 66:0 67:0 68:1 69:0 70:0 71:1 72:0 73:1 74:0 75:1 76:1 77:0 78:1 79:1 80:1 81:0 82:1 83:0 84:0 85:1 86:1 87:1 88:0 89:0 90:1 91:1 92:1 93:0 94:1 95:1 96:1 97:0 98:0 99:0 100:0 101:0 102:1 103:0 104:0 105:0 106:0 107:0 108:1 109:0 110:0 111:0 112:0 113:0 114:0 115:0 116:1 117:0 118:0 119:0 120:1 121:1 122:1 123:1 124:1 125:0 126:0 127:0 128:0 129:0 130:1 131:0 132:0 133:0 134:0 135:0 136:1 137:0 138:0 139:0 140:0 141:0 142:0 143:0 144:1 145:0 146:0 147:0 148:1 149:0 150:1 151:1 152:0 153:0 154:0 155:0 156:0 157:1 158:0 159:1 160:0 161:0 162:0 163:0 164:1 165:0 166:0 167:0 168:0 169:0 170:0 171:0 172:1 173:0 174:0 175:0 176:1 177:1 178:1 179:1 180:1 181:0 182:0 183:0 184:0 185:0 186:1 187:0 188:0 189:0 190:0 191:0 192:1 193:0 194:0 195:0 196:0 197:0 198:0 199:0 200:1 201:0 202:0 203:0 204:1 205:1 206:1 207:1 208:0 209:0 210:0 211:0 212:1 213:0 214:0 215:0 216:0 217:0 218:0 219:1 220:1 221:0 222:0 223:0 224:0 225:0 226:0 227:0 228:1 229:0 230:0 231:0 232:1 233:0 234:1 235:1 236:0 237:0 238:0 239:0 240:0 241:1 242:1 243:0 244:0 245:0 246:0 247:0 248:1 249:0 250:0 251:0 252:0 253:0 254:0 255:0 256:1 257:0 258:0 259:0 260:1 261:0 262:1 263:1 264:0 265:0 266:0 267:0 268:0 269:1 270:1 271:0 272:0 273:0 274:0 275:0 276:1 277:0 278:0 279:0 280:0 281:0 282:0 283:0 284:1 285:0 286:0 287:0 288:1 289:0 290:1 291:1 292:1 293:0 294:0 295:0 296:0 297:0 298:1 299:0 300:0 301:0 302:0 303:0 304:1 305:0 306:0 307:0 308:0 309:0 310:0 311:0 312:1 313:0 314:0 315:0 316:1 317:1 318:1 319:1 320:0 321:0 322:1 323:0 324:0 325:0 326:0 327:0 328:0 329:1 330:0 331:0 332:1 333:0 334:0 335:0 336:0 337:0 338:0 339:0 340:1 341:0 342:0 343:0 #
0.011579167126154536054949417689386 6:0 7:0 8:0 9:0 10:0 11:1 12:0 13:0 14:0 15:0 16:0 17:0 18:0 19:0 20:0 21:0 22:0 23:0 24:0 25:0 26:0 27:0 28:1 29:0 30:0 31:0 32:0 33:0 34:0 35:0 36:0 37:0 38:0 39:1 40:0 41:1 42:0 43:0 44:0 45:0 46:1 47:0 48:0 49:0 50:0 66:1 67:0 68:1 69:1 70:1 71:1 72:0 73:1 74:0 75:1 76:1 77:0 78:1 79:1 80:1 81:0 82:1 83:0 84:0 85:1 86:1 87:1 88:0 89:0 90:1 91:1 92:1 93:0 94:1 95:1 96:0 97:0 98:1 99:0 100:0 101:0 102:1 103:0 104:0 105:0 106:0 107:0 108:1 109:0 110:0 111:0 112:0 113:0 114:0 115:1 116:0 117:0 118:0 119:0 120:1 121:1 122:1 123:1 124:1 125:0 126:0 127:0 128:0 129:0 130:1 131:0 132:0 133:0 134:0 135:0 136:1 137:0 138:0 139:0 140:0 141:0 142:0 143:1 144:0 145:0 146:0 147:0 148:1 149:0 150:1 151:1 152:0 153:0 154:1 155:0 156:0 157:0 158:1 159:0 160:0 161:0 162:0 163:0 164:1 165:0 166:0 167:0 168:0 169:0 170:0 171:1 172:0 173:0 174:0 175:0 176:1 177:1 178:1 179:1 180:0 181:0 182:1 183:0 184:0 185:0 186:0 187:0 188:1 189:0 190:0 191:0 192:1 193:0 194:0 195:0 196:0 197:0 198:0 199:1 200:0 201:0 202:0 203:0 204:1 205:1 206:1 207:1 208:0 209:0 210:1 211:0 212:0 213:0 214:0 215:0 216:1 217:0 218:0 219:0 220:1 221:0 222:0 223:0 224:0 225:0 226:0 227:1 228:0 229:0 230:0 231:0 232:1 233:0 234:1 235:1 236:0 237:0 238:1 239:0 240:0 241:0 242:1 243:0 244:0 245:0 246:0 247:0 248:1 249:0 250:0 251:0 252:0 253:0 254:0 255:1 256:0 257:0 258:0 259:0 260:1 261:0 262:1 263:1 264:0 265:0 266:1 267:0 268:0 269:0 270:1 271:0 272:0 273:0 274:0 275:0 276:1 277:0 278:0 279:0 280:0 281:0 282:0 283:1 284:0 285:0 286:0 287:0 288:1 289:1 290:1 291:1 292:0 293:0 294:1 295:0 296:0 297:0 298:0 299:1 300:0 301:0 302:0 303:0 304:1 305:0 306:0 307:0 308:0 309:0 310:0 311:1 312:0 313:0 314:0 315:0 316:1 317:1 318:1 319:1 320:0 321:0 322:1 323:0 324:0 325:0 326:0 327:1 328:0 329:0 330:0 331:0 332:1 333:0 334:0 335:0 336:0 337:0 338:0 339:1 340:0 341:0 342:0 343:0 #
-0.011579167126154536054949417689386 6:0 7:0 8:0 9:0 10:0 11:0 12:0 13:0 14:0 15:0 16:1 17:0 18:0 19:0 20:0 21:1 22:0 23:0 24:0 25:0 26:0 27:0 28:0 29:0 30:1 31:0 32:0 33:0 34:0 35:0 36:0 37:0 38:0 39:1 40:0 41:0 42:0 43:1 44:0 45:0 46:0 47:1 48:0 49:0 50:0 66:1 67:0 68:1 69:0 70:1 71:1 72:1 73:1 74:1 75:1 76:1 77:0 78:0 79:0 80:0 81:0 82:0 83:0 84:0 85:1 86:1 87:1 88:1 89:1 90:0 91:0 92:1 93:1 94:1 95:1 96:0 97:0 98:0 99:1 100:0 101:0 102:0 103:0 104:0 105:1 106:0 107:0 108:1 109:0 110:0 111:0 112:0 113:0 114:0 115:1 116:0 117:0 118:0 119:0 120:0 121:1 122:1 123:1 124:1 125:0 126:0 127:0 128:0 129:0 130:1 131:0 132:0 133:0 134:0 135:0 136:1 137:0 138:0 139:0 140:0 141:0 142:0 143:1 144:0 145:0 146:0 147:0 148:1 149:1 150:1 151:1 152:0 153:0 154:1 155:0 156:0 157:0 158:0 159:0 160:1 161:0 162:0 163:0 164:1 165:0 166:0 167:0 168:0 169:0 170:0 171:1 172:0 173:0 174:0 175:0 176:1 177:1 178:1 179:1 180:1 181:0 182:0 183:0 184:0 185:0 186:1 187:0 188:0 189:0 190:0 191:0 192:1 193:0 194:0 195:0 196:0 197:0 198:0 199:1 200:0 201:0 202:0 203:0 204:1 205:1 206:1 207:1 208:0 209:0 210:1 211:0 212:0 213:0 214:0 215:0 216:1 217:0 218:0 219:0 220:1 221:0 222:0 223:0 224:0 225:0 226:0 227:1 228:0 229:0 230:0 231:0 232:1 233:1 234:1 235:1 236:0 237:0 238:0 239:1 240:0 241:0 242:0 243:0 244:1 245:0 246:0 247:0 248:1 249:0 250:0 251:0 252:0 253:0 254:0 255:1 256:0 257:0 258:0 259:0 260:1 261:1 262:1 263:1 264:0 265:0 266:0 267:1 268:0 269:0 270:0 271:0 272:1 273:0 274:0 275:0 276:1 277:0 278:0 279:0 280:0 281:0 282:0 283:1 284:0 285:0 286:0 287:0 288:1 289:1 290:1 291:1 292:0 293:1 294:0 295:0 296:0 297:0 298:0 299:1 300:0 301:0 302:0 303:0 304:1 305:0 306:0 307:0 308:0 309:0 310:0 311:1 312:0 313:0 314:0 315:0 316:1 317:1 318:1 319:1 320:0 321:1 322:0 323:0 324:0 325:0 326:0 327:1 328:0 329:0 330:0 331:0 332:1 333:0 334:0 335:0 336:0 337:0 338:0 339:1 340:0 341:0 342:0 343:0 #
-0.011579167126154536054949417689386 6:0 7:0 8:0 9:0 10:0 11:0 12:0 13:0 14:0 15:0 16:1 17:0 18:0 19:0 20:0 21:0 22:0 23:0 24:0 25:0 26:1 27:0 28:0 29:0 30:0 31:0 32:0 33:0 34:0 35:0 36:0 37:0 38:0 39:0 40:0 41:0 42:1 43:0 44:0 45:0 46:1 47:0 48:0 49:0 50:0 66:0 67:0 68:1 69:0 70:1 71:1 72:0 73:1 74:0 75:1 76:0 77:0 78:1 79:1 80:1 81:0 82:1 83:0 84:1 85:1 86:1 87:1 88:0 89:0 90:1 91:1 92:1 93:0 94:1 95:1 96:0 97:1 98:0 99:0 100:0 101:0 102:1 103:0 104:0 105:0 106:0 107:0 108:1 109:0 110:0 111:0 112:0 113:0 114:0 115:1 116:0 117:0 118:0 119:0 120:1 121:1 122:1 123:1 124:0 125:1 126:0 127:0 128:0 129:0 130:0 131:1 132:0 133:0 134:0 135:0 136:1 137:0 138:0 139:0 140:0 141:0 142:0 143:1 144:0 145:0 146:0 147:0 148:1 149:0 150:1 151:1 152:0 153:1 154:0 155:0 156:0 157:0 158:0 159:0 160:1 161:0 162:0 163:0 164:1 165:0 166:0 167:0 168:0 169:0 170:0 171:1 172:0 173:0 174:0 175:0 176:1 177:1 178:1 179:1 180:0 181:1 182:0 183:0 184:0 185:0 186:1 187:0 188:0 189:0 190:0 191:0 192:1 193:0 194:0 195:0 196:0 197:0 198:0 199:1 200:0 201:0 202:0 203:0 204:1 205:0 206:1 207:1 208:0 209:1 210:0 211:0 212:0 213:0 214:0 215:1 216:0 217:0 218:0 219:0 220:1 221:0 222:0 223:0 224:0 225:0 226:0 227:1 228:0 229:0 230:0 231:0 232:1 233:0 234:1 235:1 236:0 237:1 238:0 239:0 240:0 241:0 242:0 243:0 244:1 245:0 246:0 247:0 248:1 249:0 250:0 251:0 252:0 253:0 254:0 255:1 256:0 257:0 258:0 259:0 260:1 261:0 262:1 263:1 264:0 265:1 266:0 267:0 268:0 269:0 270:0 271:0 272:1 273:0 274:0 275:0 276:1 277:0 278:0 279:0 280:0 281:0 282:0 283:1 284:0 285:0 286:0 287:0 288:1 289:0 290:1 291:1 292:0 293:1 294:0 295:0 296:0 297:0 298:0 299:1 300:0 301:0 302:0 303:0 304:1 305:0 306:0 307:0 308:0 309:0 310:0 311:1 312:0 313:0 314:0 315:0 316:1 317:1 318:1 319:1 320:0 321:0 322:1 323:0 324:0 325:0 326:0 327:1 328:0 329:0 330:0 331:0 332:1 333:0 334:0 335:0 336:0 337:0 338:0 339:1 340:0 341:0 342:0 343:0 #
0.011579167126154536054949417689386 6:0 7:0 8:0 9:0 10:0 11:1 12:0 13:0 14:0 15:0 16:0 17:0 18:0 19:0 20:0 21:0 22:0 23:0 24:0 25:0 26:0 27:0 28:0 29:0 30:1 31:0 32:1 33:0 34:0 35:0 36:0 37:0 38:0 39:0 40:1 41:0 42:1 43:0 44:0 45:0 46:1 47:0 48:0 49:0 50:0 66:0 67:0 68:1 69:0 70:1 71:1 72:1 73:1 74:0 75:1 76:1 77:0 78:1 79:1 80:0 81:0 82:1 83:0 84:0 85:1 86:1 87:1 88:1 89:1 90:1 91:1 92:1 93:1 94:1 95:1 96:1 97:0 98:0 99:0 100:0 101:0 102:1 103:0 104:0 105:0 106:0 107:0 108:1 109:0 110:0 111:0 112:0 113:0 114:0 115:0 116:0 117:0 118:0 119:1 120:1 121:1 122:1 123:1 124:1 125:0 126:0 127:0 128:0 129:0 130:1 131:0 132:0 133:0 134:0 135:0 136:1 137:0 138:0 139:0 140:0 141:0 142:0 143:0 144:0 145:0 146:0 147:1 148:1 149:0 150:1 151:1 152:0 153:0 154:0 155:0 156:0 157:1 158:1 159:0 160:0 161:0 162:0 163:0 164:1 165:0 166:0 167:0 168:0 169:0 170:0 171:0 172:0 173:0 174:0 175:1 176:1 177:1 178:1 179:1 180:1 181:0 182:0 183:0 184:0 185:0 186:1 187:0 188:0 189:0 190:0 191:0 192:1 193:0 194:0 195:0 196:0 197:0 198:0 199:0 200:0 201:0 202:0 203:1 204:1 205:1 206:1 207:1 208:0 209:0 210:0 211:0 212:0 213:1 214:0 215:0 216:0 217:0 218:0 219:1 220:1 221:0 222:0 223:0 224:0 225:0 226:0 227:0 228:0 229:0 230:0 231:1 232:1 233:1 234:1 235:1 236:0 237:0 238:0 239:0 240:0 241:1 242:0 243:0 244:0 245:0 246:1 247:0 248:1 249:0 250:0 251:0 252:0 253:0 254:0 255:0 256:0 257:0 258:0 259:1 260:1 261:1 262:1 263:1 264:0 265:0 266:0 267:0 268:0 269:1 270:0 271:0 272:0 273:0 274:1 275:0 276:1 277:0 278:0 279:0 280:0 281:0 282:0 283:0 284:0 285:0 286:0 287:1 288:1 289:1 290:1 291:1 292:0 293:0 294:0 295:0 296:0 297:1 298:0 299:0 300:1 301:0 302:0 303:0 304:1 305:0 306:0 307:0 308:0 309:0 310:0 311:0 312:0 313:0 314:0 315:1 316:1 317:1 318:1 319:1 320:0 321:0 322:0 323:0 324:0 325:1 326:0 327:0 328:0 329:0 330:0 331:1 332:1 333:0 334:0 335:0 336:0 337:0 338:0 339:0 340:0 341:0 342:0 343:1 #
0.011579167126154536054949417689386 6:0 7:0 8:0 9:0 10:0 11:0 12:0 13:0 14:0 15:0 16:1 17:0 18:0 19:0 20:0 21:0 22:0 23:0 24:0 25:0 26:0 27:0 28:0 29:0 30:1 31:1 32:0 33:0 34:0 35:0 36:0 37:0 38:0 39:0 40:1 41:0 42:1 43:0 44:0 45:0 46:1 47:0 48:0 49:0 50:0 66:1 67:0 68:1 69:1 70:1 71:1 72:0 73:1 74:1 75:1 76:0 77:0 78:0 79:0 80:1 81:0 82:0 83:0 84:1 85:1 86:1 87:1 88:0 89:0 90:0 91:0 92:1 93:0 94:1 95:1 96:0 97:0 98:0 99:0 100:0 101:1 102:0 103:0 104:0 105:0 106:0 107:1 108:1 109:0 110:0 111:0 112:0 113:0 114:0 115:0 116:0 117:0 118:0 119:1 120:1 121:1 122:1 123:1 124:1 125:0 126:0 127:0 128:0 129:0 130:1 131:0 132:0 133:0 134:0 135:0 136:1 137:0 138:0 139:0 140:0 141:0 142:0 143:0 144:0 145:0 146:0 147:1 148:1 149:1 150:1 151:1 152:0 153:0 154:0 155:0 156:0 157:1 158:0 159:0 160:0 161:0 162:0 163:1 164:1 165:0 166:0 167:0 168:0 169:0 170:0 171:0 172:0 173:0 174:0 175:1 176:1 177:1 178:1 179:1 180:0 181:0 182:0 183:0 184:0 185:1 186:0 187:0 188:0 189:0 190:0 191:1 192:1 193:0 194:0 195:0 196:0 197:0 198:0 199:0 200:0 201:0 202:0 203:1 204:1 205:0 206:1 207:1 208:0 209:0 210:0 211:0 212:0 213:1 214:0 215:0 216:1 217:0 218:0 219:0 220:1 221:0 222:0 223:0 224:0 225:0 226:0 227:0 228:0 229:0 230:0 231:1 232:1 233:0 234:1 235:1 236:0 237:0 238:0 239:0 240:0 241:1 242:0 243:0 244:0 245:0 246:0 247:1 248:1 249:0 250:0 251:0 252:0 253:0 254:0 255:0 256:0 257:0 258:0 259:1 260:1 261:0 262:1 263:1 264:0 265:0 266:0 267:0 268:0 269:1 270:0 271:0 272:0 273:0 274:0 275:1 276:1 277:0 278:0 279:0 280:0 281:0 282:0 283:0 284:0 285:0 286:0 287:1 288:1 289:1 290:1 291:1 292:0 293:0 294:0 295:0 296:0 297:1 298:0 299:0 300:0 301:0 302:0 303:1 304:1 305:0 306:0 307:0 308:0 309:0 310:0 311:0 312:0 313:0 314:0 315:1 316:1 317:0 318:1 319:1 320:0 321:0 322:0 323:0 324:0 325:1 326:0 327:1 328:0 329:0 330:0 331:0 332:1 333:0 334:0 335:0 336:0 337:0 338:0 339:0 340:0 341:0 342:0 343:1 #
0.011579167126154536054949417689386 6:0 7:0 8:0 9:0 10:0 11:1 12:0 13:0 14:0 15:0 16:0 17:0 18:0 19:0 20:0 21:0 22:0 23:0 24:0 25:0 26:0 27:0 28:0 29:0 30:1 31:0 32:0 33:0 34:0 35:0 36:0 37:0 38:0 39:0 40:1 41:1 42:0 43:0 44:0 45:0 46:1 47:0 48:0 49:0 50:0 66:1 67:0 68:1 69:0 70:1 71:1 72:0 73:1 74:0 75:1 76:1 77:0 78:1 79:1 80:1 81:0 82:1 83:0 84:0 85:1 86:1 87:1 88:0 89:0 90:1 91:1 92:1 93:0 94:1 95:1 96:0 97:0 98:0 99:0 100:0 101:1 102:1 103:0 104:0 105:0 106:0 107:0 108:1 109:0 110:0 111:0 112:0 113:0 114:0 115:0 116:0 117:0 118:0 119:1 120:1 121:1 122:1 123:1 124:1 125:0 126:0 127:0 128:0 129:0 130:1 131:0 132:0 133:0 134:0 135:0 136:1 137:0 138:0 139:0 140:0 141:0 142:0 143:0 144:0 145:0 146:0 147:1 148:1 149:0 150:1 151:1 152:0 153:0 154:0 155:0 156:0 157:1 158:1 159:0 160:0 161:0 162:0 163:0 164:1 165:0 166:0 167:0 168:0 169:0 170:0 171:0 172:0 173:0 174:0 175:1 176:1 177:1 178:1 179:1 180:1 181:0 182:0 183:0 184:0 185:0 186:1 187:0 188:0 189:0 190:0 191:0 192:1 193:0 194:0 195:0 196:0 197:0 198:0 199:0 200:0 201:0 202:0 203:1 204:1 205:1 206:1 207:1 208:0 209:0 210:0 211:0 212:0 213:1 214:0 215:0 216:0 217:0 218:0 219:1 220:1 221:0 222:0 223:0 224:0 225:0 226:0 227:0 228:0 229:0 230:0 231:1 232:1 233:0 234:1 235:1 236:0 237:0 238:0 239:0 240:0 241:1 242:1 243:0 244:0 245:0 246:0 247:0 248:1 249:0 250:0 251:0 252:0 253:0 254:0 255:0 256:0 257:0 258:0 259:1 260:1 261:0 262:1 263:1 264:0 265:0 266:0 267:0 268:0 269:1 270:1 271:0 272:0 273:0 274:0 275:0 276:1 277:0 278:0 279:0 280:0 281:0 282:0 283:0 284:0 285:0 286:0 287:1 288:1 289:1 290:1 291:1 292:0 293:0 294:0 295:0 296:0 297:1 298:0 299:0 300:0 301:1 302:0 303:0 304:1 305:0 306:0 307:0 308:0 309:0 310:0 311:0 312:0 313:0 314:0 315:1 316:1 317:1 318:1 319:1 320:0 321:0 322:0 323:0 324:0 325:1 326:0 327:0 328:1 329:0 330:0 331:0 332:1 333:0 334:0 335:0 336:0 337:0 338:0 339:0 340:0 341:0 342:0 343:1 #
0.011579167126154536054949417689386 6:1 7:0 8:0 9:0 10:0 11:0 12:0 13:0 14:0 15:0 16:0 17:0 18:0 19:0 20:0 21:0 22:0 23:0 24:0 25:0 26:0 27:0 28:0 29:0 30:1 31:0 32:0 33:0 34:0 35:1 36:0 37:0 38:0 39:0 40:1 41:0 42:0 43:1 44:0 45:0 46:1 47:0 48:0 49:0 50:0 66:0 67:0 68:1 69:0 70:1 71:1 72:1 73:1 74:0 75:1 76:1 77:0 78:1 79:1 80:0 81:0 82:1 83:0 84:0 85:1 86:1 87:1 88:0 89:0 90:1 91:1 92:1 93:1 94:1 95:1 96:0 97:0 98:0 99:0 100:0 101:1 102:0 103:0 104:0 105:0 106:0 107:1 108:1 109:0 110:0 111:0 112:0 113:0 114:0 115:0 116:0 117:0 118:0 119:1 120:1 121:1 122:1 123:1 124:0 125:0 126:0 127:0 128:1 129:0 130:0 131:0 132:0 133:0 134:1 135:0 136:1 137:0 138:0 139:0 140:0 141:0 142:0 143:0 144:0 145:0 146:0 147:1 148:1 149:0 150:1 151:1 152:0 153:0 154:0 155:0 156:0 157:1 158:0 159:0 160:0 161:0 162:1 163:0 164:1 165:0 166:0 167:0 168:0 169:0 170:0 171:0 172:0 173:0 174:0 175:1 176:1 177:1 178:1 179:1 180:0 181:0 182:0 183:0 184:0 185:1 186:0 187:0 188:0 189:0 190:1 191:0 192:1 193:0 194:0 195:0 196:0 197:0 198:0 199:0 200:0 201:0 202:0 203:1 204:1 205:1 206:1 207:1 208:0 209:0 210:0 211:0 212:0 213:1 214:0 215:0 216:0 217:0 218:0 219:1 220:1 221:0 222:0 223:0 224:0 225:0 226:0 227:0 228:0 229:0 230:0 231:1 232:1 233:0 234:1 235:1 236:0 237:0 238:0 239:0 240:0 241:1 242:1 243:0 244:0 245:0 246:0 247:0 248:1 249:0 250:0 251:0 252:0 253:0 254:0 255:0 256:0 257:0 258:0 259:1 260:1 261:0 262:1 263:1 264:0 265:0 266:0 267:0 268:0 269:1 270:1 271:0 272:0 273:0 274:0 275:0 276:1 277:0 278:0 279:0 280:0 281:0 282:0 283:0 284:0 285:0 286:0 287:1 288:1 289:1 290:1 291:1 292:0 293:0 294:0 295:0 296:0 297:1 298:0 299:0 300:0 301:0 302:0 303:1 304:1 305:0 306:0 307:0 308:0 309:0 310:0 311:0 312:0 313:0 314:0 315:1 316:1 317:1 318:1 319:1 320:0 321:0 322:0 323:0 324:0 325:1 326:0 327:0 328:1 329:0 330:0 331:0 332:1 333:0 334:0 335:0 336:0 337:0 338:0 339:0 340:0 341:0 342:0 343:1 #
0.011579167126154536054949417689386 6:0 7:0 8:0 9:0 10:0 11:1 12:0 13:0 14:0 15:0 16:0 17:0 18:0 19:0 20:0 21:0 22:0 23:0 24:0 25:0 26:0 27:0 28:0 29:0 30:1 31:0 32:0 33:0 34:0 35:0 36:0 37:0 38:0 39:0 40:1 41:1 42:0 43:0 44:0 45:0 46:1 47:0 48:0 49:0 50:0 66:1 67:0 68:1 69:1 70:1 71:1 72:0 73:1 74:0 75:1 76:1 77:0 78:1 79:1 80:1 81:0 82:1 83:0 84:0 85:1 86:1 87:1 88:0 89:0 90:1 91:1 92:1 93:0 94:1 95:1 96:0 97:0 98:0 99:0 100:0 101:1 102:1 103:0 104:0 105:0 106:0 107:0 108:1 109:0 110:0 111:0 112:0 113:0 114:0 115:0 116:0 117:0 118:0 119:1 120:1 121:1 122:1 123:1 124:1 125:0 126:0 127:0 128:0 129:0 130:1 131:0 132:0 133:0 134:0 135:0 136:1 137:0 138:0 139:0 140:0 141:0 142:0 143:0 144:0 145:0 146:0 147:1 148:1 149:0 150:1 151:1 152:0 153:0 154:0 155:0 156:0 157:1 158:1 159:0 160:0 161:0 162:0 163:0 164:1 165:0 166:0 167:0 168:0 169:0 170:0 171:0 172:0 173:0 174:0 175:1 176:1 177:1 178:1 179:1 180:0 181:0 182:0 183:0 184:0 185:1 186:0 187:0 188:0 189:0 190:0 191:1 192:1 193:0 194:0 195:0 196:0 197:0 198:0 199:0 200:0 201:0 202:0 203:1 204:1 205:1 206:1 207:1 208:0 209:0 210:0 211:0 212:0 213:1 214:0 215:0 216:0 217:0 218:0 219:1 220:1 221:0 222:0 223:0 224:0 225:0 226:0 227:0 228:0 229:0 230:0 231:1 232:1 233:0 234:1 235:1 236:0 237:0 238:0 239:0 240:0 241:1 242:1 243:0 244:0 245:0 246:0 247:0 248:1 249:0 250:0 251:0 252:0 253:0 254:0 255:0 256:0 257:0 258:0 259:1 260:1 261:0 262:1 263:1 264:0 265:0 266:0 267:0 268:0 269:1 270:1 271:0 272:0 273:0 274:0 275:0 276:1 277:0 278:0 279:0 280:0 281:0 282:0 283:0 284:0 285:0 286:0 287:1 288:1 289:1 290:1 291:1 292:0 293:0 294:0 295:0 296:0 297:1 298:0 299:1 300:0 301:0 302:0 303:0 304:1 305:0 306:0 307:0 308:0 309:0 310:0 311:0 312:0 313:0 314:0 315:1 316:1 317:0 318:1 319:1 320:0 321:0 322:0 323:0 324:0 325:1 326:1 327:0 328:0 329:0 330:0 331:0 332:1 333:0 334:0 335:0 336:0 337:0 338:0 339:0 340:0 341:0 342:0 343:1 #
