SVM-light Version V6.02
0 # kernel type
3 # kernel parameter -d 
1 # kernel parameter -g 
1 # kernel parameter -s 
1 # kernel parameter -r 
empty# kernel parameter -u 
5 # highest feature index 
21 # number of training documents 
20 # number of support vectors plus 1 
0.3911955 # threshold b, each following line is a SV (starting with alpha*y)
-0.14772457581510489710296951670898 1:0 2:1 3:1 4:1 5:0 #
0.14772457581510489710296951670898 1:1 2:1 3:1 4:0 5:0 #
-0.14772457581510489710296951670898 1:2 2:2 3:2 4:1 5:0 #
-0.14772457581510489710296951670898 1:1 2:2 3:2 4:0 5:0 #
0.14772457581510489710296951670898 1:1 2:2 3:2 4:2 5:0 #
0.14772457581510489710296951670898 1:1 2:1 3:1 4:1 5:0 #
0.14772457581510489710296951670898 1:1 2:1 3:1 4:1 5:0 #
-0.14772457581510489710296951670898 1:0 2:0 3:0 4:2 5:0 #
0.14772457581510489710296951670898 1:1 2:2 3:2 4:1 5:0 #
-0.14772457581510489710296951670898 1:0 2:1 3:1 4:0 5:0 #
0.14772457581510489710296951670898 1:1 2:1 3:0 4:1 5:0 #
-0.14772457581510489710296951670898 1:0 2:0 3:0 4:2 5:0 #
0.14772457581510489710296951670898 1:1 2:1 3:1 4:1 5:0 #
-0.14772457581510489710296951670898 1:0 2:1 3:1 4:1 5:0 #
0.14772457581510489710296951670898 1:1 2:1 3:1 4:1 5:0 #
-0.13877158099982817018869241110224 1:0 2:0 3:0 4:2 5:0 #
0.14772457581510489710296951670898 1:1 2:1 3:1 4:1 5:0 #
-0.14772457581510489710296951670898 1:0 2:3 3:3 4:2 5:0 #
-0.0089530077243198287473280316817181 1:0 2:4 3:4 4:3 5:0 #
