SVM-light Version V6.02
0 # kernel type
3 # kernel parameter -d 
1 # kernel parameter -g 
1 # kernel parameter -s 
1 # kernel parameter -r 
empty# kernel parameter -u 
4 # highest feature index 
774 # number of training documents 
207 # number of support vectors plus 1 
0.9999804 # threshold b, each following line is a SV (starting with alpha*y)
-0.006544619847197497702895319093841 1:0 2:0 3:0 4:6 #
0.006544619847197497702895319093841 1:1 2:1 3:2 4:5 #
0.006544619847197497702895319093841 1:1 2:1 3:1 4:1 #
0.006544619847197497702895319093841 1:1 2:1 3:1 4:13 #
-0.006544619847197497702895319093841 1:0 2:0 3:0 4:1 #
0.006544619847197497702895319093841 1:1 2:1 3:4 4:15 #
-0.0035862116325530053739800706580354 1:0 2:0 3:0 4:68 #
0.006544619847197497702895319093841 1:1 2:1 3:1 4:1 #
-0.006544619847197497702895319093841 1:0 2:0 3:1 4:1 #
0.006544619847197497702895319093841 1:1 2:1 3:1 4:10 #
-0.006544619847197497702895319093841 1:1 2:1 3:1 4:1 #
0.006544619847197497702895319093841 1:1 2:1 3:1 4:10 #
-0.006544619847197497702895319093841 1:1 2:1 3:1 4:1 #
0.006544619847197497702895319093841 1:1 2:1 3:1 4:8 #
-0.006544619847197497702895319093841 1:1 2:1 3:1 4:1 #
-0.006544619847197497702895319093841 1:0 2:0 3:0 4:1 #
0.006544619847197497702895319093841 1:5 2:5 3:5 4:6 #
-0.006544619847197497702895319093841 1:0 2:0 3:0 4:1 #
0.006544619847197497702895319093841 1:3 2:3 3:3 4:8 #
0.006544619847197497702895319093841 1:1 2:1 3:1 4:8 #
-0.006544619847197497702895319093841 1:0 2:0 3:0 4:1 #
0.006544619847197497702895319093841 1:2 2:2 3:2 4:2 #
-0.006544619847197497702895319093841 1:0 2:0 3:1 4:1 #
0.006544619847197497702895319093841 1:1 2:1 3:1 4:7 #
0.006544619847197497702895319093841 1:1 2:1 3:1 4:1 #
-0.006544619847197497702895319093841 1:0 2:0 3:1 4:1 #
0.006544619847197497702895319093841 1:1 2:1 3:1 4:5 #
0.006544619847197497702895319093841 1:1 2:1 3:1 4:5 #
0.006544619847197497702895319093841 1:3 2:3 3:3 4:4 #
-0.006544619847197497702895319093841 1:0 2:0 3:0 4:1 #
0.006544619847197497702895319093841 1:2 2:2 3:3 4:4 #
-0.006544619847197497702895319093841 1:0 2:0 3:0 4:1 #
0.006544619847197497702895319093841 1:2 2:2 3:3 4:4 #
-0.006544619847197497702895319093841 1:0 2:0 3:0 4:1 #
-0.006544619847197497702895319093841 1:2 2:2 3:2 4:3 #
0.006544619847197497702895319093841 1:2 2:2 3:2 4:4 #
-0.006544619847197497702895319093841 1:0 2:0 3:0 4:1 #
0.006544619847197497702895319093841 1:2 2:2 3:2 4:4 #
-0.006544619847197497702895319093841 1:0 2:0 3:0 4:1 #
0.006544619847197497702895319093841 1:1 2:1 3:2 4:2 #
-0.006544619847197497702895319093841 1:1 2:1 3:1 4:1 #
0.006544619847197497702895319093841 1:1 2:1 3:1 4:4 #
-0.006544619847197497702895319093841 1:1 2:1 3:1 4:2 #
-0.006544619847197497702895319093841 1:0 2:0 3:0 4:1 #
-0.006544619847197497702895319093841 1:2 2:2 3:2 4:2 #
0.006544619847197497702895319093841 1:1 2:1 3:1 4:3 #
0.006544619847197497702895319093841 1:2 2:2 3:2 4:3 #
0.006544619847197497702895319093841 1:1 2:1 3:1 4:3 #
-0.006544619847197497702895319093841 1:0 2:0 3:0 4:1 #
-0.006544619847197497702895319093841 1:0 2:0 3:1 4:1 #
-0.006544619847197497702895319093841 1:0 2:0 3:0 4:1 #
-0.006544619847197497702895319093841 1:0 2:0 3:0 4:1 #
-0.006544619847197497702895319093841 1:0 2:0 3:1 4:1 #
0.006544619847197497702895319093841 1:1 2:1 3:1 4:1 #
0.006544619847197497702895319093841 1:1 2:1 3:1 4:3 #
-0.006544619847197497702895319093841 1:11 2:11 3:11 4:11 #
0.006544619847197497702895319093841 1:2 2:2 3:2 4:2 #
0.006544619847197497702895319093841 1:2 2:2 3:2 4:3 #
0.006544619847197497702895319093841 1:1 2:1 3:1 4:3 #
-0.006544619847197497702895319093841 1:2 2:2 3:2 4:2 #
-0.006544619847197497702895319093841 1:0 2:0 3:1 4:1 #
0.006544619847197497702895319093841 1:1 2:1 3:1 4:3 #
0.006544619847197497702895319093841 1:1 2:1 3:1 4:3 #
-0.006544619847197497702895319093841 1:0 2:0 3:0 4:1 #
-0.006544619847197497702895319093841 1:0 2:0 3:0 4:1 #
0.006544619847197497702895319093841 1:1 2:1 3:2 4:2 #
-0.006544619847197497702895319093841 1:0 2:0 3:0 4:1 #
0.006544619847197497702895319093841 1:1 2:1 3:1 4:3 #
-0.006544619847197497702895319093841 1:0 2:0 3:0 4:1 #
-0.006544619847197497702895319093841 1:0 2:0 3:0 4:1 #
0.006544619847197497702895319093841 1:1 2:1 3:1 4:3 #
0.006544619847197497702895319093841 1:1 2:1 3:1 4:1 #
-0.006544619847197497702895319093841 1:0 2:0 3:0 4:1 #
0.006544619847197497702895319093841 1:1 2:1 3:2 4:2 #
-0.006544619847197497702895319093841 1:0 2:0 3:0 4:1 #
0.006544619847197497702895319093841 1:1 2:1 3:2 4:2 #
0.006544619847197497702895319093841 1:1 2:1 3:1 4:2 #
-0.006544619847197497702895319093841 1:0 2:0 3:0 4:1 #
-0.006544619847197497702895319093841 1:0 2:0 3:0 4:1 #
0.006544619847197497702895319093841 1:1 2:1 3:1 4:2 #
-0.0043369790026479820149729604850108 1:10 2:10 3:10 4:11 #
0.006544619847197497702895319093841 1:1 2:1 3:1 4:2 #
-0.006544619847197497702895319093841 1:0 2:0 3:0 4:1 #
0.006544619847197497702895319093841 1:1 2:1 3:1 4:2 #
-0.006544619847197497702895319093841 1:0 2:0 3:0 4:1 #
0.006544619847197497702895319093841 1:1 2:1 3:1 4:1 #
0.006544619847197497702895319093841 1:1 2:1 3:1 4:2 #
-0.006544619847197497702895319093841 1:0 2:0 3:0 4:1 #
0.006544619847197497702895319093841 1:1 2:1 3:1 4:2 #
-0.006544619847197497702895319093841 1:0 2:0 3:0 4:1 #
0.006544619847197497702895319093841 1:1 2:1 3:1 4:2 #
-0.006544619847197497702895319093841 1:0 2:0 3:0 4:1 #
-0.006544619847197497702895319093841 1:2 2:2 3:2 4:2 #
0.006544619847197497702895319093841 1:1 2:1 3:1 4:2 #
0.006544619847197497702895319093841 1:1 2:1 3:1 4:2 #
-0.006544619847197497702895319093841 1:0 2:0 3:0 4:1 #
0.006544619847197497702895319093841 1:1 2:1 3:1 4:2 #
-0.006544619847197497702895319093841 1:0 2:0 3:0 4:1 #
-0.006544619847197497702895319093841 1:2 2:2 3:2 4:2 #
0.006544619847197497702895319093841 1:1 2:1 3:1 4:2 #
0.006544619847197497702895319093841 1:1 2:1 3:1 4:2 #
-0.006544619847197497702895319093841 1:0 2:0 3:0 4:1 #
0.006544619847197497702895319093841 1:1 2:1 3:1 4:2 #
-0.006544619847197497702895319093841 1:10 2:10 3:10 4:10 #
-0.0010314962114687780542210404632897 1:13 2:13 3:14 4:14 #
0.006544619847197497702895319093841 1:1 2:1 3:1 4:2 #
0.006544619847197497702895319093841 1:1 2:1 3:1 4:2 #
-0.006544619847197497702895319093841 1:0 2:0 3:0 4:1 #
-0.006544619847197497702895319093841 1:2 2:2 3:2 4:2 #
0.006544619847197497702895319093841 1:1 2:1 3:1 4:2 #
-0.006544619847197497702895319093841 1:0 2:0 3:0 4:1 #
0.006544619847197497702895319093841 1:1 2:1 3:1 4:1 #
-0.006544619847197497702895319093841 1:2 2:2 3:2 4:2 #
0.006544619847197497702895319093841 1:1 2:1 3:1 4:1 #
-0.006544619847197497702895319093841 1:0 2:0 3:0 4:1 #
0.006544619847197497702895319093841 1:1 2:1 3:1 4:1 #
-0.006544619847197497702895319093841 1:2 2:2 3:2 4:2 #
-0.006544619847197497702895319093841 1:0 2:0 3:0 4:1 #
0.006544619847197497702895319093841 1:1 2:1 3:1 4:1 #
0.006544619847197497702895319093841 1:1 2:1 3:1 4:1 #
-0.006544619847197497702895319093841 1:0 2:0 3:0 4:1 #
0.006544619847197497702895319093841 1:1 2:1 3:1 4:1 #
-0.006544619847197497702895319093841 1:0 2:0 3:0 4:1 #
0.006544619847197497702895319093841 1:1 2:1 3:1 4:1 #
-0.006544619847197497702895319093841 1:3 2:3 3:3 4:3 #
-0.006544619847197497702895319093841 1:0 2:0 3:0 4:1 #
0.006544619847197497702895319093841 1:1 2:1 3:1 4:1 #
0.006544619847197497702895319093841 1:1 2:1 3:1 4:1 #
-0.006544619847197497702895319093841 1:0 2:0 3:0 4:1 #
0.006544619847197497702895319093841 1:1 2:1 3:1 4:1 #
-0.006544619847197497702895319093841 1:0 2:0 3:0 4:1 #
0.006544619847197497702895319093841 1:1 2:1 3:1 4:1 #
-0.006544619847197497702895319093841 1:3 2:3 3:3 4:3 #
0.006544619847197497702895319093841 1:1 2:1 3:1 4:1 #
-0.006544619847197497702895319093841 1:0 2:0 3:0 4:1 #
0.006544619847197497702895319093841 1:1 2:1 3:1 4:1 #
-0.006544619847197497702895319093841 1:3 2:3 3:3 4:3 #
0.006544619847197497702895319093841 1:1 2:1 3:1 4:1 #
-0.006544619847197497702895319093841 1:0 2:0 3:0 4:1 #
-0.006544619847197497702895319093841 1:3 2:3 3:3 4:3 #
-0.006544619847197497702895319093841 1:4 2:4 3:4 4:4 #
0.006544619847197497702895319093841 1:1 2:1 3:1 4:1 #
-0.006544619847197497702895319093841 1:0 2:0 3:0 4:1 #
0.006544619847197497702895319093841 1:1 2:1 3:1 4:1 #
-0.006544619847197497702895319093841 1:0 2:0 3:0 4:1 #
0.006544619847197497702895319093841 1:1 2:1 3:1 4:1 #
-0.006544619847197497702895319093841 1:1 2:1 3:1 4:2 #
0.006544619847197497702895319093841 1:1 2:1 3:1 4:1 #
-0.006544619847197497702895319093841 1:1 2:1 3:1 4:2 #
0.006544619847197497702895319093841 1:1 2:1 3:1 4:1 #
-0.006544619847197497702895319093841 1:1 2:1 3:1 4:2 #
0.006544619847197497702895319093841 1:1 2:1 3:1 4:1 #
-0.006544619847197497702895319093841 1:9 2:9 3:9 4:9 #
-0.006544619847197497702895319093841 1:0 2:0 3:0 4:2 #
0.006544619847197497702895319093841 1:1 2:1 3:1 4:1 #
-0.006544619847197497702895319093841 1:0 2:0 3:0 4:2 #
0.006544619847197497702895319093841 1:1 2:1 3:1 4:1 #
0.006544619847197497702895319093841 1:1 2:1 3:1 4:1 #
-0.006544619847197497702895319093841 1:0 2:0 3:0 4:2 #
-0.006544619847197497702895319093841 1:1 2:1 3:2 4:2 #
0.006544619847197497702895319093841 1:1 2:1 3:1 4:1 #
-0.0035485964210396330614782911538896 1:6 2:6 3:6 4:6 #
0.006544619847197497702895319093841 1:1 2:1 3:1 4:1 #
-0.0054194320983137755920466815950931 1:0 2:0 3:2 4:2 #
0.006544619847197497702895319093841 1:1 2:1 3:1 4:1 #
0.006544619847197497702895319093841 1:1 2:1 3:1 4:1 #
-4.3081240764956951760922265748377e-05 1:0 2:2 3:2 4:2 #
0.006544619847197497702895319093841 1:1 2:1 3:1 4:1 #
-0.006544619847197497702895319093841 1:0 2:0 3:0 4:2 #
0.006544619847197497702895319093841 1:1 2:1 3:1 4:1 #
-0.006544619847197497702895319093841 1:0 2:0 3:0 4:2 #
0.006544619847197497702895319093841 1:1 2:1 3:1 4:1 #
-0.006544619847197497702895319093841 1:0 2:0 3:0 4:2 #
0.006544619847197497702895319093841 1:1 2:1 3:1 4:1 #
-0.006544619847197497702895319093841 1:4 2:4 3:4 4:4 #
0.006544619847197497702895319093841 1:1 2:1 3:1 4:1 #
-0.006544619847197497702895319093841 1:0 2:0 3:0 4:2 #
-0.006544619847197497702895319093841 1:4 2:4 3:4 4:4 #
0.006544619847197497702895319093841 1:1 2:1 3:1 4:1 #
-0.006544619847197497702895319093841 1:5 2:5 3:5 4:5 #
0.006544619847197497702895319093841 1:1 2:1 3:1 4:1 #
-0.006544619847197497702895319093841 1:5 2:5 3:5 4:5 #
0.006544619847197497702895319093841 1:1 2:1 3:1 4:1 #
-0.006544619847197497702895319093841 1:5 2:5 3:5 4:5 #
0.006544619847197497702895319093841 1:1 2:1 3:1 4:1 #
-0.006544619847197497702895319093841 1:0 2:0 3:0 4:2 #
-0.006544619847197497702895319093841 1:2 2:2 3:2 4:3 #
0.006544619847197497702895319093841 1:1 2:1 3:1 4:1 #
0.006544619847197497702895319093841 1:1 2:1 3:1 4:1 #
-0.006544619847197497702895319093841 1:0 2:0 3:0 4:2 #
-0.006544619847197497702895319093841 1:2 2:2 3:2 4:3 #
0.006544619847197497702895319093841 1:1 2:1 3:1 4:1 #
0.006544619847197497702895319093841 1:1 2:1 3:1 4:1 #
-0.006544619847197497702895319093841 1:0 2:0 3:0 4:2 #
0.006544619847197497702895319093841 1:1 2:1 3:1 4:1 #
-0.006544619847197497702895319093841 1:2 2:2 3:3 4:3 #
0.006544619847197497702895319093841 1:1 2:1 3:1 4:1 #
-0.006544619847197497702895319093841 1:0 2:0 3:0 4:2 #
0.006544619847197497702895319093841 1:1 2:1 3:1 4:1 #
-0.006544619847197497702895319093841 1:0 2:0 3:0 4:2 #
0.006544619847197497702895319093841 1:1 2:1 3:1 4:1 #
-0.006544619847197497702895319093841 1:0 2:0 3:0 4:2 #
-0.0026745764633570034973786277987529 1:2 2:2 3:2 4:3 #
-0.00027211728441297808323007245689951 1:32 2:32 3:35 4:38 #
-0.00054238576181477558824095552836297 1:23 2:23 3:24 4:25 #
-0.0047236032724171199415064137383524 1:0 2:0 3:0 4:2 #
