SVM-light Version V6.02
0 # kernel type
3 # kernel parameter -d 
1 # kernel parameter -g 
1 # kernel parameter -s 
1 # kernel parameter -r 
empty# kernel parameter -u 
76 # highest feature index 
3226 # number of training documents 
156 # number of support vectors plus 1 
2.4678484 # threshold b, each following line is a SV (starting with alpha*y)
-0.01957113892559159476491892348804 1:0 2:0 3:0 4:0 5:0 6:0 7:1 8:0 9:0 10:0 11:0 12:1 13:0 14:0 15:0 16:0 17:0 18:1 19:0 20:0 21:0 22:0 23:1 24:0 25:0 26:1 27:0 28:1 29:1 30:1 31:1 32:0 33:0 34:1 35:0 36:0 37:0 42:0 43:0 44:0 45:0 46:1 47:0 48:0 49:1 50:0 51:0 52:1 53:0 54:0 55:0 56:0 57:0 58:1 59:0 60:0 61:0 62:0 63:1 64:0 65:0 66:0 67:0 68:0 69:0 70:1 71:0 72:0 73:0 74:1 75:0 76:0 #
0.10900209263530885595017139166885 1:0 2:1 3:0 4:0 5:0 6:0 7:1 8:0 9:0 10:0 11:0 12:1 13:0 14:0 15:0 16:0 17:0 18:1 19:0 20:0 21:0 22:0 23:1 24:0 25:0 26:0 27:0 28:1 29:0 30:0 31:1 32:0 33:0 34:1 35:0 36:0 37:0 42:0 43:0 44:0 45:0 46:1 47:0 48:0 49:1 50:0 51:0 52:1 53:0 54:0 55:0 56:0 57:0 58:0 59:1 60:0 61:0 62:0 63:1 64:0 65:0 66:0 67:1 68:0 69:0 70:0 71:0 72:1 73:0 74:0 75:0 76:0 #
-0.026293758768731356756376271732734 1:0 2:0 3:0 4:0 5:0 6:0 7:0 8:0 9:0 10:0 11:0 12:0 13:0 14:0 15:0 16:0 17:1 18:0 19:0 20:0 21:0 22:1 23:0 24:0 25:0 26:1 27:1 28:1 29:0 30:0 31:1 32:0 33:0 34:0 35:0 36:0 37:0 42:0 43:0 44:0 45:0 46:1 47:0 48:0 49:0 50:1 51:0 52:1 53:0 54:0 55:0 56:0 57:0 58:0 59:0 60:1 61:0 62:0 63:1 64:0 65:0 66:0 67:0 68:1 69:0 70:0 71:0 72:1 73:0 74:0 75:0 76:0 #
-0.026734353239601552770787762369764 1:0 2:0 3:0 4:0 5:0 6:0 7:0 8:0 9:0 10:0 11:0 12:0 13:0 14:0 15:0 16:0 17:1 18:0 19:0 20:0 21:0 22:1 23:0 24:0 25:0 26:0 27:0 28:1 29:0 30:1 31:1 32:0 33:0 34:0 35:0 36:0 37:0 42:0 43:0 44:0 45:0 46:1 47:0 48:0 49:0 50:0 51:1 52:1 53:0 54:0 55:0 56:0 57:0 58:0 59:1 60:0 61:0 62:1 63:0 64:0 65:0 66:0 67:0 68:0 69:0 70:1 71:0 72:0 73:0 74:1 75:0 76:0 #
-0.035237452543483982481120619922876 1:0 2:0 3:1 4:0 5:0 6:0 7:0 8:1 9:0 10:0 11:0 12:0 13:1 14:0 15:0 16:0 17:0 18:1 19:0 20:0 21:0 22:0 23:1 24:0 25:0 26:0 27:0 28:0 29:0 30:0 31:0 32:0 33:0 34:0 35:0 36:0 37:0 42:0 43:0 44:0 45:0 46:1 47:0 48:0 49:1 50:0 51:0 52:1 53:0 54:0 55:0 56:0 57:1 58:0 59:0 60:0 61:0 62:1 63:0 64:0 65:0 66:0 67:1 68:0 69:0 70:0 71:0 72:1 73:0 74:0 75:0 76:0 #
0.10900209263530885595017139166885 1:0 2:1 3:0 4:0 5:0 6:0 7:1 8:0 9:0 10:0 11:0 12:0 13:0 14:1 15:0 16:0 17:0 18:0 19:1 20:0 21:0 22:0 23:0 24:1 25:0 26:0 27:0 28:1 29:0 30:1 31:1 32:0 33:0 34:0 35:0 36:1 37:1 42:0 43:0 44:0 45:0 46:1 47:0 48:0 49:0 50:1 51:0 52:1 53:0 54:0 55:0 56:0 57:0 58:0 59:0 60:1 61:0 62:1 63:0 64:0 65:0 66:0 67:1 68:0 69:0 70:0 71:0 72:1 73:0 74:0 75:0 76:0 #
-0.10900209263530885595017139166885 1:0 2:0 3:0 4:0 5:0 6:0 7:0 8:0 9:0 10:0 11:0 12:0 13:0 14:0 15:0 16:0 17:1 18:0 19:0 20:0 21:0 22:1 23:0 24:0 25:0 26:1 27:1 28:1 29:0 30:0 31:1 32:0 33:0 34:0 35:0 36:0 37:0 42:0 43:0 44:0 45:0 46:1 47:0 48:0 49:0 50:0 51:1 52:1 53:0 54:0 55:0 56:0 57:0 58:0 59:0 60:1 61:0 62:1 63:0 64:0 65:0 66:0 67:0 68:0 69:0 70:1 71:0 72:0 73:0 74:0 75:1 76:0 #
0.10900209263530885595017139166885 1:0 2:1 3:0 4:0 5:0 6:0 7:1 8:0 9:0 10:0 11:0 12:1 13:0 14:0 15:0 16:0 17:0 18:0 19:1 20:0 21:0 22:0 23:0 24:1 25:0 26:1 27:1 28:1 29:0 30:0 31:1 32:0 33:0 34:0 35:0 36:0 37:0 42:0 43:0 44:0 45:0 46:1 47:0 48:0 49:1 50:0 51:0 52:1 53:0 54:0 55:0 56:0 57:1 58:0 59:0 60:0 61:0 62:1 63:0 64:0 65:0 66:0 67:0 68:1 69:0 70:0 71:0 72:1 73:0 74:0 75:0 76:0 #
-0.10900209263530885595017139166885 1:0 2:1 3:0 4:0 5:0 6:0 7:1 8:0 9:0 10:0 11:0 12:1 13:0 14:0 15:0 16:0 17:1 18:0 19:0 20:0 21:0 22:1 23:0 24:0 25:0 26:1 27:0 28:1 29:1 30:1 31:1 32:0 33:0 34:0 35:1 36:1 37:1 42:0 43:0 44:0 45:0 46:1 47:0 48:0 49:1 50:0 51:0 52:1 53:0 54:0 55:0 56:0 57:1 58:0 59:0 60:0 61:0 62:1 63:0 64:0 65:0 66:0 67:0 68:0 69:0 70:1 71:0 72:0 73:0 74:1 75:0 76:0 #
-0.10900209263530885595017139166885 1:0 2:0 3:0 4:0 5:0 6:0 7:1 8:0 9:0 10:0 11:0 12:1 13:0 14:0 15:0 16:0 17:1 18:0 19:0 20:0 21:0 22:1 23:0 24:0 25:0 26:1 27:0 28:1 29:1 30:1 31:1 32:0 33:0 34:1 35:1 36:1 37:1 42:0 43:0 44:0 45:0 46:1 47:0 48:0 49:0 50:0 51:1 52:1 53:0 54:0 55:0 56:0 57:0 58:0 59:0 60:1 61:0 62:1 63:0 64:0 65:0 66:0 67:1 68:0 69:0 70:0 71:0 72:1 73:0 74:0 75:0 76:0 #
-0.10900209263530885595017139166885 1:0 2:0 3:0 4:0 5:0 6:0 7:1 8:0 9:0 10:0 11:0 12:1 13:0 14:0 15:0 16:0 17:1 18:0 19:0 20:0 21:0 22:1 23:0 24:0 25:0 26:1 27:0 28:1 29:0 30:1 31:1 32:1 33:0 34:0 35:0 36:1 37:1 42:0 43:0 44:0 45:0 46:1 47:0 48:0 49:0 50:0 51:1 52:1 53:0 54:0 55:0 56:0 57:0 58:0 59:1 60:0 61:0 62:0 63:0 64:0 65:1 66:0 67:0 68:0 69:1 70:0 71:0 72:0 73:1 74:0 75:0 76:0 #
-0.10900209263530885595017139166885 1:0 2:0 3:0 4:0 5:0 6:0 7:0 8:0 9:0 10:0 11:0 12:0 13:0 14:0 15:0 16:0 17:1 18:0 19:0 20:0 21:0 22:1 23:0 24:0 25:0 26:1 27:0 28:1 29:1 30:1 31:1 32:1 33:0 34:0 35:1 36:1 37:1 42:0 43:0 44:0 45:0 46:1 47:0 48:0 49:0 50:0 51:1 52:1 53:0 54:0 55:0 56:0 57:0 58:0 59:0 60:0 61:1 62:0 63:0 64:0 65:0 66:1 67:0 68:0 69:1 70:0 71:0 72:0 73:1 74:0 75:0 76:0 #
-0.10900209263530885595017139166885 1:0 2:1 3:0 4:0 5:0 6:0 7:0 8:0 9:1 10:0 11:0 12:0 13:0 14:1 15:0 16:0 17:0 18:0 19:1 20:0 21:0 22:0 23:0 24:1 25:0 26:0 27:0 28:1 29:1 30:1 31:1 32:0 33:0 34:1 35:1 36:1 37:1 42:0 43:0 44:0 45:0 46:1 47:0 48:1 49:0 50:0 51:0 52:1 53:0 54:0 55:0 56:0 57:0 58:0 59:1 60:0 61:0 62:0 63:1 64:0 65:0 66:0 67:0 68:0 69:1 70:0 71:0 72:0 73:1 74:0 75:0 76:0 #
0.10900209263530885595017139166885 1:0 2:0 3:0 4:0 5:0 6:0 7:0 8:0 9:0 10:0 11:0 12:0 13:0 14:0 15:0 16:0 17:1 18:0 19:0 20:0 21:0 22:1 23:0 24:0 25:0 26:0 27:0 28:0 29:0 30:0 31:0 32:0 33:0 34:0 35:0 36:0 37:0 42:0 43:0 44:0 45:0 46:1 47:0 48:0 49:0 50:1 51:0 52:1 53:0 54:0 55:0 56:0 57:1 58:0 59:0 60:0 61:0 62:1 63:0 64:0 65:0 66:0 67:0 68:1 69:0 70:0 71:0 72:1 73:0 74:0 75:0 76:0 #
0.10900209263530885595017139166885 1:0 2:0 3:0 4:0 5:0 6:0 7:0 8:0 9:0 10:0 11:0 12:0 13:0 14:0 15:0 16:0 17:1 18:0 19:0 20:0 21:0 22:1 23:0 24:0 25:0 26:1 27:0 28:1 29:0 30:0 31:0 32:1 33:0 34:0 35:0 36:0 37:0 42:0 43:0 44:0 45:0 46:1 47:0 48:0 49:0 50:1 51:0 52:1 53:0 54:0 55:0 56:0 57:1 58:0 59:0 60:0 61:0 62:1 63:0 64:0 65:0 66:0 67:0 68:1 69:0 70:0 71:0 72:1 73:0 74:0 75:0 76:0 #
0.10900209263530885595017139166885 1:0 2:0 3:0 4:0 5:0 6:0 7:0 8:0 9:0 10:0 11:0 12:0 13:0 14:0 15:0 16:0 17:1 18:0 19:0 20:0 21:0 22:1 23:0 24:0 25:0 26:0 27:0 28:1 29:0 30:0 31:0 32:0 33:0 34:0 35:0 36:0 37:0 42:0 43:0 44:0 45:0 46:1 47:0 48:0 49:0 50:0 51:1 52:1 53:0 54:0 55:0 56:0 57:0 58:0 59:0 60:1 61:0 62:0 63:0 64:0 65:1 66:0 67:0 68:0 69:0 70:0 71:1 72:0 73:0 74:1 75:0 76:0 #
0.10900209263530885595017139166885 1:0 2:0 3:0 4:0 5:0 6:0 7:0 8:0 9:0 10:0 11:0 12:0 13:0 14:0 15:0 16:0 17:1 18:0 19:0 20:0 21:0 22:1 23:0 24:0 25:0 26:0 27:0 28:1 29:0 30:0 31:0 32:0 33:0 34:0 35:0 36:0 37:0 42:0 43:0 44:0 45:0 46:1 47:0 48:0 49:0 50:0 51:1 52:1 53:0 54:0 55:0 56:0 57:0 58:1 59:0 60:0 61:0 62:0 63:0 64:0 65:1 66:0 67:0 68:0 69:0 70:1 71:0 72:0 73:0 74:0 75:1 76:0 #
0.10900209263530885595017139166885 1:0 2:0 3:0 4:0 5:0 6:0 7:0 8:0 9:0 10:0 11:0 12:0 13:0 14:0 15:0 16:0 17:1 18:0 19:0 20:0 21:0 22:0 23:1 24:0 25:0 26:0 27:0 28:1 29:0 30:0 31:1 32:0 33:0 34:0 35:0 36:0 37:0 42:0 43:0 44:0 45:0 46:1 47:0 48:0 49:0 50:1 51:0 52:1 53:0 54:0 55:0 56:0 57:0 58:1 59:0 60:0 61:0 62:0 63:1 64:0 65:0 66:0 67:0 68:0 69:0 70:1 71:0 72:0 73:0 74:1 75:0 76:0 #
-0.10143096708189675014821773402218 1:0 2:0 3:0 4:0 5:0 6:0 7:0 8:0 9:0 10:0 11:0 12:0 13:1 14:0 15:0 16:0 17:0 18:1 19:0 20:0 21:0 22:0 23:0 24:1 25:0 26:0 27:0 28:1 29:0 30:0 31:1 32:0 33:0 34:0 35:0 36:0 37:0 42:0 43:0 44:0 45:0 46:1 47:0 48:0 49:0 50:1 51:0 52:1 53:0 54:0 55:0 56:0 57:1 58:0 59:0 60:0 61:0 62:1 63:0 64:0 65:0 66:0 67:0 68:0 69:0 70:1 71:0 72:0 73:0 74:1 75:0 76:0 #
-0.09891288195072309163968782286247 1:0 2:0 3:0 4:0 5:0 6:0 7:0 8:0 9:0 10:0 11:0 12:0 13:0 14:0 15:0 16:0 17:1 18:0 19:0 20:0 21:0 22:0 23:1 24:0 25:0 26:0 27:0 28:0 29:0 30:0 31:0 32:0 33:0 34:0 35:0 36:0 37:0 42:0 43:0 44:0 45:0 46:1 47:0 48:0 49:0 50:1 51:0 52:1 53:0 54:0 55:0 56:0 57:1 58:0 59:0 60:0 61:0 62:1 63:0 64:0 65:0 66:0 67:1 68:0 69:0 70:0 71:0 72:0 73:1 74:0 75:0 76:0 #
0.10900209263530885595017139166885 1:0 2:1 3:0 4:0 5:0 6:0 7:1 8:0 9:0 10:0 11:0 12:1 13:0 14:0 15:0 16:0 17:1 18:0 19:0 20:0 21:0 22:1 23:0 24:0 25:0 26:0 27:0 28:0 29:0 30:1 31:1 32:0 33:0 34:0 35:0 36:0 37:0 42:0 43:0 44:0 45:0 46:1 47:0 48:0 49:0 50:0 51:1 52:1 53:0 54:0 55:0 56:0 57:1 58:0 59:0 60:0 61:0 62:0 63:0 64:1 65:0 66:0 67:0 68:0 69:0 70:1 71:0 72:0 73:0 74:1 75:0 76:0 #
-0.10900209263530885595017139166885 1:0 2:0 3:0 4:0 5:0 6:0 7:1 8:0 9:0 10:0 11:0 12:1 13:0 14:0 15:0 16:0 17:1 18:0 19:0 20:0 21:0 22:1 23:0 24:0 25:0 26:0 27:0 28:0 29:0 30:0 31:1 32:0 33:0 34:0 35:0 36:0 37:0 42:0 43:0 44:0 45:0 46:1 47:0 48:0 49:1 50:0 51:0 52:1 53:0 54:0 55:0 56:0 57:1 58:0 59:0 60:0 61:0 62:1 63:0 64:0 65:0 66:0 67:0 68:0 69:1 70:0 71:0 72:0 73:1 74:0 75:0 76:0 #
0.089574478510479296766710888277885 1:0 2:1 3:0 4:0 5:0 6:0 7:1 8:0 9:0 10:0 11:0 12:1 13:0 14:0 15:0 16:0 17:0 18:1 19:0 20:0 21:0 22:0 23:0 24:1 25:0 26:1 27:0 28:1 29:1 30:1 31:1 32:0 33:0 34:1 35:1 36:1 37:1 42:0 43:0 44:0 45:1 46:0 47:0 48:0 49:1 50:0 51:0 52:1 53:0 54:0 55:0 56:0 57:0 58:0 59:1 60:0 61:0 62:1 63:0 64:0 65:0 66:0 67:0 68:1 69:0 70:0 71:0 72:1 73:0 74:0 75:0 76:0 #
-0.10900209263530885595017139166885 1:0 2:0 3:0 4:0 5:0 6:0 7:1 8:0 9:0 10:0 11:0 12:1 13:0 14:0 15:0 16:0 17:1 18:0 19:0 20:0 21:0 22:1 23:0 24:0 25:0 26:1 27:1 28:1 29:0 30:0 31:1 32:0 33:0 34:0 35:0 36:0 37:0 42:0 43:0 44:0 45:0 46:1 47:0 48:0 49:0 50:0 51:1 52:1 53:0 54:0 55:0 56:0 57:0 58:0 59:1 60:0 61:0 62:0 63:0 64:0 65:1 66:0 67:0 68:0 69:1 70:0 71:0 72:0 73:1 74:0 75:0 76:0 #
0.10900209263530885595017139166885 1:0 2:0 3:0 4:0 5:0 6:0 7:0 8:0 9:0 10:0 11:0 12:0 13:0 14:0 15:0 16:0 17:1 18:0 19:0 20:0 21:0 22:1 23:0 24:0 25:0 26:1 27:0 28:1 29:1 30:1 31:1 32:0 33:0 34:0 35:1 36:1 37:1 42:0 43:0 44:0 45:0 46:1 47:0 48:0 49:0 50:1 51:0 52:1 53:0 54:0 55:0 56:0 57:1 58:0 59:0 60:0 61:0 62:0 63:0 64:0 65:1 66:0 67:0 68:1 69:0 70:0 71:0 72:0 73:1 74:0 75:0 76:0 #
-0.025208334162016034912801032419338 1:0 2:0 3:0 4:0 5:0 6:0 7:1 8:0 9:0 10:0 11:0 12:1 13:0 14:0 15:0 16:0 17:1 18:0 19:0 20:0 21:0 22:1 23:0 24:0 25:0 26:1 27:0 28:1 29:0 30:0 31:1 32:0 33:0 34:0 35:0 36:0 37:0 42:0 43:0 44:0 45:0 46:1 47:0 48:0 49:0 50:0 51:1 52:1 53:0 54:0 55:0 56:0 57:0 58:0 59:0 60:1 61:0 62:0 63:1 64:0 65:0 66:0 67:0 68:1 69:0 70:0 71:0 72:1 73:0 74:0 75:0 76:0 #
0.10900209263530885595017139166885 1:0 2:1 3:0 4:0 5:0 6:0 7:0 8:1 9:0 10:0 11:0 12:0 13:1 14:0 15:0 16:0 17:0 18:1 19:0 20:0 21:0 22:0 23:0 24:1 25:0 26:0 27:0 28:1 29:0 30:0 31:1 32:0 33:0 34:0 35:0 36:0 37:0 42:0 43:0 44:0 45:0 46:1 47:0 48:0 49:0 50:0 51:1 52:1 53:0 54:0 55:0 56:0 57:0 58:0 59:1 60:0 61:0 62:0 63:0 64:0 65:1 66:0 67:0 68:0 69:0 70:0 71:1 72:0 73:0 74:0 75:1 76:0 #
-0.10900209263530885595017139166885 1:0 2:1 3:0 4:0 5:0 6:0 7:1 8:0 9:0 10:0 11:0 12:1 13:0 14:0 15:0 16:0 17:1 18:0 19:0 20:0 21:0 22:1 23:0 24:0 25:0 26:1 27:0 28:1 29:0 30:0 31:1 32:1 33:0 34:0 35:0 36:0 37:0 42:0 43:0 44:0 45:0 46:1 47:0 48:0 49:0 50:1 51:0 52:1 53:0 54:0 55:0 56:0 57:0 58:1 59:0 60:0 61:0 62:1 63:0 64:0 65:0 66:0 67:0 68:1 69:0 70:0 71:0 72:0 73:1 74:0 75:0 76:0 #
-0.10900209263530885595017139166885 1:0 2:0 3:0 4:0 5:0 6:0 7:1 8:0 9:0 10:0 11:0 12:1 13:0 14:0 15:0 16:0 17:1 18:0 19:0 20:0 21:0 22:1 23:0 24:0 25:0 26:1 27:1 28:1 29:0 30:1 31:1 32:1 33:1 34:0 35:0 36:0 37:0 42:0 43:0 44:0 45:0 46:1 47:0 48:0 49:0 50:0 51:1 52:1 53:0 54:0 55:0 56:0 57:1 58:0 59:0 60:0 61:0 62:1 63:0 64:0 65:0 66:0 67:0 68:1 69:0 70:0 71:0 72:1 73:0 74:0 75:0 76:0 #
-0.10900209263530885595017139166885 1:0 2:1 3:0 4:0 5:0 6:0 7:1 8:0 9:0 10:0 11:0 12:1 13:0 14:0 15:0 16:0 17:1 18:0 19:0 20:0 21:0 22:1 23:0 24:0 25:0 26:1 27:0 28:1 29:0 30:0 31:1 32:0 33:0 34:0 35:0 36:0 37:0 42:0 43:0 44:0 45:0 46:1 47:0 48:0 49:0 50:0 51:1 52:1 53:0 54:0 55:0 56:0 57:0 58:1 59:0 60:0 61:0 62:1 63:0 64:0 65:0 66:0 67:0 68:0 69:1 70:0 71:0 72:0 73:1 74:0 75:0 76:0 #
-0.10900209263530885595017139166885 1:0 2:0 3:0 4:0 5:0 6:0 7:1 8:0 9:0 10:0 11:0 12:1 13:0 14:0 15:0 16:0 17:1 18:0 19:0 20:0 21:0 22:1 23:0 24:0 25:0 26:0 27:0 28:1 29:0 30:0 31:0 32:0 33:0 34:0 35:0 36:0 37:0 42:0 43:0 44:0 45:0 46:1 47:0 48:0 49:0 50:1 51:0 52:1 53:0 54:0 55:0 56:0 57:0 58:0 59:1 60:0 61:0 62:0 63:0 64:1 65:0 66:0 67:0 68:1 69:0 70:0 71:0 72:1 73:0 74:0 75:0 76:0 #
0.10900209263530885595017139166885 1:0 2:0 3:0 4:0 5:0 6:0 7:0 8:1 9:0 10:0 11:0 12:0 13:1 14:0 15:0 16:0 17:0 18:1 19:0 20:0 21:0 22:0 23:1 24:0 25:0 26:1 27:0 28:0 29:0 30:0 31:1 32:1 33:0 34:0 35:0 36:0 37:0 42:0 43:0 44:0 45:0 46:1 47:0 48:0 49:1 50:0 51:0 52:1 53:0 54:0 55:0 56:0 57:1 58:0 59:0 60:0 61:0 62:1 63:0 64:0 65:0 66:0 67:0 68:0 69:0 70:1 71:0 72:0 73:0 74:1 75:0 76:0 #
0.10900209263530885595017139166885 1:0 2:1 3:0 4:0 5:0 6:0 7:0 8:1 9:0 10:0 11:0 12:0 13:1 14:0 15:0 16:0 17:0 18:1 19:0 20:0 21:0 22:0 23:1 24:0 25:0 26:0 27:0 28:0 29:0 30:0 31:0 32:0 33:0 34:0 35:0 36:0 37:0 42:0 43:0 44:0 45:0 46:1 47:0 48:0 49:0 50:0 51:1 52:1 53:0 54:0 55:0 56:0 57:1 58:0 59:0 60:0 61:0 62:1 63:0 64:0 65:0 66:0 67:1 68:0 69:0 70:0 71:0 72:1 73:0 74:0 75:0 76:0 #
0.10900209263530885595017139166885 1:0 2:1 3:0 4:0 5:0 6:0 7:0 8:1 9:0 10:0 11:0 12:0 13:1 14:0 15:0 16:0 17:0 18:1 19:0 20:0 21:0 22:0 23:1 24:0 25:0 26:0 27:0 28:0 29:0 30:0 31:0 32:0 33:0 34:0 35:0 36:0 37:0 42:0 43:0 44:0 45:0 46:1 47:0 48:1 49:0 50:0 51:0 52:1 53:0 54:0 55:0 56:0 57:0 58:1 59:0 60:0 61:0 62:0 63:0 64:0 65:0 66:0 67:0 68:0 69:1 70:0 71:0 72:0 73:1 74:0 75:0 76:0 #
0.10900209263530885595017139166885 1:0 2:1 3:0 4:0 5:0 6:0 7:0 8:0 9:1 10:0 11:0 12:0 13:0 14:1 15:0 16:0 17:0 18:0 19:1 20:0 21:0 22:0 23:0 24:0 25:1 26:1 27:0 28:1 29:0 30:0 31:0 32:1 33:0 34:1 35:0 36:0 37:0 42:0 43:0 44:0 45:0 46:1 47:0 48:0 49:0 50:0 51:1 52:1 53:0 54:0 55:0 56:0 57:0 58:1 59:0 60:0 61:0 62:0 63:0 64:0 65:1 66:0 67:0 68:0 69:0 70:1 71:0 72:0 73:0 74:1 75:0 76:0 #
-0.10900209263530885595017139166885 1:0 2:1 3:0 4:0 5:0 6:0 7:0 8:1 9:0 10:0 11:0 12:0 13:1 14:0 15:0 16:0 17:0 18:0 19:1 20:0 21:0 22:0 23:0 24:1 25:0 26:1 27:0 28:1 29:1 30:1 31:1 32:0 33:0 34:0 35:1 36:1 37:1 42:0 43:0 44:0 45:0 46:1 47:0 48:0 49:1 50:0 51:0 52:1 53:0 54:0 55:0 56:0 57:1 58:0 59:0 60:0 61:0 62:0 63:1 64:0 65:0 66:0 67:0 68:0 69:0 70:1 71:0 72:0 73:0 74:1 75:0 76:0 #
-0.10900209263530885595017139166885 1:0 2:0 3:0 4:0 5:0 6:0 7:1 8:0 9:0 10:0 11:0 12:1 13:0 14:0 15:0 16:0 17:0 18:1 19:0 20:0 21:0 22:0 23:1 24:0 25:0 26:1 27:0 28:1 29:0 30:1 31:1 32:0 33:0 34:1 35:0 36:0 37:0 42:0 43:0 44:0 45:0 46:1 47:0 48:0 49:1 50:0 51:0 52:1 53:0 54:0 55:0 56:0 57:0 58:1 59:0 60:0 61:0 62:0 63:0 64:0 65:0 66:0 67:0 68:0 69:0 70:1 71:0 72:0 73:1 74:0 75:0 76:0 #
-0.082236019773193447246484311108361 1:0 2:0 3:0 4:0 5:0 6:0 7:0 8:0 9:0 10:0 11:0 12:0 13:0 14:0 15:0 16:0 17:0 18:1 19:0 20:0 21:0 22:0 23:1 24:0 25:0 26:0 27:0 28:0 29:0 30:1 31:1 32:0 33:0 34:0 35:0 36:1 37:1 42:0 43:0 44:0 45:0 46:1 47:0 48:0 49:1 50:0 51:0 52:1 53:0 54:0 55:0 56:0 57:1 58:0 59:0 60:0 61:0 62:0 63:0 64:0 65:1 66:0 67:0 68:0 69:0 70:1 71:0 72:0 73:0 74:1 75:0 76:0 #
-0.10900209263530885595017139166885 1:0 2:0 3:0 4:0 5:0 6:0 7:1 8:0 9:0 10:0 11:0 12:1 13:0 14:0 15:0 16:0 17:1 18:0 19:0 20:0 21:0 22:1 23:0 24:0 25:0 26:0 27:0 28:1 29:1 30:1 31:1 32:0 33:0 34:0 35:0 36:0 37:0 42:0 43:0 44:0 45:0 46:1 47:0 48:0 49:0 50:0 51:1 52:1 53:0 54:0 55:0 56:0 57:0 58:0 59:1 60:0 61:0 62:0 63:0 64:0 65:1 66:0 67:0 68:0 69:1 70:0 71:0 72:0 73:1 74:0 75:0 76:0 #
0.10900209263530885595017139166885 1:0 2:1 3:0 4:0 5:0 6:0 7:1 8:0 9:0 10:0 11:0 12:1 13:0 14:0 15:0 16:0 17:1 18:0 19:0 20:0 21:0 22:1 23:0 24:0 25:0 26:1 27:0 28:1 29:0 30:0 31:1 32:0 33:0 34:0 35:0 36:0 37:0 42:0 43:0 44:0 45:0 46:1 47:0 48:0 49:0 50:1 51:0 52:1 53:0 54:0 55:0 56:0 57:0 58:0 59:0 60:1 61:0 62:1 63:0 64:0 65:0 66:0 67:0 68:0 69:1 70:0 71:0 72:0 73:1 74:0 75:0 76:0 #
-0.10900209263530885595017139166885 1:0 2:0 3:1 4:0 5:0 6:0 7:0 8:1 9:0 10:0 11:0 12:0 13:1 14:0 15:0 16:0 17:0 18:1 19:0 20:0 21:0 22:0 23:1 24:0 25:0 26:0 27:0 28:1 29:0 30:0 31:1 32:0 33:0 34:0 35:0 36:0 37:0 42:0 43:0 44:0 45:0 46:1 47:0 48:0 49:0 50:1 51:0 52:1 53:0 54:0 55:0 56:0 57:1 58:0 59:0 60:0 61:0 62:0 63:1 64:0 65:0 66:0 67:0 68:1 69:0 70:0 71:0 72:0 73:1 74:0 75:0 76:0 #
0.093270523091502771650951331139368 1:0 2:1 3:0 4:0 5:0 6:0 7:1 8:0 9:0 10:0 11:0 12:1 13:0 14:0 15:0 16:0 17:0 18:0 19:1 20:0 21:0 22:0 23:0 24:0 25:1 26:0 27:0 28:1 29:0 30:0 31:1 32:0 33:0 34:0 35:0 36:0 37:0 42:0 43:0 44:0 45:0 46:1 47:0 48:0 49:0 50:1 51:0 52:1 53:0 54:0 55:0 56:0 57:1 58:0 59:0 60:0 61:0 62:1 63:0 64:0 65:0 66:0 67:0 68:0 69:0 70:0 71:1 72:0 73:0 74:1 75:0 76:0 #
-0.10900209263530885595017139166885 1:0 2:1 3:0 4:0 5:0 6:0 7:1 8:0 9:0 10:0 11:0 12:1 13:0 14:0 15:0 16:0 17:1 18:0 19:0 20:0 21:0 22:0 23:1 24:0 25:0 26:1 27:0 28:0 29:0 30:0 31:0 32:0 33:0 34:0 35:0 36:0 37:0 42:0 43:0 44:0 45:0 46:1 47:0 48:0 49:0 50:0 51:1 52:1 53:0 54:0 55:0 56:0 57:0 58:1 59:0 60:0 61:0 62:1 63:0 64:0 65:0 66:0 67:0 68:0 69:0 70:0 71:1 72:0 73:0 74:1 75:0 76:0 #
-0.10900209263530885595017139166885 1:0 2:0 3:0 4:0 5:0 6:0 7:1 8:0 9:0 10:0 11:0 12:1 13:0 14:0 15:0 16:0 17:1 18:0 19:0 20:0 21:0 22:1 23:0 24:0 25:0 26:1 27:1 28:1 29:0 30:0 31:0 32:0 33:0 34:0 35:0 36:0 37:0 42:0 43:0 44:0 45:0 46:1 47:0 48:0 49:0 50:1 51:0 52:1 53:0 54:0 55:0 56:0 57:1 58:0 59:0 60:0 61:0 62:1 63:0 64:0 65:0 66:0 67:0 68:1 69:0 70:0 71:0 72:0 73:1 74:0 75:0 76:0 #
-0.10900209263530885595017139166885 1:0 2:1 3:0 4:0 5:0 6:0 7:1 8:0 9:0 10:0 11:0 12:1 13:0 14:0 15:0 16:0 17:1 18:0 19:0 20:0 21:0 22:1 23:0 24:0 25:0 26:0 27:0 28:0 29:0 30:0 31:1 32:0 33:0 34:0 35:0 36:0 37:0 42:0 43:0 44:0 45:0 46:1 47:0 48:0 49:0 50:0 51:1 52:1 53:0 54:0 55:0 56:0 57:1 58:0 59:0 60:0 61:0 62:1 63:0 64:0 65:0 66:0 67:0 68:1 69:0 70:0 71:0 72:0 73:1 74:0 75:0 76:0 #
-0.10900209263530885595017139166885 1:0 2:1 3:0 4:0 5:0 6:0 7:1 8:0 9:0 10:0 11:0 12:1 13:0 14:0 15:0 16:0 17:1 18:0 19:0 20:0 21:0 22:1 23:0 24:0 25:0 26:0 27:0 28:0 29:0 30:0 31:0 32:0 33:0 34:0 35:0 36:0 37:0 42:0 43:0 44:0 45:0 46:1 47:0 48:0 49:0 50:1 51:0 52:1 53:0 54:0 55:0 56:0 57:0 58:1 59:0 60:0 61:0 62:0 63:0 64:0 65:0 66:1 67:0 68:0 69:1 70:0 71:0 72:0 73:1 74:0 75:0 76:0 #
0.10900209263530885595017139166885 1:0 2:0 3:0 4:0 5:0 6:0 7:0 8:0 9:0 10:0 11:0 12:0 13:0 14:0 15:0 16:0 17:0 18:0 19:0 20:0 21:0 22:1 23:0 24:0 25:0 26:0 27:0 28:0 29:1 30:1 31:1 32:0 33:0 34:0 35:1 36:1 37:1 42:0 43:0 44:0 45:0 46:1 47:0 48:0 49:0 50:1 51:0 52:1 53:0 54:0 55:0 56:0 57:1 58:0 59:0 60:0 61:0 62:1 63:0 64:0 65:0 66:0 67:1 68:0 69:0 70:0 71:0 72:0 73:1 74:0 75:0 76:0 #
0.021859259302016875725627187421196 1:0 2:1 3:0 4:0 5:0 6:0 7:1 8:0 9:0 10:0 11:0 12:1 13:0 14:0 15:0 16:0 17:1 18:0 19:0 20:0 21:0 22:1 23:0 24:0 25:0 26:1 27:0 28:0 29:0 30:0 31:0 32:1 33:0 34:0 35:0 36:0 37:0 42:0 43:0 44:0 45:0 46:1 47:0 48:0 49:0 50:1 51:0 52:1 53:0 54:0 55:0 56:0 57:1 58:0 59:0 60:0 61:0 62:1 63:0 64:0 65:0 66:0 67:1 68:0 69:0 70:0 71:0 72:1 73:0 74:0 75:0 76:0 #
0.10900209263530885595017139166885 1:0 2:0 3:1 4:0 5:0 6:0 7:0 8:0 9:1 10:0 11:0 12:0 13:0 14:1 15:0 16:0 17:0 18:0 19:1 20:0 21:0 22:0 23:0 24:1 25:0 26:0 27:0 28:1 29:0 30:1 31:1 32:0 33:0 34:0 35:0 36:1 37:1 42:0 43:0 44:0 45:0 46:1 47:0 48:1 49:0 50:0 51:0 52:1 53:0 54:0 55:0 56:0 57:1 58:0 59:0 60:0 61:0 62:0 63:0 64:0 65:1 66:0 67:0 68:0 69:0 70:1 71:0 72:0 73:1 74:0 75:0 76:0 #
0.10900209263530885595017139166885 1:0 2:0 3:0 4:0 5:0 6:0 7:0 8:0 9:0 10:0 11:0 12:1 13:0 14:0 15:0 16:0 17:1 18:0 19:0 20:0 21:0 22:1 23:0 24:0 25:0 26:1 27:0 28:1 29:1 30:1 31:1 32:0 33:0 34:0 35:1 36:1 37:1 42:0 43:0 44:0 45:0 46:1 47:0 48:0 49:0 50:1 51:0 52:1 53:0 54:0 55:0 56:0 57:1 58:0 59:0 60:0 61:0 62:0 63:0 64:0 65:1 66:0 67:0 68:0 69:0 70:1 71:0 72:0 73:1 74:0 75:0 76:0 #
-0.073764640091826885748282904842199 1:0 2:0 3:1 4:0 5:0 6:0 7:0 8:0 9:1 10:0 11:0 12:0 13:0 14:1 15:0 16:0 17:0 18:0 19:1 20:0 21:0 22:0 23:0 24:1 25:0 26:1 27:0 28:1 29:1 30:1 31:1 32:0 33:0 34:0 35:0 36:1 37:1 42:0 43:0 44:0 45:0 46:1 47:0 48:0 49:0 50:1 51:0 52:1 53:0 54:0 55:0 56:0 57:0 58:1 59:0 60:0 61:0 62:1 63:0 64:0 65:0 66:0 67:0 68:0 69:1 70:0 71:0 72:0 73:1 74:0 75:0 76:0 #
-0.06373108392707460545523190376116 1:0 2:0 3:0 4:0 5:0 6:0 7:0 8:0 9:0 10:0 11:0 12:0 13:0 14:0 15:0 16:0 17:1 18:0 19:0 20:0 21:0 22:1 23:0 24:0 25:0 26:1 27:1 28:1 29:0 30:1 31:1 32:1 33:0 34:0 35:0 36:0 37:0 42:0 43:0 44:0 45:0 46:1 47:0 48:0 49:0 50:0 51:1 52:1 53:0 54:0 55:0 56:0 57:0 58:0 59:0 60:0 61:1 62:0 63:0 64:0 65:0 66:0 67:0 68:0 69:0 70:0 71:1 72:0 73:0 74:1 75:0 76:0 #
0.10900209263530885595017139166885 1:0 2:1 3:0 4:0 5:0 6:0 7:0 8:0 9:0 10:1 11:0 12:0 13:0 14:0 15:1 16:0 17:0 18:0 19:0 20:1 21:0 22:0 23:0 24:0 25:1 26:0 27:0 28:1 29:0 30:1 31:1 32:0 33:0 34:0 35:0 36:1 37:1 42:0 43:0 44:0 45:0 46:1 47:0 48:0 49:0 50:1 51:0 52:1 53:0 54:0 55:0 56:0 57:1 58:0 59:0 60:0 61:0 62:0 63:0 64:1 65:0 66:0 67:0 68:0 69:1 70:0 71:0 72:0 73:1 74:0 75:0 76:0 #
0.10900209263530885595017139166885 1:0 2:1 3:0 4:0 5:0 6:0 7:1 8:0 9:0 10:0 11:0 12:1 13:0 14:0 15:0 16:0 17:0 18:1 19:0 20:0 21:0 22:0 23:0 24:1 25:0 26:1 27:0 28:1 29:0 30:0 31:1 32:1 33:0 34:0 35:0 36:0 37:0 42:0 43:0 44:0 45:0 46:1 47:0 48:0 49:0 50:1 51:0 52:1 53:0 54:0 55:0 56:0 57:0 58:1 59:0 60:0 61:0 62:1 63:0 64:0 65:0 66:0 67:0 68:0 69:1 70:0 71:0 72:0 73:1 74:0 75:0 76:0 #
0.10900209263530885595017139166885 1:0 2:1 3:0 4:0 5:0 6:0 7:1 8:0 9:0 10:0 11:0 12:1 13:0 14:0 15:0 16:0 17:1 18:0 19:0 20:0 21:0 22:1 23:0 24:0 25:0 26:1 27:0 28:0 29:0 30:0 31:0 32:0 33:0 34:0 35:0 36:0 37:0 42:0 43:0 44:0 45:0 46:1 47:0 48:0 49:1 50:0 51:0 52:1 53:0 54:0 55:0 56:0 57:0 58:1 59:0 60:0 61:0 62:0 63:0 64:0 65:0 66:0 67:0 68:1 69:0 70:0 71:0 72:1 73:0 74:0 75:0 76:0 #
0.10900209263530885595017139166885 1:0 2:0 3:1 4:0 5:0 6:0 7:0 8:1 9:0 10:0 11:0 12:0 13:1 14:0 15:0 16:0 17:0 18:1 19:0 20:0 21:0 22:0 23:1 24:0 25:0 26:1 27:0 28:1 29:0 30:0 31:0 32:1 33:0 34:0 35:0 36:0 37:0 42:0 43:0 44:0 45:0 46:1 47:0 48:0 49:0 50:1 51:0 52:1 53:0 54:0 55:0 56:0 57:0 58:1 59:0 60:0 61:0 62:1 63:0 64:0 65:0 66:0 67:0 68:1 69:0 70:0 71:0 72:0 73:1 74:0 75:0 76:0 #
0.10900209263530885595017139166885 1:0 2:1 3:0 4:0 5:0 6:0 7:1 8:0 9:0 10:0 11:0 12:1 13:0 14:0 15:0 16:0 17:1 18:0 19:0 20:0 21:0 22:1 23:0 24:0 25:0 26:0 27:0 28:0 29:0 30:0 31:0 32:0 33:0 34:0 35:0 36:0 37:0 42:0 43:0 44:0 45:0 46:1 47:0 48:0 49:1 50:0 51:0 52:1 53:0 54:0 55:0 56:0 57:1 58:0 59:0 60:0 61:0 62:0 63:0 64:0 65:0 66:1 67:0 68:0 69:0 70:1 71:0 72:0 73:1 74:0 75:0 76:0 #
-0.10900209263530885595017139166885 1:0 2:1 3:0 4:0 5:0 6:0 7:1 8:0 9:0 10:0 11:0 12:1 13:0 14:0 15:0 16:0 17:1 18:0 19:0 20:0 21:0 22:1 23:0 24:0 25:0 26:0 27:0 28:0 29:0 30:0 31:0 32:0 33:0 34:0 35:0 36:0 37:0 42:0 43:0 44:0 45:0 46:1 47:0 48:0 49:0 50:1 51:0 52:1 53:0 54:0 55:0 56:0 57:1 58:0 59:0 60:0 61:0 62:0 63:0 64:0 65:0 66:0 67:0 68:0 69:0 70:1 71:0 72:0 73:0 74:1 75:0 76:0 #
-0.10900209263530885595017139166885 1:0 2:1 3:0 4:0 5:0 6:0 7:1 8:0 9:0 10:0 11:0 12:1 13:0 14:0 15:0 16:0 17:1 18:0 19:0 20:0 21:0 22:0 23:1 24:0 25:0 26:0 27:0 28:0 29:0 30:0 31:0 32:0 33:0 34:0 35:0 36:0 37:0 42:0 43:0 44:0 45:0 46:1 47:0 48:0 49:1 50:0 51:0 52:1 53:0 54:0 55:0 56:0 57:1 58:0 59:0 60:0 61:0 62:1 63:0 64:0 65:0 66:0 67:0 68:0 69:0 70:1 71:0 72:0 73:1 74:0 75:0 76:0 #
-0.10900209263530885595017139166885 1:0 2:1 3:0 4:0 5:0 6:0 7:1 8:0 9:0 10:0 11:0 12:1 13:0 14:0 15:0 16:0 17:1 18:0 19:0 20:0 21:0 22:1 23:0 24:0 25:0 26:1 27:0 28:0 29:0 30:0 31:0 32:0 33:0 34:0 35:0 36:0 37:0 42:0 43:0 44:0 45:0 46:1 47:0 48:0 49:0 50:1 51:0 52:1 53:0 54:0 55:0 56:0 57:1 58:0 59:0 60:0 61:0 62:0 63:0 64:0 65:1 66:0 67:0 68:0 69:0 70:0 71:1 72:0 73:0 74:1 75:0 76:0 #
-0.10900209263530885595017139166885 1:0 2:1 3:0 4:0 5:0 6:0 7:1 8:0 9:0 10:0 11:0 12:1 13:0 14:0 15:0 16:0 17:1 18:0 19:0 20:0 21:0 22:1 23:0 24:0 25:0 26:1 27:0 28:0 29:0 30:0 31:1 32:1 33:0 34:0 35:0 36:0 37:0 42:0 43:0 44:0 45:0 46:1 47:0 48:0 49:0 50:1 51:0 52:1 53:0 54:0 55:0 56:0 57:1 58:0 59:0 60:0 61:0 62:0 63:1 64:0 65:0 66:0 67:0 68:0 69:0 70:1 71:0 72:0 73:1 74:0 75:0 76:0 #
-0.10900209263530885595017139166885 1:0 2:1 3:0 4:0 5:0 6:0 7:1 8:0 9:0 10:0 11:0 12:1 13:0 14:0 15:0 16:0 17:1 18:0 19:0 20:0 21:0 22:0 23:0 24:0 25:0 26:0 27:0 28:0 29:0 30:0 31:1 32:0 33:0 34:0 35:0 36:0 37:0 42:0 43:0 44:0 45:0 46:1 47:0 48:0 49:1 50:0 51:0 52:1 53:0 54:0 55:0 56:0 57:1 58:0 59:0 60:0 61:0 62:0 63:1 64:0 65:0 66:0 67:0 68:0 69:0 70:1 71:0 72:0 73:0 74:1 75:0 76:0 #
0.10900209263530885595017139166885 1:0 2:0 3:0 4:0 5:0 6:0 7:0 8:0 9:0 10:0 11:0 12:1 13:0 14:0 15:0 16:0 17:1 18:0 19:0 20:0 21:0 22:0 23:0 24:1 25:0 26:1 27:0 28:1 29:1 30:1 31:1 32:0 33:0 34:0 35:1 36:1 37:1 42:0 43:0 44:0 45:0 46:1 47:0 48:0 49:0 50:0 51:1 52:1 53:0 54:0 55:0 56:0 57:1 58:0 59:0 60:0 61:0 62:1 63:0 64:0 65:0 66:0 67:0 68:0 69:1 70:0 71:0 72:0 73:1 74:0 75:0 76:0 #
0.080182641598331383381292880585534 1:0 2:1 3:0 4:0 5:0 6:0 7:0 8:0 9:1 10:0 11:0 12:0 13:0 14:1 15:0 16:0 17:0 18:0 19:1 20:0 21:0 22:0 23:0 24:1 25:0 26:1 27:1 28:1 29:1 30:1 31:1 32:0 33:0 34:0 35:1 36:1 37:1 42:0 43:0 44:0 45:0 46:1 47:0 48:0 49:0 50:0 51:1 52:1 53:0 54:0 55:0 56:0 57:0 58:0 59:1 60:0 61:0 62:0 63:0 64:1 65:0 66:0 67:0 68:1 69:0 70:0 71:0 72:1 73:0 74:0 75:0 76:0 #
0.015532648519389504956911274291542 1:0 2:1 3:0 4:0 5:0 6:0 7:1 8:0 9:0 10:0 11:0 12:1 13:0 14:0 15:0 16:0 17:1 18:0 19:0 20:0 21:0 22:0 23:1 24:0 25:0 26:1 27:0 28:1 29:0 30:0 31:0 32:1 33:0 34:0 35:0 36:0 37:0 42:0 43:0 44:0 45:0 46:1 47:0 48:0 49:1 50:0 51:0 52:1 53:0 54:0 55:0 56:0 57:1 58:0 59:0 60:0 61:0 62:0 63:0 64:0 65:0 66:0 67:0 68:1 69:0 70:0 71:0 72:1 73:0 74:0 75:0 76:0 #
0.10900209263530885595017139166885 1:0 2:1 3:0 4:0 5:0 6:0 7:1 8:0 9:0 10:0 11:0 12:1 13:0 14:0 15:0 16:0 17:1 18:0 19:0 20:0 21:0 22:1 23:0 24:0 25:0 26:0 27:0 28:0 29:0 30:1 31:1 32:0 33:0 34:0 35:0 36:0 37:0 42:0 43:0 44:0 45:0 46:1 47:0 48:0 49:0 50:0 51:1 52:1 53:0 54:0 55:0 56:0 57:1 58:0 59:0 60:0 61:0 62:0 63:0 64:0 65:0 66:0 67:0 68:0 69:1 70:0 71:0 72:0 73:1 74:0 75:0 76:0 #
0.10900209263530885595017139166885 1:0 2:1 3:0 4:0 5:0 6:0 7:1 8:0 9:0 10:0 11:0 12:1 13:0 14:0 15:0 16:0 17:1 18:0 19:0 20:0 21:0 22:0 23:1 24:0 25:0 26:1 27:1 28:1 29:0 30:0 31:1 32:0 33:0 34:0 35:0 36:0 37:0 42:0 43:0 44:0 45:0 46:1 47:0 48:0 49:0 50:0 51:1 52:1 53:0 54:0 55:0 56:0 57:0 58:0 59:1 60:0 61:0 62:1 63:0 64:0 65:0 66:0 67:0 68:0 69:1 70:0 71:0 72:0 73:1 74:0 75:0 76:0 #
0.02053174538750803662656707615497 1:0 2:1 3:0 4:0 5:0 6:0 7:1 8:0 9:0 10:0 11:0 12:1 13:0 14:0 15:0 16:0 17:1 18:0 19:0 20:0 21:0 22:1 23:0 24:0 25:0 26:0 27:0 28:1 29:0 30:0 31:1 32:0 33:0 34:0 35:0 36:0 37:0 42:0 43:0 44:0 45:0 46:1 47:0 48:0 49:0 50:1 51:0 52:1 53:0 54:0 55:0 56:0 57:0 58:1 59:0 60:0 61:0 62:1 63:0 64:0 65:0 66:0 67:0 68:1 69:0 70:0 71:0 72:0 73:0 74:1 75:0 76:0 #
0.10900209263530885595017139166885 1:0 2:1 3:0 4:0 5:0 6:0 7:1 8:0 9:0 10:0 11:0 12:1 13:0 14:0 15:0 16:0 17:1 18:0 19:0 20:0 21:0 22:1 23:0 24:0 25:0 26:1 27:0 28:0 29:0 30:0 31:1 32:1 33:0 34:0 35:0 36:0 37:0 42:0 43:0 44:0 45:0 46:1 47:0 48:0 49:0 50:1 51:0 52:1 53:0 54:0 55:0 56:0 57:1 58:0 59:0 60:0 61:0 62:0 63:1 64:0 65:0 66:0 67:0 68:0 69:0 70:0 71:1 72:0 73:0 74:1 75:0 76:0 #
0.10900209263530885595017139166885 1:0 2:1 3:0 4:0 5:0 6:0 7:1 8:0 9:0 10:0 11:0 12:1 13:0 14:0 15:0 16:0 17:1 18:0 19:0 20:0 21:0 22:0 23:1 24:0 25:0 26:0 27:0 28:0 29:0 30:0 31:1 32:0 33:0 34:0 35:0 36:0 37:0 42:0 43:0 44:0 45:1 46:0 47:0 48:0 49:1 50:0 51:0 52:1 53:0 54:0 55:0 56:0 57:1 58:0 59:0 60:0 61:0 62:0 63:0 64:1 65:0 66:0 67:0 68:0 69:1 70:0 71:0 72:0 73:1 74:0 75:0 76:0 #
0.10900209263530885595017139166885 1:0 2:1 3:0 4:0 5:0 6:0 7:1 8:0 9:0 10:0 11:0 12:1 13:0 14:0 15:0 16:0 17:1 18:0 19:0 20:0 21:0 22:1 23:0 24:0 25:0 26:0 27:0 28:0 29:0 30:0 31:0 32:0 33:0 34:0 35:0 36:0 37:0 42:0 43:0 44:0 45:0 46:1 47:0 48:0 49:0 50:1 51:0 52:1 53:0 54:0 55:0 56:0 57:0 58:1 59:0 60:0 61:0 62:0 63:0 64:0 65:0 66:0 67:0 68:0 69:0 70:0 71:1 72:0 73:0 74:1 75:0 76:0 #
0.10900209263530885595017139166885 1:0 2:1 3:0 4:0 5:0 6:0 7:1 8:0 9:0 10:0 11:0 12:1 13:0 14:0 15:0 16:0 17:1 18:0 19:0 20:0 21:0 22:1 23:0 24:0 25:0 26:0 27:0 28:0 29:0 30:0 31:1 32:0 33:0 34:0 35:0 36:0 37:0 42:0 43:0 44:0 45:0 46:1 47:0 48:0 49:0 50:0 51:0 52:1 53:0 54:0 55:0 56:0 57:0 58:0 59:0 60:0 61:0 62:0 63:0 64:0 65:0 66:0 67:0 68:0 69:0 70:0 71:1 72:0 73:0 74:1 75:0 76:0 #
-0.10900209263530885595017139166885 1:0 2:1 3:0 4:0 5:0 6:0 7:1 8:0 9:0 10:0 11:0 12:1 13:0 14:0 15:0 16:0 17:1 18:0 19:0 20:0 21:0 22:1 23:0 24:0 25:0 26:1 27:0 28:0 29:0 30:0 31:1 32:1 33:0 34:0 35:0 36:0 37:0 42:0 43:0 44:0 45:0 46:1 47:0 48:1 49:0 50:0 51:0 52:1 53:0 54:0 55:0 56:0 57:0 58:0 59:0 60:0 61:0 62:0 63:0 64:0 65:0 66:1 67:0 68:0 69:0 70:0 71:1 72:0 73:0 74:1 75:0 76:0 #
0.10900209263530885595017139166885 1:0 2:0 3:0 4:0 5:0 6:0 7:0 8:0 9:0 10:0 11:0 12:0 13:0 14:0 15:0 16:0 17:0 18:0 19:0 20:0 21:0 22:1 23:0 24:0 25:0 26:1 27:0 28:1 29:1 30:1 31:1 32:0 33:0 34:0 35:1 36:1 37:1 42:0 43:0 44:0 45:0 46:1 47:0 48:0 49:0 50:0 51:1 52:1 53:0 54:0 55:0 56:0 57:0 58:1 59:0 60:0 61:0 62:1 63:0 64:0 65:0 66:0 67:0 68:1 69:0 70:0 71:0 72:1 73:0 74:0 75:0 76:0 #
0.10900209263530885595017139166885 1:0 2:0 3:0 4:0 5:0 6:0 7:0 8:0 9:0 10:0 11:0 12:0 13:0 14:0 15:0 16:0 17:0 18:1 19:0 20:0 21:0 22:0 23:1 24:0 25:0 26:0 27:0 28:1 29:0 30:1 31:1 32:0 33:0 34:0 35:0 36:1 37:1 42:0 43:0 44:0 45:0 46:1 47:0 48:0 49:0 50:0 51:1 52:1 53:0 54:0 55:0 56:0 57:1 58:0 59:0 60:0 61:0 62:0 63:0 64:0 65:0 66:0 67:0 68:0 69:1 70:0 71:0 72:0 73:1 74:0 75:0 76:0 #
-0.10900209263530885595017139166885 1:0 2:0 3:0 4:0 5:0 6:0 7:1 8:0 9:0 10:0 11:0 12:1 13:0 14:0 15:0 16:0 17:1 18:0 19:0 20:0 21:0 22:1 23:0 24:0 25:0 26:1 27:0 28:1 29:0 30:0 31:1 32:0 33:0 34:0 35:0 36:0 37:0 42:0 43:0 44:0 45:0 46:1 47:0 48:0 49:0 50:0 51:1 52:1 53:0 54:0 55:0 56:0 57:0 58:0 59:0 60:1 61:0 62:0 63:0 64:0 65:0 66:0 67:0 68:0 69:0 70:1 71:0 72:0 73:0 74:1 75:0 76:0 #
0.10900209263530885595017139166885 1:0 2:0 3:0 4:0 5:0 6:0 7:0 8:0 9:0 10:0 11:0 12:0 13:0 14:0 15:0 16:0 17:0 18:0 19:1 20:0 21:0 22:0 23:0 24:0 25:1 26:1 27:0 28:1 29:1 30:1 31:1 32:0 33:0 34:0 35:0 36:0 37:0 42:0 43:0 44:0 45:0 46:1 47:0 48:0 49:0 50:1 51:0 52:1 53:0 54:0 55:0 56:0 57:1 58:0 59:0 60:0 61:0 62:1 63:0 64:0 65:0 66:0 67:1 68:0 69:0 70:0 71:0 72:0 73:1 74:0 75:0 76:0 #
0.050059032910990140796680947232744 1:0 2:1 3:0 4:0 5:0 6:0 7:0 8:1 9:0 10:0 11:0 12:0 13:1 14:0 15:0 16:0 17:0 18:0 19:1 20:0 21:0 22:0 23:0 24:1 25:0 26:1 27:0 28:1 29:0 30:0 31:1 32:0 33:0 34:0 35:0 36:0 37:0 42:0 43:0 44:0 45:0 46:1 47:0 48:0 49:1 50:0 51:0 52:1 53:0 54:0 55:0 56:0 57:0 58:1 59:0 60:0 61:0 62:0 63:0 64:0 65:0 66:0 67:0 68:0 69:0 70:1 71:0 72:0 73:1 74:0 75:0 76:0 #
-0.10900209263530885595017139166885 1:0 2:1 3:0 4:0 5:0 6:0 7:0 8:1 9:0 10:0 11:0 12:0 13:1 14:0 15:0 16:0 17:0 18:1 19:0 20:0 21:0 22:0 23:1 24:0 25:0 26:0 27:0 28:1 29:0 30:0 31:1 32:0 33:0 34:0 35:0 36:0 37:0 42:0 43:0 44:0 45:1 46:0 47:0 48:0 49:0 50:1 51:0 52:1 53:0 54:0 55:0 56:0 57:1 58:0 59:0 60:0 61:0 62:1 63:0 64:0 65:0 66:0 67:0 68:1 69:0 70:0 71:0 72:0 73:1 74:0 75:0 76:0 #
-0.10900209263530885595017139166885 1:0 2:0 3:0 4:0 5:0 6:0 7:0 8:0 9:0 10:0 11:0 12:0 13:0 14:0 15:0 16:0 17:0 18:0 19:0 20:0 21:0 22:0 23:0 24:0 25:0 26:0 27:0 28:1 29:0 30:1 31:1 32:0 33:0 34:0 35:0 36:1 37:1 42:0 43:0 44:0 45:0 46:1 47:0 48:0 49:0 50:1 51:0 52:1 53:0 54:0 55:0 56:0 57:1 58:0 59:0 60:0 61:0 62:1 63:0 64:0 65:0 66:0 67:0 68:0 69:0 70:1 71:0 72:0 73:0 74:1 75:0 76:0 #
-0.10900209263530885595017139166885 1:0 2:0 3:0 4:0 5:0 6:0 7:0 8:0 9:0 10:0 11:0 12:0 13:1 14:0 15:0 16:0 17:0 18:1 19:0 20:0 21:0 22:0 23:1 24:0 25:0 26:1 27:0 28:1 29:1 30:1 31:1 32:0 33:0 34:0 35:0 36:0 37:0 42:0 43:0 44:0 45:0 46:1 47:0 48:0 49:0 50:1 51:0 52:1 53:0 54:0 55:0 56:0 57:0 58:1 59:0 60:0 61:0 62:1 63:0 64:0 65:0 66:0 67:1 68:0 69:0 70:0 71:0 72:1 73:0 74:0 75:0 76:0 #
-0.032335566099703276499166548774156 1:0 2:0 3:0 4:0 5:0 6:0 7:1 8:0 9:0 10:0 11:0 12:1 13:0 14:0 15:0 16:0 17:1 18:0 19:0 20:0 21:0 22:1 23:0 24:0 25:0 26:1 27:0 28:1 29:0 30:0 31:1 32:1 33:0 34:0 35:0 36:0 37:0 42:0 43:0 44:0 45:0 46:1 47:0 48:0 49:0 50:0 51:1 52:1 53:0 54:0 55:0 56:0 57:0 58:0 59:0 60:0 61:1 62:0 63:0 64:0 65:0 66:0 67:0 68:0 69:0 70:0 71:1 72:0 73:0 74:1 75:0 76:0 #
-0.10900209263530885595017139166885 1:0 2:0 3:0 4:0 5:0 6:0 7:0 8:0 9:0 10:0 11:0 12:0 13:1 14:0 15:0 16:0 17:0 18:1 19:0 20:0 21:0 22:0 23:0 24:0 25:1 26:0 27:0 28:1 29:0 30:0 31:1 32:0 33:0 34:0 35:0 36:0 37:0 42:0 43:0 44:0 45:0 46:1 47:0 48:0 49:0 50:0 51:1 52:1 53:0 54:0 55:0 56:0 57:1 58:0 59:0 60:0 61:0 62:1 63:0 64:0 65:0 66:0 67:0 68:0 69:1 70:0 71:0 72:0 73:1 74:0 75:0 76:0 #
0.10900209263530885595017139166885 1:0 2:1 3:0 4:0 5:0 6:0 7:1 8:0 9:0 10:0 11:0 12:1 13:0 14:0 15:0 16:0 17:1 18:0 19:0 20:0 21:0 22:1 23:0 24:0 25:0 26:0 27:0 28:1 29:0 30:0 31:0 32:0 33:0 34:0 35:0 36:0 37:0 42:0 43:0 44:0 45:0 46:1 47:0 48:0 49:0 50:0 51:0 52:1 53:0 54:0 55:0 56:0 57:0 58:0 59:1 60:0 61:0 62:0 63:0 64:0 65:0 66:0 67:0 68:0 69:0 70:1 71:0 72:0 73:1 74:0 75:0 76:0 #
-0.10900209263530885595017139166885 1:0 2:1 3:0 4:0 5:0 6:0 7:1 8:0 9:0 10:0 11:0 12:1 13:0 14:0 15:0 16:0 17:1 18:0 19:0 20:0 21:0 22:1 23:0 24:0 25:0 26:1 27:0 28:0 29:1 30:1 31:1 32:0 33:0 34:0 35:0 36:0 37:0 42:0 43:0 44:0 45:0 46:1 47:0 48:0 49:0 50:1 51:0 52:1 53:0 54:0 55:0 56:0 57:1 58:0 59:0 60:0 61:0 62:0 63:1 64:0 65:0 66:0 67:0 68:0 69:1 70:0 71:0 72:0 73:0 74:1 75:0 76:0 #
-0.10900209263530885595017139166885 1:0 2:1 3:0 4:0 5:0 6:0 7:1 8:0 9:0 10:0 11:0 12:1 13:0 14:0 15:0 16:0 17:1 18:0 19:0 20:0 21:0 22:1 23:0 24:0 25:0 26:0 27:0 28:0 29:0 30:0 31:1 32:0 33:0 34:0 35:0 36:0 37:0 42:0 43:0 44:0 45:0 46:1 47:0 48:0 49:0 50:0 51:1 52:1 53:0 54:0 55:0 56:0 57:0 58:0 59:0 60:1 61:0 62:0 63:0 64:0 65:1 66:0 67:0 68:0 69:0 70:1 71:0 72:0 73:0 74:1 75:0 76:0 #
-0.10900209263530885595017139166885 1:0 2:0 3:0 4:0 5:0 6:0 7:1 8:0 9:0 10:0 11:0 12:1 13:0 14:0 15:0 16:0 17:1 18:0 19:0 20:0 21:0 22:1 23:0 24:0 25:0 26:0 27:0 28:1 29:0 30:0 31:1 32:0 33:0 34:0 35:0 36:0 37:0 42:0 43:0 44:0 45:0 46:1 47:0 48:0 49:0 50:0 51:0 52:1 53:0 54:0 55:0 56:0 57:0 58:0 59:0 60:0 61:1 62:0 63:0 64:0 65:0 66:0 67:0 68:0 69:0 70:0 71:1 72:0 73:0 74:0 75:1 76:0 #
0.10900209263530885595017139166885 1:0 2:0 3:0 4:0 5:0 6:0 7:0 8:0 9:0 10:0 11:0 12:0 13:0 14:0 15:0 16:0 17:0 18:1 19:0 20:0 21:0 22:0 23:1 24:0 25:0 26:1 27:0 28:1 29:0 30:0 31:0 32:0 33:0 34:0 35:0 36:0 37:0 42:0 43:0 44:0 45:0 46:1 47:0 48:0 49:1 50:0 51:0 52:1 53:0 54:0 55:0 56:0 57:1 58:0 59:0 60:0 61:0 62:1 63:0 64:0 65:0 66:0 67:0 68:0 69:0 70:1 71:0 72:0 73:1 74:0 75:0 76:0 #
0.10900209263530885595017139166885 1:0 2:1 3:0 4:0 5:0 6:0 7:0 8:1 9:0 10:0 11:0 12:0 13:1 14:0 15:0 16:0 17:0 18:1 19:0 20:0 21:0 22:0 23:1 24:0 25:0 26:1 27:0 28:0 29:0 30:1 31:1 32:0 33:0 34:0 35:0 36:0 37:0 42:0 43:0 44:0 45:0 46:1 47:0 48:0 49:1 50:0 51:0 52:1 53:0 54:0 55:0 56:0 57:0 58:1 59:0 60:0 61:0 62:1 63:0 64:0 65:0 66:0 67:0 68:1 69:0 70:0 71:0 72:0 73:1 74:0 75:0 76:0 #
0.10900209263530885595017139166885 1:0 2:1 3:0 4:0 5:0 6:0 7:0 8:1 9:0 10:0 11:0 12:0 13:1 14:0 15:0 16:0 17:0 18:1 19:0 20:0 21:0 22:0 23:1 24:0 25:0 26:1 27:0 28:0 29:0 30:0 31:1 32:1 33:0 34:0 35:0 36:0 37:0 42:0 43:0 44:0 45:0 46:1 47:0 48:0 49:1 50:0 51:0 52:1 53:0 54:0 55:0 56:0 57:1 58:0 59:0 60:0 61:0 62:0 63:0 64:1 65:0 66:0 67:0 68:0 69:1 70:0 71:0 72:0 73:1 74:0 75:0 76:0 #
-0.1041239295287947758117397256683 1:0 2:0 3:0 4:0 5:0 6:0 7:0 8:0 9:0 10:0 11:0 12:0 13:0 14:0 15:0 16:0 17:0 18:1 19:0 20:0 21:0 22:0 23:1 24:0 25:0 26:1 27:1 28:1 29:0 30:0 31:1 32:0 33:0 34:0 35:0 36:0 37:0 42:0 43:0 44:0 45:0 46:1 47:0 48:0 49:0 50:0 51:1 52:1 53:0 54:0 55:0 56:0 57:0 58:1 59:0 60:0 61:0 62:1 63:0 64:0 65:0 66:0 67:0 68:1 69:0 70:0 71:0 72:0 73:1 74:0 75:0 76:0 #
-0.10900209263530885595017139166885 1:0 2:0 3:0 4:0 5:0 6:0 7:0 8:0 9:0 10:0 11:0 12:0 13:0 14:0 15:0 16:0 17:0 18:1 19:0 20:0 21:0 22:0 23:1 24:0 25:0 26:1 27:0 28:1 29:0 30:1 31:1 32:0 33:0 34:0 35:0 36:0 37:0 42:0 43:0 44:0 45:0 46:1 47:0 48:0 49:1 50:0 51:0 52:1 53:0 54:0 55:0 56:0 57:1 58:0 59:0 60:0 61:0 62:0 63:0 64:0 65:0 66:0 67:0 68:0 69:0 70:1 71:0 72:0 73:1 74:0 75:0 76:0 #
-0.10900209263530885595017139166885 1:0 2:0 3:0 4:0 5:0 6:0 7:0 8:1 9:0 10:0 11:0 12:0 13:1 14:0 15:0 16:0 17:0 18:1 19:0 20:0 21:0 22:0 23:1 24:0 25:0 26:1 27:0 28:0 29:0 30:1 31:1 32:1 33:0 34:0 35:0 36:1 37:1 42:0 43:0 44:0 45:0 46:1 47:0 48:0 49:1 50:0 51:0 52:1 53:0 54:0 55:0 56:0 57:1 58:0 59:0 60:0 61:0 62:0 63:0 64:1 65:0 66:0 67:0 68:0 69:0 70:1 71:0 72:0 73:0 74:1 75:0 76:0 #
0.10900209263530885595017139166885 1:0 2:1 3:0 4:0 5:0 6:0 7:1 8:0 9:0 10:0 11:0 12:1 13:0 14:0 15:0 16:0 17:1 18:0 19:0 20:0 21:0 22:1 23:0 24:0 25:0 26:1 27:0 28:0 29:0 30:1 31:1 32:0 33:0 34:0 35:0 36:0 37:0 42:0 43:0 44:0 45:0 46:1 47:0 48:0 49:0 50:1 51:0 52:1 53:0 54:0 55:0 56:0 57:1 58:0 59:0 60:0 61:0 62:0 63:0 64:0 65:0 66:0 67:0 68:0 69:0 70:1 71:0 72:0 73:0 74:1 75:0 76:0 #
0.10900209263530885595017139166885 1:0 2:1 3:0 4:0 5:0 6:0 7:1 8:0 9:0 10:0 11:0 12:1 13:0 14:0 15:0 16:0 17:1 18:0 19:0 20:0 21:0 22:1 23:0 24:0 25:0 26:0 27:0 28:1 29:0 30:1 31:1 32:0 33:0 34:0 35:0 36:0 37:0 42:0 43:0 44:0 45:0 46:1 47:0 48:0 49:0 50:0 51:1 52:1 53:0 54:0 55:0 56:0 57:0 58:0 59:0 60:1 61:0 62:0 63:0 64:0 65:0 66:0 67:0 68:0 69:1 70:0 71:0 72:0 73:0 74:1 75:0 76:0 #
0.10900209263530885595017139166885 1:0 2:0 3:0 4:0 5:0 6:0 7:1 8:0 9:0 10:0 11:0 12:1 13:0 14:0 15:0 16:0 17:1 18:0 19:0 20:0 21:0 22:1 23:0 24:0 25:0 26:0 27:0 28:0 29:1 30:1 31:1 32:0 33:0 34:0 35:1 36:1 37:1 42:0 43:0 44:0 45:0 46:1 47:0 48:0 49:0 50:1 51:0 52:1 53:0 54:0 55:0 56:0 57:1 58:0 59:0 60:0 61:0 62:1 63:0 64:0 65:0 66:0 67:1 68:0 69:0 70:0 71:0 72:1 73:0 74:0 75:0 76:0 #
0.10900209263530885595017139166885 1:0 2:1 3:0 4:0 5:0 6:0 7:1 8:0 9:0 10:0 11:0 12:1 13:0 14:0 15:0 16:0 17:1 18:0 19:0 20:0 21:0 22:1 23:0 24:0 25:0 26:0 27:0 28:0 29:0 30:1 31:1 32:0 33:0 34:0 35:0 36:0 37:0 42:0 43:0 44:0 45:0 46:1 47:0 48:0 49:0 50:0 51:1 52:1 53:0 54:0 55:0 56:0 57:1 58:0 59:0 60:0 61:0 62:0 63:1 64:0 65:0 66:0 67:0 68:0 69:0 70:1 71:0 72:0 73:0 74:1 75:0 76:0 #
-0.10900209263530885595017139166885 1:0 2:1 3:0 4:0 5:0 6:0 7:1 8:0 9:0 10:0 11:0 12:1 13:0 14:0 15:0 16:0 17:1 18:0 19:0 20:0 21:0 22:1 23:0 24:0 25:0 26:1 27:0 28:0 29:0 30:0 31:0 32:0 33:0 34:0 35:0 36:0 37:0 42:0 43:0 44:0 45:1 46:0 47:0 48:1 49:0 50:0 51:0 52:1 53:0 54:0 55:0 56:0 57:1 58:0 59:0 60:0 61:0 62:1 63:0 64:0 65:0 66:0 67:1 68:0 69:0 70:0 71:0 72:1 73:0 74:0 75:0 76:0 #
0.069228470255156077106661882680783 1:0 2:1 3:0 4:0 5:0 6:0 7:0 8:1 9:0 10:0 11:0 12:0 13:1 14:0 15:0 16:0 17:0 18:1 19:0 20:0 21:0 22:0 23:1 24:0 25:0 26:1 27:0 28:1 29:0 30:0 31:1 32:0 33:0 34:0 35:0 36:0 37:0 42:0 43:0 44:0 45:0 46:1 47:0 48:0 49:1 50:0 51:0 52:1 53:0 54:0 55:0 56:0 57:1 58:0 59:0 60:0 61:0 62:0 63:1 64:0 65:0 66:0 67:0 68:0 69:1 70:0 71:0 72:0 73:1 74:0 75:0 76:0 #
0.10900209263530885595017139166885 1:0 2:0 3:0 4:0 5:0 6:0 7:0 8:0 9:0 10:0 11:0 12:0 13:0 14:0 15:0 16:0 17:1 18:0 19:0 20:0 21:0 22:1 23:0 24:0 25:0 26:1 27:1 28:1 29:0 30:0 31:1 32:1 33:1 34:0 35:0 36:0 37:0 42:0 43:0 44:1 45:0 46:0 47:0 48:1 49:0 50:0 51:0 52:1 53:0 54:0 55:0 56:0 57:1 58:0 59:0 60:0 61:0 62:1 63:0 64:0 65:0 66:0 67:1 68:0 69:0 70:0 71:0 72:1 73:0 74:0 75:0 76:0 #
-0.10900209263530885595017139166885 1:0 2:0 3:0 4:0 5:0 6:0 7:0 8:0 9:0 10:0 11:0 12:0 13:0 14:0 15:0 16:0 17:1 18:0 19:0 20:0 21:0 22:1 23:0 24:0 25:0 26:0 27:0 28:1 29:0 30:1 31:1 32:0 33:0 34:0 35:0 36:1 37:1 42:0 43:0 44:0 45:0 46:1 47:0 48:0 49:0 50:0 51:0 52:1 53:0 54:0 55:0 56:0 57:0 58:0 59:0 60:1 61:0 62:0 63:0 64:0 65:0 66:0 67:0 68:0 69:1 70:0 71:0 72:0 73:1 74:0 75:0 76:0 #
-0.10055537456928076434081731349579 1:0 2:0 3:0 4:0 5:0 6:0 7:0 8:0 9:0 10:0 11:0 12:0 13:0 14:0 15:0 16:0 17:1 18:0 19:0 20:0 21:0 22:1 23:0 24:0 25:0 26:1 27:1 28:1 29:0 30:0 31:1 32:1 33:1 34:0 35:0 36:0 37:0 42:0 43:0 44:0 45:0 46:1 47:0 48:0 49:0 50:0 51:1 52:1 53:0 54:0 55:0 56:0 57:0 58:0 59:1 60:0 61:0 62:0 63:0 64:1 65:0 66:0 67:0 68:0 69:1 70:0 71:0 72:0 73:1 74:0 75:0 76:0 #
0.10900209263530885595017139166885 1:0 2:1 3:0 4:0 5:0 6:0 7:1 8:0 9:0 10:0 11:0 12:0 13:1 14:0 15:0 16:0 17:0 18:1 19:0 20:0 21:0 22:0 23:1 24:0 25:0 26:1 27:0 28:1 29:0 30:0 31:0 32:0 33:0 34:0 35:0 36:0 37:0 42:0 43:0 44:0 45:0 46:1 47:0 48:0 49:0 50:1 51:0 52:1 53:0 54:0 55:0 56:0 57:1 58:0 59:0 60:0 61:0 62:0 63:0 64:0 65:0 66:1 67:0 68:0 69:0 70:1 71:0 72:0 73:0 74:1 75:0 76:0 #
0.035039282314704128795668225393456 1:0 2:1 3:0 4:0 5:0 6:0 7:1 8:0 9:0 10:0 11:0 12:1 13:0 14:0 15:0 16:0 17:1 18:0 19:0 20:0 21:0 22:0 23:1 24:0 25:0 26:1 27:0 28:1 29:0 30:0 31:0 32:0 33:0 34:0 35:0 36:0 37:0 42:0 43:0 44:0 45:0 46:1 47:0 48:0 49:1 50:0 51:0 52:1 53:0 54:0 55:0 56:0 57:0 58:1 59:0 60:0 61:0 62:0 63:1 64:0 65:0 66:0 67:0 68:1 69:0 70:0 71:0 72:0 73:1 74:0 75:0 76:0 #
-0.10900209263530885595017139166885 1:0 2:1 3:0 4:0 5:0 6:0 7:0 8:0 9:0 10:0 11:0 12:0 13:0 14:0 15:0 16:0 17:0 18:0 19:0 20:0 21:0 22:0 23:0 24:0 25:0 26:0 27:0 28:0 29:0 30:0 31:0 32:0 33:0 34:0 35:0 36:0 37:0 42:0 43:0 44:1 45:0 46:0 47:0 48:1 49:0 50:0 51:0 52:1 53:0 54:0 55:0 56:0 57:1 58:0 59:0 60:0 61:0 62:1 63:0 64:0 65:0 66:0 67:1 68:0 69:0 70:0 71:0 72:1 73:0 74:0 75:0 76:0 #
-0.10900209263530885595017139166885 1:0 2:1 3:0 4:0 5:0 6:0 7:0 8:0 9:1 10:0 11:0 12:0 13:0 14:1 15:0 16:0 17:0 18:0 19:1 20:0 21:0 22:0 23:0 24:1 25:0 26:0 27:0 28:0 29:0 30:0 31:0 32:0 33:0 34:0 35:0 36:0 37:0 42:0 43:0 44:0 45:0 46:1 47:0 48:0 49:0 50:0 51:1 52:1 53:0 54:0 55:0 56:0 57:0 58:0 59:0 60:1 61:0 62:0 63:0 64:1 65:0 66:0 67:0 68:0 69:0 70:0 71:1 72:0 73:0 74:1 75:0 76:0 #
0.10900209263530885595017139166885 1:0 2:0 3:0 4:0 5:0 6:0 7:0 8:0 9:0 10:0 11:0 12:0 13:0 14:0 15:0 16:0 17:1 18:0 19:0 20:0 21:0 22:1 23:0 24:0 25:0 26:1 27:1 28:1 29:0 30:1 31:1 32:0 33:0 34:0 35:0 36:0 37:0 42:0 43:0 44:0 45:0 46:1 47:0 48:0 49:0 50:0 51:1 52:1 53:0 54:0 55:0 56:0 57:0 58:1 59:0 60:0 61:0 62:1 63:0 64:0 65:0 66:0 67:0 68:1 69:0 70:0 71:0 72:0 73:1 74:0 75:0 76:0 #
0.10900209263530885595017139166885 1:0 2:0 3:0 4:0 5:0 6:0 7:1 8:0 9:0 10:0 11:0 12:1 13:0 14:0 15:0 16:0 17:1 18:0 19:0 20:0 21:0 22:1 23:0 24:0 25:0 26:1 27:0 28:1 29:0 30:1 31:1 32:0 33:0 34:0 35:0 36:1 37:1 42:0 43:0 44:0 45:0 46:1 47:0 48:0 49:1 50:0 51:0 52:1 53:0 54:0 55:0 56:0 57:0 58:1 59:0 60:0 61:0 62:0 63:0 64:0 65:0 66:1 67:0 68:0 69:1 70:0 71:0 72:0 73:1 74:0 75:0 76:0 #
0.10900209263530885595017139166885 1:0 2:0 3:0 4:0 5:0 6:0 7:0 8:0 9:0 10:0 11:0 12:0 13:0 14:0 15:0 16:0 17:1 18:0 19:0 20:0 21:0 22:1 23:0 24:0 25:0 26:1 27:0 28:1 29:0 30:0 31:1 32:0 33:0 34:0 35:0 36:0 37:0 42:0 43:0 44:0 45:0 46:1 47:0 48:0 49:0 50:0 51:1 52:1 53:0 54:0 55:0 56:0 57:1 58:0 59:0 60:0 61:0 62:0 63:0 64:0 65:0 66:0 67:0 68:1 69:0 70:0 71:0 72:0 73:1 74:0 75:0 76:0 #
0.10900209263530885595017139166885 1:0 2:0 3:0 4:0 5:0 6:0 7:0 8:0 9:0 10:0 11:0 12:0 13:0 14:0 15:0 16:0 17:1 18:0 19:0 20:0 21:0 22:1 23:0 24:0 25:0 26:0 27:0 28:1 29:0 30:1 31:1 32:0 33:0 34:0 35:0 36:0 37:0 42:0 43:0 44:0 45:0 46:1 47:0 48:0 49:0 50:1 51:0 52:1 53:0 54:0 55:0 56:0 57:0 58:0 59:1 60:0 61:0 62:0 63:0 64:1 65:0 66:0 67:0 68:0 69:0 70:1 71:0 72:0 73:1 74:0 75:0 76:0 #
-0.10900209263530885595017139166885 1:0 2:0 3:0 4:0 5:0 6:0 7:0 8:0 9:0 10:0 11:0 12:1 13:0 14:0 15:0 16:0 17:1 18:0 19:0 20:0 21:0 22:1 23:0 24:0 25:0 26:1 27:0 28:1 29:0 30:0 31:0 32:0 33:0 34:0 35:0 36:0 37:0 42:0 43:0 44:0 45:0 46:1 47:0 48:0 49:0 50:1 51:0 52:1 53:0 54:0 55:0 56:0 57:0 58:1 59:0 60:0 61:0 62:0 63:0 64:0 65:1 66:0 67:0 68:0 69:0 70:1 71:0 72:0 73:1 74:0 75:0 76:0 #
0.083713907964748091039552946313052 1:0 2:1 3:0 4:0 5:0 6:0 7:1 8:0 9:0 10:0 11:0 12:1 13:0 14:0 15:0 16:0 17:1 18:0 19:0 20:0 21:0 22:0 23:1 24:0 25:0 26:1 27:0 28:1 29:1 30:1 31:1 32:0 33:0 34:0 35:0 36:0 37:0 42:0 43:0 44:0 45:0 46:1 47:0 48:0 49:0 50:1 51:0 52:1 53:0 54:0 55:0 56:0 57:1 58:0 59:0 60:0 61:0 62:1 63:0 64:0 65:0 66:0 67:0 68:0 69:0 70:1 71:0 72:0 73:0 74:1 75:0 76:0 #
-0.10900209263530885595017139166885 1:0 2:0 3:0 4:0 5:0 6:0 7:1 8:0 9:0 10:0 11:0 12:1 13:0 14:0 15:0 16:0 17:1 18:0 19:0 20:0 21:0 22:1 23:0 24:0 25:0 26:1 27:0 28:1 29:0 30:0 31:1 32:1 33:0 34:0 35:0 36:0 37:0 42:0 43:0 44:0 45:0 46:1 47:0 48:0 49:0 50:1 51:0 52:1 53:0 54:0 55:0 56:0 57:0 58:0 59:1 60:0 61:0 62:0 63:0 64:1 65:0 66:0 67:0 68:1 69:0 70:0 71:0 72:1 73:0 74:0 75:0 76:0 #
0.10900209263530885595017139166885 1:0 2:1 3:0 4:0 5:0 6:0 7:1 8:0 9:0 10:0 11:0 12:1 13:0 14:0 15:0 16:0 17:0 18:1 19:0 20:0 21:0 22:0 23:0 24:1 25:0 26:1 27:1 28:1 29:0 30:0 31:1 32:0 33:0 34:0 35:0 36:0 37:0 42:0 43:0 44:0 45:1 46:0 47:0 48:1 49:0 50:0 51:0 52:1 53:0 54:0 55:0 56:0 57:1 58:0 59:0 60:0 61:0 62:1 63:0 64:0 65:0 66:0 67:1 68:0 69:0 70:0 71:0 72:1 73:0 74:0 75:0 76:0 #
0.10900209263530885595017139166885 1:0 2:1 3:0 4:0 5:0 6:0 7:1 8:0 9:0 10:0 11:0 12:1 13:0 14:0 15:0 16:0 17:0 18:1 19:0 20:0 21:0 22:0 23:1 24:0 25:0 26:0 27:0 28:1 29:0 30:0 31:1 32:0 33:0 34:0 35:0 36:0 37:0 42:0 43:0 44:0 45:0 46:1 47:0 48:0 49:0 50:0 51:1 52:1 53:0 54:0 55:0 56:0 57:0 58:0 59:0 60:1 61:0 62:1 63:0 64:0 65:0 66:0 67:1 68:0 69:0 70:0 71:0 72:1 73:0 74:0 75:0 76:0 #
0.10900209263530885595017139166885 1:0 2:1 3:0 4:0 5:0 6:0 7:1 8:0 9:0 10:0 11:0 12:1 13:0 14:0 15:0 16:0 17:1 18:0 19:0 20:0 21:0 22:0 23:1 24:0 25:0 26:0 27:0 28:1 29:1 30:1 31:1 32:0 33:0 34:1 35:0 36:0 37:0 42:0 43:0 44:0 45:1 46:0 47:0 48:0 49:0 50:0 51:1 52:1 53:0 54:0 55:0 56:0 57:0 58:0 59:1 60:0 61:0 62:1 63:0 64:0 65:0 66:0 67:1 68:0 69:0 70:0 71:0 72:1 73:0 74:0 75:0 76:0 #
-0.10900209263530885595017139166885 1:0 2:0 3:0 4:0 5:0 6:0 7:0 8:1 9:0 10:0 11:0 12:0 13:1 14:0 15:0 16:0 17:0 18:1 19:0 20:0 21:0 22:0 23:1 24:0 25:0 26:1 27:1 28:1 29:0 30:1 31:1 32:0 33:0 34:0 35:0 36:0 37:0 42:0 43:0 44:0 45:0 46:1 47:0 48:0 49:0 50:1 51:0 52:1 53:0 54:0 55:0 56:0 57:0 58:1 59:0 60:0 61:0 62:0 63:1 64:0 65:0 66:0 67:1 68:0 69:0 70:0 71:0 72:1 73:0 74:0 75:0 76:0 #
-0.10900209263530885595017139166885 1:0 2:0 3:0 4:0 5:0 6:0 7:1 8:0 9:0 10:0 11:0 12:1 13:0 14:0 15:0 16:0 17:1 18:0 19:0 20:0 21:0 22:0 23:1 24:0 25:0 26:1 27:0 28:1 29:1 30:1 31:1 32:1 33:0 34:0 35:0 36:0 37:0 42:0 43:0 44:0 45:0 46:1 47:0 48:0 49:0 50:0 51:1 52:1 53:0 54:0 55:0 56:0 57:1 58:0 59:0 60:0 61:0 62:1 63:0 64:0 65:0 66:0 67:1 68:0 69:0 70:0 71:0 72:1 73:0 74:0 75:0 76:0 #
-0.10900209263530885595017139166885 1:0 2:1 3:0 4:0 5:0 6:0 7:0 8:0 9:0 10:0 11:0 12:0 13:0 14:0 15:0 16:0 17:0 18:0 19:0 20:0 21:0 22:0 23:0 24:0 25:0 26:0 27:0 28:0 29:0 30:1 31:1 32:0 33:0 34:0 35:0 36:1 37:1 42:0 43:1 44:0 45:0 46:0 47:0 48:0 49:1 50:0 51:0 52:1 53:0 54:0 55:0 56:0 57:0 58:1 59:0 60:0 61:0 62:1 63:0 64:0 65:0 66:0 67:1 68:0 69:0 70:0 71:0 72:1 73:0 74:0 75:0 76:0 #
-0.10900209263530885595017139166885 1:0 2:1 3:0 4:0 5:0 6:0 7:1 8:0 9:0 10:0 11:0 12:1 13:0 14:0 15:0 16:0 17:0 18:1 19:0 20:0 21:0 22:0 23:0 24:1 25:0 26:0 27:0 28:0 29:0 30:0 31:0 32:0 33:0 34:0 35:0 36:0 37:0 42:0 43:0 44:0 45:0 46:1 47:0 48:0 49:0 50:0 51:1 52:1 53:0 54:0 55:0 56:0 57:0 58:1 59:0 60:0 61:0 62:1 63:0 64:0 65:0 66:0 67:0 68:1 69:0 70:0 71:0 72:1 73:0 74:0 75:0 76:0 #
0.10900209263530885595017139166885 1:0 2:0 3:0 4:0 5:0 6:0 7:0 8:0 9:0 10:0 11:0 12:0 13:0 14:0 15:0 16:0 17:1 18:0 19:0 20:0 21:0 22:1 23:0 24:0 25:0 26:1 27:1 28:1 29:0 30:0 31:0 32:1 33:0 34:0 35:0 36:0 37:0 42:0 43:0 44:0 45:0 46:1 47:0 48:0 49:0 50:1 51:0 52:1 53:0 54:0 55:0 56:0 57:1 58:0 59:0 60:0 61:0 62:1 63:0 64:0 65:0 66:0 67:0 68:0 69:0 70:0 71:1 72:0 73:0 74:1 75:0 76:0 #
0.10900209263530885595017139166885 1:0 2:0 3:0 4:0 5:0 6:0 7:0 8:0 9:0 10:0 11:0 12:0 13:0 14:0 15:0 16:0 17:1 18:0 19:0 20:0 21:0 22:1 23:0 24:0 25:0 26:1 27:1 28:1 29:0 30:0 31:0 32:0 33:0 34:0 35:0 36:0 37:0 42:0 43:0 44:0 45:0 46:1 47:0 48:1 49:0 50:0 51:0 52:1 53:0 54:0 55:0 56:0 57:1 58:0 59:0 60:0 61:0 62:0 63:0 64:0 65:0 66:0 67:0 68:0 69:0 70:0 71:1 72:0 73:0 74:1 75:0 76:0 #
0.10900209263530885595017139166885 1:0 2:0 3:0 4:0 5:0 6:0 7:1 8:0 9:0 10:0 11:0 12:1 13:0 14:0 15:0 16:0 17:1 18:0 19:0 20:0 21:0 22:1 23:0 24:0 25:0 26:1 27:1 28:1 29:0 30:0 31:0 32:0 33:0 34:0 35:0 36:0 37:0 42:0 43:0 44:0 45:0 46:1 47:0 48:0 49:0 50:1 51:0 52:1 53:0 54:0 55:0 56:0 57:1 58:0 59:0 60:0 61:0 62:1 63:0 64:0 65:0 66:0 67:0 68:0 69:0 70:1 71:0 72:0 73:1 74:0 75:0 76:0 #
-0.10900209263530885595017139166885 1:0 2:0 3:0 4:0 5:0 6:0 7:0 8:0 9:0 10:0 11:0 12:1 13:0 14:0 15:0 16:0 17:1 18:0 19:0 20:0 21:0 22:1 23:0 24:0 25:0 26:1 27:1 28:1 29:0 30:0 31:0 32:1 33:1 34:0 35:0 36:0 37:0 42:0 43:0 44:0 45:0 46:1 47:0 48:0 49:0 50:1 51:0 52:1 53:0 54:0 55:0 56:0 57:1 58:0 59:0 60:0 61:0 62:0 63:0 64:0 65:0 66:1 67:0 68:0 69:0 70:1 71:0 72:0 73:0 74:1 75:0 76:0 #
-0.10900209263530885595017139166885 1:0 2:0 3:0 4:0 5:0 6:0 7:1 8:0 9:0 10:0 11:0 12:1 13:0 14:0 15:0 16:0 17:1 18:0 19:0 20:0 21:0 22:1 23:0 24:0 25:0 26:0 27:0 28:1 29:0 30:0 31:1 32:0 33:0 34:0 35:0 36:0 37:0 42:0 43:0 44:0 45:0 46:1 47:0 48:0 49:0 50:0 51:1 52:1 53:0 54:0 55:0 56:0 57:1 58:0 59:0 60:0 61:0 62:0 63:0 64:0 65:0 66:0 67:0 68:0 69:1 70:0 71:0 72:0 73:1 74:0 75:0 76:0 #
-0.10900209263530885595017139166885 1:0 2:0 3:0 4:0 5:0 6:0 7:1 8:0 9:0 10:0 11:0 12:1 13:0 14:0 15:0 16:0 17:1 18:0 19:0 20:0 21:0 22:1 23:0 24:0 25:0 26:0 27:0 28:1 29:0 30:0 31:0 32:0 33:0 34:0 35:0 36:0 37:0 42:0 43:0 44:0 45:0 46:1 47:0 48:0 49:1 50:0 51:0 52:1 53:0 54:0 55:0 56:0 57:0 58:0 59:1 60:0 61:0 62:0 63:0 64:0 65:0 66:0 67:0 68:0 69:1 70:0 71:0 72:0 73:1 74:0 75:0 76:0 #
-0.10900209263530885595017139166885 1:0 2:0 3:0 4:0 5:0 6:0 7:0 8:0 9:0 10:0 11:0 12:0 13:0 14:0 15:0 16:0 17:0 18:1 19:0 20:0 21:0 22:0 23:1 24:0 25:0 26:1 27:0 28:1 29:0 30:0 31:0 32:0 33:0 34:0 35:0 36:0 37:0 42:0 43:0 44:0 45:0 46:1 47:0 48:0 49:0 50:1 51:0 52:1 53:0 54:0 55:0 56:0 57:1 58:0 59:0 60:0 61:0 62:1 63:0 64:0 65:0 66:0 67:1 68:0 69:0 70:0 71:0 72:1 73:0 74:0 75:0 76:0 #
0.10900209263530885595017139166885 1:0 2:1 3:0 4:0 5:0 6:0 7:1 8:0 9:0 10:0 11:0 12:1 13:0 14:0 15:0 16:0 17:1 18:0 19:0 20:0 21:0 22:1 23:0 24:0 25:0 26:1 27:0 28:1 29:0 30:0 31:1 32:1 33:0 34:0 35:0 36:0 37:0 42:0 43:0 44:0 45:0 46:1 47:0 48:0 49:0 50:0 51:1 52:1 53:0 54:0 55:0 56:0 57:0 58:0 59:1 60:0 61:0 62:0 63:1 64:0 65:0 66:0 67:0 68:0 69:1 70:0 71:0 72:0 73:1 74:0 75:0 76:0 #
-0.094169758499396682971394056949066 1:0 2:0 3:0 4:0 5:0 6:0 7:0 8:0 9:0 10:0 11:0 12:0 13:0 14:0 15:0 16:0 17:0 18:0 19:0 20:0 21:0 22:1 23:0 24:0 25:0 26:1 27:0 28:1 29:0 30:0 31:1 32:1 33:0 34:0 35:0 36:0 37:0 42:0 43:0 44:0 45:0 46:1 47:0 48:0 49:1 50:0 51:0 52:1 53:0 54:0 55:0 56:0 57:1 58:0 59:0 60:0 61:0 62:0 63:0 64:0 65:0 66:0 67:0 68:1 69:0 70:0 71:0 72:1 73:0 74:0 75:0 76:0 #
0.10900209263530885595017139166885 1:0 2:1 3:0 4:0 5:0 6:0 7:1 8:0 9:0 10:0 11:0 12:1 13:0 14:0 15:0 16:0 17:1 18:0 19:0 20:0 21:0 22:1 23:0 24:0 25:0 26:1 27:0 28:0 29:0 30:0 31:1 32:0 33:0 34:0 35:0 36:0 37:0 42:0 43:0 44:0 45:0 46:1 47:0 48:0 49:0 50:0 51:1 52:1 53:0 54:0 55:0 56:0 57:0 58:1 59:0 60:0 61:0 62:1 63:0 64:0 65:0 66:0 67:0 68:0 69:0 70:1 71:0 72:0 73:1 74:0 75:0 76:0 #
-0.03089852641034857017032777548593 1:0 2:0 3:0 4:0 5:0 6:0 7:0 8:0 9:0 10:0 11:0 12:0 13:0 14:0 15:0 16:0 17:0 18:0 19:0 20:0 21:0 22:1 23:0 24:0 25:0 26:1 27:1 28:1 29:0 30:1 31:1 32:0 33:0 34:0 35:0 36:1 37:1 42:0 43:0 44:0 45:0 46:1 47:0 48:0 49:0 50:0 51:1 52:0 53:1 54:0 55:0 56:0 57:0 58:0 59:0 60:0 61:1 62:0 63:0 64:0 65:0 66:0 67:0 68:0 69:0 70:0 71:1 72:0 73:0 74:1 75:0 76:0 #
0.10900209263530885595017139166885 1:0 2:1 3:0 4:0 5:0 6:0 7:1 8:0 9:0 10:0 11:0 12:1 13:0 14:0 15:0 16:0 17:1 18:0 19:0 20:0 21:0 22:1 23:0 24:0 25:0 26:1 27:1 28:1 29:0 30:0 31:1 32:1 33:1 34:0 35:0 36:0 37:0 42:0 43:0 44:0 45:0 46:1 47:0 48:0 49:0 50:0 51:1 52:1 53:0 54:0 55:0 56:0 57:0 58:0 59:0 60:0 61:1 62:0 63:0 64:0 65:0 66:0 67:0 68:0 69:0 70:0 71:1 72:0 73:0 74:1 75:0 76:0 #
-0.0041708276476037468849522582559075 1:0 2:0 3:0 4:0 5:0 6:0 7:0 8:0 9:1 10:0 11:0 12:0 13:0 14:1 15:0 16:0 17:0 18:0 19:1 20:0 21:0 22:0 23:0 24:1 25:0 26:1 27:0 28:1 29:0 30:0 31:0 32:1 33:0 34:1 35:0 36:0 37:0 42:0 43:0 44:0 45:0 46:1 47:0 48:0 49:0 50:1 51:0 52:1 53:0 54:0 55:0 56:0 57:1 58:0 59:0 60:0 61:0 62:0 63:0 64:1 65:0 66:0 67:0 68:0 69:0 70:1 71:0 72:0 73:1 74:0 75:0 76:0 #
0.080667188147362234307280459688627 1:0 2:1 3:0 4:0 5:0 6:0 7:1 8:0 9:0 10:0 11:0 12:1 13:0 14:0 15:0 16:0 17:1 18:0 19:0 20:0 21:0 22:1 23:0 24:0 25:0 26:0 27:0 28:0 29:1 30:1 31:1 32:0 33:0 34:0 35:1 36:1 37:1 42:0 43:0 44:0 45:0 46:1 47:0 48:0 49:0 50:0 51:1 52:1 53:0 54:0 55:0 56:0 57:0 58:0 59:0 60:1 61:0 62:0 63:1 64:0 65:0 66:0 67:0 68:0 69:0 70:1 71:0 72:0 73:0 74:1 75:0 76:0 #
0.089781546133868628256635702200583 1:0 2:1 3:0 4:0 5:0 6:0 7:1 8:0 9:0 10:0 11:0 12:1 13:0 14:0 15:0 16:0 17:1 18:0 19:0 20:0 21:0 22:1 23:0 24:0 25:0 26:0 27:0 28:0 29:0 30:1 31:1 32:0 33:0 34:0 35:0 36:1 37:1 42:0 43:0 44:0 45:0 46:1 47:0 48:0 49:0 50:0 51:1 52:1 53:0 54:0 55:0 56:0 57:0 58:0 59:0 60:1 61:0 62:0 63:0 64:1 65:0 66:0 67:0 68:0 69:0 70:1 71:0 72:0 73:1 74:0 75:0 76:0 #
-0.10900209263530885595017139166885 1:0 2:1 3:0 4:0 5:0 6:0 7:1 8:0 9:0 10:0 11:0 12:1 13:0 14:0 15:0 16:0 17:0 18:0 19:1 20:0 21:0 22:0 23:0 24:0 25:1 26:0 27:0 28:0 29:0 30:0 31:0 32:0 33:0 34:0 35:0 36:0 37:0 42:1 43:0 44:0 45:0 46:0 47:1 48:0 49:0 50:0 51:0 52:1 53:0 54:0 55:0 56:0 57:1 58:0 59:0 60:0 61:0 62:1 63:0 64:0 65:0 66:0 67:1 68:0 69:0 70:0 71:0 72:1 73:0 74:0 75:0 76:0 #
-0.10900209263530885595017139166885 1:0 2:0 3:0 4:0 5:0 6:0 7:1 8:0 9:0 10:0 11:0 12:1 13:0 14:0 15:0 16:0 17:1 18:0 19:0 20:0 21:0 22:1 23:0 24:0 25:0 26:1 27:0 28:0 29:0 30:1 31:1 32:0 33:0 34:0 35:0 36:1 37:1 42:0 43:0 44:0 45:0 46:1 47:0 48:0 49:0 50:0 51:1 52:1 53:0 54:0 55:0 56:0 57:0 58:0 59:0 60:0 61:0 62:0 63:0 64:0 65:0 66:0 67:0 68:0 69:0 70:1 71:0 72:0 73:1 74:0 75:0 76:0 #
0.10900209263530885595017139166885 1:0 2:1 3:0 4:0 5:0 6:0 7:1 8:0 9:0 10:0 11:0 12:1 13:0 14:0 15:0 16:0 17:1 18:0 19:0 20:0 21:0 22:1 23:0 24:0 25:0 26:1 27:0 28:1 29:0 30:0 31:0 32:1 33:0 34:0 35:0 36:0 37:0 42:0 43:0 44:0 45:0 46:1 47:0 48:0 49:1 50:0 51:0 52:1 53:0 54:0 55:0 56:0 57:0 58:0 59:1 60:0 61:0 62:0 63:1 64:0 65:0 66:0 67:0 68:1 69:0 70:0 71:0 72:1 73:0 74:0 75:0 76:0 #
0.10900209263530885595017139166885 1:0 2:1 3:0 4:0 5:0 6:0 7:1 8:0 9:0 10:0 11:0 12:1 13:0 14:0 15:0 16:0 17:1 18:0 19:0 20:0 21:0 22:1 23:0 24:0 25:0 26:0 27:0 28:0 29:0 30:0 31:0 32:0 33:0 34:0 35:0 36:0 37:0 42:0 43:0 44:0 45:0 46:1 47:0 48:0 49:0 50:1 51:0 52:1 53:0 54:0 55:0 56:0 57:1 58:0 59:0 60:0 61:0 62:1 63:0 64:0 65:0 66:0 67:0 68:0 69:1 70:0 71:0 72:0 73:1 74:0 75:0 76:0 #
-0.10900209263530885595017139166885 1:0 2:1 3:0 4:0 5:0 6:0 7:0 8:0 9:0 10:0 11:0 12:0 13:0 14:0 15:0 16:0 17:0 18:0 19:0 20:0 21:0 22:0 23:0 24:0 25:0 26:0 27:0 28:0 29:0 30:1 31:1 32:0 33:0 34:0 35:0 36:0 37:0 42:0 43:0 44:0 45:1 46:0 47:0 48:0 49:1 50:0 51:0 52:1 53:0 54:0 55:0 56:0 57:1 58:0 59:0 60:0 61:0 62:1 63:0 64:0 65:0 66:0 67:0 68:1 69:0 70:0 71:0 72:1 73:0 74:0 75:0 76:0 #
-0.10900209263530885595017139166885 1:0 2:1 3:0 4:0 5:0 6:0 7:0 8:0 9:1 10:0 11:0 12:0 13:0 14:1 15:0 16:0 17:0 18:0 19:1 20:0 21:0 22:0 23:0 24:1 25:0 26:0 27:0 28:0 29:0 30:0 31:0 32:0 33:0 34:0 35:0 36:0 37:0 42:0 43:0 44:1 45:0 46:0 47:0 48:0 49:0 50:1 51:0 52:1 53:0 54:0 55:0 56:0 57:0 58:0 59:1 60:0 61:0 62:0 63:0 64:0 65:0 66:0 67:0 68:1 69:0 70:0 71:0 72:0 73:1 74:0 75:0 76:0 #
-0.10900209263530885595017139166885 1:0 2:1 3:0 4:0 5:0 6:0 7:0 8:1 9:0 10:0 11:0 12:0 13:0 14:0 15:1 16:0 17:0 18:0 19:0 20:1 21:0 22:0 23:0 24:0 25:0 26:0 27:0 28:0 29:0 30:0 31:0 32:0 33:0 34:0 35:0 36:0 37:0 42:0 43:0 44:1 45:0 46:0 47:0 48:1 49:0 50:0 51:0 52:1 53:0 54:0 55:0 56:0 57:1 58:0 59:0 60:0 61:0 62:1 63:0 64:0 65:0 66:0 67:0 68:1 69:0 70:0 71:0 72:1 73:0 74:0 75:0 76:0 #
0.10900209263530885595017139166885 1:0 2:0 3:0 4:0 5:0 6:0 7:0 8:0 9:0 10:0 11:0 12:0 13:0 14:0 15:0 16:0 17:1 18:0 19:0 20:0 21:0 22:1 23:0 24:0 25:0 26:0 27:0 28:1 29:0 30:1 31:1 32:0 33:0 34:0 35:0 36:1 37:1 42:0 43:0 44:0 45:0 46:1 47:0 48:0 49:1 50:0 51:0 52:1 53:0 54:0 55:0 56:0 57:1 58:0 59:0 60:0 61:0 62:1 63:0 64:0 65:0 66:0 67:1 68:0 69:0 70:0 71:0 72:1 73:0 74:0 75:0 76:0 #
-0.016022259308953505640982228896974 1:0 2:0 3:0 4:0 5:0 6:0 7:0 8:1 9:0 10:0 11:0 12:0 13:1 14:0 15:0 16:0 17:0 18:1 19:0 20:0 21:0 22:0 23:1 24:0 25:0 26:0 27:0 28:0 29:0 30:0 31:0 32:0 33:0 34:0 35:0 36:0 37:0 42:0 43:0 44:0 45:0 46:1 47:0 48:0 49:1 50:0 51:0 52:1 53:0 54:0 55:0 56:0 57:1 58:0 59:0 60:0 61:0 62:1 63:0 64:0 65:0 66:0 67:1 68:0 69:0 70:0 71:0 72:1 73:0 74:0 75:0 76:0 #
-0.040359486633110321085471383639742 1:0 2:0 3:0 4:0 5:0 6:0 7:1 8:0 9:0 10:0 11:0 12:1 13:0 14:0 15:0 16:0 17:1 18:0 19:0 20:0 21:0 22:1 23:0 24:0 25:0 26:1 27:0 28:1 29:0 30:0 31:0 32:1 33:0 34:0 35:0 36:0 37:0 42:0 43:0 44:0 45:0 46:1 47:0 48:0 49:0 50:0 51:1 52:1 53:0 54:0 55:0 56:0 57:0 58:0 59:1 60:0 61:0 62:0 63:1 64:0 65:0 66:0 67:0 68:0 69:1 70:0 71:0 72:0 73:1 74:0 75:0 76:0 #
-0.10900209263530885595017139166885 1:0 2:0 3:0 4:0 5:0 6:0 7:1 8:0 9:0 10:0 11:0 12:1 13:0 14:0 15:0 16:0 17:1 18:0 19:0 20:0 21:0 22:1 23:0 24:0 25:0 26:0 27:0 28:1 29:1 30:1 31:1 32:0 33:0 34:0 35:0 36:0 37:0 42:0 43:0 44:0 45:0 46:1 47:0 48:0 49:0 50:1 51:0 52:1 53:0 54:0 55:0 56:0 57:0 58:0 59:0 60:1 61:0 62:0 63:0 64:1 65:0 66:0 67:0 68:0 69:1 70:0 71:0 72:0 73:1 74:0 75:0 76:0 #
-0.10900209263530885595017139166885 1:0 2:1 3:0 4:0 5:0 6:0 7:0 8:0 9:0 10:1 11:0 12:0 13:0 14:0 15:1 16:0 17:0 18:0 19:0 20:0 21:0 22:0 23:0 24:0 25:0 26:0 27:0 28:0 29:1 30:1 31:1 32:0 33:0 34:0 35:0 36:0 37:0 42:1 43:0 44:0 45:0 46:0 47:1 48:0 49:0 50:0 51:0 52:1 53:0 54:0 55:0 56:0 57:1 58:0 59:0 60:0 61:0 62:1 63:0 64:0 65:0 66:0 67:1 68:0 69:0 70:0 71:0 72:1 73:0 74:0 75:0 76:0 #
-0.088884258937224250307629347389593 1:0 2:0 3:0 4:0 5:0 6:0 7:0 8:0 9:0 10:0 11:0 12:0 13:0 14:0 15:0 16:0 17:0 18:0 19:0 20:0 21:0 22:1 23:0 24:0 25:0 26:0 27:0 28:1 29:0 30:0 31:0 32:0 33:0 34:0 35:0 36:0 37:0 42:0 43:0 44:0 45:0 46:1 47:0 48:0 49:0 50:0 51:1 52:1 53:0 54:0 55:0 56:0 57:0 58:1 59:0 60:0 61:0 62:1 63:0 64:0 65:0 66:0 67:0 68:0 69:0 70:0 71:1 72:0 73:0 74:1 75:0 76:0 #
-0.10900209263530885595017139166885 1:0 2:0 3:0 4:0 5:0 6:0 7:1 8:0 9:0 10:0 11:0 12:1 13:0 14:0 15:0 16:0 17:1 18:0 19:0 20:0 21:0 22:0 23:1 24:0 25:0 26:1 27:0 28:1 29:0 30:0 31:0 32:0 33:0 34:0 35:0 36:0 37:0 42:0 43:0 44:0 45:0 46:1 47:0 48:0 49:0 50:1 51:0 52:1 53:0 54:0 55:0 56:0 57:0 58:0 59:1 60:0 61:0 62:0 63:0 64:0 65:0 66:0 67:0 68:0 69:0 70:0 71:1 72:0 73:0 74:1 75:0 76:0 #
0.076577327337578604549150895763887 1:0 2:1 3:0 4:0 5:0 6:0 7:1 8:0 9:0 10:0 11:0 12:1 13:0 14:0 15:0 16:0 17:1 18:0 19:0 20:0 21:0 22:1 23:0 24:0 25:0 26:0 27:0 28:1 29:0 30:0 31:0 32:0 33:0 34:0 35:0 36:0 37:0 42:0 43:0 44:0 45:0 46:1 47:0 48:0 49:0 50:0 51:1 52:1 53:0 54:0 55:0 56:0 57:0 58:0 59:1 60:0 61:0 62:0 63:0 64:0 65:0 66:0 67:0 68:0 69:0 70:0 71:1 72:0 73:0 74:1 75:0 76:0 #
-0.075294440225670444810646131372778 1:0 2:0 3:0 4:0 5:0 6:0 7:0 8:0 9:0 10:0 11:0 12:0 13:1 14:0 15:0 16:0 17:0 18:1 19:0 20:0 21:0 22:0 23:1 24:0 25:0 26:0 27:0 28:1 29:0 30:0 31:1 32:0 33:0 34:0 35:0 36:0 37:0 42:0 43:0 44:0 45:0 46:1 47:0 48:0 49:0 50:1 51:0 52:1 53:0 54:0 55:0 56:0 57:0 58:1 59:0 60:0 61:0 62:1 63:0 64:0 65:0 66:0 67:0 68:0 69:0 70:1 71:0 72:0 73:1 74:0 75:0 76:0 #
-0.10275316433039896613088615140441 1:0 2:0 3:0 4:0 5:0 6:0 7:0 8:0 9:0 10:0 11:0 12:0 13:0 14:0 15:0 16:0 17:0 18:0 19:1 20:0 21:0 22:0 23:0 24:1 25:0 26:0 27:0 28:0 29:0 30:1 31:1 32:0 33:0 34:0 35:0 36:1 37:1 42:0 43:0 44:0 45:0 46:1 47:0 48:0 49:1 50:0 51:0 52:1 53:0 54:0 55:0 56:0 57:1 58:0 59:0 60:0 61:0 62:1 63:0 64:0 65:0 66:0 67:0 68:1 69:0 70:0 71:0 72:0 73:1 74:0 75:0 76:0 #
0.10900209263530885595017139166885 1:0 2:1 3:0 4:0 5:0 6:0 7:1 8:0 9:0 10:0 11:0 12:1 13:0 14:0 15:0 16:0 17:1 18:0 19:0 20:0 21:0 22:1 23:0 24:0 25:0 26:0 27:0 28:0 29:0 30:0 31:1 32:0 33:0 34:0 35:0 36:0 37:0 42:0 43:0 44:0 45:0 46:1 47:0 48:0 49:1 50:0 51:0 52:1 53:0 54:0 55:0 56:0 57:1 58:0 59:0 60:0 61:0 62:1 63:0 64:0 65:0 66:0 67:0 68:1 69:0 70:0 71:0 72:0 73:1 74:0 75:0 76:0 #
0.10900209263530885595017139166885 1:0 2:1 3:0 4:0 5:0 6:0 7:1 8:0 9:0 10:0 11:0 12:1 13:0 14:0 15:0 16:0 17:1 18:0 19:0 20:0 21:0 22:1 23:0 24:0 25:0 26:0 27:0 28:0 29:0 30:0 31:0 32:0 33:0 34:0 35:0 36:0 37:0 42:0 43:0 44:0 45:0 46:1 47:0 48:0 49:0 50:1 51:0 52:1 53:0 54:0 55:0 56:0 57:0 58:1 59:0 60:0 61:0 62:1 63:0 64:0 65:0 66:0 67:1 68:0 69:0 70:0 71:0 72:1 73:0 74:0 75:0 76:0 #
0.00066177716652535568259141385283328 1:0 2:1 3:0 4:0 5:0 6:0 7:1 8:0 9:0 10:0 11:0 12:1 13:0 14:0 15:0 16:0 17:1 18:0 19:0 20:0 21:0 22:1 23:0 24:0 25:0 26:1 27:1 28:0 29:0 30:0 31:1 32:0 33:0 34:0 35:0 36:0 37:0 42:0 43:0 44:0 45:0 46:1 47:0 48:1 49:0 50:0 51:0 52:1 53:0 54:0 55:0 56:0 57:1 58:0 59:0 60:0 61:0 62:1 63:0 64:0 65:0 66:0 67:0 68:1 69:0 70:0 71:0 72:0 73:1 74:0 75:0 76:0 #
