SVM-light Version V6.02
0 # kernel type
3 # kernel parameter -d 
1 # kernel parameter -g 
1 # kernel parameter -s 
1 # kernel parameter -r 
empty# kernel parameter -u 
224 # highest feature index 
3458 # number of training documents 
154 # number of support vectors plus 1 
2.7478538 # threshold b, each following line is a SV (starting with alpha*y)
-0.20000000000000001110223024625157 1:0 2:1 3:0 4:0 5:0 6:0 7:1 8:0 9:0 10:0 11:0 12:1 13:0 14:0 15:0 16:0 17:0 18:1 19:0 20:0 21:0 22:0 23:1 24:0 25:0 26:0 27:0 28:0 29:0 30:0 31:0 32:0 33:0 34:0 35:0 36:0 37:0 38:0 39:0 40:0 41:0 42:1 43:1 44:0.896667 45:0.115241 46:0 47:0 48:0 49:0 50:1 51:0 52:0 53:0 54:0 55:0 56:1 57:0 58:0.336979 59:3.254056 60:0 61:0 62:0 63:0 64:0 65:1 66:0 67:0 68:0 69:0 70:0 71:1 72:0 73:0 74:0 75:0 76:0 77:0 78:0 79:0 80:0 81:0 82:0 83:0 84:0 85:1 86:1 87:0.094415002 88:0.91341901 89:0 90:0 91:0 92:0 93:0 94:0 95:1 96:0 97:0 98:0 99:0 100:0 101:1 102:0 103:0 104:0 105:0 106:0 107:0 108:0 109:0 110:0 111:0 112:0 113:0 114:0 115:0 116:34.073902 117:329.74438 118:0 119:1 120:0 121:0 122:0 123:0 124:0 125:0 126:0 127:0 128:0 129:1 130:0 131:0 132:0 133:0 134:0 135:0 136:0 137:0 138:0 139:0 140:0 141:0 142:0 143:0 144:0 145:4.483479 146:43.387421 147:0 148:1 149:0 150:0 151:0 152:0 153:0 154:0 155:0 156:0 157:0 158:1 159:0 160:0 161:0 162:0 163:0 164:0 165:0 166:0 167:0 168:0 169:0 170:0 171:0 172:1 173:0 174:0.137546 175:1.3262531 176:0 177:0 178:0 179:0 180:0 181:1 182:0 183:0 184:0 185:0 186:0 187:0 188:1 189:0 190:0 191:0 192:0 193:0 194:0 195:0 196:0 197:0 198:0 199:0 200:0 201:1 202:0 203:0.125038 204:1.205206 205:0 206:0 207:0 208:0 209:0 210:1 211:0 212:0 213:0 214:0 215:0 216:0 217:1 218:0 219:0 220:0 221:0 222:0 223:0 224:0 #
0.0034107196217156854345375904813409 1:0 2:1 3:0 4:0 5:0 6:0 7:1 8:0 9:0 10:0 11:0 12:1 13:0 14:0 15:0 16:0 17:1 18:0 19:0 20:0 21:0 22:1 23:0 24:0 25:0 26:0 27:0 28:0 29:0 30:0 31:0 32:0 33:0 34:0 35:0 36:0 37:0 38:0 39:0 40:1 41:0 42:0 43:0 44:0.98043299 45:0.019957 46:0 47:0 48:0 49:0 50:1 51:0 52:0 53:0 54:0 55:0 56:0 57:0 58:1.634228 59:83.510834 60:0 61:1 62:0 63:0 64:0 65:0 66:0 67:0 68:0 69:0 70:0 71:1 72:0 73:0 74:0 75:0 76:0 77:0 78:0 79:0 80:0 81:0 82:0 83:0 84:0 85:0 86:0 87:1.960935 88:100.213 89:0 90:1 91:0 92:0 93:0 94:0 95:0 96:0 97:0 98:0 99:0 100:1 101:0 102:0 103:0 104:0 105:0 106:0 107:0 108:0 109:0 110:0 111:0 112:0 113:0 114:0 115:0 116:0 117:0 118:0 119:1 120:0 121:0 122:0 123:0 124:0 125:0 126:0 127:0 128:0 129:1 130:0 131:0 132:0 133:0 134:0 135:0 136:0 137:0 138:0 139:0 140:0 141:0 142:0 143:1 144:0 145:0.49032 146:25.053249 147:0 148:1 149:0 150:0 151:0 152:0 153:0 154:0 155:0 156:0 157:0 158:1 159:0 160:0 161:0 162:0 163:0 164:0 165:0 166:0 167:0 168:0 169:0 170:0 171:0 172:1 173:0 174:0.030742999 175:1.565828 176:0 177:1 178:0 179:0 180:0 181:0 182:0 183:0 184:0 185:0 186:0 187:1 188:0 189:0 190:0 191:0 192:0 193:0 194:0 195:0 196:0 197:0 198:0 199:0 200:0 201:1 202:0 203:0.029517001 204:1.503195 205:0 206:1 207:0 208:0 209:0 210:0 211:0 212:0 213:0 214:0 215:0 216:1 217:0 218:0 219:0 220:0 221:0 222:0 223:0 224:0 #
0.20000000000000001110223024625157 1:0 2:0 3:0 4:0 5:0 6:0 7:0 8:0 9:0 10:0 11:0 12:0 13:0 14:0 15:0 16:0 17:1 18:0 19:0 20:0 21:0 22:1 23:0 24:0 25:0 26:1 27:0 28:0 29:0 30:0 31:0 32:1 33:0 34:0 35:0 36:0 37:0 38:1 39:0 40:0 41:0 42:0 43:0 44:0.93862599 45:0.065387003 46:0 47:0 48:0 49:0 50:1 51:0 52:0 53:0 54:0 55:0 56:1 57:0 58:0.27126801 59:4.4116249 60:0 61:1 62:0 63:0 64:0 65:0 66:0 67:0 68:0 69:0 70:0 71:1 72:0 73:0 74:0 75:0 76:0 77:0 78:0 79:0 80:0 81:0 82:0 83:0 84:0 85:0 86:0 87:0 88:0 89:0 90:1 91:0 92:0 93:0 94:0 95:0 96:0 97:0 98:0 99:0 100:1 101:0 102:0 103:0 104:0 105:0 106:0 107:0 108:0 109:0 110:0 111:0 112:0 113:0 114:0 115:0 116:4.3807321 117:71.370285 118:0 119:1 120:0 121:0 122:0 123:0 124:0 125:0 126:0 127:0 128:0 129:1 130:0 131:0 132:0 133:0 134:0 135:0 136:0 137:0 138:0 139:0 140:0 141:0 142:0 143:0 144:0 145:0 146:0 147:0 148:1 149:0 150:0 151:0 152:0 153:0 154:0 155:0 156:0 157:0 158:1 159:0 160:0 161:0 162:0 163:0 164:0 165:0 166:0 167:0 168:0 169:0 170:0 171:0 172:1 173:1 174:0.057594001 175:0.93396199 176:0 177:1 178:0 179:0 180:0 181:0 182:0 183:0 184:0 185:0 186:0 187:1 188:0 189:0 190:0 191:0 192:0 193:0 194:0 195:0 196:0 197:0 198:0 199:0 200:0 201:1 202:1 203:0.044969998 204:0.72826803 205:0 206:1 207:0 208:0 209:0 210:0 211:0 212:0 213:0 214:0 215:0 216:1 217:0 218:0 219:0 220:0 221:0 222:0 223:0 224:0 #
0.20000000000000001110223024625157 1:0 2:1 3:0 4:0 5:0 6:0 7:1 8:0 9:0 10:0 11:0 12:1 13:0 14:0 15:0 16:0 17:1 18:0 19:0 20:0 21:0 22:1 23:0 24:0 25:0 26:0 27:0 28:0 29:0 30:0 31:0 32:0 33:0 34:0 35:0 36:0 37:0 38:0 39:0 40:0 41:0 42:0 43:0 44:0.925156 45:0.080898002 46:0 47:0 48:0 49:0 50:1 51:0 52:0 53:0 54:0 55:0 56:1 57:0 58:0.132522 59:1.765885 60:0 61:0 62:0 63:0 64:0 65:1 66:0 67:0 68:0 69:0 70:0 71:1 72:0 73:0 74:0 75:0 76:0 77:0 78:0 79:0 80:0 81:0 82:0 83:0 84:0 85:0 86:0 87:5.5510569 88:74.167191 89:0 90:1 91:0 92:0 93:0 94:0 95:0 96:0 97:0 98:0 99:0 100:1 101:0 102:0 103:0 104:0 105:0 106:0 107:0 108:0 109:0 110:0 111:0 112:0 113:0 114:0 115:0 116:0 117:0 118:0 119:1 120:0 121:0 122:0 123:0 124:0 125:0 126:0 127:0 128:0 129:1 130:0 131:0 132:0 133:0 134:0 135:0 136:0 137:0 138:0 139:0 140:0 141:0 142:0 143:0 144:0 145:2.7755289 146:37.083595 147:0 148:1 149:0 150:0 151:0 152:0 153:0 154:0 155:0 156:0 157:0 158:1 159:0 160:0 161:0 162:0 163:0 164:0 165:0 166:0 167:0 168:0 169:0 170:0 171:0 172:1 173:1 174:0.071225002 175:0.95086098 176:0 177:0 178:0 179:0 180:0 181:1 182:0 183:0 184:0 185:0 186:0 187:0 188:0 189:1 190:0 191:0 192:0 193:0 194:0 195:0 196:0 197:0 198:0 199:0 200:0 201:1 202:1 203:0.018812999 204:0.25056499 205:0 206:0 207:0 208:0 209:0 210:1 211:0 212:0 213:0 214:0 215:0 216:0 217:0 218:0 219:0 220:1 221:0 222:0 223:0 224:0 #
-0.20000000000000001110223024625157 1:0 2:0 3:0 4:0 5:0 6:0 7:0 8:0 9:0 10:0 11:0 12:0 13:0 14:0 15:0 16:0 17:0 18:0 19:0 20:0 21:0 22:1 23:0 24:0 25:0 26:0 27:0 28:0 29:0 30:0 31:0 32:0 33:0 34:0 35:0 36:0 37:0 38:0 39:0 40:0 41:0 42:0 43:0 44:0.80004698 45:0.249927 46:0 47:0 48:0 49:0 50:1 51:0 52:0 53:0 54:0 55:0 56:1 57:1 58:0 59:0 60:0 61:1 62:0 63:0 64:0 65:0 66:0 67:0 68:0 69:0 70:0 71:1 72:0 73:0 74:0 75:0 76:0 77:0 78:0 79:0 80:0 81:0 82:0 83:0 84:0 85:0 86:0 87:0 88:0 89:0 90:1 91:0 92:0 93:0 94:0 95:0 96:0 97:0 98:0 99:0 100:1 101:0 102:0 103:0 104:0 105:0 106:0 107:0 108:0 109:0 110:0 111:0 112:0 113:0 114:0 115:0 116:1.000291 117:5.0014539 118:0 119:1 120:0 121:0 122:0 123:0 124:0 125:0 126:0 127:0 128:0 129:1 130:0 131:0 132:0 133:0 134:0 135:0 136:0 137:0 138:0 139:0 140:0 141:0 142:0 143:0 144:0 145:0 146:0 147:0 148:1 149:0 150:0 151:0 152:0 153:0 154:0 155:0 156:0 157:0 158:1 159:0 160:0 161:0 162:0 163:0 164:0 165:0 166:0 167:0 168:0 169:0 170:0 171:0 172:0 173:0 174:1.600372 175:8.002327 176:0 177:1 178:0 179:0 180:0 181:0 182:0 183:0 184:0 185:0 186:0 187:1 188:0 189:0 190:0 191:0 192:0 193:0 194:0 195:0 196:0 197:0 198:0 199:0 200:0 201:0 202:0 203:1.600372 204:8.002327 205:0 206:1 207:0 208:0 209:0 210:0 211:0 212:0 213:0 214:0 215:0 216:1 217:0 218:0 219:0 220:0 221:0 222:0 223:0 224:0 #
-0.11065460228168966239081782987341 1:0 2:1 3:0 4:0 5:0 6:0 7:0 8:0 9:1 10:0 11:0 12:0 13:0 14:1 15:0 16:0 17:0 18:0 19:1 20:0 21:0 22:0 23:0 24:1 25:0 26:0 27:0 28:1 29:0 30:0 31:0 32:0 33:0 34:1 35:0 36:0 37:0 38:0 39:0 40:1 41:0 42:0 43:0 44:0.87331402 45:0.145063 46:0 47:0 48:0 49:0 50:1 51:0 52:0 53:0 54:0 55:0 56:1 57:0 58:0.69189298 59:5.457397 60:0 61:0 62:0 63:0 64:0 65:1 66:0 67:0 68:0 69:0 70:0 71:0 72:1 73:0 74:0 75:0 76:0 77:0 78:0 79:0 80:0 81:0 82:0 83:0 84:0 85:1 86:0 87:0.291132 88:2.2978511 89:0 90:0 91:0 92:1 93:0 94:0 95:0 96:0 97:0 98:0 99:0 100:0 101:0 102:1 103:0 104:0 105:0 106:0 107:0 108:0 109:0 110:0 111:0 112:0 113:0 114:1 115:0 116:0.96453202 117:7.6066799 118:0 119:0 120:0 121:0 122:0 123:0 124:1 125:0 126:0 127:0 128:0 129:0 130:0 131:0 132:0 133:0 134:1 135:0 136:0 137:0 138:0 139:0 140:0 141:0 142:0 143:0 144:0 145:11.354152 146:89.616203 147:0 148:0 149:1 150:0 151:0 152:0 153:0 154:0 155:0 156:0 157:0 158:0 159:1 160:0 161:0 162:0 163:0 164:0 165:0 166:0 167:0 168:0 169:0 170:0 171:0 172:0 173:0 174:5.4005289 175:42.614697 176:0 177:0 178:1 179:0 180:0 181:0 182:0 183:0 184:0 185:0 186:0 187:1 188:0 189:0 190:0 191:0 192:0 193:0 194:0 195:0 196:0 197:0 198:0 199:0 200:0 201:0 202:0 203:4.2436709 204:33.482975 205:0 206:0 207:1 208:0 209:0 210:0 211:0 212:0 213:0 214:0 215:0 216:1 217:0 218:0 219:0 220:0 221:0 222:0 223:0 224:0 #
-0.034417305825314770117984153330326 1:0 2:0 3:1 4:0 5:0 6:0 7:0 8:0 9:0 10:0 11:0 12:0 13:0 14:0 15:0 16:0 17:0 18:0 19:0 20:0 21:0 22:0 23:0 24:0 25:0 26:0 27:0 28:0 29:0 30:0 31:0 32:0 33:0 34:0 35:0 36:0 37:0 38:0 39:0 40:0 41:0 42:0 43:0 44:0.81963003 45:0.220063 46:0 47:0 48:0 49:0 50:1 51:0 52:0 53:0 54:0 55:0 56:0 57:0 58:2.678472 59:14.844245 60:0 61:0 62:0 63:0 64:0 65:0 66:0 67:0 68:0 69:1 70:0 71:0 72:0 73:0 74:0 75:0 76:0 77:0 78:0 79:1 80:0 81:0 82:0 83:0 84:0 85:0 86:0 87:3.2786019 88:18.176626 89:0 90:0 91:0 92:0 93:0 94:0 95:0 96:0 97:0 98:0 99:0 100:0 101:0 102:0 103:0 104:0 105:0 106:0 107:0 108:0 109:0 110:0 111:0 112:0 113:0 114:0 115:0 116:45.080784 117:249.92862 118:0 119:0 120:0 121:0 122:0 123:0 124:0 125:0 126:0 127:1 128:0 129:0 130:0 131:0 132:0 133:0 134:0 135:0 136:0 137:1 138:0 139:0 140:0 141:0 142:0 143:0 144:0 145:17.622932 146:97.699371 147:0 148:0 149:0 150:0 151:0 152:0 153:0 154:0 155:0 156:1 157:0 158:0 159:0 160:0 161:0 162:0 163:0 164:0 165:0 166:1 167:0 168:0 169:0 170:0 171:0 172:0 173:0 174:18.442604 175:102.24353 176:0 177:0 178:0 179:0 180:0 181:0 182:0 183:0 184:0 185:1 186:0 187:0 188:0 189:0 190:0 191:0 192:0 193:0 194:0 195:1 196:0 197:0 198:0 199:0 200:0 201:0 202:0 203:12.29538 204:68.162354 205:0 206:0 207:0 208:0 209:0 210:0 211:0 212:0 213:0 214:1 215:0 216:0 217:0 218:0 219:0 220:0 221:0 222:0 223:0 224:0 #
-0.026223547860556806199383572675288 1:0 2:0 3:0 4:0 5:0 6:0 7:0 8:0 9:0 10:0 11:0 12:0 13:0 14:0 15:0 16:0 17:1 18:0 19:0 20:0 21:0 22:1 23:0 24:0 25:0 26:0 27:0 28:0 29:0 30:0 31:0 32:0 33:0 34:0 35:0 36:0 37:0 38:0 39:0 40:0 41:0 42:0 43:0 44:0.98410201 45:0.016154001 46:0 47:0 48:0 49:0 50:1 51:0 52:0 53:0 54:0 55:0 56:1 57:0 58:0.065627001 59:4.1268592 60:0 61:0 62:0 63:0 64:0 65:0 66:0 67:0 68:0 69:1 70:0 71:0 72:0 73:0 74:0 75:1 76:0 77:0 78:0 79:0 80:0 81:0 82:0 83:0 84:0 85:0 86:0 87:0 88:0 89:0 90:1 91:0 92:0 93:0 94:0 95:0 96:0 97:0 98:0 99:0 100:1 101:0 102:0 103:0 104:0 105:0 106:0 107:0 108:0 109:0 110:0 111:0 112:0 113:0 114:1 115:1 116:0 117:0 118:0 119:1 120:0 121:0 122:0 123:0 124:0 125:0 126:0 127:0 128:0 129:1 130:0 131:0 132:0 133:0 134:0 135:0 136:0 137:0 138:0 139:0 140:0 141:0 142:0 143:1 144:1 145:0 146:0 147:0 148:1 149:0 150:0 151:0 152:0 153:0 154:0 155:0 156:0 157:0 158:1 159:0 160:0 161:0 162:0 163:0 164:0 165:0 166:0 167:0 168:0 169:0 170:0 171:0 172:1 173:0 174:0.046190999 175:2.9016981 176:0 177:0 178:0 179:0 180:0 181:0 182:0 183:0 184:0 185:1 186:0 187:0 188:0 189:0 190:0 191:0 192:0 193:0 194:0 195:1 196:0 197:0 198:0 199:0 200:0 201:1 202:0 203:0.036966 204:2.321358 205:0 206:0 207:0 208:0 209:0 210:0 211:0 212:0 213:0 214:1 215:0 216:0 217:0 218:0 219:0 220:0 221:0 222:0 223:0 224:1 #
0.20000000000000001110223024625157 1:0 2:1 3:0 4:0 5:0 6:0 7:1 8:0 9:0 10:0 11:0 12:1 13:0 14:0 15:0 16:0 17:1 18:0 19:0 20:0 21:0 22:1 23:0 24:0 25:0 26:1 27:1 28:0 29:0 30:0 31:0 32:1 33:0 34:0 35:0 36:0 37:0 38:1 39:0 40:1 41:0 42:1 43:1 44:0.83321297 45:0.20017301 46:0 47:0 48:0 49:0 50:1 51:0 52:0 53:0 54:0 55:0 56:1 57:0 58:0.268233 59:1.602387 60:0 61:0 62:0 63:0 64:0 65:0 66:1 67:0 68:0 69:0 70:0 71:0 72:0 73:1 74:0 75:0 76:0 77:0 78:0 79:0 80:0 81:0 82:0 83:0 84:0 85:1 86:0 87:0.416664 88:2.497838 89:0 90:0 91:0 92:0 93:0 94:0 95:1 96:0 97:0 98:0 99:0 100:0 101:0 102:0 103:0 104:0 105:1 106:0 107:0 108:0 109:0 110:0 111:0 112:0 113:0 114:0 115:0 116:3.0839479 117:18.484001 118:0 119:0 120:0 121:1 122:0 123:0 124:0 125:0 126:0 127:0 128:0 129:0 130:1 131:0 132:0 133:0 134:0 135:0 136:0 137:0 138:0 139:0 140:0 141:0 142:0 143:0 144:0 145:14.998867 146:89.922173 147:0 148:0 149:1 150:0 151:0 152:0 153:0 154:0 155:0 156:0 157:0 158:0 159:1 160:0 161:0 162:0 163:0 164:0 165:0 166:0 167:0 168:0 169:0 170:0 171:0 172:0 173:0 174:3.6815419 175:22.064238 176:0 177:0 178:1 179:0 180:0 181:0 182:0 183:0 184:0 185:0 186:0 187:0 188:1 189:0 190:0 191:0 192:0 193:0 194:0 195:0 196:0 197:0 198:0 199:0 200:0 201:0 202:0 203:3.462585 204:20.75127 205:0 206:0 207:1 208:0 209:0 210:0 211:0 212:0 213:0 214:0 215:0 216:0 217:1 218:0 219:0 220:0 221:0 222:0 223:0 224:0 #
0.034458204243094314733752980828285 1:0 2:1 3:0 4:0 5:0 6:0 7:1 8:0 9:0 10:0 11:0 12:1 13:0 14:0 15:0 16:0 17:1 18:0 19:0 20:0 21:0 22:1 23:0 24:0 25:0 26:0 27:0 28:0 29:0 30:0 31:0 32:0 33:0 34:0 35:0 36:0 37:0 38:0 39:0 40:0 41:0 42:0 43:0 44:0.93594903 45:0.068434998 46:0 47:0 48:0 49:0 50:1 51:0 52:0 53:0 54:0 55:0 56:1 57:0 58:0.26232901 59:4.0914822 60:0 61:0 62:0 63:1 64:0 65:0 66:0 67:0 68:0 69:0 70:0 71:1 72:0 73:0 74:0 75:0 76:0 77:0 78:0 79:0 80:0 81:0 82:0 83:0 84:0 85:0 86:0 87:0 88:0 89:0 90:1 91:0 92:0 93:0 94:0 95:0 96:0 97:0 98:0 99:0 100:1 101:0 102:0 103:0 104:0 105:0 106:0 107:0 108:0 109:0 110:0 111:0 112:0 113:0 114:0 115:0 116:12.16782 117:189.96169 118:0 119:1 120:0 121:0 122:0 123:0 124:0 125:0 126:0 127:0 128:0 129:1 130:0 131:0 132:0 133:0 134:0 135:0 136:0 137:0 138:0 139:0 140:0 141:0 142:0 143:1 144:1 145:0 146:0 147:0 148:1 149:0 150:0 151:0 152:0 153:0 154:0 155:0 156:0 157:0 158:1 159:0 160:0 161:0 162:0 163:0 164:0 165:0 166:0 167:0 168:0 169:0 170:0 171:0 172:1 173:1 174:0.054110002 175:0.84302503 176:0 177:0 178:0 179:1 180:0 181:0 182:0 183:0 184:0 185:0 186:0 187:0 188:0 189:1 190:0 191:0 192:0 193:0 194:0 195:0 196:0 197:0 198:0 199:0 200:0 201:1 202:1 203:0.025638999 204:0.39852101 205:0 206:0 207:0 208:1 209:0 210:0 211:0 212:0 213:0 214:0 215:0 216:0 217:0 218:1 219:0 220:0 221:0 222:0 223:0 224:0 #
0.20000000000000001110223024625157 1:0 2:1 3:0 4:0 5:0 6:0 7:1 8:0 9:0 10:0 11:0 12:1 13:0 14:0 15:0 16:0 17:1 18:0 19:0 20:0 21:0 22:0 23:0 24:0 25:0 26:0 27:0 28:0 29:0 30:0 31:0 32:0 33:0 34:0 35:0 36:0 37:0 38:0 39:0 40:0 41:0 42:0 43:0 44:0.932612 45:0.072258003 46:0 47:0 48:0 49:0 50:1 51:0 52:0 53:0 54:0 55:0 56:1 57:0 58:0.299404 59:4.4390488 60:0 61:0 62:0 63:0 64:0 65:0 66:0 67:0 68:0 69:1 70:0 71:0 72:0 73:1 74:0 75:0 76:0 77:0 78:0 79:0 80:0 81:0 82:0 83:0 84:0 85:1 86:1 87:0 88:0 89:0 90:1 91:0 92:0 93:0 94:0 95:0 96:0 97:0 98:0 99:0 100:1 101:0 102:0 103:0 104:0 105:0 106:0 107:0 108:0 109:0 110:0 111:0 112:0 113:0 114:0 115:0 116:9.7927504 117:145.31357 118:0 119:0 120:0 121:0 122:0 123:0 124:0 125:0 126:0 127:1 128:0 129:0 130:0 131:1 132:0 133:0 134:0 135:0 136:0 137:0 138:0 139:0 140:0 141:0 142:0 143:1 144:1 145:0 146:0 147:0 148:1 149:0 150:0 151:0 152:0 153:0 154:0 155:0 156:0 157:0 158:1 159:0 160:0 161:0 162:0 163:0 164:0 165:0 166:0 167:0 168:0 169:0 170:0 171:0 172:1 173:0 174:0.080077998 175:1.186233 176:0 177:0 178:0 179:0 180:0 181:0 182:0 183:0 184:0 185:1 186:0 187:0 188:0 189:0 190:0 191:0 192:0 193:0 194:0 195:1 196:0 197:0 198:0 199:0 200:0 201:1 202:1 203:0.064704999 204:0.95811099 205:0 206:0 207:0 208:0 209:0 210:0 211:0 212:0 213:0 214:1 215:0 216:0 217:0 218:0 219:0 220:0 221:0 222:0 223:0 224:0 #
-0.20000000000000001110223024625157 1:0 2:1 3:0 4:0 5:0 6:0 7:1 8:0 9:0 10:0 11:0 12:1 13:0 14:0 15:0 16:0 17:1 18:0 19:0 20:0 21:0 22:1 23:0 24:0 25:0 26:0 27:0 28:1 29:0 30:1 31:1 32:0 33:0 34:0 35:0 36:0 37:0 38:0 39:0 40:1 41:0 42:0 43:0 44:0.97082102 45:0.030056 46:0 47:0 48:0 49:0 50:1 51:0 52:0 53:0 54:0 55:0 56:1 57:0 58:0.138817 59:4.7530398 60:0 61:1 62:0 63:0 64:0 65:0 66:0 67:0 68:0 69:0 70:0 71:1 72:0 73:0 74:0 75:0 76:0 77:0 78:0 79:0 80:0 81:0 82:0 83:0 84:0 85:1 86:0 87:0.728212 88:24.953463 89:0 90:1 91:0 92:0 93:0 94:0 95:0 96:0 97:0 98:0 99:0 100:1 101:0 102:0 103:0 104:0 105:0 106:0 107:0 108:0 109:0 110:0 111:0 112:0 113:0 114:1 115:0 116:0.48560399 117:16.635641 118:0 119:1 120:0 121:0 122:0 123:0 124:0 125:0 126:0 127:0 128:0 129:1 130:0 131:0 132:0 133:0 134:0 135:0 136:0 137:0 138:0 139:0 140:0 141:0 142:0 143:1 144:1 145:0 146:0 147:0 148:1 149:0 150:0 151:0 152:0 153:0 154:0 155:0 156:0 157:0 158:1 159:0 160:0 161:0 162:0 163:0 164:0 165:0 166:0 167:0 168:0 169:0 170:0 171:0 172:1 173:1 174:0.019842001 175:0.67555898 176:0 177:1 178:0 179:0 180:0 181:0 182:0 183:0 184:0 185:0 186:0 187:1 188:0 189:0 190:0 191:0 192:0 193:0 194:0 195:0 196:0 197:0 198:0 199:0 200:0 201:1 202:1 203:0.018447001 204:0.62775999 205:0 206:1 207:0 208:0 209:0 210:0 211:0 212:0 213:0 214:0 215:0 216:1 217:0 218:0 219:0 220:0 221:0 222:0 223:0 224:0 #
0.20000000000000001110223024625157 1:0 2:1 3:0 4:0 5:0 6:0 7:1 8:0 9:0 10:0 11:0 12:1 13:0 14:0 15:0 16:0 17:1 18:0 19:0 20:0 21:0 22:1 23:0 24:0 25:0 26:1 27:1 28:0 29:0 30:0 31:0 32:0 33:0 34:0 35:0 36:0 37:0 38:0 39:0 40:0 41:0 42:0 43:0 44:0.90801102 45:0.101309 46:0 47:0 48:0 49:0 50:1 51:0 52:0 53:0 54:0 55:0 56:1 57:0 58:0.52783 59:5.7314482 60:0 61:0 62:0 63:0 64:0 65:0 66:0 67:0 68:0 69:1 70:0 71:1 72:0 73:0 74:0 75:0 76:0 77:0 78:0 79:0 80:0 81:0 82:0 83:0 84:0 85:0 86:0 87:7.2643509 88:78.966614 89:0 90:0 91:0 92:0 93:0 94:0 95:0 96:0 97:0 98:1 99:0 100:0 101:0 102:0 103:0 104:0 105:0 106:0 107:0 108:1 109:0 110:0 111:0 112:0 113:0 114:0 115:0 116:14.528702 117:157.93323 118:0 119:1 120:0 121:0 122:0 123:0 124:0 125:0 126:0 127:0 128:0 129:1 130:0 131:0 132:0 133:0 134:0 135:0 136:0 137:0 138:0 139:0 140:0 141:0 142:0 143:0 144:0 145:0 146:0 147:0 148:1 149:0 150:0 151:0 152:0 153:0 154:0 155:0 156:0 157:0 158:1 159:0 160:0 161:0 162:0 163:0 164:0 165:0 166:0 167:0 168:0 169:0 170:0 171:0 172:1 173:0 174:0.143299 175:1.441806 176:0 177:0 178:0 179:0 180:0 181:0 182:0 183:0 184:0 185:1 186:0 187:0 188:0 189:0 190:0 191:0 192:1 193:0 194:0 195:0 196:0 197:0 198:0 199:0 200:0 201:1 202:0 203:0.122699 204:1.233853 205:0 206:0 207:0 208:0 209:0 210:0 211:0 212:0 213:0 214:1 215:0 216:0 217:0 218:0 219:0 220:0 221:0 222:0 223:0 224:1 #
0.043899279357961708269986189634437 1:0 2:1 3:0 4:0 5:0 6:0 7:1 8:0 9:0 10:0 11:0 12:1 13:0 14:0 15:0 16:0 17:0 18:1 19:0 20:0 21:0 22:0 23:1 24:0 25:0 26:1 27:0 28:0 29:0 30:0 31:0 32:0 33:0 34:0 35:0 36:0 37:0 38:0 39:0 40:0 41:0 42:1 43:1 44:0.95728999 45:0.044615 46:0 47:0 48:0 49:0 50:1 51:0 52:0 53:0 54:0 55:0 56:1 57:0 58:0.52530402 59:12.291407 60:0 61:0 62:0 63:0 64:1 65:0 66:0 67:0 68:0 69:0 70:0 71:1 72:0 73:0 74:0 75:0 76:0 77:0 78:0 79:0 80:0 81:0 82:0 83:0 84:0 85:0 86:0 87:1.91462 88:44.827484 89:0 90:0 91:1 92:0 93:0 94:0 95:0 96:0 97:0 98:0 99:0 100:0 101:1 102:0 103:0 104:0 105:0 106:0 107:0 108:0 109:0 110:0 111:0 112:0 113:0 114:0 115:0 116:0 117:0 118:0 119:1 120:0 121:0 122:0 123:0 124:0 125:0 126:0 127:0 128:0 129:1 130:0 131:0 132:0 133:0 134:0 135:0 136:0 137:0 138:0 139:0 140:0 141:0 142:0 143:1 144:1 145:0 146:0 147:0 148:1 149:0 150:0 151:0 152:0 153:0 154:0 155:0 156:0 157:0 158:1 159:0 160:0 161:0 162:0 163:0 164:0 165:0 166:0 167:0 168:0 169:0 170:0 171:0 172:1 173:0 174:0.064475 175:1.505401 176:0 177:0 178:0 179:0 180:0 181:1 182:0 183:0 184:0 185:0 186:0 187:0 188:0 189:1 190:0 191:0 192:0 193:0 194:0 195:0 196:0 197:0 198:0 199:0 200:0 201:1 202:0 203:0.053036001 204:1.237569 205:0 206:0 207:0 208:0 209:0 210:1 211:0 212:0 213:0 214:0 215:0 216:0 217:0 218:0 219:1 220:0 221:0 222:0 223:0 224:0 #
0.0058156904468500414395748521201313 1:0 2:1 3:0 4:0 5:0 6:0 7:1 8:0 9:0 10:0 11:0 12:1 13:0 14:0 15:0 16:0 17:1 18:0 19:0 20:0 21:0 22:0 23:1 24:0 25:0 26:1 27:0 28:0 29:0 30:0 31:0 32:0 33:0 34:0 35:0 36:0 37:0 38:0 39:0 40:0 41:0 42:0 43:0 44:0.92161298 45:0.085054003 46:0 47:0 48:0 49:0 50:1 51:0 52:0 53:0 54:0 55:0 56:1 57:0 58:0.242265 59:3.086262 60:0 61:0 62:0 63:0 64:0 65:0 66:0 67:1 68:0 69:0 70:0 71:1 72:0 73:0 74:0 75:0 76:0 77:0 78:0 79:0 80:0 81:0 82:0 83:0 84:0 85:0 86:0 87:2.7648871 88:35.271564 89:0 90:0 91:0 92:0 93:1 94:0 95:0 96:0 97:0 98:0 99:0 100:0 101:0 102:0 103:1 104:0 105:0 106:0 107:0 108:0 109:0 110:0 111:0 112:0 113:0 114:0 115:0 116:22.119097 117:282.17252 118:0 119:1 120:0 121:0 122:0 123:0 124:0 125:0 126:0 127:0 128:0 129:1 130:0 131:0 132:0 133:0 134:0 135:0 136:0 137:0 138:0 139:0 140:0 141:0 142:0 143:0 144:0 145:3.225872 146:41.150158 147:0 148:0 149:0 150:1 151:0 152:0 153:0 154:0 155:0 156:0 157:0 158:0 159:1 160:0 161:0 162:0 163:0 164:0 165:0 166:0 167:0 168:0 169:0 170:0 171:0 172:1 173:0 174:0.225647 175:2.871985 176:0 177:0 178:0 179:0 180:1 181:0 182:0 183:0 184:0 185:0 186:0 187:0 188:0 189:1 190:0 191:0 192:0 193:0 194:0 195:0 196:0 197:0 198:0 199:0 200:0 201:1 202:0 203:0.162563 204:2.067198 205:0 206:0 207:0 208:0 209:1 210:0 211:0 212:0 213:0 214:0 215:0 216:0 217:0 218:0 219:1 220:0 221:0 222:0 223:0 224:0 #
0.13788749188759652497537899762392 1:0 2:1 3:0 4:0 5:0 6:0 7:1 8:0 9:0 10:0 11:0 12:1 13:0 14:0 15:0 16:0 17:0 18:0 19:1 20:0 21:0 22:0 23:0 24:1 25:0 26:0 27:0 28:0 29:0 30:0 31:0 32:0 33:0 34:0 35:0 36:0 37:0 38:0 39:0 40:0 41:0 42:1 43:1 44:0.771833 45:0.29561701 46:0 47:0 48:0 49:1 50:0 51:0 52:0 53:0 54:0 55:0 56:1 57:0 58:0.65959001 59:2.8862021 60:0 61:0 62:0 63:0 64:0 65:1 66:0 67:0 68:0 69:0 70:0 71:1 72:0 73:0 74:0 75:0 76:0 77:0 78:0 79:0 80:0 81:0 82:0 83:0 84:0 85:0 86:0 87:20.839794 88:91.334335 89:0 90:0 91:1 92:0 93:0 94:0 95:0 96:0 97:0 98:0 99:0 100:0 101:1 102:0 103:0 104:0 105:0 106:0 107:0 108:0 109:0 110:0 111:0 112:0 113:0 114:0 115:0 116:34.73299 117:152.22389 118:0 119:0 120:1 121:0 122:0 123:0 124:0 125:0 126:0 127:0 128:0 129:0 130:1 131:0 132:0 133:0 134:0 135:0 136:0 137:0 138:0 139:0 140:0 141:0 142:0 143:1 144:0 145:0.77186698 146:3.3827529 147:0 148:0 149:0 150:0 151:0 152:0 153:1 154:0 155:0 156:0 157:0 158:0 159:0 160:0 161:0 162:1 163:0 164:0 165:0 166:0 167:0 168:0 169:0 170:0 171:0 172:1 173:0 174:0.53005898 175:2.3182509 176:0 177:0 178:0 179:0 180:1 181:0 182:0 183:0 184:0 185:0 186:0 187:0 188:0 189:1 190:0 191:0 192:0 193:0 194:0 195:0 196:0 197:0 198:0 199:0 200:0 201:1 202:0 203:0.478457 204:2.090848 205:0 206:0 207:0 208:0 209:1 210:0 211:0 212:0 213:0 214:0 215:0 216:0 217:0 218:0 219:0 220:1 221:0 222:0 223:0 224:0 #
-0.094007845355481123306162771768868 1:0 2:0 3:0 4:0 5:0 6:0 7:0 8:0 9:0 10:0 11:0 12:0 13:0 14:0 15:0 16:0 17:0 18:0 19:0 20:0 21:0 22:0 23:0 24:0 25:0 26:0 27:0 28:0 29:0 30:0 31:0 32:0 33:0 34:0 35:0 36:0 37:0 38:0 39:0 40:0 41:0 42:0 43:0 44:0.92754102 45:0.078119002 46:0 47:0 48:0 49:0 50:1 51:0 52:0 53:0 54:0 55:0 56:1 57:0 58:0.433097 59:5.9737701 60:0 61:0 62:0 63:0 64:0 65:0 66:0 67:0 68:0 69:1 70:0 71:0 72:0 73:0 74:0 75:1 76:0 77:0 78:0 79:0 80:0 81:0 82:0 83:0 84:0 85:1 86:0 87:0.463806 88:6.4004679 89:0 90:0 91:0 92:0 93:0 94:0 95:0 96:0 97:0 98:1 99:0 100:0 101:0 102:0 103:0 104:0 105:0 106:0 107:0 108:1 109:0 110:0 111:0 112:0 113:0 114:0 115:0 116:0 117:0 118:0 119:1 120:0 121:0 122:0 123:0 124:0 125:0 126:0 127:0 128:0 129:1 130:0 131:0 132:0 133:0 134:0 135:0 136:0 137:0 138:0 139:0 140:0 141:0 142:0 143:0 144:0 145:0 146:0 147:0 148:1 149:0 150:0 151:0 152:0 153:0 154:0 155:0 156:0 157:0 158:1 159:0 160:0 161:0 162:0 163:0 164:0 165:0 166:0 167:0 168:0 169:0 170:0 171:0 172:1 173:0 174:0.433097 175:5.9737701 176:0 177:0 178:0 179:0 180:0 181:0 182:0 183:0 184:0 185:1 186:0 187:0 188:0 189:0 190:0 191:0 192:1 193:0 194:0 195:0 196:0 197:0 198:0 199:0 200:0 201:1 202:0 203:0.309425 204:4.2669792 205:0 206:0 207:0 208:0 209:0 210:0 211:0 212:0 213:0 214:1 215:0 216:0 217:0 218:0 219:0 220:0 221:1 222:0 223:0 224:0 #
0.20000000000000001110223024625157 1:0 2:1 3:0 4:0 5:0 6:0 7:1 8:0 9:0 10:0 11:0 12:1 13:0 14:0 15:0 16:0 17:1 18:0 19:0 20:0 21:0 22:0 23:1 24:0 25:0 26:0 27:0 28:0 29:0 30:0 31:0 32:0 33:0 34:0 35:0 36:0 37:0 38:1 39:1 40:1 41:1 42:1 43:1 44:0.93785697 45:0.066260003 46:0 47:0 48:0 49:0 50:1 51:0 52:0 53:0 54:0 55:0 56:0 57:0 58:1.340322 59:21.559963 60:0 61:0 62:1 63:0 64:0 65:0 66:0 67:0 68:0 69:0 70:0 71:0 72:1 73:0 74:0 75:0 76:0 77:0 78:0 79:0 80:0 81:0 82:0 83:0 84:0 85:0 86:0 87:2.813729 88:45.275925 89:0 90:0 91:1 92:0 93:0 94:0 95:0 96:0 97:0 98:0 99:0 100:0 101:1 102:0 103:0 104:0 105:0 106:0 107:0 108:0 109:0 110:0 111:0 112:0 113:0 114:1 115:0 116:0.93827802 117:15.091975 118:0 119:0 120:1 121:0 122:0 123:0 124:0 125:0 126:0 127:0 128:0 129:0 130:1 131:0 132:0 133:0 134:0 135:0 136:0 137:0 138:0 139:0 140:0 141:0 142:0 143:0 144:0 145:0 146:0 147:0 148:1 149:0 150:0 151:0 152:0 153:0 154:0 155:0 156:0 157:0 158:1 159:0 160:0 161:0 162:0 163:0 164:0 165:0 166:0 167:0 168:0 169:0 170:0 171:0 172:1 173:0 174:0.54745102 175:8.8036518 176:0 177:0 178:1 179:0 180:0 181:0 182:0 183:0 184:0 185:0 186:0 187:0 188:1 189:0 190:0 191:0 192:0 193:0 194:0 195:0 196:0 197:0 198:0 199:0 200:0 201:1 202:0 203:0.50536799 204:8.1264477 205:0 206:0 207:1 208:0 209:0 210:0 211:0 212:0 213:0 214:0 215:0 216:0 217:1 218:0 219:0 220:0 221:0 222:0 223:0 224:0 #
0.20000000000000001110223024625157 1:0 2:1 3:0 4:0 5:0 6:0 7:0 8:1 9:0 10:0 11:0 12:0 13:0 14:0 15:0 16:0 17:0 18:0 19:0 20:0 21:0 22:0 23:0 24:0 25:0 26:0 27:0 28:0 29:0 30:0 31:0 32:0 33:0 34:0 35:0 36:0 37:0 38:1 39:0 40:0 41:0 42:1 43:1 44:0.84575897 45:0.18237101 46:0 47:0 48:0 49:0 50:1 51:0 52:0 53:0 54:0 55:0 56:1 57:0 58:0.182988 59:1.183903 60:0 61:0 62:0 63:0 64:0 65:0 66:0 67:0 68:0 69:1 70:0 71:0 72:0 73:0 74:0 75:0 76:0 77:0 78:0 79:1 80:0 81:0 82:0 83:0 84:0 85:0 86:0 87:0 88:0 89:0 90:1 91:0 92:0 93:0 94:0 95:0 96:0 97:0 98:0 99:0 100:1 101:0 102:0 103:0 104:0 105:0 106:0 107:0 108:0 109:0 110:0 111:0 112:0 113:0 114:0 115:0 116:3.8060939 117:24.675035 118:0 119:0 120:0 121:0 122:0 123:0 124:0 125:0 126:0 127:1 128:0 129:0 130:0 131:0 132:0 133:0 134:0 135:0 136:0 137:1 138:0 139:0 140:0 141:0 142:0 143:0 144:0 145:0 146:0 147:0 148:1 149:0 150:0 151:0 152:0 153:0 154:0 155:0 156:0 157:0 158:1 159:0 160:0 161:0 162:0 163:0 164:0 165:0 166:0 167:0 168:0 169:0 170:0 171:0 172:1 173:0 174:0.73706597 175:4.7725382 176:0 177:0 178:0 179:0 180:0 181:0 182:0 183:0 184:0 185:1 186:0 187:0 188:0 189:0 190:0 191:0 192:0 193:0 194:0 195:1 196:0 197:0 198:0 199:0 200:0 201:1 202:0 203:0.84742397 204:5.4833412 205:0 206:0 207:0 208:0 209:0 210:0 211:0 212:0 213:0 214:1 215:0 216:0 217:0 218:0 219:0 220:0 221:0 222:0 223:0 224:1 #
0.043344095695289297509589232504368 1:0 2:1 3:0 4:0 5:0 6:0 7:1 8:0 9:0 10:0 11:0 12:1 13:0 14:0 15:0 16:0 17:1 18:0 19:0 20:0 21:0 22:1 23:0 24:0 25:0 26:0 27:0 28:0 29:0 30:0 31:0 32:0 33:0 34:0 35:0 36:0 37:0 38:0 39:0 40:0 41:0 42:0 43:0 44:0.94458503 45:0.058665998 46:0 47:0 48:0 49:0 50:1 51:0 52:0 53:0 54:0 55:0 56:1 57:1 58:0.031688001 59:0.564421 60:0 61:0 62:0 63:0 64:0 65:0 66:0 67:1 68:0 69:0 70:0 71:0 72:0 73:0 74:0 75:0 76:0 77:1 78:0 79:0 80:0 81:0 82:0 83:0 84:0 85:1 86:0 87:0.94463301 88:17.045511 89:0 90:0 91:0 92:0 93:0 94:0 95:0 96:1 97:0 98:0 99:0 100:0 101:0 102:1 103:0 104:0 105:0 106:0 107:0 108:0 109:0 110:0 111:0 112:0 113:0 114:1 115:0 116:0.98992097 117:17.857203 118:0 119:0 120:0 121:0 122:0 123:0 124:0 125:1 126:0 127:0 128:0 129:0 130:0 131:0 132:0 133:1 134:0 135:0 136:0 137:0 138:0 139:0 140:0 141:0 142:0 143:1 144:0 145:0.20994 146:3.7878909 147:0 148:0 149:0 150:0 151:0 152:0 153:0 154:1 155:0 156:0 157:0 158:1 159:0 160:0 161:0 162:0 163:0 164:0 165:0 166:0 167:0 168:0 169:0 170:0 171:0 172:1 173:0 174:0.184569 175:3.325953 176:0 177:0 178:0 179:0 180:0 181:0 182:0 183:1 184:0 185:0 186:0 187:1 188:0 189:0 190:0 191:0 192:0 193:0 194:0 195:0 196:0 197:0 198:0 199:0 200:0 201:1 202:0 203:0.14557999 204:2.622386 205:0 206:0 207:0 208:0 209:0 210:0 211:0 212:1 213:0 214:0 215:0 216:1 217:0 218:0 219:0 220:0 221:0 222:0 223:0 224:0 #
-0.20000000000000001110223024625157 1:0 2:1 3:0 4:0 5:0 6:0 7:0 8:0 9:1 10:0 11:0 12:0 13:0 14:0 15:1 16:0 17:0 18:0 19:0 20:1 21:0 22:0 23:0 24:0 25:1 26:0 27:0 28:0 29:0 30:0 31:0 32:0 33:0 34:0 35:0 36:0 37:0 38:0 39:0 40:0 41:0 42:0 43:0 44:0.93142498 45:0.073624 46:0 47:0 48:0 49:0 50:1 51:0 52:0 53:0 54:0 55:0 56:1 57:1 58:0.034984998 59:0.50775999 60:0 61:0 62:0 63:0 64:0 65:0 66:0 67:0 68:0 69:1 70:0 71:0 72:0 73:0 74:0 75:0 76:0 77:0 78:0 79:1 80:0 81:0 82:0 83:0 84:0 85:0 86:0 87:1.862891 88:27.165167 89:0 90:0 91:0 92:0 93:0 94:0 95:0 96:1 97:0 98:0 99:0 100:0 101:0 102:0 103:0 104:0 105:0 106:1 107:0 108:0 109:0 110:0 111:0 112:0 113:0 114:0 115:0 116:5.5887971 117:81.495499 118:0 119:0 120:0 121:0 122:0 123:0 124:0 125:0 126:0 127:1 128:0 129:0 130:0 131:0 132:0 133:0 134:0 135:0 136:0 137:1 138:0 139:0 140:0 141:0 142:0 143:0 144:0 145:1.552478 146:22.637638 147:0 148:0 149:0 150:0 151:0 152:0 153:0 154:0 155:0 156:1 157:0 158:0 159:0 160:0 161:0 162:0 163:0 164:0 165:0 166:1 167:0 168:0 169:0 170:0 171:0 172:1 173:0 174:0.246924 175:3.5953901 176:0 177:0 178:0 179:0 180:0 181:0 182:0 183:0 184:0 185:1 186:0 187:0 188:0 189:1 190:0 191:0 192:0 193:0 194:0 195:0 196:0 197:0 198:0 199:0 200:0 201:1 202:0 203:0.252148 204:3.670969 205:0 206:0 207:0 208:0 209:0 210:0 211:0 212:0 213:0 214:1 215:0 216:0 217:0 218:1 219:0 220:0 221:0 222:0 223:0 224:0 #
0.028862209225885913921327841080711 1:0 2:1 3:0 4:0 5:0 6:0 7:0 8:1 9:0 10:0 11:0 12:0 13:1 14:0 15:0 16:0 17:0 18:1 19:0 20:0 21:0 22:0 23:1 24:0 25:0 26:0 27:0 28:0 29:0 30:0 31:0 32:0 33:0 34:0 35:0 36:0 37:0 38:1 39:0 40:0 41:0 42:0 43:0 44:0.91780198 45:0.089560002 46:0 47:0 48:0 49:0 50:1 51:0 52:0 53:0 54:0 55:0 56:1 57:0 58:0.083713003 59:1.0150681 60:0 61:0 62:0 63:1 64:0 65:0 66:0 67:0 68:0 69:0 70:0 71:0 72:1 73:0 74:0 75:0 76:0 77:0 78:0 79:0 80:0 81:0 82:0 83:0 84:0 85:1 86:1 87:0 88:0 89:0 90:1 91:0 92:0 93:0 94:0 95:0 96:0 97:0 98:0 99:0 100:1 101:0 102:0 103:0 104:0 105:0 106:0 107:0 108:0 109:0 110:0 111:0 112:0 113:0 114:0 115:0 116:2.524461 117:30.70582 118:0 119:1 120:0 121:0 122:0 123:0 124:0 125:0 126:0 127:0 128:0 129:1 130:0 131:0 132:0 133:0 134:0 135:0 136:0 137:0 138:0 139:0 140:0 141:0 142:0 143:0 144:0 145:0 146:0 147:0 148:1 149:0 150:0 151:0 152:0 153:0 154:0 155:0 156:0 157:0 158:1 159:0 160:0 161:0 162:0 163:0 164:0 165:0 166:0 167:0 168:0 169:0 170:0 171:0 172:1 173:0 174:0.131483 175:1.595108 176:0 177:0 178:0 179:1 180:0 181:0 182:0 183:0 184:0 185:0 186:0 187:0 188:1 189:0 190:0 191:0 192:0 193:0 194:0 195:0 196:0 197:0 198:0 199:0 200:0 201:1 202:0 203:0.113329 204:1.374246 205:0 206:0 207:0 208:1 209:0 210:0 211:0 212:0 213:0 214:0 215:0 216:0 217:1 218:0 219:0 220:0 221:0 222:0 223:0 224:0 #
-0.20000000000000001110223024625157 1:0 2:1 3:0 4:0 5:0 6:0 7:1 8:0 9:0 10:0 11:0 12:1 13:0 14:0 15:0 16:0 17:1 18:0 19:0 20:0 21:0 22:1 23:0 24:0 25:0 26:0 27:0 28:0 29:0 30:0 31:0 32:0 33:0 34:0 35:0 36:0 37:0 38:0 39:0 40:0 41:0 42:1 43:1 44:0.94066602 45:0.063077003 46:0 47:0 48:0 49:0 50:1 51:0 52:0 53:0 54:0 55:0 56:1 57:0 58:0.344598 59:5.8001409 60:0 61:0 62:1 63:0 64:0 65:0 66:0 67:0 68:0 69:0 70:0 71:1 72:0 73:0 74:0 75:0 76:0 77:0 78:0 79:0 80:0 81:0 82:0 83:0 84:0 85:0 86:0 87:2.9790609 88:50.203438 89:0 90:1 91:0 92:0 93:0 94:0 95:0 96:0 97:0 98:0 99:0 100:1 101:0 102:0 103:0 104:0 105:0 106:0 107:0 108:0 109:0 110:0 111:0 112:0 113:0 114:0 115:0 116:22.576344 117:380.48923 118:0 119:1 120:0 121:0 122:0 123:0 124:0 125:0 126:0 127:0 128:0 129:1 130:0 131:0 132:0 133:0 134:0 135:0 136:0 137:0 138:0 139:0 140:0 141:0 142:0 143:0 144:0 145:5.1738281 146:87.19545 147:0 148:0 149:1 150:0 151:0 152:0 153:0 154:0 155:0 156:0 157:0 158:1 159:0 160:0 161:0 162:0 163:0 164:0 165:0 166:0 167:0 168:0 169:0 170:0 171:0 172:1 173:1 174:0.057696 175:0.96472901 176:0 177:0 178:1 179:0 180:0 181:0 182:0 183:0 184:0 185:0 186:0 187:0 188:1 189:0 190:0 191:0 192:0 193:0 194:0 195:0 196:0 197:0 198:0 199:0 200:0 201:1 202:1 203:0.042017002 204:0.700459 205:0 206:0 207:1 208:0 209:0 210:0 211:0 212:0 213:0 214:0 215:0 216:0 217:1 218:0 219:0 220:0 221:0 222:0 223:0 224:0 #
-0.1553669191554687412093471721164 1:0 2:0 3:0 4:0 5:0 6:0 7:0 8:1 9:0 10:0 11:0 12:0 13:1 14:0 15:0 16:0 17:0 18:1 19:0 20:0 21:0 22:0 23:1 24:0 25:0 26:0 27:0 28:0 29:0 30:0 31:0 32:0 33:0 34:0 35:0 36:0 37:0 38:0 39:0 40:0 41:0 42:0 43:0 44:0.47885099 45:1.088333 46:0 47:0 48:1 49:0 50:0 51:0 52:0 53:0 54:0 55:0 56:0 57:0 58:1.436885 59:2.75651 60:0 61:1 62:0 63:0 64:0 65:0 66:0 67:0 68:0 69:0 70:0 71:0 72:1 73:0 74:0 75:0 76:0 77:0 78:0 79:0 80:0 81:0 82:0 83:0 84:0 85:0 86:0 87:0 88:0 89:0 90:1 91:0 92:0 93:0 94:0 95:0 96:0 97:0 98:0 99:0 100:1 101:0 102:0 103:0 104:0 105:0 106:0 107:0 108:0 109:0 110:0 111:0 112:0 113:0 114:0 115:0 116:0 117:0 118:0 119:1 120:0 121:0 122:0 123:0 124:0 125:0 126:0 127:0 128:0 129:1 130:0 131:0 132:0 133:0 134:0 135:0 136:0 137:0 138:0 139:0 140:0 141:0 142:0 143:0 144:0 145:0 146:0 147:0 148:1 149:0 150:0 151:0 152:0 153:0 154:0 155:0 156:0 157:0 158:1 159:0 160:0 161:0 162:0 163:0 164:0 165:0 166:0 167:0 168:0 169:0 170:0 171:0 172:0 173:0 174:1.358359 175:2.6033709 176:0 177:1 178:0 179:0 180:0 181:0 182:0 183:0 184:0 185:0 186:0 187:1 188:0 189:0 190:0 191:0 192:0 193:0 194:0 195:0 196:0 197:0 198:0 199:0 200:0 201:0 202:0 203:1.390504 204:2.6646259 205:0 206:1 207:0 208:0 209:0 210:0 211:0 212:0 213:0 214:0 215:0 216:1 217:0 218:0 219:0 220:0 221:0 222:0 223:0 224:0 #
0.20000000000000001110223024625157 1:0 2:0 3:1 4:0 5:0 6:0 7:0 8:0 9:1 10:0 11:0 12:0 13:0 14:1 15:0 16:0 17:0 18:0 19:1 20:0 21:0 22:0 23:0 24:1 25:0 26:0 27:0 28:0 29:0 30:1 31:1 32:0 33:0 34:0 35:0 36:0 37:0 38:0 39:0 40:0 41:0 42:1 43:1 44:0.85189003 45:0.17386 46:0 47:0 48:0 49:0 50:1 51:0 52:0 53:0 54:0 55:0 56:0 57:0 58:2.371819 59:16.004854 60:0 61:1 62:0 63:0 64:0 65:0 66:0 67:0 68:0 69:0 70:0 71:0 72:1 73:0 74:0 75:0 76:0 77:0 78:0 79:0 80:0 81:0 82:0 83:0 84:0 85:0 86:0 87:0 88:0 89:0 90:1 91:0 92:0 93:0 94:0 95:0 96:0 97:0 98:0 99:0 100:1 101:0 102:0 103:0 104:0 105:0 106:0 107:0 108:0 109:0 110:0 111:0 112:0 113:0 114:0 115:0 116:7.6672001 117:51.765701 118:0 119:0 120:1 121:0 122:0 123:0 124:0 125:0 126:0 127:0 128:0 129:0 130:1 131:0 132:0 133:0 134:0 135:0 136:0 137:0 138:0 139:0 140:0 141:0 142:0 143:1 144:0 145:0.56796902 146:3.834497 147:0 148:0 149:1 150:0 151:0 152:0 153:0 154:0 155:0 156:0 157:0 158:0 159:1 160:0 161:0 162:0 163:0 164:0 165:0 166:0 167:0 168:0 169:0 170:0 171:0 172:1 173:0 174:0.26952201 175:1.81634 176:0 177:0 178:0 179:1 180:0 181:0 182:0 183:0 184:0 185:0 186:0 187:1 188:0 189:0 190:0 191:0 192:0 193:0 194:0 195:0 196:0 197:0 198:0 199:0 200:0 201:1 202:0 203:0.45123199 204:3.0386579 205:0 206:0 207:0 208:1 209:0 210:0 211:0 212:0 213:0 214:0 215:0 216:0 217:1 218:0 219:0 220:0 221:0 222:0 223:0 224:0 #
-0.20000000000000001110223024625157 1:0 2:0 3:0 4:0 5:0 6:0 7:1 8:0 9:0 10:0 11:0 12:1 13:0 14:0 15:0 16:0 17:1 18:0 19:0 20:0 21:0 22:1 23:0 24:0 25:0 26:0 27:0 28:0 29:0 30:1 31:1 32:0 33:0 34:0 35:0 36:1 37:1 38:0 39:0 40:1 41:0 42:0 43:0 44:0.955185 45:0.046916999 46:0 47:0 48:0 49:0 50:1 51:0 52:0 53:0 54:0 55:0 56:1 57:0 58:0.076481998 59:1.705121 60:0 61:0 62:1 63:0 64:0 65:0 66:0 67:0 68:0 69:0 70:0 71:1 72:0 73:0 74:0 75:0 76:0 77:0 78:0 79:0 80:0 81:0 82:0 83:0 84:0 85:1 86:1 87:0 88:0 89:0 90:1 91:0 92:0 93:0 94:0 95:0 96:0 97:0 98:0 99:0 100:1 101:0 102:0 103:0 104:0 105:0 106:0 107:0 108:0 109:0 110:0 111:0 112:0 113:0 114:0 115:0 116:10.507405 117:234.45419 118:0 119:1 120:0 121:0 122:0 123:0 124:0 125:0 126:0 127:0 128:0 129:1 130:0 131:0 132:0 133:0 134:0 135:0 136:0 137:0 138:0 139:0 140:0 141:0 142:0 143:0 144:0 145:0 146:0 147:0 148:1 149:0 150:0 151:0 152:0 153:0 154:0 155:0 156:0 157:0 158:1 159:0 160:0 161:0 162:0 163:0 164:0 165:0 166:0 167:0 168:0 169:0 170:0 171:0 172:1 173:0 174:0.95555401 175:21.314016 176:0 177:0 178:0 179:1 180:0 181:0 182:0 183:0 184:0 185:0 186:0 187:0 188:1 189:0 190:0 191:0 192:0 193:0 194:0 195:0 196:0 197:0 198:0 199:0 200:0 201:1 202:0 203:0.80860198 204:18.034939 205:0 206:0 207:0 208:1 209:0 210:0 211:0 212:0 213:0 214:0 215:0 216:0 217:1 218:0 219:0 220:0 221:0 222:0 223:0 224:0 #
0.20000000000000001110223024625157 1:0 2:0 3:0 4:0 5:0 6:0 7:1 8:0 9:0 10:0 11:0 12:1 13:0 14:0 15:0 16:0 17:1 18:0 19:0 20:0 21:0 22:1 23:0 24:0 25:0 26:0 27:0 28:0 29:0 30:1 31:1 32:0 33:0 34:0 35:0 36:0 37:0 38:0 39:0 40:0 41:1 42:1 43:1 44:0.91308701 45:0.095186003 46:0 47:0 48:0 49:0 50:1 51:0 52:0 53:0 54:0 55:0 56:1 57:0 58:0.472615 59:5.4340281 60:0 61:0 62:0 63:1 64:0 65:0 66:0 67:0 68:0 69:0 70:0 71:1 72:0 73:0 74:0 75:0 76:0 77:0 78:0 79:0 80:0 81:0 82:0 83:0 84:0 85:1 86:1 87:0 88:0 89:0 90:1 91:0 92:0 93:0 94:0 95:0 96:0 97:0 98:0 99:0 100:1 101:0 102:0 103:0 104:0 105:0 106:0 107:0 108:0 109:0 110:0 111:0 112:0 113:0 114:0 115:0 116:10.957572 117:126.06946 118:0 119:0 120:1 121:0 122:0 123:0 124:0 125:0 126:0 127:0 128:0 129:0 130:1 131:0 132:0 133:0 134:0 135:0 136:0 137:0 138:0 139:0 140:0 141:0 142:0 143:0 144:0 145:0 146:0 147:0 148:1 149:0 150:0 151:0 152:0 153:0 154:0 155:0 156:0 157:0 158:1 159:0 160:0 161:0 162:0 163:0 164:0 165:0 166:0 167:0 168:0 169:0 170:0 171:0 172:0 173:0 174:3.5832269 175:41.215015 176:0 177:0 178:1 179:0 180:0 181:0 182:0 183:0 184:0 185:0 186:0 187:1 188:0 189:0 190:0 191:0 192:0 193:0 194:0 195:0 196:0 197:0 198:0 199:0 200:0 201:0 202:0 203:3.7940049 204:43.639427 205:0 206:0 207:1 208:0 209:0 210:0 211:0 212:0 213:0 214:0 215:0 216:1 217:0 218:0 219:0 220:0 221:0 222:0 223:0 224:0 #
-0.094248434201217534678107767831534 1:0 2:0 3:0 4:0 5:0 6:0 7:1 8:0 9:0 10:0 11:0 12:0 13:1 14:0 15:0 16:0 17:0 18:1 19:0 20:0 21:0 22:0 23:1 24:0 25:0 26:0 27:0 28:0 29:0 30:0 31:0 32:0 33:0 34:0 35:0 36:0 37:0 38:0 39:0 40:0 41:0 42:0 43:0 44:0.94896501 45:0.053778999 46:0 47:0 48:0 49:0 50:1 51:0 52:0 53:0 54:0 55:0 56:1 57:1 58:0.031044001 59:0.60540402 60:0 61:0 62:0 63:0 64:0 65:0 66:0 67:0 68:0 69:1 70:0 71:0 72:0 73:0 74:0 75:0 76:0 77:0 78:0 79:1 80:0 81:0 82:0 83:0 84:0 85:1 86:0 87:0.47450399 88:9.2972803 89:0 90:0 91:0 92:0 93:0 94:0 95:0 96:0 97:0 98:1 99:0 100:0 101:0 102:0 103:0 104:0 105:0 106:0 107:0 108:1 109:0 110:0 111:0 112:0 113:0 114:0 115:0 116:5.6940441 117:111.56736 118:0 119:0 120:0 121:0 122:0 123:0 124:0 125:0 126:0 127:1 128:0 129:0 130:0 131:0 132:0 133:0 134:0 135:0 136:0 137:1 138:0 139:0 140:0 141:0 142:0 143:0 144:0 145:1.581714 146:30.990932 147:0 148:0 149:0 150:0 151:0 152:0 153:0 154:0 155:0 156:1 157:0 158:0 159:0 160:0 161:0 162:0 163:0 164:0 165:0 166:1 167:0 168:0 169:0 170:0 171:0 172:1 173:0 174:0.217241 175:4.250185 176:0 177:0 178:0 179:0 180:0 181:0 182:0 183:0 184:0 185:1 186:0 187:1 188:0 189:0 190:0 191:0 192:0 193:0 194:0 195:0 196:0 197:0 198:0 199:0 200:0 201:1 202:0 203:0.225132 204:4.403975 205:0 206:0 207:0 208:0 209:0 210:0 211:0 212:0 213:0 214:1 215:0 216:1 217:0 218:0 219:0 220:0 221:0 222:0 223:0 224:0 #
-0.0045970448631109661619120743125677 1:0 2:0 3:0 4:0 5:0 6:0 7:0 8:0 9:0 10:0 11:0 12:0 13:0 14:0 15:0 16:0 17:0 18:0 19:0 20:0 21:0 22:0 23:0 24:1 25:0 26:0 27:0 28:0 29:0 30:0 31:0 32:0 33:0 34:0 35:0 36:0 37:0 38:0 39:0 40:0 41:0 42:0 43:0 44:0.83402801 45:0.199001 46:0 47:0 48:0 49:0 50:1 51:0 52:0 53:0 54:0 55:0 56:1 57:0 58:0.371097 59:2.2333779 60:0 61:0 62:0 63:0 64:0 65:0 66:0 67:0 68:1 69:0 70:0 71:0 72:0 73:1 74:0 75:0 76:0 77:0 78:0 79:0 80:0 81:0 82:0 83:0 84:0 85:0 86:0 87:19.18298 88:115.57729 89:0 90:0 91:0 92:0 93:0 94:0 95:0 96:0 97:1 98:0 99:0 100:0 101:0 102:0 103:0 104:0 105:0 106:0 107:1 108:0 109:0 110:0 111:0 112:0 113:0 114:0 115:0 116:7.7846761 117:46.900928 118:0 119:0 120:0 121:0 122:0 123:0 124:1 125:0 126:0 127:0 128:0 129:0 130:0 131:1 132:0 133:0 134:0 135:0 136:0 137:0 138:0 139:0 140:0 141:0 142:0 143:0 144:0 145:0 146:0 147:0 148:1 149:0 150:0 151:0 152:0 153:0 154:0 155:0 156:0 157:0 158:1 159:0 160:0 161:0 162:0 163:0 164:0 165:0 166:0 167:0 168:0 169:0 170:0 171:0 172:0 173:0 174:1.251758 175:7.5376492 176:0 177:0 178:0 179:0 180:0 181:0 182:0 183:1 184:0 185:0 186:0 187:0 188:0 189:1 190:0 191:0 192:0 193:0 194:0 195:0 196:0 197:0 198:0 199:0 200:0 201:0 202:0 203:1.213847 204:7.309236 205:0 206:0 207:0 208:0 209:0 210:0 211:0 212:1 213:0 214:0 215:0 216:0 217:0 218:1 219:0 220:0 221:0 222:0 223:0 224:0 #
0.11580658098748486395379586610943 1:0 2:1 3:0 4:0 5:0 6:0 7:1 8:0 9:0 10:0 11:0 12:1 13:0 14:0 15:0 16:0 17:1 18:0 19:0 20:0 21:0 22:1 23:0 24:0 25:0 26:0 27:0 28:0 29:0 30:0 31:0 32:0 33:0 34:0 35:0 36:0 37:0 38:0 39:0 40:1 41:1 42:1 43:1 44:0.86742401 45:0.152839 46:0 47:0 48:0 49:0 50:1 51:0 52:0 53:0 54:0 55:0 56:1 57:0 58:0.34998801 59:2.635309 60:0 61:0 62:0 63:0 64:0 65:0 66:0 67:0 68:0 69:1 70:0 71:0 72:0 73:0 74:0 75:0 76:0 77:0 78:0 79:1 80:0 81:0 82:0 83:0 84:0 85:0 86:0 87:0 88:0 89:0 90:1 91:0 92:0 93:0 94:0 95:0 96:0 97:0 98:0 99:0 100:1 101:0 102:0 103:0 104:0 105:0 106:0 107:0 108:0 109:0 110:0 111:0 112:0 113:0 114:1 115:0 116:0.46073201 117:3.469686 118:0 119:0 120:0 121:0 122:0 123:0 124:0 125:1 126:0 127:0 128:0 129:0 130:0 131:0 132:0 133:0 134:1 135:0 136:0 137:0 138:0 139:0 140:0 141:0 142:0 143:0 144:0 145:58.986248 146:444.91287 147:0 148:0 149:0 150:0 151:0 152:0 153:0 154:0 155:0 156:1 157:0 158:0 159:0 160:0 161:0 162:0 163:0 164:0 165:0 166:1 167:0 168:0 169:0 170:0 171:0 172:0 173:0 174:2.436991 175:18.370272 176:0 177:0 178:0 179:0 180:0 181:0 182:0 183:0 184:0 185:1 186:0 187:0 188:0 189:0 190:0 191:0 192:0 193:0 194:0 195:1 196:0 197:0 198:0 199:0 200:0 201:0 202:0 203:2.436991 204:18.370272 205:0 206:0 207:0 208:0 209:0 210:0 211:0 212:0 213:0 214:1 215:0 216:0 217:0 218:0 219:0 220:0 221:0 222:0 223:0 224:1 #
-0.20000000000000001110223024625157 1:0 2:1 3:0 4:0 5:0 6:0 7:1 8:0 9:0 10:0 11:0 12:1 13:0 14:0 15:0 16:0 17:1 18:0 19:0 20:0 21:0 22:1 23:0 24:0 25:0 26:1 27:0 28:0 29:0 30:0 31:0 32:0 33:0 34:0 35:0 36:0 37:0 38:0 39:0 40:0 41:0 42:1 43:1 44:0.864034 45:0.157362 46:0 47:0 48:0 49:0 50:1 51:0 52:0 53:0 54:0 55:0 56:1 57:0 58:0.242217 59:1.779336 60:0 61:0 62:0 63:0 64:1 65:0 66:0 67:0 68:0 69:0 70:0 71:1 72:0 73:0 74:0 75:0 76:0 77:0 78:0 79:0 80:0 81:0 82:0 83:0 84:0 85:0 86:0 87:6.0485239 88:44.483398 89:0 90:1 91:0 92:0 93:0 94:0 95:0 96:0 97:0 98:0 99:0 100:1 101:0 102:0 103:0 104:0 105:0 106:0 107:0 108:0 109:0 110:0 111:0 112:0 113:0 114:0 115:0 116:12.961124 117:95.321564 118:0 119:1 120:0 121:0 122:0 123:0 124:0 125:0 126:0 127:0 128:0 129:1 130:0 131:0 132:0 133:0 134:0 135:0 136:0 137:0 138:0 139:0 140:0 141:0 142:0 143:0 144:0 145:0 146:0 147:0 148:1 149:0 150:0 151:0 152:0 153:0 154:0 155:0 156:0 157:0 158:1 159:0 160:0 161:0 162:0 163:0 164:0 165:0 166:0 167:0 168:0 169:0 170:0 171:0 172:1 173:0 174:0.81064802 175:5.9575982 176:0 177:0 178:0 179:0 180:1 181:0 182:0 183:0 184:0 185:0 186:0 187:1 188:0 189:0 190:0 191:0 192:0 193:0 194:0 195:0 196:0 197:0 198:0 199:0 200:0 201:1 202:0 203:0.864815 204:6.3547711 205:0 206:0 207:0 208:0 209:1 210:0 211:0 212:0 213:0 214:0 215:0 216:1 217:0 218:0 219:0 220:0 221:0 222:0 223:0 224:0 #
-0.20000000000000001110223024625157 1:0 2:1 3:0 4:0 5:0 6:0 7:1 8:0 9:0 10:0 11:0 12:1 13:0 14:0 15:0 16:0 17:1 18:0 19:0 20:0 21:0 22:1 23:0 24:0 25:0 26:0 27:0 28:0 29:0 30:0 31:0 32:0 33:0 34:0 35:0 36:0 37:0 38:1 39:0 40:0 41:0 42:0 43:0 44:0.85262102 45:0.17285401 46:0 47:0 48:0 49:0 50:1 51:0 52:0 53:0 54:0 55:0 56:1 57:0 58:0.27257401 59:1.846354 60:0 61:0 62:1 63:0 64:0 65:0 66:0 67:0 68:0 69:0 70:0 71:1 72:0 73:0 74:0 75:0 76:0 77:0 78:0 79:0 80:0 81:0 82:0 83:0 84:0 85:0 86:0 87:3.8369341 88:26.033594 89:0 90:0 91:1 92:0 93:0 94:0 95:0 96:0 97:0 98:0 99:0 100:1 101:0 102:0 103:0 104:0 105:0 106:0 107:0 108:0 109:0 110:0 111:0 112:0 113:0 114:0 115:0 116:28.989649 117:196.69826 118:0 119:1 120:0 121:0 122:0 123:0 124:0 125:0 126:0 127:0 128:0 129:1 130:0 131:0 132:0 133:0 134:0 135:0 136:0 137:0 138:0 139:0 140:0 141:0 142:0 143:0 144:0 145:3.41067 146:23.140972 147:0 148:1 149:0 150:0 151:0 152:0 153:0 154:0 155:0 156:0 157:0 158:1 159:0 160:0 161:0 162:0 163:0 164:0 165:0 166:0 167:0 168:0 169:0 170:0 171:0 172:1 173:0 174:0.24981201 175:1.691071 176:0 177:0 178:1 179:0 180:0 181:0 182:0 183:0 184:0 185:0 186:0 187:1 188:0 189:0 190:0 191:0 192:0 193:0 194:0 195:0 196:0 197:0 198:0 199:0 200:0 201:1 202:0 203:0.247752 204:1.676882 205:0 206:0 207:1 208:0 209:0 210:0 211:0 212:0 213:0 214:0 215:0 216:1 217:0 218:0 219:0 220:0 221:0 222:0 223:0 224:0 #
-0.15039124500602363276868800312513 1:0 2:0 3:0 4:0 5:0 6:0 7:1 8:0 9:0 10:0 11:0 12:1 13:0 14:0 15:0 16:0 17:1 18:0 19:0 20:0 21:0 22:1 23:0 24:0 25:0 26:0 27:0 28:0 29:0 30:1 31:1 32:0 33:0 34:0 35:0 36:0 37:0 38:0 39:0 40:0 41:0 42:0 43:1 44:0.81429702 45:0.228053 46:0 47:0 48:0 49:0 50:1 51:0 52:0 53:0 54:0 55:0 56:1 57:0 58:0.814726 59:4.3849421 60:0 61:1 62:0 63:0 64:0 65:0 66:0 67:0 68:0 69:0 70:0 71:1 72:0 73:0 74:0 75:0 76:0 77:0 78:0 79:0 80:0 81:0 82:0 83:0 84:0 85:0 86:0 87:0 88:0 89:0 90:1 91:0 92:0 93:0 94:0 95:0 96:0 97:0 98:0 99:0 100:1 101:0 102:0 103:0 104:0 105:0 106:0 107:0 108:0 109:0 110:0 111:0 112:0 113:0 114:0 115:0 116:8.1432762 117:43.849422 118:0 119:0 120:1 121:0 122:0 123:0 124:0 125:0 126:0 127:0 128:0 129:0 130:1 131:0 132:0 133:0 134:0 135:0 136:0 137:0 138:0 139:0 140:0 141:0 142:0 143:0 144:0 145:0 146:0 147:0 148:1 149:0 150:0 151:0 152:0 153:0 154:0 155:0 156:0 157:0 158:1 159:0 160:0 161:0 162:0 163:0 164:0 165:0 166:0 167:0 168:0 169:0 170:0 171:0 172:1 173:0 174:0.430246 175:2.3120601 176:0 177:0 178:0 179:0 180:0 181:0 182:0 183:0 184:0 185:1 186:0 187:0 188:0 189:0 190:0 191:0 192:0 193:0 194:0 195:1 196:0 197:0 198:0 199:0 200:0 201:1 202:0 203:0.44263399 204:2.378274 205:0 206:0 207:0 208:0 209:0 210:0 211:0 212:0 213:0 214:1 215:0 216:0 217:0 218:0 219:0 220:0 221:0 222:0 223:0 224:0 #
0.18592347525428432053473670748645 1:0 2:1 3:0 4:0 5:0 6:0 7:1 8:0 9:0 10:0 11:0 12:1 13:0 14:0 15:0 16:0 17:1 18:0 19:0 20:0 21:0 22:1 23:0 24:0 25:0 26:0 27:0 28:0 29:0 30:1 31:1 32:0 33:0 34:0 35:0 36:0 37:0 38:0 39:0 40:0 41:1 42:1 43:1 44:0.91994703 45:0.087018996 46:0 47:0 48:0 49:0 50:1 51:0 52:0 53:0 54:0 55:0 56:1 57:0 58:0.52623302 59:6.5667038 60:0 61:0 62:0 63:0 64:0 65:0 66:0 67:0 68:0 69:1 70:0 71:0 72:0 73:1 74:0 75:0 76:0 77:0 78:0 79:0 80:0 81:0 82:0 83:0 84:0 85:0 86:0 87:6.4397359 88:80.442123 89:0 90:0 91:0 92:0 93:0 94:0 95:1 96:0 97:0 98:0 99:0 100:0 101:0 102:0 103:0 104:0 105:1 106:0 107:0 108:0 109:0 110:0 111:0 112:0 113:0 114:0 115:0 116:28.518829 117:356.24368 118:0 119:0 120:0 121:1 122:0 123:0 124:0 125:0 126:0 127:0 128:0 129:0 130:0 131:1 132:0 133:0 134:0 135:0 136:0 137:0 138:0 139:0 140:0 141:0 142:0 143:0 144:0 145:3.373307 146:42.136353 147:0 148:0 149:0 150:0 151:0 152:0 153:0 154:1 155:0 156:0 157:0 158:0 159:0 160:0 161:0 162:0 163:1 164:0 165:0 166:0 167:0 168:0 169:0 170:0 171:0 172:1 173:0 174:0.12664101 175:1.575479 176:0 177:0 178:0 179:0 180:0 181:0 182:0 183:0 184:0 185:1 186:0 187:0 188:0 189:1 190:0 191:0 192:0 193:0 194:0 195:0 196:0 197:0 198:0 199:0 200:0 201:1 202:0 203:0.108077 204:1.343189 205:0 206:0 207:0 208:0 209:0 210:0 211:0 212:0 213:0 214:1 215:0 216:0 217:0 218:0 219:1 220:0 221:0 222:0 223:0 224:0 #
-0.10551451089234564761909496155567 1:0 2:0 3:0 4:0 5:0 6:0 7:0 8:1 9:0 10:0 11:0 12:0 13:1 14:0 15:0 16:0 17:0 18:1 19:0 20:0 21:0 22:0 23:0 24:0 25:1 26:0 27:0 28:0 29:0 30:0 31:0 32:0 33:0 34:0 35:0 36:0 37:0 38:0 39:0 40:0 41:0 42:0 43:0 44:0.86785299 45:0.15226901 46:0 47:0 48:0 49:0 50:1 51:0 52:0 53:0 54:0 55:0 56:1 57:0 58:0.79982698 59:6.048851 60:0 61:0 62:0 63:0 64:0 65:0 66:1 67:0 68:0 69:0 70:0 71:0 72:0 73:1 74:0 75:0 76:0 77:0 78:0 79:0 80:0 81:0 82:0 83:0 84:0 85:0 86:0 87:0 88:0 89:0 90:1 91:0 92:0 93:0 94:0 95:0 96:0 97:0 98:0 99:0 100:1 101:0 102:0 103:0 104:0 105:0 106:0 107:0 108:0 109:0 110:0 111:0 112:0 113:0 114:0 115:0 116:1.4614969 117:11.052326 118:0 119:0 120:0 121:0 122:0 123:0 124:0 125:0 126:0 127:1 128:0 129:0 130:0 131:1 132:0 133:0 134:0 135:0 136:0 137:0 138:0 139:0 140:0 141:0 142:0 143:0 144:0 145:19.960938 146:151.04845 147:0 148:0 149:0 150:0 151:0 152:0 153:0 154:1 155:0 156:0 157:0 158:0 159:0 160:0 161:0 162:0 163:0 164:1 165:0 166:0 167:0 168:0 169:0 170:0 171:0 172:0 173:0 174:3.6298449 175:27.463354 176:0 177:0 178:0 179:0 180:0 181:0 182:0 183:1 184:0 185:0 186:0 187:0 188:1 189:0 190:0 191:0 192:0 193:0 194:0 195:0 196:0 197:0 198:0 199:0 200:0 201:0 202:0 203:3.3274119 204:25.174742 205:0 206:0 207:0 208:0 209:0 210:0 211:0 212:1 213:0 214:0 215:0 216:0 217:1 218:0 219:0 220:0 221:0 222:0 223:0 224:0 #
0.20000000000000001110223024625157 1:0 2:1 3:0 4:0 5:0 6:0 7:0 8:1 9:0 10:0 11:0 12:0 13:1 14:0 15:0 16:0 17:0 18:1 19:0 20:0 21:0 22:0 23:1 24:0 25:0 26:0 27:0 28:0 29:0 30:0 31:0 32:0 33:0 34:0 35:0 36:0 37:0 38:0 39:0 40:0 41:0 42:0 43:0 44:0.96674901 45:0.034395002 46:0 47:0 48:0 49:0 50:1 51:0 52:0 53:0 54:0 55:0 56:1 57:0 58:0.25237101 59:7.5844789 60:0 61:0 62:0 63:1 64:0 65:0 66:0 67:0 68:0 69:0 70:0 71:0 72:1 73:0 74:0 75:0 76:0 77:0 78:0 79:0 80:0 81:0 82:0 83:0 84:0 85:0 86:0 87:1.450211 88:43.610756 89:0 90:0 91:1 92:0 93:0 94:0 95:0 96:0 97:0 98:0 99:0 100:0 101:1 102:0 103:0 104:0 105:0 106:0 107:0 108:0 109:0 110:0 111:0 112:0 113:0 114:0 115:0 116:3.3838251 117:101.75843 118:0 119:0 120:0 121:0 122:1 123:0 124:0 125:0 126:0 127:0 128:0 129:0 130:0 131:1 132:0 133:0 134:0 135:0 136:0 137:0 138:0 139:0 140:0 141:0 142:0 143:0 144:0 145:16.435223 146:494.25525 147:0 148:0 149:0 150:1 151:0 152:0 153:0 154:0 155:0 156:0 157:0 158:0 159:0 160:1 161:0 162:0 163:0 164:0 165:0 166:0 167:0 168:0 169:0 170:0 171:0 172:1 173:0 174:0.54832298 175:16.475176 176:0 177:0 178:0 179:0 180:1 181:0 182:0 183:0 184:0 185:0 186:0 187:0 188:1 189:0 190:0 191:0 192:0 193:0 194:0 195:0 196:0 197:0 198:0 199:0 200:0 201:1 202:0 203:0.33590099 204:10.086842 205:0 206:0 207:0 208:0 209:1 210:0 211:0 212:0 213:0 214:0 215:0 216:0 217:1 218:0 219:0 220:0 221:0 222:0 223:0 224:0 #
0.20000000000000001110223024625157 1:0 2:0 3:0 4:0 5:0 6:0 7:0 8:0 9:0 10:0 11:0 12:0 13:0 14:0 15:0 16:0 17:0 18:0 19:1 20:0 21:0 22:0 23:0 24:0 25:1 26:0 27:0 28:0 29:0 30:0 31:0 32:0 33:0 34:0 35:0 36:0 37:0 38:0 39:0 40:0 41:1 42:1 43:1 44:0.872473 45:0.14616799 46:0 47:0 48:0 49:0 50:1 51:0 52:0 53:0 54:0 55:0 56:1 57:0 58:0.35409901 59:2.7735651 60:0 61:1 62:0 63:0 64:0 65:0 66:0 67:0 68:0 69:0 70:0 71:0 72:1 73:0 74:0 75:0 76:0 77:0 78:0 79:0 80:0 81:0 82:0 83:0 84:0 85:0 86:0 87:0 88:0 89:0 90:1 91:0 92:0 93:0 94:0 95:0 96:0 97:0 98:0 99:0 100:1 101:0 102:0 103:0 104:0 105:0 106:0 107:0 108:0 109:0 110:0 111:0 112:0 113:0 114:0 115:0 116:10.470302 117:82.097527 118:0 119:1 120:0 121:0 122:0 123:0 124:0 125:0 126:0 127:0 128:0 129:1 130:0 131:0 132:0 133:0 134:0 135:0 136:0 137:0 138:0 139:0 140:0 141:0 142:0 143:0 144:0 145:0 146:0 147:0 148:1 149:0 150:0 151:0 152:0 153:0 154:0 155:0 156:0 157:0 158:1 159:0 160:0 161:0 162:0 163:0 164:0 165:0 166:0 167:0 168:0 169:0 170:0 171:0 172:0 173:0 174:2.6184411 175:20.524382 176:0 177:1 178:0 179:0 180:0 181:0 182:0 183:0 184:0 185:0 186:0 187:1 188:0 189:0 190:0 191:0 192:0 193:0 194:0 195:0 196:0 197:0 198:0 199:0 200:0 201:1 202:0 203:0.63114297 204:4.9410548 205:0 206:1 207:0 208:0 209:0 210:0 211:0 212:0 213:0 214:0 215:0 216:1 217:0 218:0 219:0 220:0 221:0 222:0 223:0 224:0 #
-0.20000000000000001110223024625157 1:0 2:0 3:0 4:0 5:0 6:0 7:1 8:0 9:0 10:0 11:0 12:1 13:0 14:0 15:0 16:0 17:1 18:0 19:0 20:0 21:0 22:1 23:0 24:0 25:0 26:0 27:0 28:0 29:0 30:0 31:0 32:0 33:0 34:0 35:0 36:0 37:0 38:1 39:0 40:1 41:1 42:1 43:1 44:0.96817303 45:0.032873001 46:0 47:0 48:0 49:0 50:1 51:0 52:0 53:0 54:0 55:0 56:1 57:0 58:0.25274301 59:7.9356518 60:0 61:0 62:1 63:0 64:0 65:0 66:0 67:0 68:0 69:0 70:0 71:1 72:0 73:0 74:0 75:0 76:0 77:0 78:0 79:0 80:0 81:0 82:0 83:0 84:0 85:0 86:0 87:1.452348 88:45.630001 89:0 90:1 91:0 92:0 93:0 94:0 95:0 96:0 97:0 98:0 99:0 100:1 101:0 102:0 103:0 104:0 105:0 106:0 107:0 108:0 109:0 110:0 111:0 112:0 113:0 114:0 115:0 116:3.3888111 117:106.47 118:0 119:0 120:0 121:1 122:0 123:0 124:0 125:0 126:0 127:0 128:0 129:0 130:1 131:0 132:0 133:0 134:0 135:0 136:0 137:0 138:0 139:0 140:0 141:0 142:0 143:0 144:0 145:16.459442 146:517.14001 147:0 148:0 149:1 150:0 151:0 152:0 153:0 154:0 155:0 156:0 157:0 158:0 159:1 160:0 161:0 162:0 163:0 164:0 165:0 166:0 167:0 168:0 169:0 170:0 171:0 172:1 173:0 174:0.54913098 175:17.238001 176:0 177:0 178:0 179:1 180:0 181:0 182:0 183:0 184:0 185:0 186:0 187:1 188:0 189:0 190:0 191:0 192:0 193:0 194:0 195:0 196:0 197:0 198:0 199:0 200:0 201:1 202:0 203:0.33639601 204:10.553878 205:0 206:0 207:0 208:1 209:0 210:0 211:0 212:0 213:0 214:0 215:0 216:1 217:0 218:0 219:0 220:0 221:0 222:0 223:0 224:0 #
-0.015740959629681583464844152331352 1:0 2:0 3:0 4:0 5:0 6:0 7:0 8:1 9:0 10:0 11:0 12:0 13:1 14:0 15:0 16:0 17:0 18:1 19:0 20:0 21:0 22:0 23:1 24:0 25:0 26:0 27:0 28:0 29:0 30:1 31:1 32:0 33:0 34:0 35:0 36:1 37:1 38:0 39:0 40:0 41:0 42:1 43:1 44:0.80786997 45:0.23782299 46:0 47:0 48:0 49:0 50:1 51:0 52:0 53:0 54:0 55:0 56:1 57:0 58:0.80829501 59:4.204812 60:0 61:0 62:1 63:0 64:0 65:0 66:0 67:0 68:0 69:0 70:0 71:0 72:1 73:0 74:0 75:0 76:0 77:0 78:0 79:0 80:0 81:0 82:0 83:0 84:0 85:0 86:0 87:0 88:0 89:0 90:1 91:0 92:0 93:0 94:0 95:0 96:0 97:0 98:0 99:0 100:1 101:0 102:0 103:0 104:0 105:0 106:0 107:0 108:0 109:0 110:0 111:0 112:0 113:0 114:0 115:0 116:8.0790052 117:42.048122 118:0 119:0 120:0 121:1 122:0 123:0 124:0 125:0 126:0 127:0 128:0 129:0 130:0 131:1 132:0 133:0 134:0 135:0 136:0 137:0 138:0 139:0 140:0 141:0 142:0 143:0 144:0 145:0 146:0 147:0 148:1 149:0 150:0 151:0 152:0 153:0 154:0 155:0 156:0 157:0 158:1 159:0 160:0 161:0 162:0 163:0 164:0 165:0 166:0 167:0 168:0 169:0 170:0 171:0 172:1 173:0 174:0.449729 175:2.3360071 176:0 177:0 178:0 179:0 180:0 181:0 182:0 183:0 184:0 185:1 186:0 187:0 188:0 189:0 190:0 191:0 192:0 193:0 194:1 195:0 196:0 197:0 198:0 199:0 200:0 201:1 202:0 203:0.46065399 204:2.3923931 205:0 206:0 207:0 208:0 209:0 210:0 211:0 212:0 213:0 214:1 215:0 216:0 217:0 218:0 219:0 220:0 221:0 222:0 223:1 224:0 #
-0.13332966800419043806869012769312 1:0 2:0 3:0 4:0 5:0 6:0 7:0 8:0 9:0 10:0 11:0 12:0 13:0 14:1 15:0 16:0 17:0 18:0 19:1 20:0 21:0 22:0 23:0 24:1 25:0 26:1 27:0 28:0 29:0 30:0 31:0 32:0 33:0 34:0 35:0 36:0 37:0 38:0 39:0 40:1 41:0 42:0 43:0 44:0.88293701 45:0.13258301 46:0 47:0 48:0 49:0 50:1 51:0 52:0 53:0 54:0 55:0 56:1 57:1 58:0.066579998 59:0.56568301 60:0 61:0 62:0 63:0 64:0 65:0 66:0 67:1 68:0 69:0 70:0 71:0 72:0 73:0 74:0 75:0 76:1 77:0 78:0 79:0 80:0 81:0 82:0 83:0 84:0 85:0 86:0 87:1.412836 88:12.067908 89:0 90:0 91:0 92:0 93:0 94:0 95:1 96:0 97:0 98:0 99:0 100:0 101:1 102:0 103:0 104:0 105:0 106:0 107:0 108:0 109:0 110:0 111:0 112:0 113:0 114:0 115:0 116:3.179188 117:27.152794 118:0 119:0 120:0 121:0 122:1 123:0 124:0 125:0 126:0 127:0 128:0 129:1 130:0 131:0 132:0 133:0 134:0 135:0 136:0 137:0 138:0 139:0 140:0 141:0 142:0 143:0 144:0 145:0 146:0 147:0 148:1 149:0 150:0 151:0 152:0 153:0 154:0 155:0 156:0 157:0 158:1 159:0 160:0 161:0 162:0 163:0 164:0 165:0 166:0 167:0 168:0 169:0 170:0 171:0 172:0 173:0 174:10.816819 175:92.39492 176:0 177:0 178:0 179:0 180:0 181:1 182:0 183:0 184:0 185:0 186:0 187:0 188:0 189:0 190:0 191:1 192:0 193:0 194:0 195:0 196:0 197:0 198:0 199:0 200:0 201:0 202:0 203:11.03757 204:94.280533 205:0 206:0 207:0 208:0 209:0 210:1 211:0 212:0 213:0 214:0 215:0 216:0 217:0 218:0 219:0 220:1 221:0 222:0 223:0 224:0 #
0.032318693386423291702413962411811 1:0 2:1 3:0 4:0 5:0 6:0 7:1 8:0 9:0 10:0 11:0 12:1 13:0 14:0 15:0 16:0 17:1 18:0 19:0 20:0 21:0 22:1 23:0 24:0 25:0 26:0 27:0 28:0 29:0 30:0 31:0 32:0 33:0 34:0 35:0 36:0 37:0 38:0 39:0 40:0 41:0 42:0 43:0 44:0.93628502 45:0.068051003 46:0 47:0 48:0 49:0 50:1 51:0 52:0 53:0 54:0 55:0 56:1 57:1 58:0.061163001 59:0.95516801 60:0 61:0 62:0 63:0 64:0 65:0 66:0 67:0 68:0 69:1 70:0 71:0 72:0 73:0 74:0 75:0 76:0 77:0 78:1 79:0 80:0 81:0 82:0 83:0 84:0 85:1 86:0 87:0.78035402 88:12.245741 89:0 90:0 91:0 92:0 93:0 94:0 95:0 96:1 97:0 98:0 99:0 100:0 101:1 102:0 103:0 104:0 105:0 106:0 107:0 108:0 109:0 110:0 111:0 112:0 113:0 114:1 115:0 116:0.485807 117:7.6195722 118:0 119:0 120:0 121:0 122:0 123:0 124:0 125:0 126:0 127:1 128:0 129:1 130:0 131:0 132:0 133:0 134:0 135:0 136:0 137:0 138:0 139:0 140:0 141:0 142:0 143:1 144:0 145:0.56191099 146:8.8169327 147:0 148:0 149:0 150:0 151:0 152:0 153:0 154:0 155:0 156:1 157:0 158:0 159:0 160:1 161:0 162:0 163:0 164:0 165:0 166:0 167:0 168:0 169:0 170:0 171:0 172:1 173:0 174:0.18751299 175:2.938978 176:0 177:0 178:0 179:0 180:0 181:0 182:0 183:0 184:0 185:1 186:0 187:0 188:0 189:1 190:0 191:0 192:0 193:0 194:0 195:0 196:0 197:0 198:0 199:0 200:0 201:1 202:0 203:0.171909 204:2.6940629 205:0 206:0 207:0 208:0 209:0 210:0 211:0 212:0 213:0 214:1 215:0 216:1 217:0 218:0 219:0 220:0 221:0 222:0 223:0 224:0 #
-0.20000000000000001110223024625157 1:0 2:0 3:0 4:0 5:0 6:0 7:0 8:1 9:0 10:0 11:0 12:0 13:1 14:0 15:0 16:0 17:0 18:1 19:0 20:0 21:0 22:0 23:1 24:0 25:0 26:0 27:0 28:0 29:0 30:0 31:0 32:0 33:0 34:0 35:0 36:0 37:0 38:0 39:0 40:0 41:0 42:1 43:1 44:0.825104 45:0.211968 46:0 47:0 48:0 49:0 50:1 51:0 52:0 53:0 54:0 55:0 56:0 57:0 58:2.971329 59:16.9837 60:0 61:1 62:0 63:0 64:0 65:0 66:0 67:0 68:0 69:0 70:0 71:1 72:0 73:0 74:0 75:0 76:0 77:0 78:0 79:0 80:0 81:0 82:0 83:0 84:0 85:0 86:0 87:0 88:0 89:0 90:1 91:0 92:0 93:0 94:0 95:0 96:0 97:0 98:0 99:0 100:1 101:0 102:0 103:0 104:0 105:0 106:0 107:0 108:0 109:0 110:0 111:0 112:0 113:0 114:0 115:0 116:16.503145 117:94.353889 118:0 119:1 120:0 121:0 122:0 123:0 124:0 125:0 126:0 127:0 128:0 129:1 130:0 131:0 132:0 133:0 134:0 135:0 136:0 137:0 138:0 139:0 140:0 141:0 142:0 143:1 144:0 145:0.82515699 146:4.7176952 147:0 148:0 149:0 150:1 151:0 152:0 153:0 154:0 155:0 156:0 157:0 158:0 159:0 160:1 161:0 162:0 163:0 164:0 165:0 166:0 167:0 168:0 169:0 170:0 171:0 172:1 173:0 174:0.73385 175:4.1935058 176:0 177:0 178:1 179:0 180:0 181:0 182:0 183:0 184:0 185:0 186:0 187:1 188:0 189:0 190:0 191:0 192:0 193:0 194:0 195:0 196:0 197:0 198:0 199:0 200:0 201:1 202:0 203:0.66050798 204:3.7741561 205:0 206:0 207:1 208:0 209:0 210:0 211:0 212:0 213:0 214:0 215:0 216:1 217:0 218:0 219:0 220:0 221:0 222:0 223:0 224:0 #
0.20000000000000001110223024625157 1:0 2:1 3:0 4:0 5:0 6:0 7:1 8:0 9:0 10:0 11:0 12:1 13:0 14:0 15:0 16:0 17:1 18:0 19:0 20:0 21:0 22:1 23:0 24:0 25:0 26:0 27:0 28:0 29:0 30:0 31:0 32:0 33:0 34:0 35:0 36:0 37:0 38:0 39:0 40:0 41:0 42:0 43:0 44:0.83442098 45:0.19843601 46:0 47:0 48:0 49:0 50:1 51:0 52:0 53:0 54:0 55:0 56:1 57:0 58:0.455654 59:2.7487731 60:0 61:0 62:0 63:0 64:1 65:0 66:0 67:0 68:0 69:0 70:0 71:0 72:0 73:0 74:1 75:0 76:0 77:0 78:0 79:0 80:0 81:0 82:0 83:0 84:0 85:0 86:0 87:0 88:0 89:0 90:1 91:0 92:0 93:0 94:0 95:0 96:0 97:0 98:0 99:0 100:1 101:0 102:0 103:0 104:0 105:0 106:0 107:0 108:0 109:0 110:0 111:0 112:0 113:0 114:0 115:0 116:5.006784 117:30.2365 118:0 119:0 120:0 121:0 122:1 123:0 124:0 125:0 126:0 127:0 128:0 129:0 130:0 131:0 132:1 133:0 134:0 135:0 136:0 137:0 138:0 139:0 140:0 141:0 142:0 143:0 144:0 145:2.503392 146:15.11825 147:0 148:0 149:1 150:0 151:0 152:0 153:0 154:0 155:0 156:0 157:0 158:0 159:1 160:0 161:0 162:0 163:0 164:0 165:0 166:0 167:0 168:0 169:0 170:0 171:0 172:1 173:0 174:0.62723398 175:3.66503 176:0 177:0 178:0 179:0 180:1 181:0 182:0 183:0 184:0 185:0 186:0 187:1 188:0 189:0 190:0 191:0 192:0 193:0 194:0 195:0 196:0 197:0 198:0 199:0 200:0 201:1 202:0 203:0.81945598 204:4.8337259 205:0 206:0 207:0 208:0 209:1 210:0 211:0 212:0 213:0 214:0 215:0 216:1 217:0 218:0 219:0 220:0 221:0 222:0 223:0 224:0 #
-0.20000000000000001110223024625157 1:0 2:1 3:0 4:0 5:0 6:0 7:0 8:0 9:0 10:0 11:0 12:0 13:0 14:0 15:0 16:0 17:0 18:0 19:0 20:0 21:0 22:0 23:0 24:0 25:0 26:0 27:0 28:0 29:0 30:0 31:0 32:0 33:0 34:0 35:0 36:0 37:0 38:0 39:0 40:0 41:0 42:1 43:1 44:0.62588799 45:0.59772998 46:0 47:0 48:0 49:1 50:0 51:0 52:0 53:0 54:0 55:0 56:1 57:0 58:0.62621701 59:1.672996 60:0 61:0 62:0 63:0 64:0 65:0 66:1 67:0 68:0 69:0 70:0 71:0 72:0 73:0 74:0 75:1 76:0 77:0 78:0 79:0 80:0 81:0 82:0 83:0 84:0 85:0 86:0 87:0 88:0 89:0 90:1 91:0 92:0 93:0 94:0 95:0 96:0 97:0 98:0 99:0 100:1 101:0 102:0 103:0 104:0 105:0 106:0 107:0 108:0 109:0 110:0 111:0 112:0 113:0 114:0 115:0 116:6.2591138 117:16.729958 118:0 119:0 120:0 121:0 122:0 123:0 124:1 125:0 126:0 127:0 128:0 129:0 130:0 131:0 132:0 133:0 134:1 135:0 136:0 137:0 138:0 139:0 140:0 141:0 142:0 143:0 144:0 145:0 146:0 147:0 148:1 149:0 150:0 151:0 152:0 153:0 154:0 155:0 156:0 157:0 158:1 159:0 160:0 161:0 162:0 163:0 164:0 165:0 166:0 167:0 168:0 169:0 170:0 171:0 172:0 173:0 174:1.253095 175:3.3459921 176:0 177:0 178:0 179:0 180:0 181:0 182:0 183:1 184:0 185:0 186:0 187:0 188:0 189:0 190:0 191:1 192:0 193:0 194:0 195:0 196:0 197:0 198:0 199:0 200:0 201:0 202:0 203:1.212809 204:3.2380559 205:0 206:0 207:0 208:0 209:0 210:0 211:0 212:1 213:0 214:0 215:0 216:0 217:0 218:0 219:0 220:1 221:0 222:0 223:0 224:0 #
-0.14125561902005312475694154272787 1:0 2:0 3:0 4:0 5:0 6:0 7:0 8:0 9:0 10:0 11:0 12:0 13:0 14:0 15:0 16:0 17:0 18:0 19:0 20:0 21:0 22:0 23:0 24:1 25:0 26:0 27:0 28:0 29:0 30:0 31:0 32:0 33:0 34:0 35:0 36:0 37:0 38:0 39:0 40:0 41:0 42:0 43:0 44:0.87049103 45:0.14877699 46:0 47:0 48:0 49:0 50:1 51:0 52:0 53:0 54:0 55:0 56:1 57:0 58:0.80225903 59:6.1908469 60:0 61:0 62:0 63:0 64:0 65:1 66:0 67:0 68:0 69:0 70:0 71:0 72:1 73:0 74:0 75:0 76:0 77:0 78:0 79:0 80:0 81:0 82:0 83:0 84:0 85:0 86:0 87:0 88:0 89:0 90:1 91:0 92:0 93:0 94:0 95:0 96:0 97:0 98:0 99:0 100:1 101:0 102:0 103:0 104:0 105:0 106:0 107:0 108:0 109:0 110:0 111:0 112:0 113:0 114:0 115:0 116:1.46594 117:11.311777 118:0 119:0 120:0 121:0 122:0 123:0 124:0 125:0 126:0 127:0 128:0 129:0 130:1 131:0 132:0 133:0 134:0 135:0 136:0 137:0 138:0 139:0 140:0 141:0 142:0 143:0 144:0 145:20.021624 146:154.59428 147:0 148:0 149:0 150:0 151:0 152:0 153:1 154:0 155:0 156:0 157:0 158:0 159:0 160:0 161:0 162:0 163:1 164:0 165:0 166:0 167:0 168:0 169:0 170:0 171:0 172:0 173:0 174:3.6408811 175:28.108051 176:0 177:0 178:0 179:0 180:0 181:0 182:1 183:0 184:0 185:0 186:0 187:1 188:0 189:0 190:0 191:0 192:0 193:0 194:0 195:0 196:0 197:0 198:0 199:0 200:0 201:0 202:0 203:3.337528 204:25.765715 205:0 206:0 207:0 208:0 209:0 210:0 211:1 212:0 213:0 214:0 215:0 216:1 217:0 218:0 219:0 220:0 221:0 222:0 223:0 224:0 #
0.05688885080252781278886686777696 1:0 2:0 3:0 4:0 5:0 6:0 7:0 8:0 9:0 10:0 11:0 12:0 13:0 14:0 15:0 16:0 17:1 18:0 19:0 20:0 21:0 22:1 23:0 24:0 25:0 26:0 27:0 28:0 29:0 30:0 31:0 32:0 33:0 34:0 35:0 36:0 37:0 38:0 39:0 40:1 41:1 42:1 43:1 44:0.86994702 45:0.14949501 46:0 47:0 48:0 49:0 50:1 51:0 52:0 53:0 54:0 55:0 56:1 57:1 58:0.053714 59:0.403952 60:0 61:0 62:0 63:0 64:0 65:0 66:1 67:0 68:0 69:0 70:0 71:0 72:0 73:0 74:0 75:1 76:0 77:0 78:0 79:0 80:0 81:0 82:0 83:0 84:0 85:0 86:0 87:1.739972 88:13.378346 89:0 90:0 91:0 92:0 93:0 94:1 95:0 96:0 97:0 98:0 99:0 100:0 101:0 102:0 103:1 104:0 105:0 106:0 107:0 108:0 109:0 110:0 111:0 112:0 113:0 114:0 115:0 116:33.058727 117:254.18857 118:0 119:1 120:0 121:0 122:0 123:0 124:0 125:0 126:0 127:0 128:0 129:1 130:0 131:0 132:0 133:0 134:0 135:0 136:0 137:0 138:0 139:0 140:0 141:0 142:0 143:0 144:0 145:10.730069 146:82.499802 147:0 148:0 149:0 150:0 151:0 152:1 153:0 154:0 155:0 156:0 157:0 158:0 159:0 160:0 161:1 162:0 163:0 164:0 165:0 166:0 167:0 168:0 169:0 170:0 171:0 172:1 173:0 174:0.470229 175:3.6063371 176:0 177:0 178:0 179:0 180:0 181:0 182:1 183:0 184:0 185:0 186:0 187:0 188:1 189:0 190:0 191:0 192:0 193:0 194:0 195:0 196:0 197:0 198:0 199:0 200:0 201:1 202:0 203:0.45746201 204:3.5060489 205:0 206:0 207:0 208:0 209:0 210:0 211:1 212:0 213:0 214:0 215:0 216:0 217:1 218:0 219:0 220:0 221:0 222:0 223:0 224:0 #
0.20000000000000001110223024625157 1:0 2:1 3:0 4:0 5:0 6:0 7:1 8:0 9:0 10:0 11:0 12:1 13:0 14:0 15:0 16:0 17:0 18:0 19:1 20:0 21:0 22:0 23:0 24:1 25:0 26:1 27:0 28:1 29:0 30:0 31:0 32:0 33:0 34:0 35:0 36:0 37:0 38:0 39:0 40:0 41:0 42:1 43:1 44:0.88481498 45:0.13018 46:0 47:0 48:0 49:0 50:1 51:0 52:0 53:0 54:0 55:0 56:1 57:0 58:0.80734903 59:7.0038838 60:0 61:0 62:0 63:0 64:0 65:0 66:0 67:0 68:0 69:1 70:0 71:0 72:0 73:0 74:0 75:0 76:0 77:0 78:0 79:1 80:0 81:0 82:0 83:0 84:0 85:0 86:0 87:0 88:0 89:0 90:1 91:0 92:0 93:0 94:0 95:0 96:0 97:0 98:0 99:0 100:1 101:0 102:0 103:0 104:0 105:0 106:0 107:0 108:0 109:0 110:0 111:0 112:0 113:0 114:0 115:0 116:23.005695 117:199.72365 118:0 119:0 120:0 121:0 122:0 123:0 124:0 125:0 126:0 127:1 128:0 129:0 130:0 131:0 132:0 133:0 134:0 135:0 136:0 137:1 138:0 139:0 140:0 141:0 142:0 143:0 144:0 145:0 146:0 147:0 148:1 149:0 150:0 151:0 152:0 153:0 154:0 155:0 156:0 157:0 158:1 159:0 160:0 161:0 162:0 163:0 164:0 165:0 166:0 167:0 168:0 169:0 170:0 171:0 172:0 173:0 174:5.3095932 175:46.090073 176:0 177:0 178:0 179:0 180:0 181:0 182:0 183:0 184:0 185:1 186:0 187:0 188:0 189:0 190:0 191:0 192:0 193:0 194:0 195:1 196:0 197:0 198:0 199:0 200:0 201:1 202:0 203:0.63777101 204:5.5308089 205:0 206:0 207:0 208:0 209:0 210:0 211:0 212:0 213:0 214:1 215:0 216:0 217:0 218:0 219:0 220:0 221:0 222:0 223:0 224:1 #
-0.20000000000000001110223024625157 1:0 2:1 3:0 4:0 5:0 6:0 7:1 8:0 9:0 10:0 11:0 12:1 13:0 14:0 15:0 16:0 17:1 18:0 19:0 20:0 21:0 22:1 23:0 24:0 25:0 26:1 27:0 28:0 29:0 30:1 31:1 32:0 33:0 34:0 35:0 36:0 37:0 38:0 39:0 40:0 41:0 42:0 43:0 44:0.87888998 45:0.13779899 46:0 47:0 48:0 49:0 50:1 51:0 52:0 53:0 54:0 55:0 56:1 57:0 58:0.338456 59:2.791141 60:0 61:0 62:0 63:0 64:0 65:0 66:0 67:0 68:0 69:1 70:0 71:0 72:0 73:0 74:0 75:0 76:0 77:0 78:0 79:1 80:0 81:0 82:0 83:0 84:0 85:0 86:0 87:3.515729 88:29.02787 89:0 90:0 91:0 92:0 93:0 94:0 95:0 96:0 97:0 98:1 99:0 100:0 101:0 102:0 103:0 104:0 105:0 106:0 107:0 108:1 109:0 110:0 111:0 112:0 113:0 114:0 115:0 116:21.093868 117:174.16722 118:0 119:0 120:0 121:1 122:0 123:0 124:0 125:0 126:0 127:0 128:0 129:0 130:0 131:1 132:0 133:0 134:0 135:0 136:0 137:0 138:0 139:0 140:0 141:0 142:0 143:1 144:0 145:0.439466 146:3.628484 147:0 148:0 149:0 150:0 151:0 152:0 153:0 154:0 155:0 156:1 157:0 158:0 159:0 160:0 161:0 162:0 163:0 164:1 165:0 166:0 167:0 168:0 169:0 170:0 171:0 172:1 173:0 174:0.166906 175:1.3750041 176:0 177:0 178:0 179:0 180:0 181:0 182:0 183:0 184:0 185:1 186:0 187:0 188:0 189:0 190:0 191:0 192:0 193:0 194:0 195:0 196:0 197:0 198:0 199:0 200:0 201:1 202:0 203:0.130052 204:1.0707 205:0 206:0 207:0 208:0 209:0 210:0 211:0 212:0 213:0 214:1 215:0 216:0 217:0 218:0 219:0 220:0 221:0 222:0 223:0 224:1 #
0.14216295661712763376272050663829 1:0 2:1 3:0 4:0 5:0 6:0 7:0 8:0 9:1 10:0 11:0 12:0 13:0 14:1 15:0 16:0 17:0 18:0 19:1 20:0 21:0 22:0 23:0 24:0 25:1 26:1 27:0 28:0 29:0 30:0 31:0 32:1 33:0 34:0 35:0 36:0 37:0 38:1 39:0 40:1 41:0 42:0 43:0 44:0.945849 45:0.057252001 46:0 47:0 48:0 49:0 50:1 51:0 52:0 53:0 54:0 55:0 56:1 57:0 58:0.086046003 59:1.587889 60:0 61:0 62:0 63:0 64:0 65:0 66:0 67:0 68:0 69:0 70:0 71:0 72:0 73:0 74:0 75:0 76:1 77:0 78:0 79:0 80:0 81:0 82:0 83:0 84:0 85:0 86:0 87:0 88:0 89:0 90:1 91:0 92:0 93:0 94:0 95:0 96:0 97:0 98:0 99:0 100:1 101:0 102:0 103:0 104:0 105:0 106:0 107:0 108:0 109:0 110:0 111:0 112:0 113:0 114:0 115:0 116:1.513597 117:27.946854 118:0 119:1 120:0 121:0 122:0 123:0 124:0 125:0 126:0 127:0 128:0 129:1 130:0 131:0 132:0 133:0 134:0 135:0 136:0 137:0 138:0 139:0 140:0 141:0 142:0 143:1 144:0 145:0.47295401 146:8.7333918 147:0 148:0 149:0 150:0 151:1 152:0 153:0 154:0 155:0 156:0 157:0 158:0 159:0 160:0 161:1 162:0 163:0 164:0 165:0 166:0 167:0 168:0 169:0 170:0 171:0 172:1 173:0 174:0.13518099 175:2.495255 176:0 177:0 178:0 179:0 180:0 181:0 182:0 183:0 184:0 185:0 186:0 187:0 188:0 189:0 190:1 191:0 192:0 193:0 194:0 195:0 196:0 197:0 198:0 199:0 200:0 201:1 202:0 203:0.13518099 204:2.495255 205:0 206:0 207:0 208:0 209:0 210:0 211:0 212:0 213:0 214:0 215:0 216:0 217:0 218:0 219:1 220:0 221:0 222:0 223:0 224:0 #
-0.20000000000000001110223024625157 1:0 2:1 3:0 4:0 5:0 6:0 7:1 8:0 9:0 10:0 11:0 12:0 13:1 14:0 15:0 16:0 17:0 18:0 19:1 20:0 21:0 22:0 23:0 24:0 25:1 26:0 27:0 28:0 29:0 30:0 31:0 32:0 33:0 34:0 35:0 36:0 37:0 38:0 39:0 40:0 41:0 42:0 43:0 44:0.85949099 45:0.16348 46:0 47:0 48:0 49:0 50:1 51:0 52:0 53:0 54:0 55:0 56:1 57:0 58:0.791327 59:5.6276088 60:0 61:0 62:0 63:0 64:0 65:0 66:0 67:0 68:0 69:1 70:0 71:0 72:0 73:0 74:1 75:0 76:0 77:0 78:0 79:0 80:0 81:0 82:0 83:0 84:0 85:0 86:0 87:0 88:0 89:0 90:1 91:0 92:0 93:0 94:0 95:0 96:0 97:0 98:0 99:0 100:1 101:0 102:0 103:0 104:0 105:0 106:0 107:0 108:0 109:0 110:0 111:0 112:0 113:0 114:0 115:0 116:13.752265 117:97.871468 118:0 119:0 120:0 121:0 122:1 123:0 124:0 125:0 126:0 127:0 128:0 129:0 130:0 131:0 132:1 133:0 134:0 135:0 136:0 137:0 138:0 139:0 140:0 141:0 142:0 143:0 144:0 145:0 146:0 147:0 148:1 149:0 150:0 151:0 152:0 153:0 154:0 155:0 156:0 157:0 158:1 159:0 160:0 161:0 162:0 163:0 164:0 165:0 166:0 167:0 168:0 169:0 170:0 171:0 172:1 173:0 174:0.52227402 175:3.7138729 176:0 177:0 178:0 179:0 180:0 181:0 182:0 183:0 184:0 185:1 186:0 187:0 188:0 189:0 190:1 191:0 192:0 193:0 194:0 195:0 196:0 197:0 198:0 199:0 200:0 201:1 202:0 203:0.52727699 204:3.749109 205:0 206:0 207:0 208:0 209:0 210:0 211:0 212:0 213:0 214:1 215:0 216:0 217:0 218:0 219:1 220:0 221:0 222:0 223:0 224:0 #
0.041479376041749560499738436192274 1:0 2:1 3:0 4:0 5:0 6:0 7:1 8:0 9:0 10:0 11:0 12:1 13:0 14:0 15:0 16:0 17:1 18:0 19:0 20:0 21:0 22:1 23:0 24:0 25:0 26:1 27:0 28:0 29:0 30:1 31:1 32:0 33:0 34:0 35:0 36:1 37:1 38:0 39:0 40:0 41:1 42:1 43:1 44:0.78649902 45:0.271458 46:0 47:0 48:0 49:1 50:0 51:0 52:0 53:0 54:0 55:0 56:1 57:0 58:0.656156 59:3.0633841 60:0 61:1 62:0 63:0 64:0 65:0 66:0 67:0 68:0 69:0 70:0 71:1 72:0 73:0 74:0 75:0 76:0 77:0 78:0 79:0 80:0 81:0 82:0 83:0 84:0 85:1 86:0 87:0.393383 88:1.841908 89:0 90:1 91:0 92:0 93:0 94:0 95:0 96:0 97:0 98:0 99:0 100:1 101:0 102:0 103:0 104:0 105:0 106:0 107:0 108:0 109:0 110:0 111:0 112:0 113:0 114:0 115:0 116:7.8657908 117:36.838165 118:0 119:1 120:0 121:0 122:0 123:0 124:0 125:0 126:0 127:0 128:0 129:1 130:0 131:0 132:0 133:0 134:0 135:0 136:0 137:0 138:0 139:0 140:0 141:0 142:0 143:0 144:0 145:0 146:0 147:0 148:1 149:0 150:0 151:0 152:0 153:0 154:0 155:0 156:0 157:0 158:1 159:0 160:0 161:0 162:0 163:0 164:0 165:0 166:0 167:0 168:0 169:0 170:0 171:0 172:1 173:0 174:0.52529699 175:2.455878 176:0 177:1 178:0 179:0 180:0 181:0 182:0 183:0 184:0 185:0 186:0 187:1 188:0 189:0 190:0 191:0 192:0 193:0 194:0 195:0 196:0 197:0 198:0 199:0 200:0 201:1 202:0 203:0.465128 204:2.1740561 205:0 206:1 207:0 208:0 209:0 210:0 211:0 212:0 213:0 214:0 215:0 216:1 217:0 218:0 219:0 220:0 221:0 222:0 223:0 224:0 #
0.20000000000000001110223024625157 1:0 2:0 3:0 4:0 5:0 6:0 7:0 8:0 9:0 10:0 11:0 12:0 13:0 14:0 15:0 16:0 17:0 18:1 19:0 20:0 21:0 22:0 23:1 24:0 25:0 26:0 27:0 28:0 29:0 30:0 31:0 32:0 33:0 34:0 35:0 36:0 37:0 38:0 39:0 40:0 41:0 42:0 43:0 44:0.84399402 45:0.184843 46:0 47:0 48:0 49:0 50:1 51:0 52:0 53:0 54:0 55:0 56:1 57:0 58:0.690732 59:4.4263601 60:0 61:0 62:0 63:0 64:1 65:0 66:0 67:0 68:0 69:0 70:0 71:1 72:0 73:0 74:0 75:0 76:0 77:0 78:0 79:0 80:0 81:0 82:0 83:0 84:0 85:0 86:0 87:5.9081049 88:37.869965 89:0 90:0 91:0 92:0 93:0 94:0 95:0 96:0 97:0 98:0 99:0 100:0 101:0 102:0 103:0 104:0 105:0 106:0 107:0 108:0 109:0 110:0 111:0 112:0 113:0 114:0 115:0 116:17.724314 117:113.6099 118:0 119:1 120:0 121:0 122:0 123:0 124:0 125:0 126:0 127:0 128:0 129:1 130:0 131:0 132:0 133:0 134:0 135:0 136:0 137:0 138:0 139:0 140:0 141:0 142:0 143:0 144:0 145:0 146:0 147:0 148:1 149:0 150:0 151:0 152:0 153:0 154:0 155:0 156:0 157:0 158:1 159:0 160:0 161:0 162:0 163:0 164:0 165:0 166:0 167:0 168:0 169:0 170:0 171:0 172:1 173:0 174:0.42233801 175:2.704998 176:0 177:0 178:0 179:0 180:0 181:0 182:0 183:0 184:0 185:0 186:0 187:1 188:0 189:0 190:0 191:0 192:0 193:0 194:0 195:0 196:0 197:0 198:0 199:0 200:0 201:1 202:0 203:0.38991901 204:2.4969211 205:0 206:0 207:0 208:0 209:0 210:0 211:0 212:0 213:0 214:0 215:0 216:0 217:1 218:0 219:0 220:0 221:0 222:0 223:0 224:0 #
-0.061049907047955542793715721927583 1:0 2:0 3:0 4:0 5:0 6:0 7:0 8:0 9:1 10:0 11:0 12:0 13:0 14:1 15:0 16:0 17:0 18:0 19:1 20:0 21:0 22:0 23:0 24:1 25:0 26:0 27:0 28:0 29:0 30:0 31:0 32:0 33:0 34:0 35:0 36:0 37:0 38:0 39:0 40:0 41:0 42:0 43:0 44:0.89882803 45:0.11256 46:0 47:0 48:0 49:0 50:1 51:0 52:0 53:0 54:0 55:0 56:1 57:0 58:0.65398699 59:6.4612222 60:0 61:0 62:1 63:0 64:0 65:0 66:0 67:0 68:0 69:0 70:0 71:0 72:0 73:1 74:0 75:0 76:0 77:0 78:0 79:0 80:0 81:0 82:0 83:0 84:0 85:0 86:0 87:0 88:0 89:0 90:1 91:0 92:0 93:0 94:0 95:0 96:0 97:0 98:0 99:0 100:1 101:0 102:0 103:0 104:0 105:0 106:0 107:0 108:0 109:0 110:0 111:0 112:0 113:0 114:0 115:0 116:0 117:0 118:0 119:1 120:0 121:0 122:0 123:0 124:0 125:0 126:0 127:0 128:0 129:1 130:0 131:0 132:0 133:0 134:0 135:0 136:0 137:0 138:0 139:0 140:0 141:0 142:0 143:0 144:0 145:2.6967051 146:26.652542 147:0 148:0 149:0 150:0 151:0 152:0 153:0 154:0 155:0 156:1 157:0 158:0 159:0 160:0 161:0 162:0 163:0 164:0 165:0 166:0 167:0 168:0 169:0 170:0 171:0 172:1 173:0 174:0.53951699 175:5.3305082 176:0 177:0 178:0 179:0 180:0 181:0 182:0 183:0 184:0 185:1 186:0 187:0 188:0 189:1 190:0 191:0 192:0 193:0 194:0 195:0 196:0 197:0 198:0 199:0 200:0 201:1 202:0 203:0.49048999 204:4.8459172 205:0 206:0 207:0 208:0 209:0 210:0 211:0 212:0 213:0 214:1 215:0 216:0 217:0 218:1 219:0 220:0 221:0 222:0 223:0 224:0 #
0.20000000000000001110223024625157 1:0 2:1 3:0 4:0 5:0 6:0 7:0 8:1 9:0 10:0 11:0 12:0 13:1 14:0 15:0 16:0 17:0 18:1 19:0 20:0 21:0 22:0 23:1 24:0 25:0 26:0 27:0 28:0 29:0 30:0 31:0 32:0 33:0 34:0 35:0 36:0 37:0 38:0 39:0 40:0 41:0 42:0 43:0 44:0.859671 45:0.16323499 46:0 47:0 48:0 49:0 50:1 51:0 52:0 53:0 54:0 55:0 56:0 57:0 58:1.4671381 59:10.450439 60:0 61:0 62:0 63:0 64:0 65:1 66:0 67:0 68:0 69:0 70:0 71:0 72:1 73:0 74:0 75:0 76:0 77:0 78:0 79:0 80:0 81:0 82:0 83:0 84:0 85:0 86:0 87:0 88:0 89:0 90:1 91:0 92:0 93:0 94:0 95:0 96:0 97:0 98:0 99:0 100:1 101:0 102:0 103:0 104:0 105:0 106:0 107:0 108:0 109:0 110:0 111:0 112:0 113:0 114:0 115:0 116:2.3885269 117:17.016998 118:0 119:0 120:0 121:0 122:0 123:1 124:0 125:0 126:0 127:0 128:0 129:1 130:0 131:0 132:0 133:0 134:0 135:0 136:0 137:0 138:0 139:0 140:0 141:0 142:0 143:0 144:0 145:0 146:0 147:0 148:1 149:0 150:0 151:0 152:0 153:0 154:0 155:0 156:0 157:0 158:1 159:0 160:0 161:0 162:0 163:0 164:0 165:0 166:0 167:0 168:0 169:0 170:0 171:0 172:0 173:0 174:1.236285 175:8.8062973 176:0 177:0 178:0 179:0 180:1 181:0 182:0 183:0 184:0 185:0 186:0 187:0 188:1 189:0 190:0 191:0 192:0 193:0 194:0 195:0 196:0 197:0 198:0 199:0 200:0 201:0 202:0 203:1.098976 204:7.8278189 205:0 206:0 207:0 208:0 209:1 210:0 211:0 212:0 213:0 214:0 215:0 216:0 217:1 218:0 219:0 220:0 221:0 222:0 223:0 224:0 #
-0.086047623706678066923814185429364 1:0 2:1 3:0 4:0 5:0 6:0 7:0 8:0 9:1 10:0 11:0 12:0 13:0 14:1 15:0 16:0 17:0 18:0 19:1 20:0 21:0 22:0 23:0 24:1 25:0 26:1 27:0 28:0 29:0 30:0 31:0 32:0 33:0 34:0 35:0 36:0 37:0 38:0 39:0 40:0 41:0 42:0 43:0 44:0.90339702 45:0.106933 46:0 47:0 48:0 49:0 50:1 51:0 52:0 53:0 54:0 55:0 56:1 57:1 58:0.033112999 59:0.34161299 60:0 61:0 62:0 63:0 64:0 65:0 66:0 67:0 68:0 69:1 70:0 71:0 72:0 73:0 74:0 75:0 76:0 77:0 78:0 79:1 80:0 81:0 82:0 83:0 84:0 85:1 86:0 87:0.25814101 88:2.6719029 89:0 90:0 91:0 92:0 93:0 94:0 95:0 96:0 97:0 98:1 99:0 100:0 101:0 102:0 103:0 104:0 105:0 106:0 107:0 108:1 109:0 110:0 111:0 112:0 113:0 114:1 115:0 116:0.28238201 117:2.9223931 118:0 119:0 120:0 121:0 122:0 123:0 124:0 125:0 126:0 127:1 128:0 129:0 130:0 131:0 132:0 133:0 134:0 135:0 136:0 137:1 138:0 139:0 140:0 141:0 142:0 143:1 144:0 145:0.67759001 146:7.0137439 147:0 148:0 149:0 150:0 151:1 152:0 153:0 154:0 155:0 156:0 157:0 158:0 159:0 160:0 161:1 162:0 163:0 164:0 165:0 166:0 167:0 168:0 169:0 170:0 171:0 172:1 173:0 174:0.12770601 175:1.3202339 176:0 177:0 178:0 179:0 180:0 181:0 182:0 183:0 184:0 185:1 186:0 187:0 188:0 189:1 190:0 191:0 192:0 193:0 194:0 195:0 196:0 197:0 198:0 199:0 200:0 201:1 202:0 203:0.116735 204:1.206666 205:0 206:0 207:0 208:0 209:0 210:0 211:0 212:0 213:0 214:1 215:0 216:0 217:0 218:0 219:1 220:0 221:0 222:0 223:0 224:0 #
-0.20000000000000001110223024625157 1:0 2:1 3:0 4:0 5:0 6:0 7:1 8:0 9:0 10:0 11:0 12:1 13:0 14:0 15:0 16:0 17:1 18:0 19:0 20:0 21:0 22:1 23:0 24:0 25:0 26:0 27:0 28:0 29:0 30:0 31:0 32:0 33:0 34:0 35:0 36:0 37:0 38:0 39:0 40:0 41:1 42:1 43:1 44:0.92045802 45:0.086415999 46:0 47:0 48:0 49:0 50:1 51:0 52:0 53:0 54:0 55:0 56:1 57:0 58:0.198302 59:2.487422 60:0 61:0 62:0 63:0 64:0 65:0 66:0 67:0 68:0 69:1 70:0 71:0 72:0 73:0 74:0 75:0 76:0 77:0 78:1 79:0 80:0 81:0 82:0 83:0 84:0 85:0 86:0 87:2.3012409 88:28.929798 89:0 90:0 91:0 92:0 93:0 94:0 95:1 96:0 97:0 98:0 99:0 100:0 101:0 102:0 103:0 104:1 105:0 106:0 107:0 108:0 109:0 110:0 111:0 112:0 113:0 114:0 115:0 116:18.40954 117:231.43839 118:0 119:0 120:1 121:0 122:0 123:0 124:0 125:0 126:0 127:0 128:0 129:0 130:1 131:0 132:0 133:0 134:0 135:0 136:0 137:0 138:0 139:0 140:0 141:0 142:0 143:0 144:0 145:4.44944 146:55.930946 147:0 148:0 149:0 150:0 151:0 152:0 153:0 154:1 155:0 156:0 157:0 158:0 159:0 160:0 161:0 162:1 163:0 164:0 165:0 166:0 167:0 168:0 169:0 170:0 171:0 172:1 173:0 174:0.54607701 175:6.8574338 176:0 177:0 178:0 179:0 180:0 181:0 182:0 183:0 184:0 185:1 186:0 187:0 188:0 189:0 190:1 191:0 192:0 193:0 194:0 195:0 196:0 197:0 198:0 199:0 200:0 201:1 202:0 203:0.46086901 204:5.7859602 205:0 206:0 207:0 208:0 209:0 210:0 211:0 212:0 213:0 214:1 215:0 216:0 217:0 218:0 219:1 220:0 221:0 222:0 223:0 224:0 #
0.0046678784839855325117241591215134 1:0 2:1 3:0 4:0 5:0 6:0 7:1 8:0 9:0 10:0 11:0 12:1 13:0 14:0 15:0 16:0 17:1 18:0 19:0 20:0 21:0 22:1 23:0 24:0 25:0 26:0 27:0 28:0 29:0 30:0 31:0 32:0 33:0 34:0 35:0 36:0 37:0 38:0 39:0 40:0 41:0 42:1 43:1 44:0.82304198 45:0.215005 46:0 47:0 48:0 49:0 50:1 51:0 52:0 53:0 54:0 55:0 56:1 57:0 58:0.70119101 59:3.9533911 60:0 61:0 62:0 63:0 64:0 65:0 66:0 67:0 68:1 69:0 70:0 71:0 72:0 73:0 74:1 75:0 76:0 77:0 78:0 79:0 80:0 81:0 82:0 83:0 84:0 85:0 86:0 87:4.9384761 88:27.90629 89:0 90:1 91:0 92:0 93:0 94:0 95:0 96:0 97:0 98:0 99:0 100:1 101:0 102:0 103:0 104:0 105:0 106:0 107:0 108:0 109:0 110:0 111:0 112:0 113:0 114:1 115:0 116:0.858989 117:4.8489652 118:0 119:0 120:0 121:0 122:0 123:0 124:0 125:1 126:0 127:0 128:0 129:0 130:0 131:0 132:0 133:0 134:0 135:1 136:0 137:0 138:0 139:0 140:0 141:0 142:0 143:0 144:0 145:1.6461591 146:9.3020973 147:0 148:0 149:0 150:0 151:0 152:0 153:0 154:0 155:1 156:0 157:0 158:0 159:0 160:0 161:0 162:1 163:0 164:0 165:0 166:0 167:0 168:0 169:0 170:0 171:0 172:1 173:0 174:0.388699 175:2.193891 176:0 177:0 178:0 179:0 180:0 181:1 182:0 183:0 184:0 185:0 186:0 187:0 188:0 189:1 190:0 191:0 192:0 193:0 194:0 195:0 196:0 197:0 198:0 199:0 200:0 201:1 202:0 203:0.34921801 204:1.970783 205:0 206:0 207:0 208:0 209:0 210:1 211:0 212:0 213:0 214:0 215:0 216:0 217:0 218:1 219:0 220:0 221:0 222:0 223:0 224:0 #
0.20000000000000001110223024625157 1:0 2:0 3:0 4:0 5:0 6:0 7:1 8:0 9:0 10:0 11:0 12:1 13:0 14:0 15:0 16:0 17:0 18:1 19:0 20:0 21:0 22:0 23:1 24:0 25:0 26:0 27:0 28:0 29:0 30:0 31:0 32:0 33:0 34:0 35:0 36:0 37:0 38:0 39:0 40:0 41:0 42:1 43:1 44:0.89453602 45:0.117897 46:0 47:0 48:0 49:0 50:1 51:0 52:0 53:0 54:0 55:0 56:1 57:1 58:0.042768002 59:0.40390199 60:0 61:0 62:1 63:0 64:0 65:0 66:0 67:0 68:0 69:0 70:0 71:0 72:1 73:0 74:0 75:0 76:0 77:0 78:0 79:0 80:0 81:0 82:0 83:0 84:0 85:1 86:0 87:0.44743899 88:4.2409749 89:0 90:0 91:1 92:0 93:0 94:0 95:0 96:0 97:0 98:0 99:0 100:0 101:1 102:0 103:0 104:0 105:0 106:0 107:0 108:0 109:0 110:0 111:0 112:0 113:0 114:0 115:0 116:3.5788269 117:33.927799 118:0 119:1 120:0 121:0 122:0 123:0 124:0 125:0 126:0 127:0 128:0 129:1 130:0 131:0 132:0 133:0 134:0 135:0 136:0 137:0 138:0 139:0 140:0 141:0 142:0 143:0 144:0 145:0 146:0 147:0 148:1 149:0 150:0 151:0 152:0 153:0 154:0 155:0 156:0 157:0 158:1 159:0 160:0 161:0 162:0 163:0 164:0 165:0 166:0 167:0 168:0 169:0 170:0 171:0 172:0 173:0 174:0 175:0 176:0 177:1 178:0 179:0 180:0 181:0 182:0 183:0 184:0 185:0 186:0 187:1 188:0 189:0 190:0 191:0 192:0 193:0 194:0 195:0 196:0 197:0 198:0 199:0 200:0 201:0 202:0 203:0 204:0 205:0 206:1 207:0 208:0 209:0 210:0 211:0 212:0 213:0 214:0 215:0 216:1 217:0 218:0 219:0 220:0 221:0 222:0 223:0 224:0 #
0.20000000000000001110223024625157 1:0 2:1 3:0 4:0 5:0 6:0 7:0 8:1 9:0 10:0 11:0 12:0 13:1 14:0 15:0 16:0 17:0 18:1 19:0 20:0 21:0 22:0 23:0 24:0 25:1 26:1 27:0 28:0 29:0 30:0 31:0 32:1 33:0 34:0 35:0 36:0 37:0 38:0 39:0 40:0 41:0 42:1 43:1 44:0.872567 45:0.146044 46:0 47:0 48:0 49:0 50:1 51:0 52:0 53:0 54:0 55:0 56:1 57:0 58:0.27446699 59:2.1519921 60:0 61:0 62:0 63:0 64:0 65:0 66:0 67:0 68:0 69:1 70:0 71:0 72:0 73:0 74:0 75:0 76:0 77:0 78:0 79:1 80:0 81:0 82:0 83:0 84:0 85:0 86:0 87:0 88:0 89:0 90:1 91:0 92:0 93:0 94:0 95:0 96:0 97:0 98:0 99:0 100:1 101:0 102:0 103:0 104:0 105:0 106:0 107:0 108:0 109:0 110:0 111:0 112:0 113:0 114:0 115:0 116:10.471054 117:82.166954 118:0 119:0 120:0 121:0 122:0 123:1 124:0 125:0 126:0 127:0 128:0 129:0 130:0 131:0 132:0 133:1 134:0 135:0 136:0 137:0 138:0 139:0 140:0 141:0 142:0 143:0 144:0 145:1.745176 146:13.694492 147:0 148:0 149:0 150:0 151:0 152:0 153:0 154:0 155:0 156:1 157:0 158:0 159:0 160:0 161:0 162:0 163:0 164:0 165:0 166:1 167:0 168:0 169:0 170:0 171:0 172:1 173:0 174:0.93520898 175:7.3363352 176:0 177:0 178:0 179:0 180:0 181:0 182:0 183:0 184:0 185:1 186:0 187:0 188:1 189:0 190:0 191:0 192:0 193:0 194:0 195:0 196:0 197:0 198:0 199:0 200:0 201:1 202:0 203:0.69839001 204:5.477797 205:0 206:0 207:0 208:0 209:0 210:0 211:0 212:0 213:0 214:1 215:0 216:0 217:1 218:0 219:0 220:0 221:0 222:0 223:0 224:0 #
-0.081592204246137334244792782556033 1:0 2:0 3:0 4:0 5:0 6:0 7:0 8:1 9:0 10:0 11:0 12:0 13:0 14:1 15:0 16:0 17:0 18:0 19:0 20:1 21:0 22:0 23:0 24:0 25:0 26:1 27:0 28:0 29:0 30:0 31:0 32:1 33:0 34:0 35:0 36:0 37:0 38:0 39:0 40:0 41:0 42:0 43:0 44:0.833363 45:0.199957 46:0 47:0 48:0 49:0 50:1 51:0 52:0 53:0 54:0 55:0 56:1 57:0 58:0.767272 59:4.600997 60:0 61:0 62:0 63:0 64:0 65:0 66:0 67:0 68:0 69:1 70:0 71:0 72:0 73:0 74:0 75:0 76:0 77:0 78:0 79:0 80:0 81:0 82:0 83:0 84:0 85:0 86:0 87:0 88:0 89:0 90:1 91:0 92:0 93:0 94:0 95:0 96:0 97:0 98:0 99:0 100:1 101:0 102:0 103:0 104:0 105:0 106:0 107:0 108:0 109:0 110:0 111:0 112:0 113:0 114:0 115:0 116:13.334216 117:80.017342 118:0 119:0 120:0 121:0 122:0 123:1 124:0 125:0 126:0 127:0 128:0 129:0 130:0 131:0 132:0 133:1 134:0 135:0 136:0 137:0 138:0 139:0 140:0 141:0 142:0 143:0 144:0 145:0 146:0 147:0 148:1 149:0 150:0 151:0 152:0 153:0 154:0 155:0 156:0 157:0 158:1 159:0 160:0 161:0 162:0 163:0 164:0 165:0 166:0 167:0 168:0 169:0 170:0 171:0 172:1 173:0 174:0.50639701 175:3.0363719 176:0 177:0 178:0 179:0 180:0 181:0 182:0 183:0 184:0 185:1 186:0 187:0 188:0 189:0 190:0 191:1 192:0 193:0 194:0 195:0 196:0 197:0 198:0 199:0 200:0 201:1 202:0 203:0.51124799 204:3.0651801 205:0 206:0 207:0 208:0 209:0 210:0 211:0 212:0 213:0 214:1 215:0 216:0 217:0 218:0 219:0 220:0 221:0 222:1 223:0 224:0 #
0.080013037909822060100850649178028 1:0 2:1 3:0 4:0 5:0 6:0 7:1 8:0 9:0 10:0 11:0 12:1 13:0 14:0 15:0 16:0 17:1 18:0 19:0 20:0 21:0 22:1 23:0 24:0 25:0 26:0 27:0 28:0 29:0 30:0 31:0 32:0 33:0 34:0 35:0 36:0 37:0 38:0 39:0 40:0 41:0 42:1 43:1 44:0.87808502 45:0.138841 46:0 47:0 48:0 49:0 50:1 51:0 52:0 53:0 54:0 55:0 56:1 57:0 58:0.84217 59:6.8959751 60:0 61:0 62:0 63:1 64:0 65:0 66:0 67:0 68:0 69:0 70:0 71:0 72:1 73:0 74:0 75:0 76:0 77:0 78:0 79:0 80:0 81:0 82:0 83:0 84:0 85:0 86:0 87:0 88:0 89:0 90:1 91:0 92:0 93:0 94:0 95:0 96:0 97:0 98:0 99:0 100:1 101:0 102:0 103:0 104:0 105:0 106:0 107:0 108:0 109:0 110:0 111:0 112:0 113:0 114:0 115:0 116:6.1468229 117:50.41724 118:0 119:0 120:1 121:0 122:0 123:0 124:0 125:0 126:0 127:0 128:0 129:0 130:1 131:0 132:0 133:0 134:0 135:0 136:0 137:0 138:0 139:0 140:0 141:0 142:0 143:0 144:0 145:1.756235 146:14.404926 147:0 148:0 149:1 150:0 151:0 152:0 153:0 154:0 155:0 156:0 157:0 158:0 159:1 160:0 161:0 162:0 163:0 164:0 165:0 166:0 167:0 168:0 169:0 170:0 171:0 172:1 173:0 174:0.242746 175:1.986886 176:0 177:0 178:0 179:0 180:0 181:1 182:0 183:0 184:0 185:0 186:0 187:0 188:1 189:0 190:0 191:0 192:0 193:0 194:0 195:0 196:0 197:0 198:0 199:0 200:0 201:1 202:0 203:0.185376 204:1.516308 205:0 206:0 207:0 208:0 209:0 210:1 211:0 212:0 213:0 214:0 215:0 216:0 217:1 218:0 219:0 220:0 221:0 222:0 223:0 224:0 #
-0.20000000000000001110223024625157 1:0 2:1 3:0 4:0 5:0 6:0 7:1 8:0 9:0 10:0 11:0 12:1 13:0 14:0 15:0 16:0 17:1 18:0 19:0 20:0 21:0 22:1 23:0 24:0 25:0 26:0 27:0 28:1 29:0 30:0 31:0 32:0 33:0 34:1 35:0 36:0 37:0 38:0 39:0 40:0 41:0 42:1 43:1 44:0.98647797 45:0.013707 46:0 47:0 48:0 49:0 50:1 51:0 52:0 53:0 54:0 55:0 56:1 57:0 58:0.106736 59:7.886961 60:0 61:0 62:0 63:0 64:0 65:0 66:0 67:0 68:0 69:0 70:0 71:1 72:0 73:0 74:0 75:0 76:0 77:0 78:0 79:0 80:0 81:0 82:0 83:0 84:0 85:1 86:1 87:0 88:0 89:0 90:1 91:0 92:0 93:0 94:0 95:0 96:0 97:0 98:0 99:0 100:1 101:0 102:0 103:0 104:0 105:0 106:0 107:0 108:0 109:0 110:0 111:0 112:0 113:0 114:1 115:0 116:0.15185601 117:11.223753 118:0 119:0 120:0 121:0 122:0 123:0 124:0 125:0 126:0 127:0 128:0 129:0 130:0 131:0 132:0 133:0 134:0 135:0 136:0 137:0 138:0 139:0 140:0 141:0 142:0 143:1 144:1 145:0 146:0 147:0 148:1 149:0 150:0 151:0 152:0 153:0 154:0 155:0 156:0 157:0 158:1 159:0 160:0 161:0 162:0 163:0 164:0 165:0 166:0 167:0 168:0 169:0 170:0 171:0 172:1 173:1 174:0.011493 175:0.84830701 176:0 177:0 178:0 179:0 180:0 181:0 182:0 183:0 184:0 185:0 186:0 187:0 188:0 189:0 190:0 191:0 192:0 193:1 194:0 195:0 196:0 197:0 198:0 199:0 200:0 201:1 202:1 203:0.008312 204:0.61306202 205:0 206:0 207:0 208:0 209:0 210:0 211:0 212:0 213:0 214:0 215:0 216:0 217:0 218:0 219:0 220:0 221:0 222:0 223:0 224:0 #
0.038337040130500099621713161468506 1:0 2:1 3:0 4:0 5:0 6:0 7:0 8:1 9:0 10:0 11:0 12:0 13:1 14:0 15:0 16:0 17:0 18:1 19:0 20:0 21:0 22:0 23:1 24:0 25:0 26:0 27:0 28:0 29:0 30:1 31:1 32:0 33:0 34:0 35:0 36:1 37:1 38:1 39:0 40:0 41:0 42:0 43:0 44:0.90047097 45:0.11053 46:0 47:0 48:0 49:0 50:1 51:0 52:0 53:0 54:0 55:0 56:0 57:0 58:1.118825 59:11.231161 60:0 61:0 62:0 63:0 64:0 65:0 66:0 67:0 68:1 69:0 70:0 71:1 72:0 73:0 74:0 75:0 76:0 77:0 78:0 79:0 80:0 81:0 82:0 83:0 84:0 85:0 86:0 87:0 88:0 89:0 90:1 91:0 92:0 93:0 94:0 95:0 96:0 97:0 98:0 99:0 100:1 101:0 102:0 103:0 104:0 105:0 106:0 107:0 108:0 109:0 110:0 111:0 112:0 113:0 114:0 115:0 116:26.114464 117:262.37241 118:0 119:0 120:0 121:0 122:1 123:0 124:0 125:0 126:0 127:0 128:0 129:0 130:0 131:0 132:1 133:0 134:0 135:0 136:0 137:0 138:0 139:0 140:0 141:0 142:0 143:0 144:0 145:1.35079 146:13.570987 147:0 148:0 149:0 150:0 151:0 152:0 153:0 154:0 155:0 156:1 157:0 158:0 159:0 160:0 161:0 162:0 163:0 164:0 165:1 166:0 167:0 168:0 169:0 170:0 171:0 172:1 173:0 174:0.675686 175:6.7854929 176:0 177:0 178:0 179:0 180:0 181:0 182:0 183:0 184:0 185:1 186:0 187:1 188:0 189:0 190:0 191:0 192:0 193:0 194:0 195:0 196:0 197:0 198:0 199:0 200:0 201:1 202:0 203:0.40054199 204:4.0210328 205:0 206:0 207:0 208:0 209:0 210:0 211:0 212:0 213:0 214:1 215:0 216:0 217:0 218:0 219:0 220:0 221:0 222:1 223:0 224:0 #
-0.20000000000000001110223024625157 1:0 2:0 3:0 4:0 5:0 6:0 7:0 8:0 9:0 10:0 11:0 12:0 13:0 14:0 15:0 16:0 17:0 18:1 19:0 20:0 21:0 22:0 23:1 24:0 25:0 26:0 27:0 28:0 29:0 30:0 31:0 32:0 33:0 34:0 35:0 36:0 37:0 38:0 39:0 40:0 41:0 42:1 43:1 44:0.842704 45:0.186656 46:0 47:0 48:0 49:0 50:1 51:0 52:0 53:0 54:0 55:0 56:1 57:0 58:0.68680602 59:4.3607092 60:0 61:0 62:0 63:0 64:0 65:1 66:0 67:0 68:0 69:0 70:0 71:0 72:1 73:0 74:0 75:0 76:0 77:0 78:0 79:0 80:0 81:0 82:0 83:0 84:0 85:0 86:0 87:8.4272928 88:53.574417 89:0 90:0 91:1 92:0 93:0 94:0 95:0 96:0 97:0 98:0 99:0 100:0 101:1 102:0 103:0 104:0 105:0 106:0 107:0 108:0 109:0 110:0 111:0 112:0 113:0 114:0 115:0 116:11.377186 117:72.325462 118:0 119:0 120:1 121:0 122:0 123:0 124:0 125:0 126:0 127:0 128:0 129:0 130:1 131:0 132:0 133:0 134:0 135:0 136:0 137:0 138:0 139:0 140:0 141:0 142:0 143:0 144:0 145:0 146:0 147:0 148:1 149:0 150:0 151:0 152:0 153:0 154:0 155:0 156:0 157:0 158:1 159:0 160:0 161:0 162:0 163:0 164:0 165:0 166:0 167:0 168:0 169:0 170:0 171:0 172:1 173:0 174:0.61525899 175:3.9032791 176:0 177:0 178:0 179:0 180:1 181:0 182:0 183:0 184:0 185:0 186:0 187:0 188:0 189:0 190:1 191:0 192:0 193:0 194:0 195:0 196:0 197:0 198:0 199:0 200:0 201:1 202:0 203:0.45368901 204:2.8761001 205:0 206:0 207:0 208:0 209:1 210:0 211:0 212:0 213:0 214:0 215:0 216:0 217:0 218:0 219:1 220:0 221:0 222:0 223:0 224:0 #
0.069221438788275690967566333711147 1:0 2:1 3:0 4:0 5:0 6:0 7:1 8:0 9:0 10:0 11:0 12:1 13:0 14:0 15:0 16:0 17:1 18:0 19:0 20:0 21:0 22:1 23:0 24:0 25:0 26:0 27:0 28:0 29:0 30:0 31:0 32:0 33:0 34:0 35:0 36:0 37:0 38:0 39:0 40:1 41:0 42:0 43:0 44:0.88119799 45:0.134818 46:0 47:0 48:0 49:0 50:1 51:0 52:0 53:0 54:0 55:0 56:0 57:0 58:2.3853321 59:20.070593 60:0 61:0 62:0 63:0 64:0 65:1 66:0 67:0 68:0 69:0 70:0 71:0 72:1 73:0 74:0 75:0 76:0 77:0 78:0 79:0 80:0 81:0 82:0 83:0 84:0 85:1 86:0 87:0.88121802 88:7.4173932 89:0 90:0 91:1 92:0 93:0 94:0 95:0 96:0 97:0 98:0 99:0 100:0 101:1 102:0 103:0 104:0 105:0 106:0 107:0 108:0 109:0 110:0 111:0 112:0 113:0 114:0 115:0 116:32.605076 117:274.44354 118:0 119:0 120:1 121:0 122:0 123:0 124:0 125:0 126:0 127:0 128:0 129:0 130:1 131:0 132:0 133:0 134:0 135:0 136:0 137:0 138:0 139:0 140:0 141:0 142:0 143:0 144:0 145:26.436546 146:222.52179 147:0 148:0 149:0 150:0 151:1 152:0 153:0 154:0 155:0 156:0 157:0 158:0 159:0 160:0 161:1 162:0 163:0 164:0 165:0 166:0 167:0 168:0 169:0 170:0 171:0 172:1 173:0 174:0.53227103 175:4.4739828 176:0 177:0 178:0 179:0 180:0 181:1 182:0 183:0 184:0 185:0 186:0 187:0 188:0 189:1 190:0 191:0 192:0 193:0 194:0 195:0 196:0 197:0 198:0 199:0 200:0 201:1 202:0 203:0.465832 204:3.9147351 205:0 206:0 207:0 208:0 209:0 210:1 211:0 212:0 213:0 214:0 215:0 216:0 217:0 218:1 219:0 220:0 221:0 222:0 223:0 224:0 #
0.019060982964646200343850068747997 1:0 2:1 3:0 4:0 5:0 6:0 7:1 8:0 9:0 10:0 11:0 12:1 13:0 14:0 15:0 16:0 17:1 18:0 19:0 20:0 21:0 22:1 23:0 24:0 25:0 26:0 27:0 28:0 29:0 30:0 31:0 32:0 33:0 34:0 35:0 36:0 37:0 38:0 39:0 40:0 41:0 42:1 43:1 44:0.90316802 45:0.107213 46:0 47:0 48:0 49:0 50:1 51:0 52:0 53:0 54:0 55:0 56:1 57:0 58:0.58700198 59:6.0545049 60:0 61:0 62:0 63:0 64:0 65:0 66:0 67:0 68:0 69:1 70:0 71:1 72:0 73:0 74:0 75:0 76:0 77:0 78:0 79:0 80:0 81:0 82:0 83:0 84:0 85:0 86:0 87:0 88:0 89:0 90:1 91:0 92:0 93:0 94:0 95:0 96:0 97:0 98:0 99:0 100:1 101:0 102:0 103:0 104:0 105:0 106:0 107:0 108:0 109:0 110:0 111:0 112:0 113:0 114:0 115:0 116:7.2256651 117:74.617683 118:0 119:0 120:1 121:0 122:0 123:0 124:0 125:0 126:0 127:0 128:0 129:0 130:1 131:0 132:0 133:0 134:0 135:0 136:0 137:0 138:0 139:0 140:0 141:0 142:0 143:0 144:0 145:11.741447 146:121.25374 147:0 148:0 149:1 150:0 151:0 152:0 153:0 154:0 155:0 156:0 157:0 158:0 159:1 160:0 161:0 162:0 163:0 164:0 165:0 166:0 167:0 168:0 169:0 170:0 171:0 172:1 173:0 174:0.596322 175:6.1519899 176:0 177:0 178:0 179:0 180:1 181:0 182:0 183:0 184:0 185:0 186:0 187:0 188:1 189:0 190:0 191:0 192:0 193:0 194:0 195:0 196:0 197:0 198:0 199:0 200:0 201:1 202:0 203:0.60859698 204:6.2779298 205:0 206:0 207:0 208:0 209:0 210:1 211:0 212:0 213:0 214:0 215:0 216:0 217:1 218:0 219:0 220:0 221:0 222:0 223:0 224:0 #
0.07741713259332172469839861150831 1:0 2:1 3:0 4:0 5:0 6:0 7:1 8:0 9:0 10:0 11:0 12:1 13:0 14:0 15:0 16:0 17:0 18:1 19:0 20:0 21:0 22:0 23:1 24:0 25:0 26:0 27:0 28:0 29:0 30:0 31:0 32:0 33:0 34:0 35:0 36:0 37:0 38:0 39:0 40:0 41:1 42:1 43:1 44:0.96222401 45:0.03926 46:0 47:0 48:0 49:0 50:1 51:0 52:0 53:0 54:0 55:0 56:1 57:0 58:0.099210002 59:2.6220701 60:0 61:0 62:0 63:0 64:0 65:0 66:0 67:0 68:0 69:1 70:0 71:0 72:0 73:0 74:0 75:0 76:0 77:0 78:0 79:1 80:0 81:0 82:0 83:0 84:0 85:0 86:0 87:1.6038181 88:42.452557 89:0 90:0 91:0 92:0 93:0 94:0 95:0 96:0 97:0 98:1 99:0 100:0 101:0 102:0 103:0 104:0 105:0 106:0 107:0 108:1 109:0 110:0 111:0 112:0 113:0 114:0 115:0 116:5.7736111 117:152.82921 118:0 119:0 120:0 121:0 122:0 123:0 124:0 125:0 126:0 127:0 128:0 129:0 130:0 131:1 132:0 133:0 134:0 135:0 136:0 137:0 138:0 139:0 140:0 141:0 142:0 143:0 144:0 145:17.320429 146:458.48761 147:0 148:0 149:0 150:0 151:0 152:0 153:0 154:0 155:0 156:1 157:0 158:0 159:0 160:0 161:0 162:0 163:0 164:0 165:0 166:1 167:0 168:0 169:0 170:0 171:0 172:1 173:0 174:0.53222799 175:14.076374 176:0 177:0 178:0 179:0 180:0 181:0 182:0 183:0 184:0 185:1 186:0 187:0 188:0 189:1 190:0 191:0 192:0 193:0 194:0 195:0 196:0 197:0 198:0 199:0 200:0 201:1 202:0 203:0.493319 204:13.046396 205:0 206:0 207:0 208:0 209:0 210:0 211:0 212:0 213:0 214:1 215:0 216:0 217:0 218:0 219:1 220:0 221:0 222:0 223:0 224:0 #
0.043083354066141943405909842113033 1:0 2:1 3:0 4:0 5:0 6:0 7:1 8:0 9:0 10:0 11:0 12:1 13:0 14:0 15:0 16:0 17:0 18:1 19:0 20:0 21:0 22:0 23:1 24:0 25:0 26:0 27:0 28:0 29:0 30:0 31:0 32:0 33:0 34:0 35:0 36:0 37:0 38:1 39:1 40:0 41:0 42:0 43:0 44:0.84252 45:0.18691599 46:0 47:0 48:0 49:0 50:1 51:0 52:0 53:0 54:0 55:0 56:1 57:1 58:0.146376 59:0.92596197 60:0 61:0 62:0 63:0 64:0 65:1 66:0 67:0 68:0 69:0 70:0 71:0 72:0 73:0 74:0 75:1 76:0 77:0 78:0 79:0 80:0 81:0 82:0 83:0 84:0 85:0 86:0 87:0 88:0 89:0 90:1 91:0 92:0 93:0 94:0 95:0 96:0 97:0 98:0 99:0 100:1 101:0 102:0 103:0 104:0 105:0 106:0 107:0 108:0 109:0 110:0 111:0 112:0 113:0 114:0 115:0 116:5.8978529 117:37.450001 118:0 119:0 120:1 121:0 122:0 123:0 124:0 125:0 126:0 127:0 128:0 129:0 130:1 131:0 132:0 133:0 134:0 135:0 136:0 137:0 138:0 139:0 140:0 141:0 142:0 143:1 144:1 145:0 146:0 147:0 148:1 149:0 150:0 151:0 152:0 153:0 154:0 155:0 156:0 157:0 158:1 159:0 160:0 161:0 162:0 163:0 164:0 165:0 166:0 167:0 168:0 169:0 170:0 171:0 172:1 173:0 174:0.92711002 175:5.8850002 176:0 177:0 178:0 179:0 180:1 181:0 182:0 183:0 184:0 185:0 186:0 187:0 188:1 189:0 190:0 191:0 192:0 193:0 194:0 195:0 196:0 197:0 198:0 199:0 200:0 201:1 202:0 203:0.842888 204:5.3499999 205:0 206:0 207:0 208:0 209:0 210:1 211:0 212:0 213:0 214:0 215:0 216:0 217:1 218:0 219:0 220:0 221:0 222:0 223:0 224:0 #
0.20000000000000001110223024625157 1:0 2:0 3:0 4:0 5:0 6:0 7:0 8:0 9:0 10:0 11:0 12:0 13:0 14:0 15:0 16:0 17:1 18:0 19:0 20:0 21:0 22:1 23:0 24:0 25:0 26:0 27:0 28:0 29:0 30:0 31:0 32:0 33:0 34:0 35:0 36:0 37:0 38:0 39:0 40:0 41:0 42:0 43:0 44:0.92707503 45:0.078661002 46:0 47:0 48:0 49:0 50:1 51:0 52:0 53:0 54:0 55:0 56:1 57:0 58:0.178497 59:2.4447601 60:0 61:0 62:1 63:0 64:0 65:0 66:0 67:0 68:0 69:0 70:0 71:1 72:0 73:0 74:0 75:0 76:0 77:0 78:0 79:0 80:0 81:0 82:0 83:0 84:0 85:1 86:1 87:0 88:0 89:0 90:1 91:0 92:0 93:0 94:0 95:0 96:0 97:0 98:0 99:0 100:1 101:0 102:0 103:0 104:0 105:0 106:0 107:0 108:0 109:0 110:0 111:0 112:0 113:0 114:0 115:0 116:0 117:0 118:0 119:1 120:0 121:0 122:0 123:0 124:0 125:0 126:0 127:0 128:0 129:1 130:0 131:0 132:0 133:0 134:0 135:0 136:0 137:0 138:0 139:0 140:0 141:0 142:0 143:0 144:0 145:0 146:0 147:0 148:1 149:0 150:0 151:0 152:0 153:0 154:0 155:0 156:0 157:0 158:1 159:0 160:0 161:0 162:0 163:0 164:0 165:0 166:0 167:0 168:0 169:0 170:0 171:0 172:0 173:0 174:1.8545769 175:25.425505 176:0 177:1 178:0 179:0 180:0 181:0 182:0 183:0 184:0 185:0 186:0 187:1 188:0 189:0 190:0 191:0 192:0 193:0 194:0 195:0 196:0 197:0 198:0 199:0 200:0 201:0 202:0 203:1.030511 204:14.125281 205:0 206:1 207:0 208:0 209:0 210:0 211:0 212:0 213:0 214:0 215:0 216:1 217:0 218:0 219:0 220:0 221:0 222:0 223:0 224:0 #
0.033602000204751902856514789164066 1:0 2:1 3:0 4:0 5:0 6:0 7:1 8:0 9:0 10:0 11:0 12:1 13:0 14:0 15:0 16:0 17:1 18:0 19:0 20:0 21:0 22:1 23:0 24:0 25:0 26:0 27:0 28:0 29:1 30:1 31:1 32:0 33:0 34:0 35:1 36:1 37:1 38:1 39:0 40:1 41:0 42:1 43:1 44:0.94861001 45:0.054173999 46:0 47:0 48:0 49:0 50:1 51:0 52:0 53:0 54:0 55:0 56:1 57:0 58:0.125967 59:2.4430931 60:0 61:0 62:0 63:0 64:1 65:0 66:0 67:0 68:0 69:0 70:0 71:0 72:0 73:0 74:1 75:0 76:0 77:0 78:0 79:0 80:0 81:0 82:0 83:0 84:0 85:0 86:0 87:0 88:0 89:0 90:1 91:0 92:0 93:0 94:0 95:0 96:0 97:0 98:0 99:0 100:1 101:0 102:0 103:0 104:0 105:0 106:0 107:0 108:0 109:0 110:0 111:0 112:0 113:0 114:0 115:0 116:2.8462429 117:55.37677 118:0 119:1 120:0 121:0 122:0 123:0 124:0 125:0 126:0 127:0 128:0 129:1 130:0 131:0 132:0 133:0 134:0 135:0 136:0 137:0 138:0 139:0 140:0 141:0 142:0 143:1 144:0 145:0.711595 146:13.844193 147:0 148:0 149:0 150:0 151:1 152:0 153:0 154:0 155:0 156:0 157:0 158:1 159:0 160:0 161:0 162:0 163:0 164:0 165:0 166:0 167:0 168:0 169:0 170:0 171:0 172:1 173:0 174:0.199892 175:3.8860891 176:0 177:0 178:0 179:0 180:1 181:0 182:0 183:0 184:0 185:0 186:0 187:0 188:0 189:0 190:1 191:0 192:0 193:0 194:0 195:0 196:0 197:0 198:0 199:0 200:0 201:1 202:0 203:0.189906 204:3.6917851 205:0 206:0 207:0 208:0 209:1 210:0 211:0 212:0 213:0 214:0 215:0 216:0 217:0 218:0 219:1 220:0 221:0 222:0 223:0 224:0 #
-0.20000000000000001110223024625157 1:0 2:0 3:1 4:0 5:0 6:0 7:0 8:1 9:0 10:0 11:0 12:0 13:1 14:0 15:0 16:0 17:0 18:1 19:0 20:0 21:0 22:0 23:0 24:1 25:0 26:0 27:0 28:0 29:0 30:0 31:0 32:0 33:0 34:0 35:0 36:0 37:0 38:0 39:0 40:0 41:1 42:1 43:1 44:0.76952702 45:0.29949999 46:0 47:0 48:0 49:1 50:0 51:0 52:0 53:0 54:0 55:0 56:0 57:0 58:1.414593 59:6.1342468 60:0 61:1 62:0 63:0 64:0 65:0 66:0 67:0 68:0 69:0 70:0 71:1 72:0 73:0 74:0 75:0 76:0 77:0 78:0 79:0 80:0 81:0 82:0 83:0 84:0 85:0 86:0 87:3.334748 88:14.468539 89:0 90:0 91:1 92:0 93:0 94:0 95:0 96:0 97:0 98:0 99:0 100:0 101:1 102:0 103:0 104:0 105:0 106:0 107:0 108:0 109:0 110:0 111:0 112:0 113:0 114:0 115:0 116:41.554985 117:180.30026 118:0 119:1 120:0 121:0 122:0 123:0 124:0 125:0 126:0 127:0 128:0 129:1 130:0 131:0 132:0 133:0 134:0 135:0 136:0 137:0 138:0 139:0 140:0 141:0 142:0 143:0 144:0 145:11.543976 146:50.083405 147:0 148:0 149:1 150:0 151:0 152:0 153:0 154:0 155:0 156:0 157:0 158:0 159:1 160:0 161:0 162:0 163:0 164:0 165:0 166:0 167:0 168:0 169:0 170:0 171:0 172:0 173:0 174:1.666562 175:7.2251468 176:0 177:0 178:1 179:0 180:0 181:0 182:0 183:0 184:0 185:0 186:0 187:1 188:0 189:0 190:0 191:0 192:0 193:0 194:0 195:0 196:0 197:0 198:0 199:0 200:0 201:0 202:0 203:1.666562 204:7.2251468 205:0 206:0 207:1 208:0 209:0 210:0 211:0 212:0 213:0 214:0 215:0 216:1 217:0 218:0 219:0 220:0 221:0 222:0 223:0 224:0 #
-0.124662834397611277381656691432 1:0 2:0 3:1 4:0 5:0 6:0 7:0 8:1 9:0 10:0 11:0 12:0 13:1 14:0 15:0 16:0 17:0 18:1 19:0 20:0 21:0 22:0 23:1 24:0 25:0 26:0 27:0 28:0 29:0 30:0 31:0 32:0 33:0 34:0 35:0 36:0 37:0 38:0 39:0 40:0 41:0 42:0 43:0 44:0.78656799 45:0.271346 46:0 47:0 48:0 49:1 50:0 51:0 52:0 53:0 54:0 55:0 56:1 57:0 58:0.37031001 59:1.734272 60:0 61:0 62:0 63:0 64:0 65:0 66:1 67:0 68:0 69:0 70:0 71:0 72:1 73:0 74:0 75:0 76:0 77:0 78:0 79:0 80:0 81:0 82:0 83:0 84:0 85:0 86:0 87:0 88:0 89:0 90:1 91:0 92:0 93:0 94:0 95:0 96:0 97:0 98:0 99:0 100:1 101:0 102:0 103:0 104:0 105:0 106:0 107:0 108:0 109:0 110:0 111:0 112:0 113:0 114:0 115:0 116:0 117:0 118:0 119:1 120:0 121:0 122:0 123:0 124:0 125:0 126:0 127:0 128:0 129:1 130:0 131:0 132:0 133:0 134:0 135:0 136:0 137:0 138:0 139:0 140:0 141:0 142:0 143:0 144:0 145:22.02446 146:103.18921 147:0 148:0 149:1 150:0 151:0 152:0 153:0 154:0 155:0 156:0 157:0 158:0 159:1 160:0 161:0 162:0 163:0 164:0 165:0 166:0 167:0 168:0 169:0 170:0 171:0 172:1 173:0 174:0.96721703 175:4.5276899 176:0 177:0 178:0 179:0 180:0 181:0 182:0 183:1 184:0 185:0 186:0 187:0 188:1 189:0 190:0 191:0 192:0 193:0 194:0 195:0 196:0 197:0 198:0 199:0 200:0 201:1 202:0 203:0.56273699 204:2.6323781 205:0 206:0 207:0 208:0 209:0 210:0 211:0 212:1 213:0 214:0 215:0 216:0 217:1 218:0 219:0 220:0 221:0 222:0 223:0 224:0 #
