SVM-light Version V6.02
0 # kernel type
3 # kernel parameter -d 
1 # kernel parameter -g 
1 # kernel parameter -s 
1 # kernel parameter -r 
empty# kernel parameter -u 
10 # highest feature index 
8649 # number of training documents 
167 # number of support vectors plus 1 
0.400435 # threshold b, each following line is a SV (starting with alpha*y)
-0.60043500364699375904109501789208 1:0 2:0 3:0 4:0 5:0 6:0 7:0 8:0 9:0 10:1 #46161
1 1:0 2:0 3:0 4:1 5:0 6:0 7:0 8:0 9:0 10:0 #56508
1 1:0 2:1 3:0 4:0 5:0 6:0 7:0 8:0 9:0 10:0 #51303
1 1:0 2:0 3:1 4:0 5:0 6:0 7:0 8:0 9:0 10:0 #39714
1 1:1 2:0 3:0 4:0 5:0 6:0 7:0 8:0 9:0 10:0 #17361
-1 1:0 2:0 3:1 4:0 5:0 6:0 7:0 8:0 9:0 10:0 #52729
-1 1:0 2:1 3:0 4:0 5:0 6:0 7:0 8:0 9:0 10:0 #58779
-1 1:0 2:0 3:0 4:1 5:0 6:0 7:0 8:0 9:0 10:0 #26975
0.99815123450027609663948169327341 1:0 2:0 3:1 4:0 5:0 6:0 7:0 8:0 9:0 10:0 #48499
-1 1:0 2:0 3:1 4:0 5:0 6:0 7:0 8:0 9:0 10:0 #26905
1 1:0 2:1 3:0 4:0 5:0 6:0 7:0 8:0 9:0 10:0 #33452
1 1:0 2:0 3:0 4:1 5:0 6:0 7:0 8:0 9:0 10:0 #29264
1 1:0 2:0 3:1 4:0 5:0 6:0 7:0 8:0 9:0 10:0 #38968
-1 1:0 2:0 3:1 4:0 5:0 6:0 7:0 8:0 9:0 10:0 #20519
-1 1:0 2:0 3:0 4:1 5:0 6:0 7:0 8:0 9:0 10:0 #46334
-1 1:0 2:1 3:0 4:0 5:0 6:0 7:0 8:0 9:0 10:0 #36059
1 1:0 2:0 3:1 4:0 5:0 6:0 7:0 8:0 9:0 10:0 #23061
-1 1:0 2:0 3:1 4:0 5:0 6:0 7:0 8:0 9:0 10:0 #26961
1 1:0 2:1 3:0 4:0 5:0 6:0 7:0 8:0 9:0 10:0 #57686
-1 1:0 2:1 3:0 4:0 5:0 6:0 7:0 8:0 9:0 10:0 #32308
1 1:0 2:0 3:0 4:1 5:0 6:0 7:0 8:0 9:0 10:0 #32670
-0.88937745627357811528668207756709 1:0 2:0 3:0 4:1 5:0 6:0 7:0 8:0 9:0 10:0 #46339
1 1:0 2:1 3:0 4:0 5:0 6:0 7:0 8:0 9:0 10:0 #36029
-1 1:0 2:1 3:0 4:0 5:0 6:0 7:0 8:0 9:0 10:0 #33358
1 1:0 2:0 3:1 4:0 5:0 6:0 7:0 8:0 9:0 10:0 #37169
-1 1:0 2:0 3:1 4:0 5:0 6:0 7:0 8:0 9:0 10:0 #54807
1 1:0 2:1 3:0 4:0 5:0 6:0 7:0 8:0 9:0 10:0 #20403
-1 1:0 2:1 3:0 4:0 5:0 6:0 7:0 8:0 9:0 10:0 #36919
-0.71018754007942819228560438205022 1:0 2:0 3:0 4:1 5:0 6:0 7:0 8:0 9:0 10:0 #57632
1 1:0 2:0 3:1 4:0 5:0 6:0 7:0 8:0 9:0 10:0 #33635
-1 1:0 2:0 3:1 4:0 5:0 6:0 7:0 8:0 9:0 10:0 #20005
1 1:0 2:0 3:1 4:0 5:0 6:0 7:0 8:0 9:0 10:0 #13242
1 1:0 2:1 3:0 4:0 5:0 6:0 7:0 8:0 9:0 10:0 #21963
-1 1:0 2:0 3:1 4:0 5:0 6:0 7:0 8:0 9:0 10:0 #62533
-1 1:0 2:1 3:0 4:0 5:0 6:0 7:0 8:0 9:0 10:0 #8002
1 1:0 2:0 3:1 4:0 5:0 6:0 7:0 8:0 9:0 10:0 #87273
1 1:0 2:1 3:0 4:0 5:0 6:0 7:0 8:0 9:0 10:0 #52742
-1 1:0 2:0 3:1 4:0 5:0 6:0 7:0 8:0 9:0 10:0 #31732
-1 1:0 2:1 3:0 4:0 5:0 6:0 7:0 8:0 9:0 10:0 #49193
1 1:0 2:0 3:1 4:0 5:0 6:0 7:0 8:0 9:0 10:0 #27226
1 1:0 2:1 3:0 4:0 5:0 6:0 7:0 8:0 9:0 10:0 #21229
-1 1:0 2:0 3:1 4:0 5:0 6:0 7:0 8:0 9:0 10:0 #43698
-1 1:0 2:1 3:0 4:0 5:0 6:0 7:0 8:0 9:0 10:0 #51998
1 1:0 2:0 3:1 4:0 5:0 6:0 7:0 8:0 9:0 10:0 #19213
1 1:0 2:1 3:0 4:0 5:0 6:0 7:0 8:0 9:0 10:0 #32772
-1 1:0 2:0 3:1 4:0 5:0 6:0 7:0 8:0 9:0 10:0 #49196
1 1:0 2:0 3:1 4:0 5:0 6:0 7:0 8:0 9:0 10:0 #19725
1 1:0 2:0 3:1 4:0 5:0 6:0 7:0 8:0 9:0 10:0 #33492
-1 1:0 2:0 3:1 4:0 5:0 6:0 7:0 8:0 9:0 10:0 #49201
1 1:0 2:0 3:1 4:0 5:0 6:0 7:0 8:0 9:0 10:0 #58520
-1 1:0 2:0 3:1 4:0 5:0 6:0 7:0 8:0 9:0 10:0 #29716
1 1:0 2:0 3:1 4:0 5:0 6:0 7:0 8:0 9:0 10:0 #47621
-1 1:0 2:0 3:1 4:0 5:0 6:0 7:0 8:0 9:0 10:0 #32968
1 1:0 2:0 3:1 4:0 5:0 6:0 7:0 8:0 9:0 10:0 #32513
-1 1:0 2:0 3:1 4:0 5:0 6:0 7:0 8:0 9:0 10:0 #50575
1 1:0 2:0 3:1 4:0 5:0 6:0 7:0 8:0 9:0 10:0 #20013
-1 1:0 2:0 3:1 4:0 5:0 6:0 7:0 8:0 9:0 10:0 #4135
1 1:0 2:0 3:1 4:0 5:0 6:0 7:0 8:0 9:0 10:0 #38131
-1 1:0 2:0 3:1 4:0 5:0 6:0 7:0 8:0 9:0 10:0 #20573
1 1:0 2:0 3:1 4:0 5:0 6:0 7:0 8:0 9:0 10:0 #45237
-1 1:0 2:0 3:1 4:0 5:0 6:0 7:0 8:0 9:0 10:0 #9785
1 1:0 2:0 3:1 4:0 5:0 6:0 7:0 8:0 9:0 10:0 #35686
-1 1:0 2:0 3:1 4:0 5:0 6:0 7:0 8:0 9:0 10:0 #9246
1 1:0 2:0 3:1 4:0 5:0 6:0 7:0 8:0 9:0 10:0 #45995
-1 1:0 2:0 3:1 4:0 5:0 6:0 7:0 8:0 9:0 10:0 #8463
1 1:0 2:0 3:1 4:0 5:0 6:0 7:0 8:0 9:0 10:0 #15368
-1 1:0 2:0 3:1 4:0 5:0 6:0 7:0 8:0 9:0 10:0 #39652
1 1:0 2:0 3:1 4:0 5:0 6:0 7:0 8:0 9:0 10:0 #26858
-1 1:0 2:0 3:1 4:0 5:0 6:0 7:0 8:0 9:0 10:0 #10348
1 1:0 2:0 3:1 4:0 5:0 6:0 7:0 8:0 9:0 10:0 #30052
-1 1:0 2:0 3:1 4:0 5:0 6:0 7:0 8:0 9:0 10:0 #35801
1 1:0 2:0 3:1 4:0 5:0 6:0 7:0 8:0 9:0 10:0 #21603
-1 1:0 2:0 3:1 4:0 5:0 6:0 7:0 8:0 9:0 10:0 #27007
1 1:0 2:0 3:1 4:0 5:0 6:0 7:0 8:0 9:0 10:0 #45398
-1 1:0 2:0 3:1 4:0 5:0 6:0 7:0 8:0 9:0 10:0 #50985
1 1:0 2:0 3:1 4:0 5:0 6:0 7:0 8:0 9:0 10:0 #44670
-1 1:0 2:0 3:1 4:0 5:0 6:0 7:0 8:0 9:0 10:0 #36032
1 1:0 2:0 3:1 4:0 5:0 6:0 7:0 8:0 9:0 10:0 #16242
-1 1:0 2:0 3:1 4:0 5:0 6:0 7:0 8:0 9:0 10:0 #36062
1 1:0 2:0 3:1 4:0 5:0 6:0 7:0 8:0 9:0 10:0 #42365
-1 1:0 2:0 3:1 4:0 5:0 6:0 7:0 8:0 9:0 10:0 #36067
1 1:0 2:0 3:1 4:0 5:0 6:0 7:0 8:0 9:0 10:0 #30175
-1 1:0 2:0 3:1 4:0 5:0 6:0 7:0 8:0 9:0 10:0 #28287
1 1:0 2:0 3:1 4:0 5:0 6:0 7:0 8:0 9:0 10:0 #24462
-1 1:0 2:0 3:1 4:0 5:0 6:0 7:0 8:0 9:0 10:0 #74016
1 1:0 2:0 3:1 4:0 5:0 6:0 7:0 8:0 9:0 10:0 #26845
-1 1:0 2:0 3:1 4:0 5:0 6:0 7:0 8:0 9:0 10:0 #33266
1 1:0 2:0 3:1 4:0 5:0 6:0 7:0 8:0 9:0 10:0 #12518
-1 1:0 2:0 3:1 4:0 5:0 6:0 7:0 8:0 9:0 10:0 #21766
1 1:0 2:0 3:1 4:0 5:0 6:0 7:0 8:0 9:0 10:0 #34211
-1 1:0 2:0 3:1 4:0 5:0 6:0 7:0 8:0 9:0 10:0 #24823
1 1:0 2:0 3:1 4:0 5:0 6:0 7:0 8:0 9:0 10:0 #28826
-1 1:0 2:0 3:1 4:0 5:0 6:0 7:0 8:0 9:0 10:0 #15070
1 1:0 2:0 3:1 4:0 5:0 6:0 7:0 8:0 9:0 10:0 #39450
-1 1:0 2:0 3:1 4:0 5:0 6:0 7:0 8:0 9:0 10:0 #58940
1 1:0 2:0 3:1 4:0 5:0 6:0 7:0 8:0 9:0 10:0 #57981
-1 1:0 2:0 3:1 4:0 5:0 6:0 7:0 8:0 9:0 10:0 #61897
1 1:0 2:0 3:1 4:0 5:0 6:0 7:0 8:0 9:0 10:0 #3432
-1 1:0 2:0 3:1 4:0 5:0 6:0 7:0 8:0 9:0 10:0 #37432
1 1:0 2:0 3:1 4:0 5:0 6:0 7:0 8:0 9:0 10:0 #4744
-1 1:0 2:0 3:1 4:0 5:0 6:0 7:0 8:0 9:0 10:0 #40116
1 1:0 2:0 3:1 4:0 5:0 6:0 7:0 8:0 9:0 10:0 #3802
-1 1:0 2:0 3:1 4:0 5:0 6:0 7:0 8:0 9:0 10:0 #34814
1 1:0 2:0 3:1 4:0 5:0 6:0 7:0 8:0 9:0 10:0 #10159
-1 1:0 2:0 3:1 4:0 5:0 6:0 7:0 8:0 9:0 10:0 #63679
1 1:0 2:0 3:1 4:0 5:0 6:0 7:0 8:0 9:0 10:0 #37110
-1 1:0 2:0 3:1 4:0 5:0 6:0 7:0 8:0 9:0 10:0 #24024
1 1:0 2:0 3:1 4:0 5:0 6:0 7:0 8:0 9:0 10:0 #10148
-1 1:0 2:0 3:1 4:0 5:0 6:0 7:0 8:0 9:0 10:0 #36192
-0.59771623085328218216716322785942 1:0 2:0 3:0 4:0 5:0 6:0 7:0 8:1 9:0 10:0 #48469
-0.59771623085328218216716322785942 1:0 2:0 3:0 4:0 5:0 6:0 7:0 8:0 9:1 10:0 #48255
1 1:0 2:0 3:1 4:0 5:0 6:0 7:0 8:0 9:0 10:0 #36324
1 1:0 2:0 3:1 4:0 5:0 6:0 7:0 8:0 9:0 10:0 #38431
0.40043500364699380345001600289834 1:1 2:0 3:0 4:0 5:0 6:0 7:0 8:0 9:0 10:0 #40330
0.40043500364699380345001600289834 1:0 2:1 3:0 4:0 5:0 6:0 7:0 8:0 9:0 10:0 #27901
-1 1:0 2:0 3:1 4:0 5:0 6:0 7:0 8:0 9:0 10:0 #45698
1 1:0 2:0 3:1 4:0 5:0 6:0 7:0 8:0 9:0 10:0 #35245
-1 1:0 2:0 3:1 4:0 5:0 6:0 7:0 8:0 9:0 10:0 #30643
1 1:0 2:0 3:1 4:0 5:0 6:0 7:0 8:0 9:0 10:0 #6043
-1 1:0 2:0 3:1 4:0 5:0 6:0 7:0 8:0 9:0 10:0 #25494
1 1:0 2:0 3:1 4:0 5:0 6:0 7:0 8:0 9:0 10:0 #68263
-1 1:0 2:0 3:1 4:0 5:0 6:0 7:0 8:0 9:0 10:0 #50540
1 1:0 2:0 3:1 4:0 5:0 6:0 7:0 8:0 9:0 10:0 #21372
-1 1:0 2:0 3:1 4:0 5:0 6:0 7:0 8:0 9:0 10:0 #16109
1 1:0 2:0 3:1 4:0 5:0 6:0 7:0 8:0 9:0 10:0 #19935
-1 1:0 2:0 3:1 4:0 5:0 6:0 7:0 8:0 9:0 10:0 #36550
1 1:0 2:0 3:1 4:0 5:0 6:0 7:0 8:0 9:0 10:0 #33257
-1 1:0 2:0 3:1 4:0 5:0 6:0 7:0 8:0 9:0 10:0 #25031
1 1:0 2:0 3:1 4:0 5:0 6:0 7:0 8:0 9:0 10:0 #19147
-1 1:0 2:0 3:1 4:0 5:0 6:0 7:0 8:0 9:0 10:0 #39188
1 1:0 2:0 3:1 4:0 5:0 6:0 7:0 8:0 9:0 10:0 #46250
-1 1:0 2:0 3:1 4:0 5:0 6:0 7:0 8:0 9:0 10:0 #29326
-1 1:0 2:0 3:1 4:0 5:0 6:0 7:0 8:0 9:0 10:0 #20424
0.98168041290540641874429184099426 1:0 2:0 3:1 4:0 5:0 6:0 7:0 8:0 9:0 10:0 #38929
-1 1:0 2:0 3:1 4:0 5:0 6:0 7:0 8:0 9:0 10:0 #35644
1 1:0 2:0 3:1 4:0 5:0 6:0 7:0 8:0 9:0 10:0 #34112
-1 1:0 2:0 3:1 4:0 5:0 6:0 7:0 8:0 9:0 10:0 #28852
1 1:0 2:0 3:1 4:0 5:0 6:0 7:0 8:0 9:0 10:0 #31685
-1 1:0 2:0 3:1 4:0 5:0 6:0 7:0 8:0 9:0 10:0 #50594
1 1:0 2:0 3:1 4:0 5:0 6:0 7:0 8:0 9:0 10:0 #41675
-1 1:0 2:0 3:1 4:0 5:0 6:0 7:0 8:0 9:0 10:0 #20301
0.82407166089716155088495952441008 1:0 2:0 3:1 4:0 5:0 6:0 7:0 8:0 9:0 10:0 #71257
-1 1:0 2:0 3:1 4:0 5:0 6:0 7:0 8:0 9:0 10:0 #46874
1 1:0 2:0 3:1 4:0 5:0 6:0 7:0 8:0 9:0 10:0 #26306
-1 1:0 2:0 3:1 4:0 5:0 6:0 7:0 8:0 9:0 10:0 #15294
1 1:0 2:0 3:1 4:0 5:0 6:0 7:0 8:0 9:0 10:0 #58257
-1 1:0 2:0 3:1 4:0 5:0 6:0 7:0 8:0 9:0 10:0 #24831
1 1:0 2:0 3:1 4:0 5:0 6:0 7:0 8:0 9:0 10:0 #30041
-1 1:0 2:0 3:1 4:0 5:0 6:0 7:0 8:0 9:0 10:0 #42153
1 1:0 2:0 3:1 4:0 5:0 6:0 7:0 8:0 9:0 10:0 #21972
-1 1:0 2:0 3:1 4:0 5:0 6:0 7:0 8:0 9:0 10:0 #17650
1 1:0 2:0 3:1 4:0 5:0 6:0 7:0 8:0 9:0 10:0 #44405
-1 1:0 2:0 3:1 4:0 5:0 6:0 7:0 8:0 9:0 10:0 #48977
1 1:0 2:0 3:1 4:0 5:0 6:0 7:0 8:0 9:0 10:0 #57926
-1 1:0 2:0 3:1 4:0 5:0 6:0 7:0 8:0 9:0 10:0 #47275
1 1:0 2:0 3:1 4:0 5:0 6:0 7:0 8:0 9:0 10:0 #32870
-1 1:0 2:0 3:1 4:0 5:0 6:0 7:0 8:0 9:0 10:0 #23568
1 1:0 2:0 3:1 4:0 5:0 6:0 7:0 8:0 9:0 10:0 #53439
-1 1:0 2:0 3:1 4:0 5:0 6:0 7:0 8:0 9:0 10:0 #23054
0.59653169534414995922588786925189 1:0 2:0 3:1 4:0 5:0 6:0 7:0 8:0 9:0 10:0 #22538
-0.60043500364699375904109501789208 1:0 2:0 3:0 4:0 5:0 6:0 7:1 8:0 9:0 10:0 #56237
-0.51038251725226613242369921863428 1:0 2:0 3:0 4:0 5:0 6:1 7:0 8:0 9:0 10:0 #56406
-0.60043500364699375904109501789208 1:0 2:0 3:0 4:0 5:1 6:0 7:0 8:0 9:0 10:0 #20298
-0.090052486394727626617395799257793 1:0 2:0 3:0 4:0 5:0 6:1 7:0 8:0 9:0 10:0 #17135
-0.0018487654997241254051232317578979 1:0 2:0 3:0 4:0 5:0 6:0 7:0 8:0 9:1 10:0 #54681
-0.0027187727937115768739317900326569 1:0 2:0 3:0 4:0 5:0 6:0 7:0 8:1 9:0 10:0 #55815
